svm_type epsilon_svr
kernel_type polynomial
degree 2
gamma 8e-05
coef0 500
nr_class 2
total_sv 1822
rho -114.268
SV
0.9 0:0.67 3:0.67 4:0.67 16:1.33 17:0.67 18:0.67 20:2 21:3.99 22:22.62 23:196.27 24:125.75 25:11.31 26:0.67 27:0.67 30:0.67 32:1.33 33:0.67 34:0.67 36:1.33 38:0.67 40:1.33 41:1.33 42:1.33 43:0.67 44:1.33 45:3.33 46:2 47:10.65 48:125.75 49:300.73 50:28.61 51:2 52:2.66 53:0.67 54:1.33 55:0.67 58:0.67 60:0.67 62:1.33 63:1.33 64:0.67 66:1.33 67:5.32 68:7.32 69:25.95 70:36.59 71:12.64 72:0.67 73:2.66 75:2.66 76:1.33 77:0.67 78:1.33 79:0.67 80:0.67 81:0.67 83:2 84:5.99 85:9.31 86:2.66 87:3.99 89:0.67 90:1.33 91:0.67 92:1.33 93:2 94:2.66 95:2.66 96:1.33 97:0.67 
-0.167716256095685 0:0.71 6:0.71 16:1.42 20:0.71 21:4.27 22:44.87 23:223.65 24:82.62 25:10.68 26:3.56 27:1.42 28:0.71 29:0.71 32:0.71 33:1.42 35:0.71 36:2.14 37:1.42 38:2.14 39:0.71 40:2.14 41:0.71 42:0.71 43:2.14 44:0.71 45:2.85 46:7.83 47:19.94 48:186.61 49:220.8 50:15.67 51:4.27 52:2.14 53:2.14 54:2.14 55:0.71 56:0.71 61:1.42 62:1.42 63:0.71 64:2.14 65:1.42 67:2.14 68:7.12 69:37.75 70:32.76 71:8.55 72:2.85 73:1.42 76:0.71 77:0.71 78:1.42 79:0.71 80:1.42 81:0.71 82:2.85 83:2.85 84:7.12 85:6.41 86:3.56 87:0.71 88:0.71 89:0.71 90:0.71 92:0.71 93:2.85 94:2.85 95:1.42 96:1.42 97:2.14 
-0.9 2:0.68 6:0.68 10:0.68 11:0.68 13:0.68 15:0.68 18:2.04 19:2.04 21:6.8 22:59.18 23:250.34 24:63.27 25:4.76 26:0.68 27:1.36 29:0.68 30:0.68 31:1.36 34:2.04 35:1.36 36:0.68 37:0.68 41:0.68 42:0.68 44:0.68 45:1.36 46:4.76 47:23.13 48:267.35 49:154.42 50:14.29 51:4.76 52:2.04 53:0.68 58:1.36 60:1.36 64:1.36 65:2.04 67:1.36 68:6.8 69:37.41 70:26.53 71:2.04 72:4.76 73:0.68 77:0.68 78:0.68 79:1.36 82:2.04 83:2.72 84:4.76 85:8.84 86:3.4 87:0.68 88:0.68 89:1.36 90:2.04 91:0.68 92:0.68 93:1.36 94:2.72 95:2.04 96:0.68 
0.6528423208454128 0:0.65 5:0.65 7:0.65 10:1.31 16:1.96 18:0.65 19:0.65 20:1.31 21:11.11 22:91.5 23:192.16 24:28.76 25:3.27 26:0.65 27:0.65 28:0.65 30:1.31 34:0.65 36:0.65 37:0.65 38:1.96 41:0.65 42:1.31 43:0.65 44:1.96 45:1.31 46:6.54 47:23.53 48:359.48 49:92.81 50:9.8 51:5.88 52:1.31 54:1.96 57:0.65 58:0.65 59:1.31 60:0.65 61:1.31 62:0.65 64:1.31 65:1.31 66:1.96 67:3.27 68:21.57 69:43.14 70:23.53 71:3.92 72:1.96 73:0.65 75:0.65 76:0.65 77:0.65 78:0.65 80:1.31 81:1.31 82:1.31 83:2.61 84:7.84 85:5.23 86:5.23 87:2.61 88:1.96 89:0.65 91:0.65 92:1.96 93:3.27 94:3.27 95:1.31 
0.9 2:0.63 6:0.63 7:0.63 19:1.27 20:1.27 21:10.77 22:119.77 23:141.32 24:21.55 25:2.53 26:1.9 27:1.27 29:0.63 30:0.63 31:0.63 32:1.27 34:0.63 37:0.63 38:0.63 42:1.27 43:0.63 44:0.63 45:1.27 46:6.97 47:52.6 48:399.24 49:65.27 50:7.6 51:0.63 52:0.63 53:1.27 54:0.63 55:0.63 56:0.63 57:1.9 58:0.63 59:1.9 60:0.63 61:0.63 64:1.27 65:0.63 66:0.63 67:3.17 68:19.65 69:51.33 70:23.45 71:5.7 75:0.63 77:0.63 78:0.63 79:1.27 80:1.27 81:1.27 82:0.63 83:3.17 84:8.87 85:6.34 86:2.53 87:1.27 88:0.63 89:0.63 92:1.9 94:4.44 95:2.53 96:0.63 97:0.63 
0.3993046758495349 17:0.62 18:0.62 19:1.86 20:4.33 21:17.95 22:180.69 23:97.77 24:9.9 25:3.09 26:1.24 27:0.62 28:0.62 31:0.62 32:1.24 34:0.62 35:0.62 39:1.24 40:1.24 41:1.86 42:1.86 44:0.62 45:3.09 46:8.04 47:59.41 48:399.75 49:51.36 50:4.33 51:3.09 52:1.86 54:1.24 55:0.62 56:0.62 59:0.62 60:1.86 63:1.24 64:2.48 65:1.24 66:0.62 67:4.33 68:14.23 69:45.79 70:18.56 71:3.09 72:1.86 73:1.24 74:2.48 75:0.62 76:0.62 80:0.62 81:0.62 82:2.48 83:1.24 84:8.04 85:6.81 86:1.24 88:2.48 89:0.62 90:1.86 91:1.86 92:0.62 93:0.62 94:2.48 95:1.86 96:1.24 97:1.86 
-0.9 2:0.64 4:0.64 6:0.64 8:0.64 16:1.28 18:0.64 19:1.28 20:2.56 21:35.26 22:191.67 23:83.97 24:8.97 25:4.49 26:2.56 29:0.64 30:1.92 32:0.64 33:2.56 34:1.28 37:1.28 38:0.64 40:1.28 41:0.64 43:0.64 44:1.92 45:1.92 46:6.41 47:96.79 48:378.21 49:32.05 50:5.77 51:1.92 52:0.64 53:1.28 58:1.92 59:1.28 60:1.28 64:0.64 65:1.28 66:0.64 67:0.64 68:20.51 69:39.74 70:13.46 71:5.13 72:2.56 73:1.28 74:0.64 78:0.64 80:0.64 81:1.28 82:1.28 83:3.85 84:9.62 85:3.21 86:1.92 89:1.28 90:1.28 92:0.64 93:1.92 94:1.92 95:3.21 96:1.28 97:1.28 
-0.9 5:0.68 9:0.68 13:0.68 16:0.68 17:0.68 18:2.04 19:1.36 20:8.17 21:63.35 22:224.8 23:58.58 24:6.81 25:1.36 26:0.68 27:0.68 28:0.68 30:0.68 32:0.68 35:0.68 37:0.68 38:0.68 39:0.68 40:0.68 42:1.36 43:4.09 44:2.04 45:4.09 46:16.35 47:155.31 48:282.7 49:21.12 50:2.72 51:1.36 52:2.04 53:0.68 54:0.68 55:0.68 58:1.36 59:0.68 61:0.68 62:0.68 63:1.36 64:2.04 65:0.68 66:2.04 67:6.13 68:28.61 69:41.55 70:10.22 71:3.41 72:2.72 73:0.68 79:0.68 80:0.68 81:0.68 82:1.36 83:2.04 84:6.13 85:2.72 86:0.68 88:0.68 89:0.68 90:1.36 91:1.36 92:0.68 93:0.68 94:2.04 95:1.36 97:1.36 
0.3257936807973646 0:0.68 2:0.68 9:0.68 11:0.68 12:0.68 14:0.68 18:0.68 19:0.68 20:8.87 21:75.77 22:235.49 23:49.83 24:8.87 26:1.37 27:0.68 30:1.37 31:0.68 33:1.37 35:0.68 36:0.68 38:0.68 39:2.05 40:1.37 41:0.68 42:2.73 43:0.68 44:2.05 45:6.14 46:15.7 47:236.86 48:181.57 49:12.29 50:4.1 51:2.73 52:2.05 55:0.68 57:0.68 58:0.68 59:0.68 60:1.37 62:0.68 63:2.73 64:0.68 65:0.68 66:1.37 67:8.19 68:32.08 69:36.18 70:6.14 71:3.41 72:1.37 73:0.68 74:1.37 75:0.68 77:0.68 78:0.68 79:0.68 80:0.68 82:1.37 83:4.78 84:10.24 85:4.1 86:2.73 87:1.37 90:1.37 91:0.68 92:1.37 93:0.68 94:2.05 95:2.05 96:0.68 97:0.68 
0.5478342105007215 3:0.68 14:0.68 18:2.7 19:3.38 20:16.89 21:137.16 22:209.46 23:27.03 24:3.38 25:1.35 26:0.68 28:0.68 30:0.68 32:2.03 33:0.68 34:0.68 36:1.35 37:0.68 38:0.68 40:1.35 41:0.68 43:0.68 44:2.03 45:3.38 46:27.7 47:275.68 48:141.89 49:10.14 50:2.7 51:1.35 52:1.35 54:0.68 55:0.68 56:0.68 58:0.68 60:0.68 62:2.03 64:0.68 65:0.68 66:3.38 67:8.78 68:32.43 69:21.62 70:9.46 71:4.05 72:1.35 73:0.68 74:0.68 75:0.68 77:1.35 78:2.03 80:1.35 81:0.68 82:1.35 83:3.38 84:1.35 85:3.38 86:1.35 87:0.68 89:0.68 90:0.68 91:1.35 92:0.68 93:1.35 94:4.73 95:1.35 97:2.7 
0.1534561476926988 0:0.69 2:1.37 7:0.69 19:1.37 20:0.69 21:3.43 22:6.18 23:35.03 24:243.82 25:80.36 26:8.24 27:4.12 28:1.37 30:0.69 31:0.69 34:0.69 36:0.69 37:2.06 39:0.69 41:0.69 43:0.69 44:0.69 45:1.37 46:2.06 47:4.81 48:15.8 49:319.37 50:126.37 51:13.05 52:1.37 53:2.06 54:2.75 55:1.37 57:0.69 61:0.69 62:0.69 63:0.69 65:0.69 66:0.69 67:0.69 68:4.12 69:13.05 70:37.77 71:15.8 72:5.49 73:0.69 74:0.69 75:2.06 76:1.37 78:0.69 79:1.37 80:0.69 82:0.69 83:0.69 84:2.06 85:7.55 86:5.49 87:2.75 88:0.69 89:0.69 90:0.69 91:1.37 92:0.69 94:0.69 95:0.69 96:0.69 97:0.69 
-0.9 1:0.62 6:0.62 10:0.62 12:0.62 15:0.62 19:0.62 20:0.62 21:1.25 22:9.99 23:78.03 24:181.02 25:37.45 26:3.12 27:2.5 28:0.62 29:0.62 30:1.25 32:1.25 33:0.62 34:1.25 36:1.25 37:0.62 38:1.25 40:1.25 41:0.62 44:1.87 45:0.62 46:2.5 47:6.24 48:46.82 49:423.22 50:48.06 51:14.36 52:1.87 53:0.62 54:0.62 55:1.25 56:1.25 57:1.25 58:0.62 59:0.62 62:0.62 63:0.62 65:1.25 66:1.25 67:1.25 68:2.5 69:23.1 70:38.7 71:13.73 72:2.5 73:2.5 74:1.25 75:1.25 78:1.87 80:0.62 82:1.25 83:1.25 84:3.75 85:5.62 86:2.5 87:0.62 88:1.87 89:1.25 91:1.25 92:1.25 93:1.87 94:1.25 95:0.62 96:0.62 97:1.87 
0.9 1:0.64 7:0.64 11:1.28 18:0.64 20:0.64 21:1.28 22:16.63 23:88.29 24:120.28 25:20.47 26:5.12 27:1.28 28:0.64 29:0.64 30:0.64 31:1.28 32:0.64 36:1.92 37:1.92 38:0.64 39:0.64 41:1.28 42:0.64 43:0.64 44:1.92 45:1.92 46:5.76 47:12.16 48:88.93 49:423.54 50:38.39 51:8.96 52:3.84 54:2.56 55:0.64 56:0.64 57:1.28 58:1.28 59:1.28 60:2.56 62:0.64 64:1.92 65:0.64 67:3.84 68:6.4 69:23.67 70:43.51 71:8.96 72:2.56 73:1.28 74:0.64 77:1.28 78:1.92 79:1.92 80:1.28 82:1.28 83:1.92 84:3.2 85:7.68 86:6.4 87:2.56 88:0.64 89:1.28 92:0.64 93:2.56 94:1.92 95:3.2 97:1.92 
-0.9 1:0.67 2:0.67 5:0.67 15:0.67 18:0.67 19:1.34 20:4.69 21:10.06 22:31.52 23:155.6 24:63.72 25:10.06 26:4.02 27:1.34 28:0.67 29:0.67 30:2.01 31:0.67 32:0.67 35:0.67 40:1.34 41:0.67 42:0.67 44:1.34 45:2.01 46:7.38 47:16.77 48:197.85 49:280.35 50:20.79 51:6.04 52:2.01 53:2.01 54:0.67 55:0.67 58:2.01 59:1.34 61:0.67 62:0.67 64:2.68 65:0.67 66:1.34 67:4.69 68:10.73 69:36.89 70:48.96 71:8.72 72:3.35 73:0.67 80:2.01 82:2.01 83:4.02 84:6.04 85:10.73 86:5.37 87:0.67 88:1.34 89:0.67 90:2.01 91:1.34 92:0.67 93:1.34 94:2.01 95:2.01 96:2.01 97:0.67 
0.9 0:1.37 5:0.68 6:0.68 9:0.68 13:0.68 15:0.68 16:0.68 19:0.68 20:4.11 21:6.16 22:43.81 23:136.89 24:47.91 25:10.27 26:0.68 27:0.68 30:2.74 32:1.37 33:0.68 34:0.68 35:1.37 38:0.68 40:0.68 41:1.37 43:1.37 44:1.37 45:1.37 46:2.05 47:26.01 48:291.58 49:206.71 50:16.43 51:4.11 52:0.68 54:2.05 55:0.68 56:1.37 57:0.68 61:0.68 62:0.68 63:0.68 64:2.05 65:1.37 66:1.37 67:4.11 68:11.64 69:60.23 70:39.01 71:7.53 72:5.48 74:0.68 75:1.37 76:1.37 77:1.37 81:0.68 82:3.42 83:3.42 84:4.11 85:10.27 86:2.74 88:0.68 89:1.37 91:0.68 93:2.05 94:2.05 95:3.42 96:1.37 97:1.37 
0.2299600640572744 1:1.89 16:0.63 18:1.89 20:1.26 21:12.63 22:51.14 23:132.58 24:30.3 25:6.31 26:3.16 27:0.63 29:1.26 30:1.26 32:0.63 33:0.63 34:1.26 37:1.26 38:0.63 40:0.63 42:1.26 43:2.53 44:0.63 45:1.89 46:3.79 47:34.09 48:387.63 49:136.36 50:8.21 51:5.05 52:0.63 53:0.63 54:1.26 57:0.63 59:0.63 60:1.89 61:1.26 62:1.26 64:1.26 65:0.63 66:2.53 67:3.79 68:13.89 69:56.82 70:33.46 71:5.68 72:1.89 73:1.89 75:1.26 76:0.63 78:1.26 79:0.63 80:1.26 81:0.63 82:2.53 83:2.53 84:4.42 85:6.31 86:3.16 87:2.53 88:0.63 90:2.53 91:0.63 93:3.16 94:3.16 95:0.63 97:0.63 
-0.9 1:0.63 8:0.63 16:0.63 17:0.63 18:0.63 19:1.26 20:1.88 21:12.56 22:77.89 23:120.6 24:20.1 25:3.14 26:1.88 27:0.63 30:0.63 33:1.26 34:0.63 35:1.26 36:0.63 39:2.51 40:0.63 41:0.63 43:2.51 44:1.88 45:0.63 46:5.65 47:48.99 48:455.4 49:75.38 50:5.03 51:5.65 52:2.51 53:0.63 56:0.63 58:0.63 65:0.63 66:0.63 67:3.14 68:16.33 69:57.16 70:23.24 71:3.14 72:1.88 73:2.51 74:1.88 75:2.51 77:1.26 78:0.63 79:1.26 80:1.88 81:2.51 83:1.26 84:2.51 85:8.79 86:1.88 88:0.63 89:1.26 91:0.63 92:1.26 93:0.63 94:0.63 95:1.88 96:1.26 
0.9 5:0.63 18:0.63 19:0.63 20:5.03 21:21.36 22:103.64 23:73.49 24:15.7 25:5.03 26:1.88 27:0.63 28:0.63 30:0.63 31:1.26 33:1.26 35:0.63 36:1.88 37:0.63 38:0.63 39:1.26 41:1.88 44:3.14 45:2.51 46:11.93 47:71.61 48:441.58 49:49.62 50:5.03 51:1.88 52:0.63 53:1.26 55:3.14 58:0.63 59:0.63 62:1.26 63:0.63 65:1.88 66:1.26 67:3.77 68:23.87 69:62.19 70:21.36 71:8.17 72:0.63 73:1.26 74:1.26 77:0.63 78:1.26 79:0.63 80:1.26 81:0.63 83:5.03 84:7.54 85:5.03 86:3.77 88:1.26 89:1.26 90:0.63 91:0.63 92:1.88 93:1.26 94:2.51 95:1.26 96:1.88 97:1.26 
0.9 1:0.62 5:0.62 9:0.62 13:0.62 15:0.62 18:0.62 19:1.24 20:6.81 21:27.23 22:127.48 23:55.69 24:2.48 25:3.09 26:1.24 27:1.24 30:0.62 32:0.62 33:1.24 35:0.62 38:0.62 39:0.62 40:0.62 43:1.86 44:2.48 45:6.81 46:9.28 47:120.67 48:404.08 49:33.42 50:4.33 51:1.86 52:1.24 53:0.62 54:1.86 55:1.24 56:0.62 58:0.62 61:1.86 62:1.86 63:0.62 64:0.62 65:3.09 66:2.48 67:6.81 68:31.56 69:66.83 70:11.14 71:3.71 72:2.48 73:1.24 75:1.86 76:0.62 78:0.62 79:1.86 80:1.24 81:1.24 82:1.24 83:2.48 84:6.81 85:7.43 86:1.86 87:0.62 88:0.62 89:1.24 91:0.62 92:1.24 93:1.24 94:3.09 95:1.86 97:1.86 
-0.2876093662881873 1:0.66 2:0.66 6:1.32 9:0.66 18:1.97 19:1.97 20:5.92 21:46.71 22:155.92 23:41.45 24:5.26 25:3.95 27:0.66 28:0.66 30:1.97 31:1.97 32:0.66 33:1.32 36:0.66 37:1.97 38:0.66 39:1.32 40:1.97 41:1.32 42:1.32 43:0.66 44:4.61 45:4.61 46:18.42 47:178.29 48:304.61 49:26.32 50:3.95 51:4.61 54:0.66 58:0.66 59:0.66 60:0.66 63:0.66 64:1.97 65:2.63 66:1.97 67:10.53 68:29.61 69:61.84 70:10.53 71:2.63 72:0.66 73:1.97 74:1.32 78:0.66 79:0.66 81:0.66 82:0.66 83:2.63 84:9.21 85:7.89 87:1.97 88:1.97 89:1.32 90:1.32 91:1.97 92:1.97 93:1.32 94:3.29 95:3.95 97:0.66 
0.365309408386051 0:1.27 9:0.64 10:0.64 12:0.64 18:1.27 19:1.27 20:10.8 21:75.6 22:144.22 23:31.13 24:5.72 25:1.91 26:1.91 27:0.64 29:0.64 30:1.91 32:0.64 33:0.64 34:0.64 35:1.27 36:1.91 38:0.64 39:1.91 41:1.27 42:0.64 43:1.91 44:3.18 45:7.62 46:16.52 47:285.9 48:197.59 49:22.24 50:3.81 51:2.54 52:1.27 53:1.91 55:0.64 56:1.91 57:3.18 60:1.27 63:1.27 64:1.27 65:0.64 66:1.91 67:9.53 68:45.11 69:42.57 70:8.89 71:1.91 72:3.18 73:1.91 74:0.64 76:1.27 77:0.64 79:0.64 80:1.91 81:1.27 82:1.91 83:3.18 84:8.89 85:6.35 86:1.27 87:0.64 88:1.91 89:1.27 90:0.64 92:1.91 93:1.27 94:1.27 95:1.91 96:0.64 97:1.27 
-0.9 6:0.69 11:0.69 14:0.69 18:1.38 19:3.45 20:13.78 21:98.55 22:129.57 23:29.63 24:4.14 25:1.38 26:1.38 29:0.69 30:1.38 32:0.69 35:0.69 36:0.69 37:0.69 40:1.38 41:0.69 44:2.76 45:6.2 46:29.63 47:374.22 48:121.98 49:13.09 50:4.82 51:2.07 52:2.76 56:0.69 57:0.69 59:0.69 60:2.07 64:1.38 65:1.38 66:4.14 67:6.89 68:39.28 69:42.73 70:14.47 71:1.38 72:1.38 73:0.69 75:0.69 76:0.69 77:0.69 79:0.69 80:0.69 81:1.38 82:2.07 83:3.45 84:6.89 85:3.45 86:2.07 87:0.69 90:0.69 91:0.69 93:4.14 94:2.76 95:0.69 
0.9 4:0.62 8:0.62 13:0.62 16:1.25 17:0.62 18:1.87 19:8.12 20:23.11 21:114.93 22:98.06 23:11.24 24:3.12 25:1.25 29:0.62 30:1.25 31:1.25 36:0.62 38:0.62 39:0.62 40:0.62 43:1.87 44:1.87 45:5.62 46:42.47 47:445.35 48:73.08 49:8.74 50:3.75 52:1.87 53:0.62 56:1.25 58:0.62 59:0.62 61:0.62 62:1.87 64:1.87 65:2.5 66:1.87 67:16.86 68:37.48 69:22.49 70:5.62 71:1.25 72:1.25 73:1.25 74:0.62 75:0.62 76:0.62 79:0.62 80:1.25 81:3.12 82:2.5 83:6.87 84:6.25 85:5 86:0.62 87:1.25 88:1.87 90:1.25 91:1.25 93:3.75 94:3.12 95:2.5 96:1.25 97:1.87 
-0.9 1:0.63 2:0.63 4:0.63 5:0.63 9:0.63 14:0.63 15:1.27 18:2.53 19:6.96 20:22.15 21:182.28 22:78.48 23:11.39 24:1.9 25:2.53 28:0.63 30:0.63 31:0.63 32:1.27 34:0.63 35:0.63 36:1.27 38:0.63 40:0.63 41:0.63 42:1.9 43:1.27 44:2.53 45:8.86 46:59.49 47:419.62 48:53.16 49:7.59 51:1.9 52:0.63 53:1.27 55:0.63 56:0.63 59:0.63 60:1.27 61:0.63 62:0.63 63:0.63 64:0.63 65:1.9 66:2.53 67:12.66 68:39.24 69:15.82 70:5.7 71:1.27 72:0.63 73:0.63 74:1.9 76:2.53 77:0.63 78:1.27 79:0.63 80:0.63 82:2.53 83:3.16 84:3.8 85:2.53 86:1.9 87:1.9 88:0.63 89:1.27 90:0.63 92:2.53 93:3.16 94:1.27 95:0.63 96:1.27 
0.9 0:0.65 15:0.65 17:0.65 18:1.94 19:7.76 20:47.87 21:213.45 22:47.87 23:6.47 24:3.23 25:0.65 30:0.65 32:1.94 34:0.65 36:0.65 39:0.65 40:0.65 42:2.59 43:1.29 44:1.94 45:7.76 46:97.02 47:381.63 48:32.99 49:5.82 50:4.53 52:0.65 55:1.29 57:0.65 61:0.65 63:1.29 65:2.59 66:2.59 67:10.35 68:51.75 69:16.82 70:3.88 71:1.94 72:1.94 73:0.65 74:0.65 75:1.29 76:1.29 79:0.65 81:0.65 82:1.29 83:3.23 84:3.88 85:2.59 86:1.29 87:1.94 88:1.94 89:0.65 91:0.65 92:0.65 93:0.65 94:3.23 95:3.23 97:1.29 
-0.5980087625723342 7:0.68 8:0.68 14:0.68 15:0.68 16:0.68 18:2.04 19:5.44 20:77.55 21:243.54 22:46.26 23:6.8 24:2.04 26:2.04 27:0.68 28:0.68 30:1.36 33:0.68 34:1.36 35:1.36 36:0.68 38:0.68 39:0.68 40:0.68 42:0.68 43:3.4 44:3.4 45:10.2 46:131.97 47:299.32 48:28.57 49:3.4 50:0.68 51:0.68 52:0.68 58:1.36 62:0.68 63:0.68 64:1.36 65:0.68 66:6.8 67:18.37 68:36.73 69:16.33 70:0.68 71:2.04 72:2.04 73:1.36 76:0.68 79:0.68 81:1.36 82:2.04 83:2.04 84:4.08 85:4.76 86:1.36 87:0.68 88:1.36 89:0.68 91:0.68 92:2.04 93:3.4 94:2.04 95:1.36 97:0.68 
-0.3308711376111136 3:0.68 9:0.68 20:1.37 22:4.79 23:20.53 24:162.9 25:114.99 26:14.37 27:3.42 28:0.68 30:0.68 31:2.05 32:0.68 33:0.68 36:0.68 37:0.68 39:1.37 40:1.37 41:0.68 44:0.68 45:0.68 46:3.42 47:2.74 48:19.16 49:216.97 50:257.36 51:20.53 52:5.48 53:2.05 55:2.05 56:0.68 57:0.68 58:0.68 60:0.68 61:2.05 62:1.37 63:0.68 65:0.68 67:0.68 68:6.16 69:15.06 70:31.49 71:31.49 72:3.42 73:2.05 74:0.68 75:0.68 76:0.68 78:1.37 79:0.68 80:0.68 81:1.37 83:3.42 84:2.74 85:7.53 86:2.74 87:2.74 88:1.37 89:1.37 91:2.05 92:0.68 93:1.37 94:1.37 96:2.74 97:1.37 
-0.6798907003808692 0:0.66 5:0.66 10:0.66 18:0.66 19:0.66 21:4.65 22:9.3 23:37.87 24:148.84 25:45.85 26:7.31 27:2.66 28:1.33 31:1.33 34:1.33 35:0.66 37:0.66 38:0.66 39:0.66 41:0.66 42:0.66 43:0.66 44:2.66 45:3.32 46:3.32 47:3.99 48:30.56 49:403.99 50:122.26 51:13.95 52:2.66 53:1.33 54:1.33 55:0.66 56:0.66 58:0.66 61:1.33 62:1.33 63:1.33 66:1.99 67:1.99 68:3.99 69:12.62 70:47.84 71:23.92 72:1.33 73:1.33 74:2.66 75:0.66 76:0.66 77:1.33 81:1.99 84:5.98 85:5.32 86:7.97 87:3.99 88:1.33 90:1.33 92:1.33 93:0.66 94:1.99 95:2.66 96:1.33 
0.9 1:0.59 3:0.59 8:0.59 15:0.59 20:0.59 21:2.93 22:8.21 23:53.37 24:124.93 25:32.84 26:4.11 27:1.76 28:1.17 29:0.59 30:1.17 31:0.59 32:0.59 34:0.59 36:1.17 38:0.59 39:0.59 40:1.17 42:0.59 44:0.59 45:2.93 46:3.52 47:10.56 48:38.12 49:438.12 50:72.73 51:11.14 52:3.52 53:1.17 54:0.59 56:1.17 58:0.59 60:0.59 61:1.17 62:1.76 63:1.17 64:0.59 65:0.59 66:1.17 67:0.59 68:3.52 69:28.15 70:78.01 71:17.01 72:2.35 74:0.59 75:0.59 77:1.76 78:0.59 79:1.76 80:0.59 81:0.59 82:1.17 83:0.59 84:4.11 85:8.21 86:2.93 87:0.59 88:0.59 89:0.59 90:1.17 92:1.17 93:2.93 94:1.76 95:2.35 96:2.35 97:1.76 
-0.9 0:0.6 1:0.6 20:1.81 21:3.62 22:10.85 23:65.1 24:92.22 25:15.67 26:3.62 27:1.21 30:0.6 32:0.6 33:0.6 34:1.21 36:0.6 37:1.21 41:1.21 42:1.81 43:2.41 44:2.41 45:1.21 46:3.01 47:10.25 48:81.98 49:470.77 50:49.43 51:4.82 52:3.01 53:0.6 55:1.21 59:0.6 62:0.6 63:0.6 65:0.6 66:1.21 67:1.21 68:5.42 69:44 70:61.48 71:13.26 72:3.01 75:0.6 76:0.6 77:1.81 78:1.81 81:0.6 82:0.6 83:1.21 84:1.81 85:4.82 86:7.23 87:1.81 88:1.21 92:1.21 93:1.21 94:4.22 95:1.81 96:0.6 97:0.6 
0.751341765423845 0:0.64 1:1.28 4:0.64 6:0.64 9:0.64 16:0.64 17:0.64 20:1.28 21:6.38 22:13.39 23:79.08 24:69.52 25:16.58 26:5.1 27:0.64 28:0.64 29:0.64 30:1.28 31:0.64 32:0.64 33:1.91 34:1.28 35:1.28 37:0.64 38:1.28 40:2.55 41:0.64 42:1.91 43:0.64 44:0.64 45:2.55 46:5.74 47:7.65 48:130.1 49:405.61 50:30.61 51:5.1 52:1.91 53:1.91 54:3.83 55:1.28 57:0.64 58:0.64 60:0.64 61:2.55 62:0.64 65:1.91 66:0.64 67:4.46 68:7.02 69:44.01 70:60.59 71:12.76 72:1.91 73:1.91 74:2.55 75:0.64 76:1.28 77:2.55 80:1.28 81:0.64 82:1.28 83:3.83 84:5.1 85:10.84 86:8.93 87:0.64 88:1.28 90:0.64 91:0.64 92:0.64 93:1.91 94:3.19 95:0.64 96:0.64 97:0.64 
-0.601301572461183 2:0.65 8:0.65 12:0.65 19:0.65 20:0.65 21:5.84 22:27.24 23:88.85 24:57.72 25:9.73 26:4.54 28:0.65 29:0.65 30:1.3 32:0.65 34:0.65 35:0.65 36:1.95 37:1.95 39:0.65 43:1.95 44:1.3 45:1.95 46:7.13 47:18.16 48:197.8 49:318.42 50:24.64 51:5.19 52:1.3 53:1.95 54:1.3 55:3.89 56:0.65 57:0.65 58:0.65 59:1.95 60:0.65 61:0.65 62:0.65 63:0.65 65:1.95 66:1.3 67:1.95 68:11.02 69:60.96 70:64.85 71:7.78 72:4.54 73:0.65 74:0.65 75:1.95 76:1.3 80:1.3 81:1.3 82:1.95 83:3.24 84:5.84 85:7.78 86:5.19 87:3.24 89:2.59 90:1.3 91:0.65 92:1.95 93:1.95 94:3.24 95:1.3 97:0.65 
-0.7803178197746158 4:0.67 8:0.67 9:0.67 15:1.34 19:1.34 20:1.34 21:6.02 22:37.48 23:85.01 24:45.52 25:8.03 26:1.34 27:0.67 28:1.34 29:0.67 30:2.01 31:1.34 32:0.67 36:0.67 38:2.01 40:2.01 42:1.34 43:1.34 44:2.01 45:3.35 46:1.34 47:26.77 48:301.87 49:216.87 50:17.4 51:4.69 52:3.35 53:0.67 54:1.34 56:2.01 57:0.67 59:2.01 60:0.67 61:2.01 62:0.67 64:2.01 65:0.67 66:0.67 67:4.69 68:8.7 69:81.66 70:49.53 71:5.35 72:2.01 73:1.34 76:1.34 77:0.67 78:0.67 80:0.67 82:2.01 83:5.35 84:7.36 85:10.71 86:4.69 87:2.01 88:0.67 89:1.34 91:2.01 92:2.01 94:7.36 95:1.34 97:2.01 
0.9 0:0.62 1:0.62 14:1.24 15:0.62 19:0.62 20:3.11 21:4.98 22:42.29 23:64.05 24:15.55 25:2.49 26:1.24 28:0.62 30:1.87 31:0.62 32:1.87 33:0.62 34:1.87 35:1.24 36:1.24 37:0.62 38:0.62 40:0.62 41:0.62 42:0.62 43:1.24 44:3.73 45:0.62 46:3.11 47:25.5 48:413.56 49:146.14 50:11.19 51:5.6 52:0.62 53:1.24 54:1.24 55:1.24 57:1.24 58:0.62 60:0.62 63:1.87 64:0.62 65:1.87 66:3.11 67:6.84 68:16.17 69:96.39 70:31.09 71:6.22 72:3.11 73:2.49 74:0.62 75:0.62 77:0.62 78:0.62 79:1.87 80:0.62 82:0.62 83:5.6 84:14.3 85:14.3 86:2.49 87:0.62 88:1.24 89:0.62 90:0.62 91:0.62 92:3.11 93:1.87 94:3.11 95:4.98 96:0.62 97:2.49 
-0.02810292681948987 0:0.6 4:1.19 5:1.19 13:0.6 18:0.6 20:3.58 21:10.14 22:59.63 23:62.02 24:20.87 25:2.98 26:1.19 27:1.19 29:0.6 30:0.6 31:1.79 32:1.19 34:0.6 37:0.6 38:1.19 42:0.6 43:0.6 45:4.77 46:8.35 47:42.34 48:470.48 49:73.94 50:2.98 51:2.39 53:1.19 54:0.6 55:1.19 56:0.6 59:0.6 61:0.6 62:0.6 64:1.19 65:1.19 66:1.79 67:6.56 68:26.83 69:91.83 70:20.87 71:8.94 72:1.79 73:0.6 75:0.6 76:0.6 77:1.19 78:0.6 80:0.6 81:1.19 82:1.79 83:4.17 84:8.94 85:14.31 86:4.17 87:1.19 88:2.39 89:1.19 91:0.6 92:1.19 93:1.19 94:4.77 95:1.79 96:0.6 97:1.19 
-0.9 1:0.63 4:0.63 5:1.26 7:0.63 9:0.63 13:1.26 14:0.63 15:0.63 20:3.77 21:15.69 22:67.8 23:59.64 24:15.07 25:4.39 26:1.26 27:0.63 28:1.88 30:3.14 31:0.63 32:0.63 33:0.63 34:0.63 35:1.26 36:1.88 37:0.63 40:0.63 41:1.26 42:1.26 43:3.14 44:1.26 45:3.77 46:10.67 47:74.07 48:451.98 49:52.1 50:5.02 51:2.51 53:1.26 54:1.88 55:0.63 57:1.88 58:1.88 59:1.88 60:0.63 62:1.26 63:1.88 64:0.63 65:0.63 66:3.14 67:5.02 68:27.62 69:83.49 70:25.11 71:2.51 72:1.26 73:0.63 74:1.88 77:0.63 78:0.63 80:0.63 82:1.26 83:1.88 84:10.04 85:5.65 86:2.51 87:0.63 88:1.88 89:1.26 91:0.63 92:1.88 93:2.51 94:3.77 95:3.14 96:0.63 97:1.88 
0.8702955379898137 0:0.62 4:0.62 5:0.62 11:0.62 19:3.1 20:2.48 21:24.18 22:76.88 23:45.88 24:8.68 25:4.34 27:0.62 28:0.62 30:1.24 31:0.62 32:0.62 33:0.62 34:0.62 35:0.62 36:1.86 38:0.62 40:1.24 41:0.62 42:1.24 43:1.86 44:0.62 45:3.1 46:9.92 47:125.85 48:394.92 49:40.92 50:4.96 51:2.48 52:1.24 53:1.24 54:0.62 55:1.24 56:1.24 57:0.62 59:1.24 61:1.24 62:1.86 64:0.62 65:0.62 66:2.48 67:4.34 68:47.12 69:96.71 70:14.26 71:3.72 72:2.48 73:1.86 74:2.48 76:1.86 77:0.62 78:1.24 79:1.24 81:2.48 82:1.86 83:5.58 84:13.02 85:7.44 86:2.48 89:1.24 91:0.62 93:1.86 94:5.58 95:0.62 97:1.24 
-0.9 0:0.65 3:0.65 4:0.65 8:0.65 13:0.65 15:1.3 17:0.65 18:1.94 19:1.94 20:9.07 21:29.15 22:102.98 23:36.92 24:7.12 25:1.94 26:1.3 27:0.65 28:0.65 30:0.65 31:1.3 32:0.65 35:0.65 36:0.65 38:0.65 39:1.94 40:1.94 41:1.3 42:1.3 43:1.94 44:3.89 45:2.59 46:23.32 47:198.83 48:303.11 49:23.96 50:6.48 51:1.94 52:0.65 53:0.65 54:0.65 55:2.59 59:1.3 61:1.94 62:0.65 63:2.59 64:0.65 65:1.3 66:3.24 67:7.77 68:49.22 69:78.37 70:14.25 71:3.24 72:2.59 74:0.65 75:1.3 76:0.65 77:0.65 80:2.59 82:1.3 83:5.83 84:14.25 85:12.95 86:2.59 87:1.94 89:0.65 90:0.65 92:0.65 93:1.3 94:3.24 95:0.65 97:0.65 
0.9 8:0.66 15:0.66 17:0.66 18:2.64 19:3.3 20:9.25 21:54.16 22:93.79 23:22.46 24:4.62 25:3.96 26:0.66 27:1.32 30:0.66 31:0.66 32:1.32 36:0.66 38:0.66 39:1.32 40:0.66 41:0.66 42:1.32 43:1.32 44:2.64 45:3.96 46:19.15 47:317.04 48:194.85 49:15.19 50:5.28 51:1.98 52:1.32 54:0.66 55:0.66 56:0.66 57:0.66 59:0.66 60:1.98 61:0.66 62:1.32 63:0.66 64:0.66 66:3.96 67:9.91 68:64.07 69:75.3 70:11.23 71:3.96 72:0.66 74:0.66 76:1.98 77:0.66 78:1.32 80:0.66 81:1.32 82:3.3 83:3.96 84:9.25 85:9.91 86:1.32 87:1.32 89:3.3 90:1.32 91:0.66 93:3.3 94:3.96 95:3.3 96:0.66 97:1.32 
-0.8161427060708019 5:0.66 11:1.32 15:0.66 18:0.66 19:1.98 20:16.53 21:64.15 22:87.3 23:18.52 24:2.65 25:0.66 26:1.32 29:0.66 30:1.32 31:0.66 32:0.66 33:0.66 36:1.32 37:1.98 39:0.66 40:1.32 41:0.66 43:1.32 44:1.98 45:5.95 46:36.38 47:405.42 48:132.94 49:11.24 50:1.32 51:1.98 52:1.32 54:1.32 56:1.32 57:0.66 60:0.66 61:0.66 63:1.32 64:0.66 65:0.66 66:7.28 67:7.94 68:63.49 69:50.26 70:6.61 71:3.31 72:1.98 74:1.32 75:0.66 76:2.65 77:1.32 78:2.65 80:1.32 81:1.98 82:1.98 83:3.31 84:9.92 85:3.31 86:1.98 87:1.32 88:1.32 92:1.98 93:1.98 94:3.97 95:1.32 96:0.66 97:0.66 
0.9 0:1.25 2:1.25 11:0.62 15:0.62 16:0.62 18:1.25 19:3.74 20:16.81 21:85.31 22:64.76 23:9.96 24:1.87 26:0.62 27:0.62 31:0.62 32:1.25 33:1.25 36:0.62 37:1.25 38:1.87 40:1.25 41:0.62 44:2.49 45:4.36 46:51.68 47:470.73 48:73.47 49:7.47 50:6.85 51:1.87 52:1.25 54:0.62 56:1.25 58:1.25 59:1.87 62:1.25 64:1.25 65:1.87 66:1.25 67:14.32 68:61.02 69:31.13 70:7.47 71:2.49 72:0.62 73:1.87 75:1.87 76:0.62 77:1.25 78:1.25 80:1.25 81:1.87 83:6.23 84:15.57 85:4.98 86:1.87 87:1.87 88:1.87 89:0.62 90:0.62 91:1.25 92:0.62 93:3.11 94:2.49 96:1.87 97:1.25 
0.9 7:0.63 8:0.63 9:0.63 13:1.25 14:0.63 15:0.63 17:0.63 18:0.63 19:5.02 20:31.97 21:110.97 22:58.31 23:6.27 24:3.13 26:0.63 27:1.25 31:1.25 34:0.63 37:0.63 39:0.63 40:0.63 41:1.25 43:1.25 44:3.76 45:8.78 46:73.98 47:452.04 48:47.02 49:3.76 51:1.25 52:1.88 53:0.63 54:1.88 55:0.63 58:1.25 59:0.63 60:0.63 61:0.63 62:1.25 63:0.63 64:0.63 65:0.63 66:4.39 67:13.79 68:73.35 69:25.08 70:5.64 71:1.88 72:0.63 73:0.63 74:1.25 75:1.25 78:0.63 80:0.63 81:1.25 82:0.63 83:5.02 84:9.4 85:5.02 86:0.63 87:1.25 88:1.25 89:1.88 90:0.63 91:0.63 93:4.39 94:2.51 95:3.13 96:0.63 97:1.25 
-0.7913569134423611 5:1.29 8:0.65 14:0.65 16:0.65 18:1.94 19:4.52 20:43.96 21:157.72 22:35.55 23:4.52 24:3.23 25:1.94 27:0.65 30:3.23 31:0.65 32:1.94 34:0.65 35:0.65 37:1.29 38:0.65 39:1.29 40:1.29 41:0.65 43:1.29 44:3.23 45:15.51 46:108.6 47:407.24 48:31.67 49:7.76 51:1.29 52:0.65 54:1.29 58:0.65 59:0.65 62:0.65 64:0.65 65:0.65 66:3.88 67:16.81 68:61.41 69:27.15 70:2.59 71:0.65 72:0.65 73:0.65 74:1.29 75:1.94 76:1.94 77:0.65 78:0.65 80:1.29 82:1.29 83:4.52 84:4.52 85:1.94 86:2.59 87:1.94 90:0.65 92:1.29 93:0.65 94:0.65 95:3.23 96:1.29 97:2.59 
-0.1709973621360424 3:0.66 5:0.66 9:0.66 10:0.66 12:0.66 14:0.66 17:1.33 18:3.32 19:10.63 20:64.45 21:154.15 22:31.23 23:3.99 24:1.99 25:0.66 30:0.66 31:1.33 33:2.66 35:0.66 36:1.33 37:1.33 38:1.33 39:0.66 41:0.66 42:0.66 43:1.33 44:2.66 45:22.59 46:181.4 47:332.89 48:16.61 49:5.98 51:1.33 52:1.33 53:2.66 54:0.66 56:1.33 59:1.99 61:0.66 62:1.99 63:0.66 65:3.32 66:5.32 67:27.91 68:39.2 69:17.28 70:3.99 72:0.66 73:0.66 74:1.33 75:1.33 76:1.33 77:1.33 78:0.66 79:0.66 81:0.66 82:1.99 83:2.66 84:5.32 85:3.99 86:2.66 87:1.99 88:0.66 90:1.33 91:1.33 92:1.99 93:1.33 94:2.66 95:2.66 97:0.66 
0.9 0:0.72 5:0.72 11:1.45 15:1.45 16:0.72 17:0.72 18:5.06 19:18.08 20:115.69 21:156.91 22:19.52 23:4.34 24:1.45 25:1.45 26:0.72 30:0.72 32:0.72 33:0.72 35:0.72 37:0.72 38:0.72 39:2.17 41:1.45 42:2.89 43:1.45 44:2.89 45:24.58 46:222.7 47:229.21 48:18.8 49:2.89 50:2.17 51:1.45 52:0.72 53:0.72 54:0.72 55:0.72 56:1.45 62:1.45 63:1.45 64:1.45 65:1.45 66:6.51 67:32.54 68:41.21 69:11.57 70:1.45 71:2.17 72:2.89 73:2.17 74:1.45 75:0.72 78:0.72 80:2.89 81:3.62 82:3.62 83:6.51 84:5.06 85:2.89 86:0.72 87:0.72 88:2.17 89:1.45 90:1.45 91:0.72 92:0.72 93:2.89 94:2.89 95:0.72 96:0.72 97:0.72 
-0.4231248314476062 9:0.7 17:1.4 18:7.02 19:24.58 20:191.71 21:155.2 22:11.94 23:2.81 24:0.7 25:1.4 37:0.7 38:1.4 39:0.7 40:0.7 41:0.7 42:0.7 43:2.11 44:3.51 45:18.26 46:283.71 47:137.64 48:16.15 49:3.51 50:0.7 52:1.4 53:2.81 57:0.7 58:0.7 59:0.7 61:1.4 62:0.7 63:0.7 64:1.4 65:1.4 66:8.43 67:35.11 68:30.2 69:10.53 70:1.4 72:1.4 73:1.4 75:0.7 76:2.81 77:1.4 78:0.7 79:2.11 81:0.7 82:0.7 83:6.32 84:5.62 86:1.4 87:0.7 89:1.4 90:1.4 91:1.4 92:0.7 93:0.7 94:1.4 95:0.7 97:0.7 
-0.9 0:0.65 2:0.65 14:0.65 15:0.65 17:0.65 22:1.95 23:5.86 24:51.43 25:240.89 26:62.5 27:7.81 28:1.3 29:0.65 30:1.3 32:1.3 33:0.65 36:0.65 38:0.65 42:0.65 44:1.3 45:1.3 47:1.95 48:7.81 49:50.13 50:393.88 51:49.48 52:5.86 53:2.6 54:1.95 55:0.65 57:0.65 63:0.65 65:0.65 67:1.95 68:0.65 69:3.26 70:26.69 71:35.16 72:5.21 73:1.95 77:0.65 78:1.3 80:0.65 83:1.3 84:1.3 85:3.91 86:3.26 87:0.65 88:1.3 89:1.95 91:0.65 92:1.3 94:2.6 95:1.95 96:1.3 97:1.3 
0.06230733593161327 0:1.29 1:0.65 3:0.65 6:0.65 8:0.65 17:0.65 20:0.65 21:1.94 22:2.59 23:9.06 24:58.25 25:204.53 26:36.25 27:6.47 28:2.59 29:1.29 30:0.65 31:1.29 33:0.65 34:1.29 38:1.29 41:0.65 42:1.94 44:3.24 45:1.94 46:1.94 47:1.94 48:9.71 49:80.91 50:390.29 51:31.72 52:5.18 53:2.59 54:0.65 55:1.29 56:1.29 57:1.29 59:1.94 61:1.29 62:0.65 65:0.65 66:0.65 67:1.29 68:3.24 69:9.06 70:33.01 71:30.42 72:9.06 73:3.88 74:2.59 76:1.29 78:0.65 79:1.29 80:1.29 81:1.29 82:0.65 84:2.59 85:2.59 86:6.47 87:3.88 88:0.65 89:0.65 90:0.65 91:0.65 93:0.65 94:1.94 95:5.18 
0.9 7:0.66 8:0.66 13:0.66 18:0.66 20:0.66 21:0.66 22:1.32 23:10.57 24:95.77 25:140.03 26:16.51 27:5.28 28:3.3 29:0.66 30:1.98 32:1.32 33:0.66 35:1.32 36:0.66 37:0.66 42:0.66 44:0.66 45:1.32 46:1.32 47:1.32 48:9.91 49:129.46 50:366.58 51:28.4 52:5.28 53:2.64 54:1.98 56:1.32 58:0.66 60:2.64 61:0.66 63:0.66 64:0.66 65:0.66 66:1.32 67:1.98 68:2.64 69:9.25 70:48.22 71:32.36 72:9.25 73:3.96 74:1.32 75:0.66 77:1.98 78:1.32 79:0.66 80:1.32 81:1.32 83:1.98 84:1.98 85:7.93 86:9.91 87:5.28 88:5.28 89:1.32 90:0.66 92:0.66 93:1.98 94:1.98 95:1.98 96:0.66 
0.9 1:0.68 2:0.68 3:0.68 4:0.68 7:0.68 16:0.68 17:0.68 20:2.03 21:2.03 22:4.06 23:15.57 24:89.37 25:96.82 26:20.99 27:2.03 28:0.68 29:0.68 30:1.35 31:0.68 32:0.68 33:2.03 38:0.68 39:2.03 41:0.68 45:0.68 46:0.68 47:3.39 48:21.67 49:199.05 50:313.47 51:27.08 52:6.09 53:1.35 54:2.71 55:2.03 56:0.68 58:0.68 59:2.03 60:2.71 61:0.68 64:1.35 65:0.68 67:2.03 68:3.39 69:7.45 70:52.13 71:50.1 72:6.77 73:2.03 74:0.68 75:0.68 76:1.35 78:1.35 80:0.68 81:3.39 82:0.68 83:2.03 84:1.35 85:4.74 86:10.16 87:2.71 88:3.39 89:0.68 90:0.68 91:0.68 92:1.35 93:1.35 94:1.35 95:1.35 97:1.35 
-0.9 4:0.68 8:0.68 12:0.68 16:0.68 17:0.68 20:1.36 21:1.36 22:10.86 23:19.69 24:105.91 25:73.32 26:13.58 27:2.72 28:3.39 29:2.04 30:0.68 31:0.68 32:2.04 34:1.36 35:0.68 37:1.36 38:0.68 40:0.68 41:4.75 42:2.72 43:0.68 44:2.72 45:2.04 46:2.72 47:4.75 48:25.12 49:276.99 50:214.53 51:14.26 52:2.72 53:3.39 54:1.36 55:2.72 58:1.36 59:0.68 62:1.36 63:2.04 65:1.36 67:2.04 68:4.07 69:19.69 70:74.68 71:35.98 72:6.11 73:0.68 74:1.36 76:1.36 79:0.68 80:0.68 81:0.68 82:0.68 84:2.72 85:10.86 86:8.15 87:2.04 88:0.68 89:3.39 91:1.36 92:0.68 93:0.68 94:2.04 95:2.72 96:2.04 
0.6597682859399145 0:0.63 20:1.9 21:3.8 22:5.07 23:23.46 24:107.8 25:36.14 26:8.88 27:1.27 28:2.54 30:3.17 31:1.27 32:1.27 33:1.27 36:0.63 37:1.27 39:1.27 40:0.63 41:1.27 42:1.9 43:0.63 44:1.27 45:2.54 46:1.9 47:5.07 48:31.71 49:373.49 50:136.97 51:13.32 52:4.44 53:2.54 54:1.27 57:1.27 58:1.9 59:0.63 60:1.27 61:0.63 62:1.9 63:0.63 64:1.27 65:1.9 66:1.9 67:1.9 68:7.61 69:24.1 70:87.51 71:28.54 72:8.88 74:0.63 75:0.63 76:0.63 78:0.63 80:1.27 82:0.63 83:4.44 84:4.44 85:6.98 86:5.07 87:2.54 88:2.54 89:0.63 91:0.63 93:1.27 94:6.34 95:5.07 96:1.27 97:1.9 
0.9 1:1.23 3:0.62 4:0.62 8:0.62 9:0.62 12:0.62 15:0.62 18:0.62 19:0.62 20:0.62 21:0.62 22:5.54 23:40.59 24:71.96 25:22.76 26:5.54 27:3.08 28:0.62 30:3.08 31:0.62 33:0.62 34:0.62 36:1.85 37:1.85 38:0.62 41:0.62 43:0.62 44:1.23 46:2.46 47:4.31 48:41.21 49:434.19 50:92.87 51:11.07 52:0.62 53:1.85 54:0.62 55:1.23 57:0.62 58:1.23 61:0.62 63:1.85 65:1.23 66:1.23 67:0.62 68:6.77 69:25.22 70:118.7 71:20.3 72:3.69 73:1.23 74:0.62 75:1.85 76:1.23 77:0.62 80:3.08 81:2.46 82:0.62 83:2.46 84:4.31 85:16.61 86:5.54 87:1.85 88:0.62 89:1.23 90:0.62 91:1.23 92:1.23 93:2.46 94:2.46 95:1.85 96:1.85 97:2.46 
0.9 0:0.61 12:0.61 17:0.61 19:0.61 20:1.22 21:1.22 22:12.22 23:42.79 24:62.35 25:18.95 26:4.89 27:2.44 29:0.61 31:1.22 34:0.61 35:1.22 36:1.22 39:2.44 42:0.61 43:1.83 45:0.61 46:1.83 47:6.72 48:67.85 49:443.77 50:53.79 51:5.5 52:2.44 53:1.83 54:0.61 55:0.61 57:1.83 58:0.61 59:1.22 60:0.61 61:1.83 62:1.22 64:1.22 65:1.83 66:3.06 67:1.83 68:6.72 69:39.73 70:107.58 71:19.56 72:6.11 73:1.22 74:3.06 75:0.61 76:1.83 77:1.22 80:0.61 81:0.61 82:1.22 83:1.22 84:7.95 85:13.45 86:9.78 87:1.83 88:1.22 90:0.61 91:0.61 93:2.44 94:3.06 95:3.67 96:2.44 97:2.44 
-0.9 1:1.27 3:0.64 13:0.64 16:0.64 18:0.64 19:0.64 20:2.54 21:4.45 22:9.53 23:52.73 24:47.01 25:13.98 26:4.45 27:1.91 30:1.27 31:1.91 32:1.27 35:0.64 36:0.64 37:1.91 38:1.91 39:1.91 40:0.64 41:0.64 42:0.64 43:1.27 45:1.27 46:3.81 47:12.07 48:110.55 49:424.4 50:34.94 51:8.89 52:1.91 53:0.64 55:1.91 59:1.91 60:0.64 62:1.91 63:0.64 64:0.64 66:2.54 67:3.18 68:12.07 69:59.72 70:88.95 71:17.79 72:3.81 73:1.91 75:1.91 77:0.64 78:2.54 79:1.91 80:1.27 81:0.64 82:1.27 83:0.64 84:6.35 85:10.17 86:5.72 87:2.54 88:1.27 89:1.91 90:1.91 91:0.64 92:0.64 94:3.18 95:1.91 96:0.64 97:0.64 
0.006247629467621223 0:0.66 8:0.66 10:0.66 18:1.33 19:0.66 20:1.99 21:3.32 22:20.6 23:39.87 24:53.16 25:7.97 26:1.99 29:0.66 30:0.66 32:0.66 33:1.33 34:1.33 36:0.66 37:1.33 38:1.33 41:0.66 44:1.33 45:3.32 46:3.32 47:13.95 48:181.4 49:340.86 50:31.23 51:9.3 52:2.66 53:0.66 55:1.33 56:0.66 57:0.66 58:1.33 59:0.66 61:0.66 62:0.66 65:0.66 67:3.99 68:13.29 69:85.05 70:76.41 71:12.62 72:5.32 73:1.33 74:1.99 75:1.33 76:1.99 77:0.66 78:0.66 79:0.66 80:0.66 81:0.66 82:1.99 84:11.96 85:15.95 86:6.64 87:2.66 88:1.33 90:3.32 91:0.66 92:0.66 94:3.99 95:2.66 96:1.99 97:3.32 
-0.6274398449819892 0:1.36 3:0.68 16:0.68 17:0.68 18:1.36 19:1.36 20:2.04 21:6.12 22:24.47 23:48.27 24:25.83 25:6.12 26:4.76 27:1.36 28:0.68 29:0.68 30:0.68 31:0.68 32:0.68 33:0.68 34:1.36 36:1.36 38:0.68 39:2.72 40:1.36 41:2.72 42:2.04 44:2.04 45:2.04 46:4.08 47:24.47 48:301.16 49:208.02 50:22.43 51:4.08 52:1.36 53:1.36 54:2.72 55:1.36 57:0.68 59:0.68 60:0.68 61:1.36 63:0.68 65:0.68 67:2.04 68:8.84 69:118.29 70:75.46 71:14.96 72:4.08 73:2.72 79:0.68 80:2.04 81:0.68 83:2.72 84:10.88 85:12.24 86:7.48 87:1.36 88:1.36 89:2.04 90:0.68 93:1.36 94:2.04 95:2.04 96:2.72 97:2.04 
0.9 0:1.3 1:0.65 2:0.65 7:0.65 17:0.65 19:1.95 20:3.25 21:9.75 22:31.84 23:44.83 24:17.54 25:1.95 27:1.3 28:0.65 31:1.3 32:1.3 33:1.3 34:0.65 35:1.95 36:1.3 38:0.65 39:1.3 41:1.95 43:1.95 44:1.3 45:4.55 46:5.85 47:35.09 48:376.87 49:130.6 50:11.7 51:5.2 52:0.65 54:1.95 55:0.65 56:1.95 58:0.65 59:0.65 61:0.65 62:0.65 63:1.3 64:2.6 65:1.3 66:2.6 67:3.9 68:20.14 69:137.75 70:50.68 71:6.5 72:3.25 74:0.65 75:1.95 77:1.95 78:0.65 81:2.6 82:1.3 83:4.55 84:13.65 85:14.29 86:3.25 88:1.95 89:0.65 90:1.3 91:1.3 92:0.65 93:0.65 94:4.55 95:1.95 96:0.65 97:1.95 
-0.8982184813343255 0:0.61 1:1.22 7:0.61 16:0.61 18:1.82 19:1.22 20:5.47 21:12.17 22:36.5 23:41.97 24:12.17 25:2.43 26:0.61 27:1.22 28:0.61 30:0.61 31:0.61 32:0.61 33:1.22 36:2.43 38:2.43 39:0.61 40:1.22 42:1.82 44:1.82 45:1.82 46:11.56 47:42.58 48:406.93 49:86.37 50:12.17 51:4.87 52:1.22 54:1.22 55:0.61 56:1.22 59:1.22 60:0.61 62:0.61 63:1.22 64:1.22 65:0.61 66:1.82 67:6.08 68:18.86 69:156.33 70:39.54 71:3.65 72:3.65 73:1.82 74:0.61 75:1.22 77:1.82 78:0.61 79:0.61 80:1.22 81:1.82 82:1.82 83:2.43 84:15.82 85:12.77 86:4.87 87:0.61 90:0.61 91:1.82 92:2.43 93:1.22 94:4.26 95:1.82 97:1.22 
-0.02432471012515693 0:0.63 14:0.63 17:1.27 18:0.63 19:1.9 20:5.08 21:22.21 22:37.44 23:33.63 24:9.52 25:1.9 26:1.9 27:0.63 30:1.27 31:1.9 32:1.27 33:0.63 36:1.27 38:0.63 39:0.63 41:1.27 42:3.17 43:1.9 44:0.63 45:3.17 46:12.69 47:126.27 48:383.88 49:30.46 50:10.15 51:2.54 52:3.17 53:1.27 54:1.27 55:1.27 57:1.27 58:0.63 61:1.9 62:1.27 63:1.27 64:0.63 65:1.9 66:1.27 67:5.08 68:50.76 69:131.35 70:20.94 71:5.71 72:2.54 73:1.9 74:1.27 75:1.27 76:1.27 77:1.27 78:1.27 79:0.63 82:0.63 83:6.35 84:22.84 85:9.52 86:1.27 88:0.63 89:0.63 90:0.63 91:0.63 92:1.27 93:3.17 94:3.81 95:3.17 96:1.9 
0.9 3:0.68 10:0.68 15:0.68 16:0.68 17:0.68 18:1.36 19:1.36 20:10.19 21:29.89 22:48.23 23:20.38 24:2.04 25:2.04 26:1.36 30:1.36 31:0.68 34:0.68 36:1.36 37:0.68 38:0.68 40:2.04 44:0.68 45:6.11 46:29.89 47:319.97 48:203.12 49:14.27 50:6.11 51:2.04 52:0.68 53:1.36 54:2.72 55:1.36 58:0.68 59:1.36 60:0.68 62:2.04 63:0.68 64:1.36 65:4.76 66:4.76 67:6.79 68:83.56 69:92.39 70:10.19 71:5.43 72:1.36 73:0.68 74:1.36 78:0.68 81:1.36 82:4.08 83:4.76 84:22.42 85:12.23 86:2.72 87:2.72 88:1.36 89:1.36 90:1.36 91:1.36 92:0.68 94:4.08 95:2.72 96:1.36 97:0.68 
0.9 15:0.6 16:0.6 17:0.6 19:4.17 20:7.74 21:41.07 22:33.93 23:6.55 24:4.76 25:2.98 26:1.19 27:0.6 28:1.19 30:0.6 31:0.6 32:1.79 33:1.19 37:1.19 40:1.79 41:0.6 42:2.38 43:2.38 44:2.98 45:4.76 46:39.88 47:423.81 48:126.19 49:10.12 50:3.57 51:1.79 52:1.19 54:0.6 55:0.6 56:1.19 58:0.6 60:0.6 63:1.19 64:2.38 65:0.6 66:4.17 67:17.26 68:94.05 69:62.5 70:14.88 71:2.98 72:2.98 73:0.6 74:1.79 75:1.19 76:1.19 77:1.19 78:0.6 79:0.6 80:0.6 81:1.19 82:1.79 83:7.14 84:17.26 85:6.55 86:1.79 87:1.79 91:1.79 92:1.19 93:4.17 94:5.36 95:0.6 96:0.6 97:1.79 
0.03414661139271519 9:1.23 16:0.62 17:0.62 18:1.85 19:4.94 20:16.05 21:59.88 22:33.95 23:6.79 24:4.32 25:1.23 27:0.62 28:0.62 30:1.23 31:1.85 32:1.23 33:0.62 34:1.23 35:0.62 39:0.62 41:0.62 42:0.62 43:0.62 44:3.09 45:6.17 46:63.58 47:466.67 48:71.6 49:3.7 50:3.7 51:2.47 52:1.23 53:1.85 54:3.09 55:1.23 56:1.23 57:0.62 59:1.23 61:2.47 62:1.23 63:0.62 64:1.23 65:3.09 66:2.47 67:19.14 68:99.38 69:38.89 71:3.09 72:1.23 73:0.62 75:1.85 76:1.23 77:0.62 78:1.85 79:0.62 81:1.23 82:1.85 83:5.56 84:12.35 85:4.32 86:3.7 88:1.85 89:1.23 90:1.23 91:1.23 92:0.62 93:3.09 94:1.85 95:1.85 97:4.94 
-0.9 4:0.61 6:0.61 13:0.61 17:0.61 18:0.61 19:4.25 20:29.77 21:78.37 22:34.63 23:7.29 24:2.43 25:0.61 32:0.61 33:0.61 34:1.22 35:0.61 37:0.61 38:0.61 41:1.22 42:0.61 43:0.61 44:0.61 45:6.68 46:92.95 47:464.16 48:38.88 49:4.25 50:1.22 51:2.43 52:1.22 53:1.22 54:0.61 56:1.82 57:0.61 58:0.61 59:1.22 60:1.22 61:1.22 62:0.61 63:0.61 64:0.61 65:2.43 66:3.65 67:18.23 68:103.89 69:31.59 70:3.65 71:1.22 72:1.82 73:0.61 75:1.22 77:1.22 79:1.22 80:0.61 81:1.22 82:2.43 83:6.68 84:11.54 85:2.43 86:0.61 87:1.22 88:0.61 89:1.82 90:0.61 92:0.61 93:3.04 94:3.65 95:1.22 96:0.61 97:0.61 
0.9 2:0.65 10:0.65 15:0.65 16:0.65 17:0.65 18:1.31 19:7.86 20:41.91 21:89.72 22:31.43 23:5.24 24:1.31 25:1.31 29:0.65 31:0.65 32:1.31 33:0.65 35:0.65 36:0.65 37:1.96 39:0.65 40:1.31 41:0.65 42:1.31 43:3.27 44:3.27 45:17.68 46:154.55 47:370.01 48:28.16 49:5.89 50:1.31 51:3.27 54:1.31 55:0.65 58:0.65 60:0.65 61:0.65 62:1.31 64:1.96 65:1.96 66:2.62 67:26.85 68:87.75 69:20.96 70:5.89 71:3.93 72:1.96 73:0.65 74:1.96 76:1.31 77:0.65 78:1.31 79:1.96 81:1.31 82:2.62 83:10.48 84:8.51 85:5.89 86:1.31 88:4.58 89:2.62 90:1.31 92:1.96 93:1.96 94:2.62 95:2.62 96:2.62 97:1.31 
-0.7953907999577212 10:1.29 13:0.64 16:0.64 17:0.64 18:5.14 19:18.01 20:67.52 21:91.96 22:32.15 23:4.5 24:1.93 30:1.29 31:0.64 33:1.29 35:1.29 38:0.64 39:2.57 40:0.64 41:1.93 43:1.29 44:5.14 45:15.43 46:218.65 47:304.82 48:18.01 49:8.36 50:1.93 51:0.64 52:0.64 53:0.64 54:1.29 55:1.29 57:0.64 58:0.64 59:2.57 60:0.64 61:1.29 62:1.29 63:0.64 65:1.29 66:1.93 67:29.58 68:74.6 69:16.72 70:3.86 71:1.29 77:0.64 78:0.64 79:1.29 80:1.29 81:2.57 82:3.22 83:5.79 84:9 85:5.79 86:1.29 87:0.64 88:1.93 89:1.29 90:0.64 91:1.29 92:1.93 93:4.5 94:1.93 95:1.29 96:1.29 97:1.93 
0.9 1:0.65 7:1.3 8:0.65 13:0.65 15:0.65 16:0.65 17:1.3 18:3.25 19:16.25 20:90.38 21:103.38 22:20.16 23:3.25 25:0.65 26:0.65 27:0.65 28:0.65 30:1.3 32:0.65 33:1.95 38:0.65 39:0.65 41:0.65 42:0.65 43:3.9 44:3.9 45:22.76 46:312.74 47:209.36 48:13 49:5.2 50:2.6 52:0.65 53:1.3 54:0.65 56:0.65 58:1.95 59:0.65 60:0.65 62:1.3 64:1.3 65:2.6 66:3.9 67:39.01 68:46.16 69:13 70:3.25 71:1.95 72:0.65 74:1.3 75:2.6 76:0.65 78:0.65 79:2.6 80:1.95 81:1.3 82:7.8 83:8.45 84:4.55 85:5.2 86:3.25 87:0.65 88:1.95 89:0.65 90:1.3 92:0.65 93:1.95 94:2.6 95:1.3 96:0.65 97:3.25 
-0.1567462308868443 6:1.27 9:0.63 15:1.27 16:0.63 17:2.53 18:4.43 19:16.47 20:134.26 21:77.26 22:10.77 23:1.9 24:1.27 26:1.27 30:1.27 31:0.63 32:0.63 33:1.9 34:0.63 37:0.63 39:1.27 41:1.9 42:3.17 43:0.63 44:5.07 45:31.03 46:402.79 47:117.8 48:15.83 49:1.9 50:1.27 51:1.27 53:1.9 54:0.63 56:1.9 58:0.63 59:0.63 60:1.27 61:0.63 62:0.63 63:1.9 64:0.63 65:1.27 66:12.03 67:36.73 68:50.03 69:5.07 70:0.63 71:1.27 72:0.63 73:1.27 76:0.63 77:0.63 78:0.63 79:1.9 80:0.63 81:1.27 82:1.27 83:8.23 84:6.97 85:3.8 86:0.63 87:1.9 88:0.63 90:1.27 91:0.63 92:0.63 93:0.63 94:3.17 95:1.27 
0.9 3:0.63 6:0.63 8:0.63 15:0.63 16:0.63 17:2.53 18:8.86 19:43.67 20:158.23 21:79.11 22:10.76 23:3.16 24:0.63 25:0.63 26:0.63 27:0.63 28:0.63 31:0.63 33:0.63 34:0.63 36:0.63 39:0.63 41:1.9 42:1.9 43:3.8 44:4.43 45:34.18 46:405.06 47:73.42 48:10.76 49:2.53 50:1.27 51:2.53 52:1.27 53:0.63 54:0.63 55:0.63 56:0.63 58:1.27 59:1.27 62:1.9 63:0.63 64:1.9 65:5.06 66:4.43 67:39.87 68:28.48 69:7.59 70:1.9 71:1.27 73:1.27 74:1.27 76:1.27 78:1.27 79:1.27 80:1.27 81:1.9 82:2.53 83:3.8 84:10.13 85:1.27 86:0.63 88:0.63 90:0.63 91:1.27 92:1.9 93:1.9 94:3.16 95:1.9 96:1.9 97:1.9 
-0.6657043925597468 1:0.63 2:0.63 4:0.63 8:0.63 10:1.88 11:0.63 13:0.63 15:0.63 16:2.51 17:1.88 18:7.54 19:52.14 20:254.4 21:43.97 22:6.91 23:0.63 24:0.63 28:0.63 29:0.63 31:0.63 32:0.63 33:0.63 36:1.26 38:0.63 40:0.63 42:1.88 43:2.51 44:10.05 45:50.25 46:371.23 47:52.14 48:8.79 49:2.51 50:1.26 51:3.14 53:1.26 54:1.26 56:1.88 57:0.63 58:0.63 59:0.63 61:1.26 63:0.63 64:1.26 65:4.4 66:9.42 67:29.52 68:19.47 69:6.91 71:1.26 73:1.26 77:0.63 78:0.63 79:0.63 81:1.88 82:2.51 83:3.77 84:8.79 85:3.14 86:0.63 87:1.26 88:0.63 90:0.63 93:0.63 94:3.14 95:1.88 96:0.63 97:0.63 
0.9 0:2.03 2:0.68 3:0.68 6:0.68 8:0.68 9:0.68 10:0.68 14:0.68 15:0.68 18:0.68 20:2.7 22:2.03 23:6.09 24:27.72 25:188.64 26:86.54 27:12.17 28:3.38 30:1.35 32:0.68 33:0.68 34:0.68 37:1.35 38:0.68 40:0.68 43:2.03 45:1.35 46:2.03 47:2.03 48:7.44 49:26.37 50:371.87 51:98.04 52:10.14 53:3.38 54:1.35 55:1.35 56:1.35 58:0.68 61:0.68 62:0.68 63:0.68 64:0.68 65:0.68 66:1.35 67:2.03 69:0.68 70:22.99 71:42.6 72:16.23 73:0.68 74:0.68 75:2.7 77:1.35 79:1.35 81:1.35 82:2.7 83:1.35 84:2.7 85:5.41 86:2.7 87:2.7 88:0.68 91:0.68 92:2.03 93:1.35 94:2.03 95:2.7 96:1.35 97:1.35 
0.9 0:1.27 3:0.64 5:0.64 7:0.64 8:0.64 9:0.64 20:0.64 21:0.64 22:1.91 23:7.64 24:38.83 25:162.32 26:45.19 27:12.09 28:1.27 29:0.64 30:0.64 31:1.27 32:1.91 33:0.64 38:0.64 40:0.64 41:1.27 42:1.27 43:0.64 44:1.27 45:0.64 46:1.27 47:1.91 48:8.91 49:41.37 50:427.12 51:67.47 52:9.55 53:5.09 54:1.91 55:2.55 56:1.27 57:1.91 59:1.27 60:0.64 65:0.64 67:0.64 68:0.64 69:10.18 70:26.73 71:42.65 72:12.73 73:3.82 74:1.91 76:0.64 77:0.64 78:0.64 79:1.27 80:1.27 84:0.64 85:7 86:5.73 87:1.91 88:3.18 89:3.18 90:0.64 91:0.64 92:0.64 93:1.91 94:3.18 95:3.82 96:1.91 97:2.55 
-0.9 3:0.61 4:0.61 6:0.61 16:0.61 20:0.61 21:1.22 22:1.82 23:9.73 24:48.02 25:131.31 26:39.51 27:4.26 28:1.22 29:0.61 30:1.22 31:1.82 32:1.22 33:0.61 34:0.61 35:1.22 38:0.61 43:0.61 44:0.61 45:0.61 46:1.82 47:4.26 48:7.9 49:57.14 50:452.28 51:54.71 52:7.9 53:5.47 58:0.61 60:0.61 62:0.61 63:0.61 64:0.61 66:0.61 67:0.61 68:1.82 69:3.65 70:40.73 71:50.46 72:10.94 73:4.86 75:0.61 76:0.61 80:1.82 81:0.61 82:1.82 83:0.61 84:3.65 85:6.08 86:8.51 87:2.43 88:3.04 89:0.61 90:1.82 91:0.61 92:1.22 93:0.61 94:2.43 95:1.82 96:1.22 97:1.82 
0.9 0:0.63 2:0.63 3:0.63 5:0.63 10:1.25 15:0.63 18:0.63 22:1.88 23:12.51 24:58.16 25:95.06 26:18.14 27:3.75 28:2.5 29:0.63 30:1.25 31:1.25 32:0.63 34:1.25 37:0.63 38:0.63 39:0.63 40:1.25 42:0.63 43:1.25 44:1.25 45:1.25 46:1.88 47:1.25 48:14.38 49:95.68 50:425.27 51:41.28 52:6.25 53:1.25 54:2.5 55:0.63 56:0.63 57:0.63 58:3.13 59:0.63 62:0.63 63:1.25 64:0.63 65:1.25 66:1.25 67:0.63 68:3.13 69:10.63 70:59.41 71:56.91 72:6.25 73:2.5 74:1.25 75:1.88 77:0.63 78:0.63 79:1.25 81:1.25 82:2.5 83:1.25 84:3.75 85:5 86:10.63 87:5 88:0.63 90:1.25 91:0.63 92:0.63 93:4.38 94:3.13 95:2.5 96:1.25 97:1.25 
-0.9 0:0.63 2:0.63 3:1.26 8:1.26 11:0.63 18:0.63 21:1.88 22:3.77 23:18.2 24:64.03 25:70.94 26:21.34 27:5.65 28:2.51 29:0.63 30:2.51 31:1.26 32:0.63 33:1.88 34:1.26 35:1.26 37:0.63 39:0.63 40:1.26 43:0.63 44:0.63 45:0.63 46:1.88 47:3.77 48:16.95 49:180.79 50:327.68 51:25.11 52:6.91 53:1.88 54:0.63 56:1.26 57:1.26 58:1.26 59:1.26 61:2.51 62:0.63 63:0.63 65:1.26 66:1.26 67:1.88 68:6.91 69:10.67 70:77.84 71:59.01 72:6.28 73:1.26 74:0.63 75:1.26 78:0.63 79:0.63 81:0.63 82:2.51 83:1.26 84:3.14 85:11.93 86:9.42 87:5.02 88:1.88 89:1.88 91:0.63 92:1.88 93:0.63 94:0.63 95:3.14 96:2.51 97:1.88 
-0.2588989098228173 0:0.68 1:0.68 5:0.68 12:0.68 16:0.68 18:1.36 21:4.07 22:3.39 23:27.16 24:55.67 25:46.16 26:10.86 27:4.75 28:2.04 30:0.68 31:0.68 32:0.68 36:0.68 37:0.68 38:0.68 39:0.68 40:1.36 42:2.04 43:0.68 46:2.04 47:5.43 48:21.05 49:249.15 50:257.3 51:25.12 52:4.07 53:5.43 54:2.72 55:1.36 56:0.68 58:0.68 59:1.36 63:1.36 65:1.36 66:0.68 67:2.72 68:3.39 69:16.29 70:112.02 71:55.67 72:8.15 73:2.72 75:1.36 77:1.36 78:0.68 79:0.68 80:0.68 81:0.68 82:1.36 83:0.68 84:4.07 85:14.94 86:7.47 87:1.36 88:0.68 89:0.68 90:2.04 91:3.39 92:1.36 94:4.07 95:2.04 96:0.68 97:1.36 
0.3874880117445194 4:1.4 5:0.7 6:0.7 10:0.7 17:0.7 18:0.7 21:2.8 22:5.6 23:24.49 24:51.78 25:32.19 26:6.3 27:3.5 30:0.7 31:0.7 32:1.4 33:1.4 37:0.7 38:1.4 39:1.4 41:0.7 42:0.7 43:0.7 44:1.4 45:0.7 46:2.1 47:4.2 48:34.99 49:338 50:159.55 51:12.6 52:4.9 53:3.5 54:2.8 56:0.7 58:1.4 63:1.4 64:1.4 65:0.7 66:2.8 67:1.4 68:6.3 69:22.39 70:149.76 71:35.69 72:5.6 73:3.5 74:0.7 75:0.7 76:1.4 81:0.7 82:0.7 83:2.1 84:5.6 85:12.6 86:13.3 87:4.2 88:1.4 90:1.4 91:3.5 92:1.4 93:3.5 94:4.9 95:2.1 96:0.7 
-0.9 1:0.65 4:0.65 5:0.65 7:0.65 8:0.65 9:0.65 11:0.65 13:0.65 16:0.65 19:0.65 21:1.94 22:5.83 23:23.33 24:46.66 25:25.28 26:5.18 27:2.59 28:1.94 29:1.3 30:2.59 31:0.65 32:0.65 33:0.65 34:0.65 36:1.94 38:0.65 40:0.65 41:1.3 42:1.3 43:0.65 44:1.3 45:2.59 46:1.94 47:5.18 48:44.07 49:383.02 50:105.64 51:7.78 52:3.89 53:1.94 54:0.65 55:0.65 57:0.65 58:0.65 59:0.65 60:0.65 62:0.65 63:0.65 65:0.65 66:1.3 68:5.83 69:26.57 70:167.85 71:31.76 72:7.13 73:1.3 74:4.54 75:1.3 76:1.3 78:2.59 80:1.3 81:2.59 82:0.65 83:3.24 84:4.54 85:19.44 86:5.83 88:1.3 90:0.65 91:0.65 92:0.65 93:2.59 94:3.89 95:3.24 96:1.3 97:1.3 
-0.9 1:0.62 11:0.62 14:0.62 15:0.62 17:0.62 18:1.24 19:0.62 20:0.62 21:1.24 22:6.84 23:21.13 24:40.4 25:18.02 26:6.22 27:1.86 28:0.62 31:0.62 32:0.62 33:1.24 35:1.24 38:1.24 40:0.62 42:0.62 43:1.24 44:1.24 45:1.24 46:6.84 47:8.08 48:75.82 49:395.28 50:60.91 51:9.94 52:1.86 53:1.24 54:1.86 55:2.49 56:1.24 57:0.62 58:0.62 59:1.24 60:0.62 61:1.24 63:1.86 64:1.24 65:1.86 66:0.62 67:1.86 68:5.59 69:50.34 70:165.32 71:23.62 72:5.59 73:1.86 74:1.86 75:2.49 76:1.24 80:0.62 81:1.24 82:0.62 83:3.11 84:9.32 85:18.65 86:3.73 87:0.62 88:0.62 89:0.62 90:0.62 91:0.62 92:1.24 93:2.49 94:1.86 95:3.73 96:1.24 97:1.86 
-0.117815286266945 2:0.66 3:0.66 4:0.66 8:0.66 14:0.66 15:0.66 18:0.66 19:1.31 20:0.66 21:1.31 22:9.18 23:36.72 24:38.69 25:13.77 26:3.93 27:0.66 28:1.97 30:1.31 31:0.66 32:1.97 33:0.66 34:0.66 35:1.97 36:1.31 39:0.66 43:0.66 44:0.66 45:3.93 46:2.62 47:13.11 48:102.3 49:329.18 50:40 51:2.62 52:1.31 53:1.31 54:0.66 55:0.66 56:1.97 57:0.66 61:0.66 63:0.66 64:1.97 65:1.31 66:0.66 67:3.93 68:10.49 69:81.97 70:161.31 71:23.61 72:4.59 73:2.62 74:1.31 75:2.62 76:3.28 77:1.31 78:3.93 79:1.31 82:1.97 83:3.28 84:9.84 85:17.7 86:11.8 87:2.62 89:0.66 91:0.66 92:1.31 93:3.93 94:5.25 95:4.59 96:1.97 97:3.28 
0.9 1:0.69 9:0.69 16:1.37 18:0.69 19:2.06 20:4.12 21:4.12 22:11.68 23:34.36 24:28.18 25:15.12 26:6.19 27:0.69 28:0.69 30:1.37 31:1.37 32:2.06 33:1.37 34:0.69 35:1.37 37:0.69 38:1.37 39:1.37 40:0.69 41:0.69 43:1.37 44:2.06 45:3.44 46:6.19 47:13.06 48:156.01 49:261.86 50:34.36 51:4.12 52:2.06 53:2.06 54:1.37 57:1.37 58:1.37 60:1.37 61:1.37 63:0.69 64:0.69 65:3.44 67:3.44 68:15.12 69:124.4 70:123.71 71:15.81 72:2.06 73:2.75 74:5.5 75:0.69 76:0.69 77:1.37 78:0.69 79:0.69 81:2.75 82:2.75 83:1.37 84:11.68 85:20.62 86:11.68 87:2.06 88:2.06 89:2.06 90:2.06 91:2.75 92:1.37 93:2.75 94:4.81 95:3.44 96:3.44 97:3.44 
0.9 1:1.96 10:0.65 13:1.31 17:0.65 19:1.96 20:0.65 21:3.93 22:18.98 23:34.69 24:21.6 25:8.51 26:1.96 29:1.31 30:1.31 31:1.31 32:0.65 33:0.65 34:1.31 39:0.65 40:0.65 42:1.31 43:0.65 44:1.96 45:0.65 46:5.24 47:24.87 48:220.55 49:198.95 50:17.67 51:6.54 52:2.62 53:1.31 55:1.31 56:0.65 60:0.65 61:1.31 62:1.31 63:0.65 65:0.65 66:1.96 67:5.89 68:20.94 69:170.16 70:115.18 71:9.16 72:2.62 73:3.27 74:0.65 75:0.65 78:0.65 79:1.31 80:0.65 81:0.65 83:4.58 84:10.47 85:28.8 86:9.16 87:0.65 89:0.65 90:0.65 91:3.27 92:2.62 93:3.27 94:5.24 95:1.96 96:0.65 97:0.65 
-0.6771723704646502 3:0.65 4:0.65 5:0.65 7:0.65 17:0.65 18:0.65 19:1.29 20:4.53 21:7.12 22:20.71 23:34.3 24:15.53 25:5.83 26:1.29 27:1.29 31:0.65 33:0.65 34:1.29 36:0.65 37:0.65 38:0.65 39:0.65 40:3.24 42:1.29 43:3.24 44:1.29 45:2.59 46:3.24 47:27.18 48:290.61 49:119.09 50:16.83 51:7.77 54:0.65 55:0.65 56:1.29 57:1.94 58:1.29 59:1.29 60:0.65 64:1.29 65:1.29 67:3.88 68:25.24 69:220.71 70:86.08 71:6.47 72:3.88 73:0.65 74:3.24 80:1.94 81:1.29 82:0.65 83:3.24 84:15.53 85:18.77 86:3.24 87:1.94 88:1.94 89:1.29 90:1.29 91:0.65 92:1.29 93:2.59 94:1.94 95:2.59 96:1.29 97:0.65 
-0.9 2:0.64 11:0.64 12:0.64 17:0.64 19:1.93 20:2.57 21:8.36 22:23.79 23:32.15 24:6.43 25:6.43 26:0.64 29:0.64 35:1.93 36:1.29 39:0.64 40:1.29 42:1.29 43:0.64 44:1.29 45:5.14 46:14.15 47:46.3 48:331.83 49:70.1 50:10.29 51:2.57 52:1.29 53:1.29 56:1.93 57:1.29 58:1.93 59:1.29 60:1.29 61:3.22 62:0.64 63:0.64 64:0.64 65:0.64 66:0.64 67:3.22 68:39.87 69:235.37 70:48.87 71:5.79 72:1.29 73:0.64 74:0.64 75:2.57 76:0.64 80:1.29 81:1.93 82:0.64 83:5.14 84:18.65 85:18.01 86:6.43 87:1.93 88:1.29 89:0.64 90:0.64 92:0.64 93:1.93 94:3.86 95:2.57 96:3.86 97:0.64 
-0.9 1:0.59 2:0.59 3:0.59 10:1.19 11:0.59 12:0.59 17:0.59 18:1.19 19:1.19 20:5.95 21:13.09 22:29.74 23:26.17 24:8.33 25:2.38 26:0.59 27:1.19 28:1.19 31:0.59 32:0.59 33:0.59 34:0.59 36:0.59 37:0.59 38:0.59 39:0.59 40:0.59 41:0.59 42:1.78 43:1.78 44:1.78 45:2.97 46:13.68 47:80.31 48:306.96 49:49.38 50:7.73 51:2.38 52:2.38 53:1.19 54:1.78 55:0.59 56:0.59 57:1.19 58:0.59 61:2.38 62:1.19 63:0.59 64:1.19 65:1.19 66:2.38 67:4.16 68:49.38 69:245.69 70:32.72 71:8.33 72:1.19 73:1.78 74:1.19 76:1.19 77:1.19 78:1.19 80:1.19 81:0.59 82:1.78 83:8.33 84:19.63 85:16.06 86:2.38 87:1.19 88:0.59 90:0.59 91:1.19 93:2.97 94:3.57 95:1.19 96:1.78 97:1.19 
-0.5161410944190382 2:0.68 4:0.68 6:0.68 14:0.68 17:0.68 18:0.68 19:2.03 20:7.43 21:19.58 22:29.03 23:24.31 24:10.13 25:0.68 26:3.38 27:1.35 28:0.68 30:1.35 31:0.68 32:0.68 33:0.68 34:1.35 35:0.68 36:1.35 38:0.68 39:0.68 40:1.35 42:1.35 43:0.68 44:1.35 45:2.03 46:18.23 47:111.41 48:261.31 49:34.44 50:6.75 51:4.05 52:2.7 53:1.35 54:1.35 55:0.68 56:0.68 58:1.35 59:1.35 61:0.68 63:0.68 64:0.68 65:0.68 66:2.7 67:9.45 68:79 69:237.68 70:26.33 71:4.05 72:2.7 74:0.68 75:2.03 76:0.68 78:0.68 79:0.68 80:1.35 81:2.7 82:2.7 83:8.1 84:19.58 85:16.21 86:2.7 87:2.03 89:1.35 90:1.35 92:1.35 93:2.7 94:0.68 95:2.03 96:1.35 97:1.35 
-0.9 2:0.69 10:0.69 11:0.69 14:0.69 16:0.69 18:2.75 19:2.75 20:4.12 21:19.22 22:28.83 23:21.28 24:5.49 25:1.37 26:2.75 27:0.69 28:0.69 30:1.37 32:0.69 33:0.69 35:0.69 36:2.06 37:0.69 39:1.37 40:0.69 41:2.75 42:2.75 43:1.37 44:1.37 45:2.06 46:19.9 47:192.86 48:231.3 49:22.65 50:7.55 51:1.37 52:2.06 53:1.37 54:0.69 55:0.69 57:1.37 58:0.69 61:0.69 62:0.69 63:2.75 64:1.37 65:2.75 66:0.69 67:15.1 68:99.52 69:182.57 70:24.02 71:4.8 72:2.06 73:2.06 74:1.37 75:0.69 78:2.06 79:0.69 80:1.37 82:4.12 83:5.49 84:16.47 85:13.04 86:5.49 87:0.69 88:0.69 90:2.06 91:2.75 93:1.37 94:4.12 95:1.37 96:0.69 97:2.06 
-0.9 0:0.66 1:0.66 5:0.66 10:0.66 12:0.66 15:0.66 18:0.66 19:3.96 20:6.59 21:26.37 22:36.26 23:13.18 24:5.93 25:3.3 26:0.66 27:0.66 28:0.66 30:1.98 31:0.66 32:2.64 33:1.98 36:1.32 39:0.66 41:1.32 42:0.66 43:1.32 44:4.61 45:11.87 46:23.73 47:280.16 48:155.57 49:19.12 50:2.64 51:4.61 52:1.98 53:1.32 54:0.66 55:0.66 56:0.66 57:0.66 60:1.32 61:0.66 62:1.32 63:2.64 64:1.98 65:0.66 66:1.98 67:9.23 68:143.7 69:123.27 70:15.16 71:1.32 72:0.66 73:1.32 75:1.32 79:0.66 80:1.32 81:0.66 82:4.61 83:10.55 84:17.8 85:9.89 86:4.61 87:1.32 90:1.98 91:0.66 92:1.98 93:2.64 94:6.59 95:2.64 96:1.32 97:1.32 
-0.9 7:0.66 8:0.66 14:0.66 15:0.66 18:0.66 19:3.29 20:9.21 21:25.66 22:32.89 23:11.18 24:1.97 25:1.97 26:1.32 27:0.66 31:0.66 32:0.66 33:0.66 34:1.32 35:1.32 36:0.66 38:0.66 39:1.97 40:1.97 41:0.66 42:1.97 43:1.32 44:2.63 45:7.24 46:47.37 47:348.68 48:101.32 49:13.16 50:5.26 51:1.32 52:0.66 53:1.97 54:0.66 55:0.66 56:0.66 57:1.32 59:0.66 60:1.97 61:0.66 62:0.66 63:0.66 64:1.32 65:1.97 66:3.95 67:19.08 68:168.42 69:69.74 70:11.84 71:0.66 72:1.32 73:2.63 74:0.66 75:0.66 76:0.66 78:0.66 80:0.66 81:0.66 82:2.63 83:13.82 84:24.34 85:12.5 86:3.29 87:3.29 90:0.66 91:0.66 92:0.66 93:2.63 94:2.63 95:2.63 96:1.97 97:0.66 
-0.9 10:0.63 12:0.63 13:0.63 16:0.63 17:0.63 18:1.88 19:2.51 20:19.44 21:40.75 22:37.62 23:5.64 24:3.13 25:1.25 26:1.25 28:0.63 31:0.63 32:1.25 33:1.25 34:1.88 35:1.25 36:1.25 37:1.25 38:0.63 39:0.63 41:0.63 42:3.13 43:4.39 44:1.25 45:10.03 46:69.59 47:377.43 48:58.93 49:7.52 50:1.88 51:1.88 54:1.25 56:0.63 57:1.25 58:0.63 59:0.63 62:0.63 63:0.63 64:3.76 65:3.13 66:2.51 67:31.35 68:170.53 69:45.14 70:6.9 71:0.63 72:1.25 73:1.88 74:1.25 75:0.63 77:1.25 79:1.88 80:0.63 82:2.51 83:11.29 84:16.3 85:4.39 86:2.51 87:0.63 88:1.25 89:0.63 90:1.25 91:1.25 92:0.63 93:4.39 94:6.9 95:2.51 96:0.63 97:0.63 
-0.4615015662650784 1:0.64 6:0.64 10:0.64 12:0.64 13:0.64 16:0.64 17:1.27 18:1.91 19:7.01 20:18.47 21:43.95 22:26.75 23:5.1 24:5.1 25:1.27 27:1.27 30:1.27 32:0.64 35:0.64 38:1.27 39:0.64 41:0.64 42:0.64 43:1.91 44:6.37 45:14.01 46:98.09 47:394.27 48:46.5 49:9.55 50:2.55 51:2.55 52:2.55 53:0.64 56:1.27 58:0.64 59:2.55 60:0.64 61:1.27 62:0.64 63:2.55 64:0.64 65:2.55 66:4.46 67:27.39 68:151.59 69:36.31 70:4.46 71:1.27 72:1.27 75:0.64 76:0.64 77:0.64 78:0.64 79:2.55 80:3.82 81:1.27 82:1.27 83:8.92 84:14.01 85:6.37 86:3.82 87:2.55 89:0.64 90:1.91 92:0.64 93:4.46 94:0.64 95:1.27 96:1.27 97:1.91 
-0.9 7:0.63 8:0.63 9:0.63 11:0.63 13:0.63 17:0.63 18:1.88 19:7.51 20:31.93 21:56.36 22:24.42 23:5.64 24:1.88 25:1.88 26:0.63 28:0.63 31:0.63 32:0.63 35:0.63 37:1.25 38:0.63 39:0.63 40:2.5 41:1.25 42:3.13 43:1.88 44:3.76 45:17.53 46:167.81 47:342.52 48:27.55 49:5.64 50:2.5 51:1.25 52:1.88 53:0.63 54:0.63 55:1.25 56:1.25 57:1.25 59:0.63 60:1.25 62:0.63 64:2.5 65:0.63 66:7.51 67:45.08 68:127.74 69:18.79 70:5.64 71:1.25 72:4.38 74:3.76 75:0.63 76:1.25 78:1.88 79:1.25 80:1.25 81:1.25 82:0.63 83:8.14 84:13.15 85:2.5 86:3.76 87:0.63 89:1.25 92:2.5 93:0.63 94:5.01 95:3.13 96:1.25 97:5.01 
0.2843698571627325 0:0.66 1:0.66 6:0.66 7:0.66 10:0.66 11:0.66 16:0.66 17:1.98 18:2.64 19:10.54 20:57.97 21:52.7 22:13.83 23:6.59 24:1.32 26:1.32 31:1.98 32:0.66 33:0.66 34:1.32 36:0.66 37:0.66 38:1.32 39:0.66 40:1.98 41:2.64 42:1.98 43:2.64 44:9.22 45:23.72 46:266.14 47:261.53 48:17.79 49:5.27 50:3.29 51:1.32 52:0.66 53:2.64 56:0.66 57:0.66 61:1.32 63:1.98 64:1.32 65:1.98 66:5.27 67:46.77 68:89.59 69:21.08 70:4.61 71:1.98 72:1.32 73:0.66 74:2.64 75:1.98 76:0.66 78:1.32 79:0.66 80:0.66 82:3.29 83:5.93 84:13.83 85:1.32 86:2.64 87:3.95 88:1.98 89:1.32 90:1.32 92:1.98 93:1.98 94:4.61 95:1.98 96:1.98 97:2.64 
0.02027254941731274 1:0.66 2:0.66 9:0.66 11:0.66 14:0.66 15:0.66 16:0.66 17:1.97 18:1.97 19:23.01 20:65.75 21:62.46 22:17.09 23:4.6 25:0.66 27:0.66 30:1.97 31:1.31 32:0.66 33:0.66 34:0.66 35:0.66 39:0.66 40:0.66 41:0.66 42:1.31 43:0.66 44:5.26 45:26.3 46:370.81 47:161.74 48:19.72 49:1.31 50:1.31 51:1.97 52:1.97 54:0.66 56:1.31 58:0.66 60:0.66 61:2.63 62:0.66 64:2.63 65:1.31 66:5.92 67:48.65 68:71.66 69:10.52 70:1.97 71:0.66 72:1.97 75:1.31 76:0.66 77:0.66 80:1.31 81:3.29 82:5.92 83:11.83 84:19.07 85:3.29 86:0.66 87:1.31 88:0.66 89:1.31 90:0.66 91:3.29 92:1.97 93:1.97 94:2.63 95:1.31 96:1.31 97:0.66 
-0.3695595026106917 3:0.6 12:0.6 17:1.81 18:4.83 19:26.57 20:99.03 21:53.14 22:9.66 23:1.81 24:1.81 29:0.6 30:1.81 32:0.6 33:1.81 34:1.21 36:1.21 37:1.21 39:0.6 40:1.21 42:0.6 43:0.6 44:9.66 45:33.21 46:436.59 47:97.83 48:8.45 49:3.02 50:0.6 51:1.81 52:1.21 53:1.81 55:0.6 56:0.6 57:0.6 58:0.6 59:0.6 61:0.6 62:0.6 63:1.81 64:0.6 65:3.62 66:10.27 67:53.74 68:57.37 69:9.66 70:2.42 71:0.6 72:0.6 73:1.21 74:1.21 76:1.21 78:0.6 79:0.6 80:1.21 81:0.6 82:6.64 83:10.87 84:8.45 85:3.02 87:0.6 89:1.21 90:1.21 91:1.81 92:1.21 93:1.81 94:3.62 95:1.81 96:0.6 
-0.9 3:0.6 9:0.6 10:0.6 13:0.6 15:0.6 17:2.99 18:7.77 19:35.86 20:125.52 21:43.04 22:5.38 23:1.2 25:1.2 29:0.6 30:0.6 31:0.6 32:0.6 33:0.6 35:0.6 36:1.2 37:1.2 38:0.6 39:1.2 40:1.79 41:1.79 42:1.79 43:1.2 44:7.17 45:44.83 46:453.08 47:69.34 48:4.18 49:3.59 50:1.79 52:0.6 53:1.2 55:0.6 56:0.6 57:1.2 58:2.39 59:1.2 61:0.6 62:0.6 63:1.2 64:2.39 65:0.6 66:10.16 67:64.55 68:40.65 69:5.98 70:1.79 71:2.39 72:0.6 73:0.6 75:2.39 77:2.99 80:0.6 81:1.79 82:3.59 83:2.99 84:7.77 85:2.39 86:1.2 87:1.79 88:0.6 89:1.2 90:0.6 91:0.6 92:1.79 93:0.6 94:1.2 95:1.2 97:0.6 
0.7876155557045698 2:0.64 3:0.64 8:1.27 9:1.27 13:0.64 17:3.82 18:11.46 19:56.05 20:146.5 21:34.39 22:6.37 23:1.91 24:1.27 25:0.64 31:2.55 32:0.64 34:1.27 35:0.64 37:1.91 38:1.27 40:1.27 41:1.91 42:0.64 43:4.46 44:6.37 45:71.34 46:425.48 47:50.32 48:10.19 49:3.82 50:2.55 51:1.27 52:1.27 53:1.91 54:0.64 55:0.64 56:0.64 59:0.64 60:0.64 61:0.64 63:1.27 64:1.91 65:0.64 66:11.46 67:51.59 68:23.57 69:2.55 70:2.55 71:1.91 72:1.27 73:0.64 74:1.27 75:0.64 76:0.64 77:0.64 78:0.64 79:1.27 80:1.91 81:1.91 82:3.18 83:5.1 84:3.82 85:1.27 86:1.27 87:0.64 88:1.27 89:1.27 90:1.27 91:3.18 92:1.91 93:1.91 94:1.91 95:0.64 97:1.27 
0.9 5:0.66 9:0.66 14:0.66 15:0.66 16:1.31 17:0.66 18:10.48 19:96.33 20:177.59 21:25.56 22:3.93 23:3.28 24:0.66 25:0.66 26:0.66 27:0.66 34:1.31 35:1.31 36:0.66 39:1.31 40:0.66 42:1.31 43:2.62 44:7.86 45:113.37 46:363.04 47:30.14 48:4.59 49:4.59 53:1.31 54:0.66 55:1.31 56:0.66 57:1.31 58:0.66 60:0.66 63:1.31 64:1.97 65:3.28 66:19.66 67:39.32 68:24.9 69:3.93 70:1.31 71:0.66 72:1.31 75:1.31 76:0.66 77:0.66 78:1.31 80:0.66 81:1.97 82:0.66 83:9.17 84:4.59 85:2.62 86:1.31 89:1.97 90:0.66 91:0.66 92:0.66 93:3.93 94:3.28 95:1.31 96:0.66 97:0.66 
0.6519303747966583 0:0.71 4:0.71 5:2.85 8:0.71 10:1.43 20:1.43 22:0.71 23:6.41 24:14.26 25:97.65 26:235.21 27:27.8 28:4.99 29:1.43 30:2.85 31:1.43 32:2.14 33:2.85 37:0.71 40:0.71 41:0.71 42:0.71 45:0.71 47:4.99 48:2.14 49:11.4 50:173.2 51:243.76 52:18.53 53:4.99 54:4.28 55:2.14 56:2.14 57:1.43 58:0.71 60:1.43 61:0.71 64:0.71 65:0.71 66:0.71 69:3.56 70:13.54 71:39.91 72:16.39 73:6.41 74:0.71 75:2.85 79:0.71 80:1.43 81:2.14 82:0.71 83:1.43 84:0.71 85:3.56 86:5.7 87:5.7 88:0.71 89:1.43 91:2.14 92:0.71 93:0.71 94:2.14 95:2.14 96:0.71 97:0.71 
-0.7479708981280296 0:1.34 4:1.34 12:0.67 20:0.67 23:3.36 24:18.15 25:123.66 26:157.26 27:23.52 28:3.36 29:0.67 30:4.03 31:2.69 32:0.67 34:1.34 35:0.67 37:2.02 40:0.67 41:0.67 42:0.67 44:0.67 46:0.67 47:0.67 48:2.69 49:18.15 50:261.42 51:193.55 52:15.46 53:6.05 54:2.02 55:0.67 57:1.34 58:0.67 59:0.67 62:0.67 65:2.02 66:0.67 67:2.02 68:0.67 69:0.67 70:23.52 71:53.09 72:20.16 73:5.38 74:0.67 75:2.02 76:2.02 79:0.67 80:0.67 81:0.67 82:0.67 83:1.34 84:2.69 85:4.03 86:4.7 87:4.7 88:1.34 89:0.67 92:0.67 93:3.36 94:0.67 95:4.03 96:2.02 97:1.34 
-0.9 0:0.68 1:1.36 14:0.68 15:0.68 16:0.68 18:0.68 20:0.68 21:1.36 22:2.71 23:7.46 24:21.71 25:120.08 26:95.66 27:8.14 28:2.71 29:1.36 30:2.71 33:2.04 34:0.68 35:0.68 38:0.68 39:1.36 40:0.68 41:0.68 43:0.68 44:2.04 46:2.04 47:2.04 48:2.71 49:21.71 50:368.39 51:149.93 52:14.25 53:6.78 54:2.71 55:2.71 58:0.68 60:1.36 61:0.68 62:0.68 63:0.68 65:0.68 66:0.68 67:2.71 68:1.36 69:4.07 70:20.35 71:55.63 72:10.85 73:4.07 74:0.68 75:1.36 77:0.68 78:1.36 80:0.68 81:1.36 82:0.68 83:1.36 84:3.39 85:6.11 86:8.82 87:3.39 88:1.36 89:1.36 90:2.71 91:0.68 92:0.68 93:2.04 94:0.68 95:2.04 96:2.04 
0.1695602505968516 0:0.63 13:1.26 14:0.63 15:0.63 17:0.63 18:0.63 20:0.63 22:3.78 23:6.31 24:23.33 25:99.62 26:54.22 27:6.31 28:0.63 29:1.89 30:1.26 31:1.26 32:1.26 33:1.26 35:0.63 36:0.63 37:0.63 39:0.63 41:0.63 42:1.26 43:2.52 44:0.63 45:1.26 46:1.26 47:3.15 48:5.67 49:38.46 50:441.99 51:98.99 52:12.61 53:1.89 54:1.89 55:0.63 56:1.26 57:1.89 58:0.63 61:1.89 64:1.26 66:1.26 67:1.89 68:1.26 69:3.78 70:31.53 71:70.62 72:17.02 73:3.15 77:0.63 78:0.63 79:1.89 80:0.63 82:1.89 83:1.89 84:3.15 85:10.09 86:10.09 87:0.63 88:0.63 90:1.89 91:1.26 93:0.63 94:2.52 95:0.63 96:1.26 97:0.63 
-0.9 0:1.88 2:1.88 12:0.63 18:0.63 20:1.25 21:2.5 22:1.25 23:6.89 24:28.8 25:86.41 26:36.94 27:7.51 28:4.38 30:1.25 31:0.63 32:0.63 33:1.25 34:2.5 35:0.63 41:0.63 42:0.63 44:2.5 45:0.63 46:2.5 47:3.13 48:11.9 49:55.73 50:472.14 51:63.24 52:9.39 53:1.88 54:0.63 56:0.63 57:0.63 58:0.63 59:1.88 61:0.63 62:0.63 63:1.88 64:0.63 65:0.63 66:0.63 68:3.76 69:1.88 70:36.94 71:72.01 72:9.39 73:2.5 74:1.25 75:0.63 77:0.63 82:1.25 83:0.63 84:3.13 85:13.78 86:11.9 87:6.26 88:1.25 89:1.25 90:0.63 91:1.25 92:1.88 93:1.88 94:1.88 95:1.25 97:1.25 
0.9 0:1.94 1:1.29 3:0.65 7:0.65 12:0.65 13:0.65 20:0.65 21:1.29 22:3.87 23:7.74 24:30.32 25:56.13 26:25.81 27:7.74 28:0.65 29:1.29 30:0.65 32:2.58 34:0.65 36:0.65 40:1.29 42:0.65 43:1.29 44:0.65 46:1.29 47:3.87 48:9.03 49:86.45 50:441.29 51:48.39 52:6.45 53:1.94 54:0.65 55:1.29 56:1.29 58:0.65 60:1.94 61:0.65 62:0.65 63:1.29 64:0.65 66:0.65 67:0.65 68:1.94 69:3.87 70:63.87 71:98.71 72:14.19 73:5.16 74:4.52 75:1.29 76:1.29 78:1.29 79:0.65 80:1.94 81:0.65 82:0.65 83:0.65 84:3.87 85:5.81 86:11.61 87:1.29 88:1.29 89:0.65 91:1.94 92:1.29 93:2.58 94:5.16 95:3.23 96:0.65 97:1.29 
0.9 1:0.68 3:0.68 7:0.68 11:0.68 17:0.68 19:0.68 21:1.37 22:2.05 23:9.58 24:33.52 25:45.14 26:13 27:4.79 28:2.74 29:0.68 30:1.37 31:2.74 32:0.68 33:0.68 37:0.68 38:2.05 39:0.68 40:1.37 41:1.37 42:0.68 43:1.37 45:0.68 46:2.74 47:4.1 48:9.58 49:141.59 50:375.51 51:25.31 52:7.52 53:2.74 54:2.74 55:1.37 56:0.68 57:2.05 58:1.37 61:1.37 65:2.05 67:1.37 68:5.47 69:12.31 70:90.29 71:92.34 72:9.58 73:2.05 74:2.05 75:2.05 76:1.37 77:1.37 78:2.05 80:1.37 82:2.05 83:2.05 84:6.84 85:16.42 86:16.42 87:4.79 88:2.74 91:2.05 92:0.68 93:0.68 94:0.68 95:3.42 96:2.74 97:2.74 
-0.9 4:1.36 5:0.68 13:0.68 18:0.68 20:0.68 21:0.68 22:5.46 23:21.15 24:33.42 25:34.11 26:14.32 27:2.73 28:1.36 29:0.68 30:2.73 31:2.73 32:0.68 33:1.36 34:1.36 36:0.68 37:1.36 38:0.68 39:1.36 41:1.36 43:0.68 45:1.36 47:2.05 48:22.51 49:210.1 50:281.72 51:30.7 52:6.14 53:2.05 56:0.68 58:0.68 59:1.36 61:0.68 62:0.68 63:2.05 66:0.68 67:2.05 68:2.73 69:17.74 70:147.34 71:64.12 72:8.19 73:3.41 74:3.41 75:0.68 76:0.68 77:0.68 78:2.05 79:1.36 80:0.68 81:1.36 83:3.41 84:4.09 85:17.05 86:6.14 87:3.41 88:2.05 89:0.68 90:0.68 91:0.68 92:1.36 94:0.68 95:2.73 96:2.73 97:1.36 
0.8043698177555483 0:0.67 2:0.67 14:0.67 18:0.67 20:0.67 21:0.67 22:4.67 23:14.02 24:36.05 25:30.04 26:12.68 28:2 29:0.67 31:1.34 32:0.67 33:0.67 36:0.67 38:2 39:3.34 40:0.67 41:0.67 42:1.34 43:1.34 44:1.34 45:4.01 46:1.34 47:8.68 48:23.36 49:273.03 50:148.2 51:16.69 52:2.67 53:0.67 54:0.67 55:1.34 56:1.34 57:0.67 58:0.67 59:1.34 61:1.34 62:0.67 64:1.34 65:2 66:1.34 67:2.67 68:2.67 69:23.36 70:207.61 71:65.42 72:9.35 73:2 75:2 76:2 77:2 79:1.34 80:2 82:0.67 83:3.34 84:2 85:20.03 86:16.69 87:4.01 88:0.67 89:0.67 90:0.67 92:2.67 93:4.01 94:5.34 95:4.67 96:2 97:0.67 
-0.9 1:0.65 2:0.65 5:0.65 9:0.65 12:0.65 17:0.65 18:0.65 20:0.65 21:3.88 22:5.17 23:19.4 24:31.05 25:21.99 26:9.7 27:1.29 28:1.29 29:0.65 30:1.94 32:0.65 33:1.94 34:1.29 37:0.65 39:0.65 40:0.65 41:1.29 42:1.29 43:0.65 44:1.94 45:1.29 46:1.94 47:7.76 48:32.99 49:304.66 50:95.73 51:11 52:3.88 53:2.59 54:1.94 55:1.29 58:1.29 59:1.94 62:1.94 63:1.29 64:0.65 66:1.94 67:2.59 68:4.53 69:45.28 70:236.74 71:46.57 72:5.82 73:2.59 74:0.65 75:1.29 78:1.29 79:0.65 82:1.29 83:2.59 84:3.23 85:23.29 86:14.88 87:5.17 88:0.65 89:1.29 90:1.29 91:2.59 93:1.29 94:2.59 95:3.23 96:0.65 97:1.29 
0.797952960078399 2:0.64 3:0.64 7:0.64 9:0.64 14:0.64 18:0.64 20:0.64 21:4.51 22:5.15 23:21.91 24:22.55 25:17.4 26:7.73 27:2.58 28:1.29 30:1.29 31:1.93 33:0.64 35:1.29 36:1.29 37:0.64 38:1.29 40:1.93 43:2.58 44:1.29 45:0.64 46:3.87 47:9.02 48:62.5 49:266.11 50:62.5 51:8.38 52:3.87 53:1.93 54:1.29 55:0.64 56:1.29 59:1.29 60:0.64 61:1.29 62:0.64 63:0.64 65:0.64 66:1.29 67:1.93 68:7.09 69:57.35 70:285.44 71:35.44 72:6.44 73:1.29 74:1.93 75:0.64 78:2.58 81:0.64 82:1.29 83:1.93 84:7.73 85:21.26 86:9.66 87:1.29 88:1.29 89:1.93 90:0.64 91:1.29 92:2.58 93:3.87 94:3.22 95:7.09 96:0.64 97:3.22 
0.9 0:0.67 1:0.67 3:0.67 10:0.67 13:0.67 17:0.67 19:0.67 20:1.34 21:6.04 22:8.06 23:18.13 24:20.82 25:7.39 26:1.34 27:3.36 28:1.34 29:0.67 30:2.01 32:1.34 33:0.67 35:0.67 36:0.67 38:1.34 39:2.01 41:1.34 42:0.67 43:0.67 45:0.67 46:8.06 47:14.1 48:86.64 49:243.12 50:44.33 51:9.4 52:3.36 54:4.03 55:1.34 56:0.67 57:0.67 58:0.67 61:0.67 63:0.67 64:2.01 65:0.67 66:1.34 67:2.69 68:8.73 69:97.38 70:259.23 71:24.85 72:4.7 73:1.34 74:2.01 75:3.36 77:2.01 78:0.67 79:2.69 80:1.34 81:0.67 83:3.36 84:14.78 85:28.21 86:8.73 87:5.37 88:2.01 89:2.01 90:1.34 92:1.34 93:2.69 94:6.72 95:2.69 96:1.34 97:0.67 
-0.1643914959171174 3:1.33 4:0.66 5:0.66 8:0.66 14:0.66 16:0.66 17:0.66 19:1.33 20:1.99 21:3.32 22:12.62 23:17.94 24:19.93 25:9.97 26:2.66 27:1.33 30:1.99 31:0.66 33:1.99 34:1.33 40:1.33 42:1.99 44:2.66 45:1.99 46:4.65 47:20.6 48:97.67 49:221.93 50:28.57 51:6.64 52:5.32 53:1.33 54:1.99 55:0.66 57:0.66 58:0.66 59:0.66 61:1.99 63:0.66 64:1.33 65:1.33 66:3.32 67:4.65 68:15.28 69:161.46 70:208.64 71:19.93 72:4.65 73:1.99 74:1.99 75:0.66 77:1.33 79:0.66 80:1.99 81:0.66 82:0.66 83:1.99 84:19.27 85:36.54 86:6.64 87:2.66 88:0.66 89:1.99 91:1.99 92:1.33 93:0.66 94:2.66 95:3.99 96:2.66 97:1.99 
-0.9 6:1.34 9:0.67 13:0.67 15:0.67 17:0.67 18:0.67 19:1.34 20:1.34 21:4.69 22:16.09 23:21.45 24:16.76 25:8.71 26:2.01 27:0.67 28:0.67 29:1.34 30:2.01 31:3.35 33:0.67 34:2.01 35:3.35 36:1.34 38:0.67 39:0.67 40:3.35 41:1.34 43:0.67 44:1.34 45:2.01 46:5.36 47:23.46 48:156.84 49:149.46 50:18.77 51:6.03 52:4.02 53:0.67 54:1.34 55:2.01 57:0.67 59:0.67 60:0.67 62:0.67 63:1.34 64:1.34 65:0.67 66:2.68 67:3.35 68:18.1 69:229.22 70:151.47 71:14.75 72:4.69 73:2.68 74:0.67 75:0.67 77:1.34 78:0.67 79:3.35 80:2.01 81:1.34 82:3.35 83:2.68 84:20.78 85:33.51 86:9.38 87:2.68 88:0.67 90:0.67 91:1.34 93:2.01 94:4.02 95:3.35 96:1.34 97:0.67 
0.9 3:0.66 8:0.66 15:0.66 20:1.99 21:5.3 22:15.23 23:22.52 24:11.92 25:7.28 26:0.66 27:1.32 28:1.32 29:0.66 31:1.32 32:1.32 33:0.66 36:0.66 37:0.66 39:0.66 40:1.32 41:0.66 42:1.32 43:0.66 44:1.32 45:1.99 46:9.27 47:26.49 48:184.77 49:88.74 50:13.25 51:3.97 52:0.66 53:1.32 54:1.32 55:1.99 56:1.32 57:0.66 59:1.32 64:1.32 65:0.66 66:0.66 67:5.3 68:29.8 69:321.19 70:110.6 71:7.28 72:2.65 73:1.99 74:0.66 75:0.66 76:0.66 77:1.99 80:0.66 81:1.32 82:1.99 83:7.28 84:23.84 85:31.13 86:5.96 87:1.99 88:2.65 89:0.66 92:0.66 93:4.64 94:7.28 95:3.31 96:0.66 97:2.65 
0.9 0:0.61 2:1.23 3:0.61 15:0.61 16:0.61 20:4.91 21:11.67 22:17.2 23:15.36 24:7.37 25:4.91 26:1.23 27:2.46 29:0.61 30:1.23 31:1.84 32:1.84 33:0.61 34:0.61 35:0.61 36:0.61 37:0.61 39:0.61 41:0.61 42:1.84 43:1.84 44:3.69 45:2.46 46:9.83 47:42.38 48:210.07 49:67.57 50:9.83 51:2.46 52:1.23 53:1.23 54:1.23 55:1.84 57:0.61 58:0.61 59:1.23 60:0.61 62:1.23 64:1.84 65:1.84 66:1.84 67:4.3 68:37.47 69:341.52 70:62.04 71:5.53 72:1.84 73:1.23 74:1.23 75:1.23 76:1.23 78:0.61 80:4.3 82:2.46 83:4.91 84:25.18 85:29.48 86:4.91 87:1.84 88:1.84 89:1.84 91:1.84 92:1.23 93:1.84 94:4.3 95:3.07 96:3.69 97:3.07 
0.9 0:1.26 1:0.63 4:0.63 6:0.63 8:0.63 11:0.63 13:0.63 17:0.63 19:0.63 21:7.55 22:22.64 23:18.24 24:9.43 25:3.77 30:0.63 33:0.63 34:1.26 36:0.63 39:0.63 40:0.63 44:1.89 45:1.26 46:7.55 47:57.23 48:207.55 49:37.11 50:6.92 51:3.77 52:1.89 53:1.26 54:0.63 55:1.26 56:1.26 57:0.63 59:0.63 60:0.63 62:0.63 63:0.63 64:0.63 65:3.77 66:4.4 67:7.55 68:62.26 69:349.06 70:47.17 71:7.55 72:1.89 73:1.89 74:1.89 76:0.63 77:0.63 78:1.26 79:1.89 80:0.63 81:3.77 82:1.26 83:5.03 84:32.08 85:26.42 86:3.77 87:0.63 88:1.26 89:1.89 91:3.14 92:1.26 93:3.77 94:8.18 95:4.4 96:1.89 97:3.14 
0.9 10:0.65 19:1.94 20:1.94 21:14.87 22:16.81 23:14.87 24:7.11 25:1.94 27:0.65 28:0.65 30:1.29 32:0.65 33:1.94 36:0.65 37:0.65 38:2.59 39:1.29 40:1.29 41:1.29 42:1.29 43:1.94 44:0.65 45:5.82 46:13.57 47:104.07 48:166.13 49:31.67 50:3.88 51:3.88 52:1.29 53:0.65 55:1.94 57:1.29 58:0.65 59:3.23 60:0.65 62:0.65 63:1.94 64:1.29 65:3.23 66:6.46 67:12.28 68:98.25 69:319.97 70:26.5 71:4.52 72:2.59 73:2.59 74:1.29 75:1.94 76:1.94 77:1.29 78:0.65 79:0.65 80:0.65 81:1.94 82:2.59 83:7.11 84:38.78 85:20.04 86:4.52 87:1.29 88:1.29 90:1.94 91:1.94 93:2.59 94:7.11 95:3.23 97:1.29 
0.9 3:0.71 16:2.12 17:0.71 18:1.41 19:2.12 20:3.53 21:12.7 22:27.52 23:12.7 24:4.94 25:2.12 26:0.71 27:1.41 28:0.71 30:1.41 31:0.71 32:2.12 36:0.71 37:0.71 38:2.12 39:2.12 40:1.41 42:2.12 43:4.23 44:2.82 45:7.06 46:25.41 47:139.03 48:139.03 49:19.76 50:8.47 52:2.12 54:2.12 55:0.71 56:0.71 57:0.71 58:0.71 61:0.71 62:2.12 65:1.41 66:2.82 67:7.76 68:155.26 69:239.24 70:24.7 71:4.23 72:3.53 73:2.82 74:2.12 77:1.41 78:0.71 79:2.12 80:0.71 81:1.41 82:2.12 83:7.76 84:45.87 85:26.82 86:5.65 87:0.71 88:2.12 89:1.41 91:0.71 92:0.71 93:3.53 94:3.53 95:2.12 96:3.53 97:0.71 
0.3662756038455298 3:0.67 10:0.67 14:1.33 16:0.67 17:2 19:3.33 20:8.66 21:19.31 22:20.64 23:8.66 24:5.33 25:0.67 26:1.33 28:1.33 29:2.66 30:2 34:1.33 35:2 36:0.67 37:1.33 38:0.67 39:0.67 41:1.33 42:1.33 43:0.67 44:5.33 45:6.66 46:33.95 47:191.74 48:116.51 49:17.31 50:3.33 51:3.33 52:1.33 53:0.67 54:1.33 55:1.33 56:0.67 57:1.33 58:0.67 61:1.33 62:2 63:0.67 64:1.33 65:3.33 66:3.33 67:14.65 68:214.38 69:169.77 70:15.98 71:3.33 72:2.66 74:0.67 75:1.33 76:1.33 79:1.33 80:0.67 81:1.33 82:2 83:11.32 84:32.62 85:11.98 86:5.33 87:1.33 88:0.67 89:1.33 90:2 93:2.66 94:6.66 95:3.99 96:2.66 97:1.33 
-0.9 9:0.65 13:0.65 18:3.9 19:3.9 20:11.7 21:20.79 22:22.74 23:7.15 24:3.25 25:1.95 26:0.65 30:0.65 31:1.95 34:1.3 35:0.65 38:1.95 39:0.65 40:0.65 41:1.3 42:0.65 43:2.6 44:2.6 45:6.5 46:46.78 47:276.8 48:77.97 49:12.35 50:4.55 51:1.3 52:1.3 53:0.65 54:0.65 55:0.65 56:1.3 57:0.65 58:0.65 59:0.65 60:0.65 61:1.3 62:1.3 63:1.3 64:1.3 65:1.95 66:5.2 67:22.09 68:244.96 69:105.26 70:8.45 71:0.65 72:0.65 73:1.3 74:1.95 75:0.65 76:0.65 78:1.3 79:1.95 80:1.3 81:1.3 82:2.6 83:9.1 84:28.59 85:9.75 86:2.6 87:1.95 88:1.3 89:2.6 90:0.65 92:0.65 93:0.65 94:5.2 95:1.95 97:1.95 
0.9 1:0.65 4:0.65 7:0.65 14:0.65 17:1.31 18:2.62 19:2.62 20:12.44 21:30.12 22:11.13 23:5.89 24:1.31 26:0.65 31:0.65 32:1.31 35:0.65 36:0.65 37:2.62 38:1.96 39:0.65 40:0.65 41:1.96 42:0.65 43:0.65 44:5.89 45:5.89 46:72.04 47:274.39 48:53.7 49:9.82 50:3.93 51:1.31 52:1.31 53:1.96 55:0.65 57:1.31 58:0.65 59:1.31 61:1.31 62:0.65 63:3.27 64:1.31 65:3.93 66:6.55 67:29.47 68:274.39 69:64.18 70:3.93 71:1.96 72:1.31 73:1.31 74:2.62 75:1.96 76:0.65 77:0.65 78:0.65 79:0.65 80:0.65 81:3.27 82:3.27 83:9.82 84:20.3 85:7.86 86:3.93 87:3.93 88:0.65 89:1.96 90:1.96 91:0.65 92:1.96 93:5.89 94:6.55 95:3.27 96:3.93 97:1.96 
-0.4667616126123535 0:1.33 1:0.67 11:0.67 15:0.67 17:2.66 18:3.33 19:6.66 20:23.3 21:28.63 22:12.65 23:5.99 24:1.33 25:0.67 27:0.67 28:0.67 30:0.67 31:1.33 32:1.33 36:1.33 37:0.67 40:1.33 42:2 43:2.66 44:5.99 45:13.32 46:105.19 47:286.95 48:39.95 49:11.32 50:3.33 51:1.33 52:0.67 53:1.33 54:2 55:0.67 57:0.67 59:0.67 61:1.33 63:1.33 64:2.66 65:2 66:5.33 67:50.6 68:254.33 69:35.95 70:5.99 71:2 72:2 73:1.33 75:1.33 80:0.67 81:0.67 82:2 83:14.65 84:14.65 85:5.33 86:2.66 87:1.33 88:2.66 89:0.67 90:2 92:3.33 93:3.33 94:1.33 95:1.33 96:0.67 97:2 
0.9 0:0.68 6:0.68 11:0.68 12:0.68 17:1.36 19:5.42 20:25.76 21:27.12 22:14.92 23:6.1 24:2.03 28:2.71 29:0.68 31:0.68 32:0.68 33:1.36 34:0.68 36:0.68 37:0.68 38:2.03 39:1.36 40:0.68 41:1.36 42:1.36 44:5.42 45:22.37 46:171.53 47:267.8 48:27.12 49:5.42 50:1.36 51:3.39 52:1.36 54:2.03 55:1.36 56:0.68 57:1.36 58:0.68 59:1.36 61:2.03 62:1.36 64:1.36 65:2.71 66:9.49 67:54.24 68:195.25 69:32.54 70:4.75 71:2.03 72:2.03 73:1.36 74:0.68 76:0.68 77:0.68 79:1.36 80:0.68 81:2.71 82:6.1 83:18.98 84:16.27 85:6.78 86:1.36 87:2.03 88:2.71 90:0.68 91:0.68 92:1.36 93:2.71 94:3.39 95:3.39 96:2.03 97:2.03 
0.9 13:1.34 14:0.67 15:0.67 16:1.34 17:1.34 18:4.02 19:12.05 20:44.85 21:38.82 22:6.69 23:4.02 24:1.34 25:1.34 27:0.67 30:1.34 33:0.67 34:1.34 35:0.67 36:0.67 37:1.34 38:1.34 39:0.67 40:0.67 43:0.67 44:5.35 45:30.79 46:391.57 47:122.49 48:20.08 49:7.36 50:5.35 51:1.34 53:2.01 54:0.67 55:0.67 56:0.67 57:0.67 62:2.01 63:1.34 64:2.01 65:0.67 66:10.71 67:76.97 68:102.41 69:13.39 70:4.69 71:0.67 72:1.34 73:0.67 74:0.67 75:0.67 77:0.67 78:0.67 80:0.67 81:1.34 82:4.02 83:14.73 84:12.72 85:4.69 86:3.35 87:0.67 88:0.67 89:1.34 90:0.67 91:0.67 92:3.35 93:3.35 94:3.35 95:5.35 97:2.01 
-0.9 2:0.62 5:0.62 6:0.62 10:0.62 13:0.62 16:0.62 17:2.47 18:5.55 19:18.5 20:63.5 21:33.91 22:9.86 23:4.32 25:0.62 26:1.85 27:1.23 30:0.62 31:0.62 32:0.62 33:0.62 34:0.62 36:0.62 37:0.62 38:0.62 40:1.23 41:0.62 42:1.85 43:3.08 44:5.55 45:50.55 46:447.6 47:92.48 48:7.4 49:2.47 50:2.47 51:3.08 52:1.85 54:0.62 55:1.23 56:0.62 57:1.23 58:0.62 59:1.23 60:0.62 61:0.62 62:0.62 63:1.23 64:1.85 65:3.7 66:14.8 67:71.52 68:61.65 69:11.71 70:4.32 71:0.62 72:0.62 74:0.62 75:0.62 76:1.85 77:0.62 79:0.62 80:1.23 81:0.62 82:4.32 83:10.48 84:8.01 85:4.32 86:0.62 87:1.23 89:0.62 90:1.23 91:1.23 92:1.23 93:2.47 94:4.32 95:0.62 96:1.85 97:1.23 
0.9 16:1.77 17:0.59 18:5.32 19:34.89 20:81.61 21:24.84 22:4.14 23:2.96 24:1.18 25:0.59 30:0.59 32:1.77 33:0.59 34:1.18 35:1.18 36:1.18 37:1.18 39:1.18 40:1.18 41:0.59 42:0.59 43:2.37 44:10.64 45:69.19 46:468.36 47:60.32 48:7.69 49:4.14 50:1.77 51:1.77 52:1.77 53:1.77 54:1.77 55:1.18 57:1.18 58:0.59 59:1.77 60:0.59 61:0.59 62:1.18 63:0.59 64:1.18 65:2.37 66:11.24 67:73.33 68:33.71 69:10.05 70:1.18 71:3.55 72:0.59 73:0.59 74:1.18 75:1.18 76:0.59 78:0.59 79:1.18 80:0.59 81:2.37 82:4.73 83:10.05 84:10.64 85:3.55 86:1.77 88:0.59 89:1.77 90:0.59 91:0.59 92:2.96 93:1.77 94:1.77 95:2.37 96:1.18 97:1.77 
-0.9 2:1.25 5:1.25 15:1.25 16:1.25 17:2.5 18:12.5 19:52.5 20:106.25 21:31.25 22:4.38 23:2.5 24:1.25 25:1.25 30:1.25 31:1.25 32:0.62 33:1.25 35:0.62 37:1.25 38:0.62 42:0.62 43:5 44:11.88 45:108.12 46:416.88 47:33.12 48:1.25 49:5 50:1.25 51:1.88 52:0.62 53:1.25 55:0.62 56:0.62 58:1.25 59:1.25 61:1.88 62:1.88 63:0.62 64:3.12 65:1.25 66:18.75 67:66.25 68:34.38 69:1.88 70:1.25 71:1.25 75:0.62 77:0.62 78:1.25 79:0.62 80:0.62 81:1.88 82:6.25 83:11.88 84:8.12 85:3.12 86:0.62 87:1.88 89:0.62 90:0.62 91:1.25 92:1.25 93:3.75 94:1.88 95:1.88 97:1.88 
0.9 0:0.65 11:0.65 14:0.65 15:1.3 16:0.65 17:1.96 18:12.39 19:74.32 20:112.78 21:22.82 22:6.52 23:1.96 26:0.65 28:1.3 30:0.65 32:1.3 33:0.65 34:1.3 35:0.65 38:1.3 39:0.65 41:0.65 42:1.3 43:3.91 44:18.25 45:146.02 46:370.27 47:34.55 48:7.17 49:0.65 50:1.3 51:0.65 52:0.65 53:0.65 54:0.65 55:1.96 56:0.65 57:0.65 58:1.3 59:0.65 60:2.61 61:1.3 62:1.96 63:2.61 64:1.3 65:3.91 66:16.95 67:43.02 68:26.08 69:4.56 70:1.3 71:1.3 73:1.96 74:2.61 75:0.65 76:1.3 77:0.65 78:0.65 79:1.96 80:1.3 81:2.61 82:3.91 83:11.73 84:7.17 85:1.3 86:2.61 87:0.65 88:1.96 89:1.3 90:1.3 91:1.3 92:0.65 93:5.87 94:0.65 95:0.65 96:1.3 
-0.5599214624621007 7:0.69 12:0.69 16:2.77 17:2.08 18:31.86 19:226.45 20:117.04 21:11.77 22:2.77 23:0.69 24:0.69 25:2.08 26:0.69 34:1.39 35:0.69 36:0.69 37:0.69 39:2.08 41:2.77 42:4.85 43:4.85 44:20.08 45:252.08 46:170.36 47:14.54 48:1.39 49:2.08 50:1.39 53:0.69 56:0.69 57:0.69 58:0.69 59:0.69 61:0.69 62:1.39 63:0.69 64:0.69 65:5.54 66:22.16 67:25.62 68:13.16 69:0.69 70:2.08 71:1.39 72:0.69 73:2.77 74:2.08 76:1.39 77:0.69 79:0.69 81:2.77 82:6.23 83:8.31 84:1.39 85:2.77 87:0.69 88:0.69 89:0.69 90:0.69 91:0.69 92:3.46 93:1.39 94:2.08 95:0.69 96:1.39 
-0.1751054499261894 0:1.34 2:0.67 14:0.67 17:0.67 18:0.67 19:1.34 21:0.67 22:1.34 23:0.67 24:6.69 25:61.54 26:250.17 27:44.82 28:6.02 29:0.67 30:0.67 31:2.01 33:1.34 35:0.67 36:0.67 37:2.01 42:1.34 43:1.34 44:2.01 45:0.67 46:0.67 47:0.67 48:2.68 49:10.03 50:99.67 51:328.43 52:28.76 53:6.69 54:2.01 55:2.01 56:0.67 59:0.67 60:1.34 61:1.34 63:0.67 66:0.67 67:3.34 68:0.67 69:1.34 70:10.03 71:34.11 72:36.12 73:5.35 74:2.68 76:0.67 77:0.67 78:0.67 79:0.67 80:0.67 81:1.34 83:1.34 84:1.34 85:2.68 86:5.35 87:2.01 88:1.34 89:0.67 91:1.34 92:0.67 93:2.01 94:0.67 95:3.34 96:0.67 97:0.67 
0.9 0:0.68 1:0.68 2:0.68 4:0.68 5:0.68 17:0.68 19:1.37 21:0.68 22:1.37 23:2.73 24:10.25 25:49.9 26:176.35 27:35.54 28:3.42 29:1.37 30:3.42 31:0.68 35:1.37 36:0.68 37:0.68 39:2.73 40:0.68 41:0.68 44:0.68 45:1.37 46:1.37 47:1.37 48:4.78 49:17.09 50:142.17 51:337.66 52:28.02 53:2.05 55:1.37 56:1.37 57:1.37 59:2.05 62:1.37 64:1.37 65:2.73 66:2.05 67:0.68 68:2.05 69:3.42 70:13.67 71:56.73 72:28.71 73:4.78 74:0.68 75:1.37 76:1.37 77:1.37 78:0.68 80:2.05 81:1.37 83:1.37 84:0.68 85:5.47 86:6.15 87:2.73 88:2.05 89:0.68 92:1.37 93:1.37 94:2.73 95:4.78 96:2.05 97:1.37 
-0.02039317740712349 0:0.69 1:0.69 9:0.69 10:0.69 12:0.69 19:0.69 21:0.69 22:1.38 23:1.38 24:12.4 25:74.38 26:119.83 27:28.24 28:2.75 29:1.38 30:1.38 32:2.07 33:2.07 34:1.38 37:1.38 38:2.75 40:1.38 41:0.69 43:1.38 45:1.38 46:1.38 47:2.75 48:7.58 49:25.48 50:229.34 51:276.17 52:15.84 53:4.82 54:1.38 55:1.38 56:1.38 57:1.38 58:0.69 59:0.69 60:1.38 61:1.38 63:0.69 64:1.38 65:1.38 66:0.69 68:1.38 69:3.44 70:18.6 71:61.29 72:31.68 73:2.75 74:2.07 75:1.38 78:1.38 80:0.69 81:2.07 82:1.38 83:0.69 85:4.82 86:10.33 87:1.38 88:3.44 89:1.38 91:0.69 92:4.13 93:1.38 94:0.69 95:0.69 96:2.07 97:0.69 
0.8275447216958997 0:1.35 5:0.67 17:0.67 21:0.67 22:2.69 23:3.37 24:16.84 25:68.69 26:79.46 27:18.18 28:4.71 29:0.67 30:1.35 31:0.67 32:2.02 34:0.67 37:0.67 38:0.67 39:2.02 40:1.35 42:3.37 43:0.67 44:1.35 46:0.67 47:4.71 48:4.71 49:24.24 50:311.78 51:214.14 52:20.2 53:4.71 54:1.35 55:2.02 56:1.35 57:2.69 58:1.35 59:2.02 60:0.67 61:0.67 62:0.67 64:0.67 65:0.67 67:2.69 68:2.69 69:7.41 70:22.9 71:69.36 72:20.88 73:5.39 74:1.35 75:1.35 76:2.69 78:0.67 79:0.67 80:1.35 81:0.67 82:0.67 83:3.37 84:2.02 85:12.12 86:11.45 87:2.69 88:2.02 89:2.02 90:0.67 91:0.67 92:0.67 93:2.02 94:1.35 95:2.69 96:2.69 97:0.67 
0.9 0:0.64 1:0.64 3:0.64 16:0.64 17:0.64 21:0.64 22:2.56 23:7.68 24:13.44 25:56.98 26:51.22 27:10.24 28:3.84 29:0.64 30:3.2 32:0.64 35:0.64 36:1.28 41:0.64 42:1.92 43:1.28 44:0.64 45:0.64 46:1.92 47:2.56 48:10.88 49:28.81 50:406.53 51:128.04 52:16.01 53:1.92 54:1.92 55:1.92 56:0.64 59:0.64 62:2.56 63:0.64 64:0.64 65:1.92 66:1.28 67:2.56 68:3.84 69:5.76 70:27.53 71:104.35 72:21.77 73:5.76 74:1.92 75:2.56 76:1.92 77:1.28 78:1.92 79:0.64 80:0.64 81:3.2 82:0.64 83:0.64 84:2.56 85:6.4 86:10.88 87:5.12 88:0.64 89:1.28 90:2.56 91:1.28 93:1.92 94:3.84 95:2.56 96:1.28 97:2.56 
0.268099322338599 0:0.61 7:0.61 16:0.61 20:1.21 21:1.21 22:3.03 23:6.67 24:21.83 25:46.09 26:29.11 27:7.28 28:3.64 29:1.82 30:3.64 31:1.21 33:0.61 34:0.61 35:1.21 36:2.43 38:1.21 39:1.21 40:0.61 41:1.82 42:1.82 43:1.21 45:0.61 46:1.21 47:0.61 48:8.49 49:44.27 50:424.5 51:84.9 52:11.52 53:3.64 54:1.82 56:1.21 58:1.21 60:0.61 62:0.61 63:0.61 64:0.61 65:0.61 66:0.61 67:0.61 68:2.43 69:9.7 70:60.64 71:120.07 72:15.16 73:3.03 74:3.03 76:0.61 77:1.21 78:1.21 79:1.21 80:0.61 81:0.61 84:3.64 85:5.46 86:15.16 87:7.28 88:3.03 89:2.43 90:0.61 91:0.61 92:0.61 93:3.03 94:2.43 95:4.24 96:1.82 97:0.61 
-0.9 4:0.63 5:1.27 9:1.27 11:0.63 12:0.63 21:2.54 22:2.54 23:5.71 24:26.02 25:43.15 26:17.13 27:3.81 28:1.27 29:1.27 30:3.81 31:0.63 32:0.63 33:0.63 35:0.63 36:1.27 38:0.63 39:0.63 40:0.63 45:0.63 46:2.54 47:1.9 48:6.98 49:67.26 50:416.88 51:53.93 52:10.15 53:3.17 54:1.27 55:0.63 56:1.27 57:1.27 58:0.63 59:1.27 63:1.27 64:0.63 65:0.63 66:0.63 68:3.17 69:13.96 70:72.97 71:145.3 72:15.86 73:3.81 74:1.27 75:0.63 76:1.9 77:1.27 81:0.63 82:0.63 83:0.63 84:1.9 85:8.25 86:20.94 87:6.35 88:0.63 89:2.54 92:0.63 94:1.9 95:2.54 96:1.27 97:0.63 
-0.9 0:1.27 5:0.64 6:0.64 7:0.64 14:0.64 15:0.64 16:0.64 21:1.91 22:2.55 23:7.65 24:23.58 25:33.78 26:12.11 27:7.01 28:5.74 29:0.64 30:1.27 31:2.55 32:1.27 33:0.64 34:0.64 35:1.27 36:1.27 37:1.27 39:1.27 40:1.27 41:0.64 43:1.27 44:1.27 45:2.55 46:2.55 47:3.19 48:13.38 49:101.98 50:335.88 51:40.79 52:7.65 53:3.82 54:1.27 55:0.64 56:1.91 57:0.64 58:0.64 61:1.91 62:1.27 63:0.64 64:0.64 67:1.91 68:4.46 69:10.2 70:131.93 71:129.38 72:14.02 73:4.46 74:1.27 75:0.64 76:0.64 78:1.27 80:0.64 81:0.64 83:1.91 84:4.46 85:12.75 86:17.21 87:5.74 88:1.91 89:0.64 90:3.19 91:1.91 93:1.27 94:4.46 95:2.55 96:1.91 97:1.27 
-0.7251271955813794 0:1.38 1:1.38 3:0.69 4:0.69 20:0.69 21:2.08 22:3.46 23:11.07 24:22.15 25:31.14 26:12.46 27:4.84 28:0.69 30:1.38 31:2.77 33:0.69 34:1.38 35:1.38 38:0.69 40:0.69 43:2.08 44:0.69 46:0.69 47:6.23 48:18.69 49:131.49 50:243.6 51:33.91 52:5.54 53:2.77 54:1.38 55:1.38 57:0.69 60:1.38 62:1.38 63:2.08 64:0.69 65:1.38 66:2.08 67:1.38 68:1.38 69:16.61 70:208.3 71:117.65 72:9.69 73:4.15 74:0.69 75:0.69 76:1.38 77:1.38 78:1.38 79:1.38 80:0.69 81:2.08 82:1.38 83:2.08 84:5.54 85:17.99 86:21.45 87:3.46 88:0.69 89:0.69 90:1.38 91:1.38 93:0.69 94:5.54 95:6.92 96:0.69 97:1.38 
0.9 3:0.67 6:0.67 11:0.67 14:0.67 16:0.67 18:1.34 19:0.67 20:1.34 21:0.67 22:2.68 23:8.04 24:23.46 25:12.06 26:8.04 27:4.02 28:1.34 29:0.67 30:0.67 31:0.67 32:0.67 34:1.34 35:0.67 38:2.68 40:0.67 41:0.67 42:0.67 43:0.67 44:0.67 45:0.67 46:2.01 47:6.7 48:19.44 49:164.88 50:164.88 51:24.13 52:10.72 53:0.67 54:4.02 56:1.34 57:0.67 58:1.34 59:2.01 60:2.01 61:0.67 62:2.01 63:2.01 64:0.67 66:1.34 67:1.34 68:2.01 69:32.17 70:266.76 71:91.82 72:9.38 73:5.36 74:3.35 75:0.67 77:0.67 78:0.67 79:1.34 80:1.34 82:0.67 83:1.34 84:10.05 85:26.14 86:22.79 87:5.36 88:2.68 89:1.34 90:0.67 91:2.01 92:1.34 93:5.36 94:4.02 95:6.03 96:2.68 97:0.67 
-0.9 0:1.21 2:0.61 3:0.61 6:0.61 9:1.21 11:0.61 16:0.61 17:1.21 21:4.24 22:6.67 23:11.52 24:20.61 25:13.33 26:3.03 27:2.42 30:0.61 32:0.61 34:0.61 36:0.61 37:0.61 38:0.61 39:1.21 40:0.61 42:1.82 43:0.61 45:1.21 46:2.42 47:10.3 48:44.24 49:186.06 50:60.61 51:9.7 52:2.42 53:2.42 55:0.61 56:1.21 57:1.21 58:1.82 60:0.61 61:0.61 64:1.21 65:1.82 66:0.61 67:1.82 68:6.67 69:63.03 70:373.94 71:50.3 72:5.45 73:1.82 74:1.82 75:0.61 77:1.21 78:0.61 79:0.61 81:0.61 82:0.61 83:1.21 84:6.67 85:38.18 86:18.18 87:3.64 88:3.03 89:1.21 90:0.61 91:0.61 93:0.61 94:5.45 95:3.64 97:2.42 
-0.9 2:0.61 3:0.61 17:0.61 19:1.22 20:1.83 21:3.05 22:5.49 23:15.25 24:20.74 25:6.1 26:3.66 27:1.22 28:1.22 29:1.22 30:1.22 31:1.22 32:0.61 33:1.22 34:0.61 36:1.22 38:2.44 39:0.61 41:1.83 42:0.61 43:1.83 45:0.61 46:5.49 47:7.93 48:62.23 49:167.18 50:44.54 51:6.71 52:3.66 53:1.83 54:3.66 55:3.66 58:1.83 59:1.22 60:0.61 61:1.22 62:1.22 63:1.22 64:0.61 66:0.61 67:4.88 68:11.59 69:106.77 70:339.84 71:30.51 72:6.71 73:1.22 75:1.83 76:0.61 77:0.61 78:1.22 79:1.22 81:1.22 82:2.44 83:4.27 84:11.59 85:40.88 86:14.64 87:3.05 88:1.83 89:3.05 91:1.83 92:0.61 93:1.83 94:6.1 95:4.27 96:1.22 97:1.83 
0.9 0:0.64 1:0.64 3:0.64 9:0.64 11:0.64 19:0.64 20:1.29 21:7.09 22:10.31 23:14.82 24:15.46 25:9.02 26:1.29 27:1.93 28:0.64 29:0.64 30:0.64 31:0.64 34:0.64 35:1.29 36:0.64 38:1.29 39:0.64 40:0.64 41:0.64 42:2.58 44:2.58 45:3.22 46:6.44 47:14.18 48:92.14 49:121.78 50:27.71 51:5.8 52:2.58 53:4.51 54:1.29 55:2.58 56:2.58 58:0.64 61:1.29 62:1.93 63:0.64 64:1.29 65:1.29 66:1.29 67:2.58 68:14.18 69:168.81 70:286.08 71:27.06 72:5.8 73:3.22 74:2.58 75:1.29 76:0.64 78:1.29 79:0.64 81:1.93 82:1.29 83:3.22 84:19.97 85:54.77 86:11.6 87:1.93 88:1.93 89:2.58 90:0.64 91:1.29 92:1.93 93:1.93 94:3.87 95:2.58 96:1.29 97:1.29 
0.9 2:0.64 3:0.64 19:1.93 20:1.28 21:2.57 22:7.06 23:13.49 24:8.35 25:7.06 26:4.5 28:1.28 30:0.64 31:0.64 33:1.28 34:2.57 35:0.64 36:1.28 39:0.64 41:1.28 42:1.28 43:0.64 44:0.64 45:1.93 46:8.35 47:17.34 48:87.35 49:110.47 50:17.34 51:5.14 52:3.21 53:1.93 54:1.28 55:0.64 56:1.93 57:1.93 58:1.93 59:0.64 60:0.64 61:1.28 62:0.64 63:1.28 64:1.28 66:2.57 67:1.28 68:21.19 69:285.81 70:217.08 71:18.63 72:7.06 73:1.93 74:1.28 75:1.93 76:1.28 77:0.64 78:1.93 79:1.28 81:2.57 82:2.57 83:3.21 84:28.9 85:37.25 86:10.28 87:1.28 88:2.57 89:3.21 90:1.28 92:0.64 93:1.93 94:6.42 95:2.57 96:1.93 97:2.57 
-0.9 3:0.63 5:0.63 6:0.63 11:0.63 12:0.63 13:0.63 14:0.63 16:0.63 17:1.25 19:2.51 20:3.14 21:6.27 22:10.04 23:18.19 24:6.27 25:3.76 27:2.51 32:0.63 33:1.25 34:1.25 35:1.88 36:0.63 38:0.63 40:0.63 41:3.14 42:0.63 43:2.51 44:1.25 45:1.25 46:10.66 47:26.98 48:116.69 49:73.4 50:10.04 51:3.76 52:5.02 53:0.63 54:0.63 55:1.25 58:1.25 60:1.25 61:0.63 62:1.25 63:0.63 64:1.25 65:1.25 66:1.88 67:4.39 68:31.99 69:393.98 70:106.65 71:8.78 72:6.9 73:0.63 74:0.63 75:1.88 76:0.63 77:0.63 79:0.63 80:0.63 81:3.14 82:2.51 83:5.02 84:26.98 85:40.15 86:8.78 87:1.88 88:3.14 90:0.63 91:0.63 92:1.25 93:1.25 94:5.65 95:4.39 96:1.88 97:1.25 
0.9 1:0.63 7:0.63 9:0.63 10:0.63 11:1.26 15:0.63 17:0.63 19:0.63 20:0.63 21:2.51 22:12.56 23:15.08 24:10.05 25:2.51 26:0.63 27:0.63 28:0.63 29:0.63 30:1.26 31:1.88 32:0.63 33:0.63 34:0.63 35:0.63 36:2.51 38:1.26 40:0.63 41:0.63 42:1.88 43:1.26 44:0.63 45:3.77 46:8.17 47:37.06 48:118.09 49:53.39 50:13.82 51:2.51 52:2.51 53:1.88 54:1.26 56:1.88 57:1.88 58:1.26 60:0.63 61:1.26 62:0.63 64:1.88 65:1.88 66:2.51 67:3.77 68:43.97 69:408.92 70:78.52 71:8.79 72:2.51 73:1.26 74:1.88 75:0.63 76:0.63 77:1.26 78:0.63 82:1.88 83:8.17 84:37.69 85:39.57 86:10.68 87:2.51 88:3.77 89:1.88 91:0.63 92:0.63 93:3.77 94:6.28 95:3.14 96:2.51 97:1.88 
-0.2627833149029642 0:0.6 8:0.6 10:0.6 13:0.6 14:0.6 15:0.6 16:1.79 17:2.39 19:1.2 20:7.18 21:9.57 22:11.36 23:13.76 24:3.59 25:1.79 26:1.79 27:1.2 30:1.79 31:0.6 34:1.79 36:0.6 37:1.2 38:1.79 39:1.79 40:1.2 41:2.99 42:1.79 43:1.79 44:1.79 45:1.2 46:14.95 47:73.56 48:107.06 49:26.91 50:8.37 51:2.99 52:0.6 53:0.6 54:1.79 55:0.6 56:0.6 58:2.39 59:0.6 60:1.79 61:1.2 62:2.39 63:0.6 64:1.79 65:3.59 66:4.19 67:10.77 68:119.62 69:369.02 70:27.51 71:7.18 72:4.19 74:1.79 75:0.6 76:0.6 77:1.2 78:0.6 79:1.2 80:1.2 81:1.79 82:1.2 83:8.97 84:51.44 85:23.33 86:5.38 87:0.6 88:2.39 89:1.2 90:1.2 91:0.6 92:1.2 93:5.38 94:6.58 95:4.78 96:1.79 97:0.6 
-0.1500414970368187 0:0.68 6:0.68 8:0.68 15:0.68 17:0.68 18:2.72 19:2.72 20:6.13 21:8.86 22:13.62 23:8.86 24:1.36 25:1.36 29:0.68 30:3.41 31:1.36 33:2.04 35:0.68 36:1.36 37:0.68 39:0.68 40:0.68 42:2.04 43:2.04 44:3.41 45:6.13 46:21.8 47:108.31 48:121.93 49:12.26 50:3.41 51:1.36 52:3.41 53:2.04 54:1.36 55:1.36 56:1.36 57:0.68 59:0.68 60:1.36 61:0.68 62:1.36 63:1.36 64:0.68 65:1.36 66:5.45 67:10.22 68:200.27 69:271.8 70:17.71 71:4.77 72:2.04 73:0.68 74:2.72 75:0.68 77:0.68 78:2.72 79:1.36 80:0.68 81:0.68 82:2.72 83:10.9 84:44.96 85:25.89 86:6.13 87:1.36 88:0.68 89:4.77 90:0.68 91:0.68 92:2.72 93:2.04 94:5.45 95:5.45 96:1.36 97:0.68 
0.7067627150218655 5:0.63 12:0.63 15:0.63 16:1.26 18:1.26 19:1.26 20:4.42 21:10.73 22:10.09 23:5.68 24:4.42 26:0.63 28:1.89 30:0.63 31:0.63 32:3.15 34:1.26 35:0.63 36:3.15 38:1.26 40:1.26 41:3.79 42:2.52 43:1.26 44:1.89 45:8.2 46:28.39 47:145.74 48:78.86 49:10.09 50:5.68 51:1.26 52:1.89 53:1.26 54:0.63 55:2.52 56:1.26 57:0.63 58:0.63 59:0.63 64:0.63 65:1.89 66:5.68 67:23.97 68:289.59 69:169.72 70:18.3 71:5.05 72:1.89 73:3.15 74:3.15 75:2.52 78:1.26 80:0.63 81:1.89 82:2.52 83:11.99 84:55.52 85:18.93 86:3.15 87:1.26 89:0.63 90:1.26 91:2.52 92:2.52 93:5.05 94:6.94 95:1.26 96:2.52 97:1.89 
0.9 0:0.62 5:1.24 13:0.62 16:0.62 18:3.09 19:2.48 20:6.81 21:13 22:13.61 23:5.57 24:1.86 25:0.62 26:0.62 27:0.62 31:3.09 32:1.24 33:1.24 34:1.86 35:1.86 36:0.62 38:0.62 41:1.24 42:1.86 43:1.86 44:3.09 45:9.9 46:54.46 47:152.85 48:63.12 49:11.14 50:7.43 51:0.62 52:0.62 53:0.62 54:1.24 55:1.24 57:1.24 59:0.62 62:0.62 64:2.48 65:3.71 66:4.33 67:32.8 68:335.4 69:113.86 70:10.52 71:0.62 73:1.24 74:2.48 75:1.24 76:1.24 77:0.62 79:0.62 80:0.62 81:4.33 82:4.95 83:14.23 84:48.27 85:11.76 86:4.95 87:2.48 88:1.24 89:0.62 90:0.62 91:1.86 92:1.24 93:5.57 94:6.19 95:1.24 96:1.86 97:1.24 
-0.9 1:1.31 2:0.65 4:0.65 8:1.31 16:0.65 17:0.65 18:0.65 19:5.89 20:11.79 21:22.92 22:9.82 23:6.55 24:1.96 25:1.31 28:1.31 30:1.31 31:1.31 32:1.31 37:0.65 38:0.65 39:1.96 40:0.65 41:0.65 42:0.65 43:1.96 44:5.24 45:11.79 46:71.38 47:184.68 48:44.53 49:6.55 50:1.96 51:1.96 52:1.96 53:1.96 54:0.65 55:0.65 56:0.65 57:0.65 58:1.31 59:0.65 60:0.65 61:0.65 62:1.31 63:0.65 64:0.65 65:0.65 66:6.55 67:32.74 68:364.77 69:64.83 70:5.89 71:1.96 72:0.65 73:1.31 74:0.65 76:1.31 79:1.31 80:0.65 81:1.31 82:3.27 83:13.75 84:37.33 85:8.51 86:3.27 87:3.27 88:2.62 89:0.65 90:0.65 91:4.58 92:1.31 93:4.58 94:5.24 95:1.96 96:0.65 97:4.58 
0.9 6:0.64 11:1.28 14:0.64 16:0.64 17:0.64 18:1.92 19:5.13 20:14.1 21:19.23 22:14.74 23:5.77 24:1.28 26:1.28 30:1.92 31:0.64 33:0.64 35:1.28 36:1.28 38:0.64 41:1.28 43:1.92 44:5.13 45:12.18 46:101.92 47:192.31 48:25 49:5.13 50:3.21 51:2.56 52:1.28 53:1.28 55:0.64 57:0.64 58:0.64 59:0.64 62:0.64 63:1.92 64:2.56 65:1.28 66:6.41 67:65.38 68:348.08 69:34.62 70:7.69 71:1.28 73:3.85 74:1.28 75:1.28 76:1.92 77:0.64 79:1.28 80:1.28 81:3.21 82:1.28 83:21.15 84:29.49 85:10.26 86:2.56 87:0.64 88:1.28 89:2.56 91:1.92 92:0.64 93:3.21 94:3.21 95:3.85 96:1.92 97:1.92 
0.1712961762825356 11:0.65 12:0.65 14:1.96 18:3.27 19:6.54 20:24.21 21:23.56 22:13.74 23:1.31 24:3.27 26:0.65 30:1.31 31:0.65 32:0.65 33:0.65 34:0.65 36:1.31 37:1.31 39:1.31 40:2.62 41:1.96 42:2.62 43:3.93 44:5.89 45:14.4 46:163.61 47:193.06 48:21.6 49:4.58 50:3.27 51:3.27 52:0.65 53:0.65 54:0.65 56:0.65 57:1.31 60:0.65 61:1.31 63:1.96 64:1.96 65:3.93 66:11.78 67:85.73 68:240.84 69:24.21 70:7.85 71:3.27 72:0.65 75:0.65 77:2.62 78:0.65 79:1.96 80:3.27 81:2.62 82:6.54 83:20.29 84:30.1 85:6.54 86:3.27 87:1.31 89:0.65 90:0.65 91:0.65 92:2.62 93:5.24 94:5.24 95:4.58 96:1.31 97:2.62 
-0.9 2:1.37 17:0.69 18:2.75 19:15.11 20:31.59 21:30.22 22:13.05 23:2.75 24:1.37 25:1.37 29:0.69 33:1.37 34:0.69 36:1.37 38:1.37 39:1.37 40:0.69 41:2.75 42:1.37 43:2.06 44:6.18 45:26.79 46:254.12 47:134.62 48:16.48 49:2.06 50:2.06 51:3.43 52:3.43 53:0.69 54:1.37 55:1.37 57:0.69 58:1.37 59:0.69 60:0.69 62:2.06 63:1.37 64:2.06 65:2.06 66:2.75 67:102.34 68:202.61 69:19.92 70:4.81 71:0.69 72:1.37 73:1.37 74:1.37 75:3.43 76:0.69 77:0.69 78:0.69 80:0.69 81:2.06 82:6.18 83:24.04 84:17.17 85:4.81 86:4.12 87:2.06 88:0.69 89:1.37 90:1.37 91:0.69 92:0.69 93:4.81 94:3.43 95:3.43 97:2.06 
0.9 3:0.67 9:0.67 17:2.01 18:3.34 19:10.03 20:43.48 21:24.75 22:10.7 23:2.68 24:1.34 25:0.67 26:0.67 32:0.67 33:0.67 34:0.67 35:0.67 38:1.34 39:0.67 40:4.68 41:2.68 42:2.01 43:3.34 44:6.69 45:42.14 46:339.13 47:79.6 48:14.72 49:3.34 50:0.67 51:0.67 53:0.67 57:0.67 58:0.67 59:2.68 60:0.67 61:1.34 62:0.67 64:0.67 65:4.68 66:12.04 67:135.12 68:133.78 69:14.05 70:5.35 71:2.01 72:0.67 74:0.67 75:0.67 76:2.68 77:1.34 78:1.34 79:0.67 81:0.67 82:2.01 83:22.07 84:17.39 85:6.02 86:3.34 87:0.67 90:2.01 91:2.01 92:1.34 93:8.03 94:4.01 95:0.67 96:0.67 97:0.67 
-0.9 1:0.61 5:0.61 11:0.61 14:1.22 16:1.22 17:0.61 18:7.94 19:20.76 20:47.01 21:15.87 22:10.38 23:0.61 24:1.22 28:1.83 30:0.61 31:0.61 33:1.22 34:0.61 35:0.61 38:1.22 39:1.22 40:2.44 41:1.22 43:4.88 44:7.33 45:60.44 46:418.19 47:59.83 48:6.72 49:2.44 50:1.22 52:0.61 53:0.61 55:1.22 57:1.22 61:1.22 64:0.61 65:3.66 66:21.37 67:130.04 68:85.47 69:8.55 70:3.66 71:3.05 72:1.22 73:0.61 74:0.61 75:0.61 76:3.05 78:0.61 80:2.44 81:1.22 82:1.83 83:12.82 84:10.38 85:4.88 86:1.22 87:0.61 88:1.22 89:2.44 90:0.61 92:3.05 93:3.66 94:0.61 95:0.61 96:1.22 97:1.83 
-0.9 4:0.62 7:0.62 8:0.62 12:0.62 13:0.62 15:0.62 16:0.62 17:1.24 18:6.83 19:28.57 20:50.31 21:23.6 22:4.97 23:2.48 24:1.24 25:1.24 31:0.62 32:0.62 33:1.86 36:1.24 37:0.62 39:1.24 42:0.62 43:6.83 44:9.32 45:84.47 46:439.13 47:47.83 48:8.7 49:1.86 50:4.35 51:3.73 52:0.62 54:1.86 55:1.86 56:0.62 58:0.62 59:1.24 60:1.24 62:0.62 63:0.62 64:2.48 65:6.21 66:17.39 67:113.04 68:48.45 69:6.21 70:3.11 71:3.73 72:1.86 74:0.62 75:1.86 76:1.24 77:1.24 80:1.86 81:1.86 82:1.24 83:15.53 84:8.7 85:2.48 86:0.62 90:3.73 92:3.11 93:0.62 94:2.48 95:1.86 96:1.24 
0.9 1:0.64 2:0.64 3:1.28 7:0.64 14:1.92 16:1.92 17:5.11 18:10.86 19:47.89 20:49.17 21:14.05 22:5.11 23:0.64 25:0.64 28:0.64 29:0.64 30:0.64 31:0.64 32:1.28 34:1.28 35:0.64 36:0.64 39:1.28 40:1.28 43:1.92 44:16.6 45:146.23 46:394 47:26.82 48:2.55 49:1.92 50:4.47 51:0.64 52:0.64 53:1.28 54:1.92 55:0.64 56:0.64 57:0.64 58:0.64 61:0.64 63:1.28 64:5.11 65:7.02 66:30.65 67:104.09 68:38.31 69:3.83 70:3.83 71:2.55 72:3.83 73:1.28 74:0.64 75:0.64 76:0.64 78:1.28 79:0.64 80:1.92 81:2.55 82:7.02 83:11.49 84:6.39 85:1.28 87:0.64 89:1.28 90:0.64 91:3.19 92:1.92 93:2.55 95:0.64 97:1.28 
-0.9 10:0.66 11:0.66 14:0.66 17:3.96 18:13.86 19:73.93 20:73.27 21:14.52 22:3.3 23:3.3 28:0.66 30:0.66 33:0.66 34:2.64 35:0.66 36:2.64 37:0.66 38:0.66 39:1.98 40:1.32 41:1.98 43:1.98 44:16.5 45:204.62 46:324.75 47:35.64 48:5.28 49:1.32 50:2.64 52:1.98 53:0.66 54:1.32 55:0.66 58:0.66 59:1.32 61:1.32 62:0.66 63:0.66 64:4.62 65:5.94 66:14.52 67:86.47 68:26.4 69:6.6 70:0.66 74:0.66 75:0.66 76:1.32 78:0.66 80:0.66 81:1.32 82:3.96 83:11.22 84:7.26 85:2.64 86:0.66 88:1.32 90:0.66 91:1.32 92:1.98 93:5.94 94:3.3 95:0.66 96:2.64 97:1.32 
-0.253285368288313 0:0.68 1:0.68 3:0.68 4:1.37 14:0.68 16:2.05 17:5.48 18:19.86 19:115.07 20:78.08 21:18.49 22:4.11 23:1.37 25:1.37 29:0.68 31:0.68 32:1.37 33:0.68 35:0.68 36:0.68 38:0.68 40:1.37 41:1.37 42:2.05 43:4.11 44:17.81 45:274.66 46:232.19 47:18.49 48:2.05 49:3.42 50:0.68 51:1.37 52:0.68 53:0.68 54:0.68 56:1.37 58:0.68 60:0.68 61:0.68 63:1.37 64:1.37 65:9.59 66:30.82 67:62.33 68:20.55 69:7.53 71:2.74 73:1.37 74:0.68 75:0.68 76:0.68 77:1.37 78:1.37 80:0.68 81:2.05 82:2.74 83:4.79 84:4.79 85:2.05 86:1.37 88:2.05 89:1.37 91:1.37 92:0.68 93:2.74 94:0.68 95:0.68 96:4.11 97:4.79 
-0.9 4:0.65 12:0.65 16:1.96 17:7.18 18:37.23 19:171.13 20:71.85 21:11.1 22:1.31 24:0.65 29:0.65 32:0.65 33:1.31 38:1.96 40:1.31 41:1.31 42:1.96 43:3.92 44:23.51 45:327.89 46:159.37 47:15.02 48:7.18 49:3.92 50:1.31 51:0.65 52:1.31 53:1.31 55:0.65 56:0.65 59:0.65 60:1.31 61:1.31 62:0.65 63:0.65 64:1.96 65:3.92 66:24.82 67:50.29 68:9.14 69:5.23 70:1.31 71:1.31 73:0.65 77:0.65 78:1.96 79:0.65 80:1.96 81:0.65 82:7.18 83:5.88 84:5.88 85:2.61 86:0.65 88:0.65 89:1.31 90:0.65 91:1.31 92:0.65 93:0.65 94:0.65 95:1.31 96:1.31 97:0.65 
0.9 4:0.68 16:2.04 17:8.84 18:43.54 19:236.05 20:55.1 21:5.44 22:2.72 23:1.36 25:1.36 28:0.68 29:0.68 30:1.36 31:0.68 32:1.36 33:0.68 34:0.68 35:0.68 36:0.68 37:1.36 38:0.68 39:0.68 41:0.68 42:2.72 43:5.44 44:31.29 45:348.3 46:91.16 47:7.48 48:4.08 49:0.68 50:2.04 51:0.68 52:0.68 54:0.68 55:0.68 57:0.68 61:0.68 62:2.04 63:0.68 64:0.68 65:2.72 66:29.25 67:25.85 68:10.2 69:2.72 70:2.72 71:1.36 72:1.36 73:1.36 74:2.72 76:1.36 77:1.36 78:0.68 80:3.4 81:3.4 82:6.8 83:6.8 84:6.12 85:0.68 86:2.04 87:1.36 88:2.04 90:1.36 91:1.36 92:0.68 93:3.4 94:4.08 95:2.04 97:2.04 
-0.9 0:3.34 7:0.67 12:0.67 19:0.67 22:0.67 23:2 24:2 25:31.4 26:217.1 27:89.51 28:10.69 29:2 31:2 32:2 34:0.67 35:0.67 36:1.34 37:1.34 39:1.34 40:1.34 42:0.67 43:0.67 44:0.67 46:0.67 47:1.34 48:1.34 49:4.68 50:39.41 51:400.8 52:56.78 53:5.34 55:1.34 58:0.67 59:2.67 61:0.67 62:0.67 64:0.67 65:0.67 68:1.34 69:0.67 70:6.01 71:34.07 72:28.72 73:6.68 74:3.34 76:2 78:1.34 80:0.67 81:0.67 82:2 85:3.34 86:4.68 87:4.68 88:0.67 92:1.34 93:2 94:1.34 95:2.67 97:0.67 
-0.9 1:0.62 2:0.62 22:1.25 23:0.62 24:8.73 25:41.15 26:171.45 27:56.73 28:9.35 29:1.87 30:0.62 31:1.25 32:1.87 33:0.62 34:0.62 35:0.62 36:0.62 37:0.62 41:1.87 42:0.62 43:0.62 44:1.25 45:1.87 46:0.62 47:2.49 48:3.12 49:11.22 50:74.19 51:427.06 52:44.89 53:8.1 55:1.87 56:1.25 57:1.25 59:0.62 61:0.62 62:0.62 63:1.25 64:0.62 66:1.87 69:2.49 70:5.61 71:36.78 72:30.55 73:4.99 74:3.12 76:0.62 77:0.62 79:0.62 80:0.62 81:0.62 82:0.62 83:0.62 84:0.62 85:2.49 86:6.86 87:3.74 88:0.62 90:1.25 92:1.25 93:1.87 95:3.12 96:1.87 97:1.25 
0.9 0:1.26 1:0.63 2:0.63 4:0.63 11:0.63 14:0.63 15:1.26 20:0.63 21:0.63 23:2.52 24:6.92 25:33.35 26:118.94 27:37.76 28:8.81 29:4.41 30:2.52 31:0.63 32:1.26 33:1.89 34:1.26 36:1.26 37:0.63 40:1.89 41:0.63 42:0.63 43:0.63 44:1.89 45:0.63 47:1.26 49:11.33 50:112.65 51:426.05 52:33.98 53:4.41 54:6.29 55:1.26 56:1.26 58:0.63 62:1.26 64:0.63 65:0.63 68:1.26 69:5.66 70:10.7 71:56.01 72:35.87 73:7.55 74:2.52 75:1.89 76:1.26 77:0.63 78:0.63 79:0.63 81:0.63 82:0.63 83:1.89 84:2.52 85:5.66 86:6.92 87:4.41 88:1.26 89:1.89 91:1.26 92:0.63 93:1.89 94:1.26 95:5.66 96:1.26 97:0.63 
0.9 0:1.28 1:0.64 2:0.64 6:0.64 10:0.64 13:0.64 19:0.64 21:0.64 22:1.92 23:3.85 24:7.7 25:43.62 26:75.05 27:29.51 28:3.21 29:7.06 30:1.92 32:1.28 33:1.28 34:1.28 35:0.64 36:1.92 38:0.64 39:0.64 40:0.64 41:0.64 42:0.64 43:0.64 45:1.28 46:0.64 47:2.57 48:3.21 49:19.88 50:169.34 51:359.2 52:23.73 53:5.77 54:2.57 56:1.28 57:1.28 60:1.28 61:1.28 62:0.64 64:1.28 65:0.64 66:0.64 68:3.85 69:3.85 70:24.37 71:83.39 72:36.56 73:10.26 74:0.64 75:0.64 76:1.28 79:1.92 80:0.64 82:1.92 83:2.57 84:0.64 85:5.13 86:12.19 87:7.7 88:2.57 89:1.28 90:1.28 91:1.28 92:1.92 94:1.92 95:3.21 96:1.92 97:0.64 
-0.9 0:0.67 1:0.67 2:0.67 9:0.67 14:0.67 16:0.67 17:1.34 22:2.68 23:6.03 24:15.41 25:39.52 26:52.24 27:23.44 28:3.35 29:4.02 30:4.02 31:3.35 32:2.01 35:0.67 36:0.67 38:0.67 39:0.67 40:2.01 42:0.67 43:0.67 45:2.01 47:3.35 48:5.36 49:18.75 50:257.87 51:258.54 52:27.46 53:5.36 54:4.02 55:2.68 56:0.67 57:0.67 58:0.67 64:1.34 66:1.34 67:1.34 68:3.35 69:6.03 70:21.43 71:117.88 72:26.79 73:7.37 74:2.01 77:2.01 78:0.67 80:0.67 81:0.67 82:0.67 83:2.01 84:2.68 85:8.04 86:17.41 87:8.71 88:2.68 89:1.34 91:1.34 92:0.67 93:1.34 94:1.34 95:3.35 96:0.67 
-0.9 1:2.59 2:0.65 5:0.65 9:0.65 12:0.65 15:1.3 21:0.65 22:1.3 23:2.59 24:12.32 25:35.02 26:46.04 27:9.73 28:3.89 29:0.65 30:3.24 31:2.59 33:3.24 34:1.3 35:1.3 36:1.3 37:0.65 39:0.65 40:1.3 41:0.65 43:0.65 44:1.3 45:1.3 46:1.3 47:1.95 48:9.08 49:20.1 50:307.39 51:186.12 52:19.46 53:2.59 54:2.59 55:0.65 56:1.95 57:1.3 59:0.65 60:0.65 61:0.65 64:0.65 67:1.95 68:2.59 69:2.59 70:30.48 71:172.5 72:33.07 73:7.13 74:3.24 76:1.95 77:0.65 78:0.65 80:0.65 81:1.3 82:0.65 84:3.24 85:8.43 86:14.92 87:2.59 88:3.89 89:1.3 90:1.3 92:0.65 93:1.3 94:3.24 95:3.24 96:1.3 
-0.9 0:0.62 13:0.62 19:1.25 20:1.25 22:2.5 23:2.5 24:17.49 25:33.1 26:30.61 27:9.99 28:1.87 29:1.25 30:1.25 32:0.62 33:0.62 34:0.62 35:0.62 37:1.25 39:0.62 41:0.62 44:1.25 45:1.25 46:0.62 47:1.25 48:12.49 49:36.23 50:347.28 51:122.42 52:11.87 53:6.87 54:1.25 55:1.87 56:2.5 59:0.62 61:0.62 63:0.62 64:0.62 66:1.87 67:0.62 68:1.87 69:9.99 70:46.85 71:185.51 72:27.48 73:5.62 74:0.62 76:1.25 77:0.62 78:1.25 79:0.62 81:0.62 83:1.25 84:1.25 85:14.99 86:16.24 87:2.5 88:4.37 89:0.62 90:1.87 91:2.5 92:1.87 93:0.62 94:1.87 95:4.37 96:1.25 97:0.62 
0.9 0:1.31 8:0.65 16:0.65 20:1.31 21:1.31 22:0.65 23:4.57 24:10.45 25:24.17 26:17.64 27:7.84 28:2.61 29:1.96 30:1.96 31:1.31 32:1.31 33:0.65 34:1.96 37:1.31 38:1.31 39:0.65 40:0.65 42:1.96 44:0.65 45:1.96 46:1.31 47:2.61 48:7.84 49:50.29 50:304.38 51:73.15 52:12.41 53:2.61 54:1.96 55:1.96 57:0.65 59:0.65 60:0.65 62:0.65 63:0.65 64:1.31 65:1.96 66:1.96 67:2.61 68:3.27 69:10.45 70:85.56 71:226 72:26.13 73:5.88 74:1.31 75:1.31 76:2.61 77:0.65 81:0.65 82:0.65 83:3.92 84:4.57 85:21.55 86:22.21 87:3.92 88:1.96 89:0.65 90:2.61 93:3.27 94:2.61 95:3.27 96:1.31 97:3.27 
-0.9 0:0.64 1:1.29 4:0.64 9:0.64 10:0.64 12:0.64 17:0.64 20:0.64 21:1.93 22:2.58 23:9.03 24:17.41 25:25.15 26:16.12 27:4.51 28:2.58 30:1.29 31:0.64 32:0.64 33:1.29 37:0.64 38:1.29 40:1.93 41:1.29 42:0.64 43:0.64 44:1.93 45:1.29 46:1.93 47:3.87 48:7.09 49:68.34 50:263.06 51:43.84 52:7.74 53:4.51 54:3.22 55:0.64 56:0.64 57:0.64 58:2.58 59:1.29 60:0.64 61:1.29 62:0.64 63:1.29 64:1.93 65:0.64 66:0.64 67:1.29 68:3.22 69:17.41 70:138.62 71:219.86 72:21.28 73:5.16 74:1.93 75:1.29 78:0.64 79:0.64 81:0.64 84:5.16 85:19.34 86:27.08 87:5.16 88:1.29 89:1.93 90:0.64 92:1.29 93:1.93 95:7.09 96:0.64 97:1.29 
0.9 0:2.07 5:0.69 7:0.69 13:0.69 18:0.69 21:1.38 22:4.14 23:9.65 24:15.85 25:15.16 26:8.96 27:2.76 28:1.38 29:0.69 30:1.38 34:0.69 35:1.38 36:2.76 37:0.69 38:0.69 39:1.38 41:0.69 42:2.76 46:2.76 47:4.82 48:14.47 49:104.76 50:177.81 51:28.95 52:7.58 53:2.07 54:0.69 56:1.38 58:0.69 60:0.69 61:0.69 63:0.69 64:1.38 65:0.69 66:0.69 67:1.38 68:4.14 69:20.68 70:239.15 71:174.36 72:13.09 73:6.2 74:2.07 76:1.38 77:1.38 79:1.38 80:2.07 83:2.76 84:2.76 85:27.57 86:40.66 87:4.14 88:1.38 89:2.07 90:0.69 91:2.07 93:2.07 94:4.14 95:9.65 96:3.45 97:1.38 
0.9 0:0.64 1:1.29 2:0.64 8:0.64 15:0.64 17:0.64 19:0.64 21:0.64 22:1.93 23:12.89 24:17.4 25:14.18 26:3.87 27:4.51 28:1.93 29:0.64 30:0.64 31:1.93 33:0.64 34:0.64 35:0.64 38:0.64 39:0.64 41:0.64 42:1.93 43:1.29 45:1.93 46:1.93 47:5.15 48:18.04 49:108.25 50:114.69 51:19.97 52:3.22 53:2.58 54:2.58 57:0.64 58:1.29 62:1.29 63:1.93 64:1.29 65:1.29 66:3.22 67:1.29 68:5.15 69:23.84 70:353.09 71:122.42 72:7.09 73:7.09 74:1.93 76:2.58 78:0.64 79:1.29 80:0.64 81:2.58 83:1.93 84:8.38 85:40.59 86:24.48 87:6.44 88:1.93 89:1.93 90:1.93 91:1.29 92:1.93 93:4.51 94:3.87 95:6.44 96:1.93 97:0.64 
-0.4553266345887284 1:0.61 2:0.61 11:0.61 18:0.61 19:1.22 21:0.61 22:4.88 23:12.21 24:15.87 25:10.99 26:4.88 28:1.22 29:1.83 30:0.61 32:2.44 33:0.61 36:0.61 38:0.61 41:1.22 42:1.83 43:3.05 44:1.22 45:1.22 46:3.05 47:7.33 48:25.03 49:114.77 50:83.03 51:11.6 52:3.66 53:2.44 55:3.05 57:0.61 59:0.61 60:0.61 61:1.22 62:0.61 63:0.61 64:2.44 65:1.83 66:1.83 67:1.83 68:3.66 69:33.58 70:402.32 71:90.35 72:9.77 73:3.05 74:1.22 75:1.22 77:0.61 78:0.61 79:1.22 81:1.22 82:3.05 83:2.44 84:7.94 85:48.23 86:31.14 87:4.27 88:0.61 89:0.61 90:1.83 91:0.61 92:1.22 93:1.83 94:4.27 95:5.49 96:0.61 97:1.22 
-0.156005827536048 1:0.6 2:0.6 3:0.6 4:0.6 13:0.6 16:0.6 18:1.19 19:0.6 20:1.79 21:2.98 22:3.58 23:12.52 24:11.33 25:11.93 26:2.98 27:1.79 28:2.39 29:1.79 30:1.19 32:1.79 33:0.6 34:0.6 36:1.19 38:0.6 39:1.19 40:1.19 41:0.6 42:0.6 43:1.79 44:0.6 45:0.6 46:8.35 47:7.16 48:28.62 49:109.12 50:54.86 51:10.73 52:4.77 53:1.19 54:1.79 55:3.58 56:0.6 58:0.6 59:0.6 60:1.79 61:0.6 63:0.6 64:0.6 65:2.39 66:1.79 67:3.58 68:5.96 69:54.26 70:421.59 71:53.67 72:10.73 73:3.58 74:1.79 75:0.6 76:1.19 78:0.6 79:1.19 80:1.19 81:1.19 82:1.19 83:1.19 84:6.56 85:56.05 86:33.99 87:7.16 88:3.58 89:1.19 93:1.79 94:5.96 95:5.96 96:2.39 97:1.19 
0.2854686637294859 0:0.62 2:0.62 3:0.62 5:0.62 10:0.62 15:0.62 18:0.62 20:1.24 21:3.09 22:1.85 23:9.26 24:14.82 25:4.32 26:2.47 27:1.24 28:1.24 29:0.62 30:1.85 31:0.62 32:1.85 33:1.24 36:0.62 38:0.62 39:1.85 41:1.24 42:2.47 43:1.24 44:3.71 45:0.62 46:4.32 47:18.53 48:41.38 49:99.44 50:38.91 51:8.03 52:3.71 53:1.85 54:1.85 55:0.62 56:1.24 58:0.62 59:1.85 61:2.47 62:0.62 63:0.62 64:1.85 65:1.85 66:1.24 67:3.71 68:9.88 69:109.94 70:390.36 71:40.77 72:7.41 73:1.85 74:2.47 75:2.47 76:1.24 77:0.62 78:0.62 80:0.62 81:1.85 82:2.47 83:4.94 84:9.88 85:69.8 86:19.77 87:3.71 88:2.47 89:0.62 90:0.62 92:1.24 93:3.71 94:8.03 95:4.32 96:1.24 
