FANN_FLO_2.1
num_layers=3
learning_rate=0.700000
connection_rate=1.000000
network_type=0
learning_momentum=0.000000
training_algorithm=2
train_error_function=1
train_stop_function=0
cascade_output_change_fraction=0.010000
quickprop_decay=-0.000100
quickprop_mu=1.750000
rprop_increase_factor=1.200000
rprop_decrease_factor=0.500000
rprop_delta_min=0.000000
rprop_delta_max=50.000000
rprop_delta_zero=0.100000
cascade_output_stagnation_epochs=12
cascade_candidate_change_fraction=0.010000
cascade_candidate_stagnation_epochs=12
cascade_max_out_epochs=150
cascade_min_out_epochs=50
cascade_max_cand_epochs=150
cascade_min_cand_epochs=50
cascade_num_candidate_groups=2
bit_fail_limit=3.49999999999999977796e-01
cascade_candidate_limit=1.00000000000000000000e+03
cascade_weight_multiplier=4.00000000000000022204e-01
cascade_activation_functions_count=10
cascade_activation_functions=3 5 7 8 10 11 14 15 16 17 
cascade_activation_steepnesses_count=4
cascade_activation_steepnesses=2.50000000000000000000e-01 5.00000000000000000000e-01 7.50000000000000000000e-01 1.00000000000000000000e+00 
layer_sizes=17 9 3 
scale_included=0
neurons (num_inputs, activation_function, activation_steepness)=(0, 0, 0.00000000000000000000e+00) (0, 0, 0.00000000000000000000e+00) (0, 0, 0.00000000000000000000e+00) (0, 0, 0.00000000000000000000e+00) (0, 0, 0.00000000000000000000e+00) (0, 0, 0.00000000000000000000e+00) (0, 0, 0.00000000000000000000e+00) (0, 0, 0.00000000000000000000e+00) (0, 0, 0.00000000000000000000e+00) (0, 0, 0.00000000000000000000e+00) (0, 0, 0.00000000000000000000e+00) (0, 0, 0.00000000000000000000e+00) (0, 0, 0.00000000000000000000e+00) (0, 0, 0.00000000000000000000e+00) (0, 0, 0.00000000000000000000e+00) (0, 0, 0.00000000000000000000e+00) (0, 0, 0.00000000000000000000e+00) (17, 5, 5.00000000000000000000e-01) (17, 5, 5.00000000000000000000e-01) (17, 5, 5.00000000000000000000e-01) (17, 5, 5.00000000000000000000e-01) (17, 5, 5.00000000000000000000e-01) (17, 5, 5.00000000000000000000e-01) (17, 5, 5.00000000000000000000e-01) (17, 5, 5.00000000000000000000e-01) (0, 5, 0.00000000000000000000e+00) (9, 0, 5.00000000000000000000e-01) (9, 0, 5.00000000000000000000e-01) (0, 0, 0.00000000000000000000e+00) 
connections (connected_to_neuron, weight)=(0, 1.10162943585092887311e+00) (1, 9.80915696633950284777e-01) (2, 1.83402164460610195285e+00) (3, 3.65670068927240909940e-01) (4, 4.75891389375770412773e-01) (5, -3.56207154467361619687e-01) (6, -5.87601137479521681839e-02) (7, 1.91588375014512291017e+00) (8, 1.42466619755530343738e+00) (9, -1.33517244894836815960e-02) (10, 9.39678572949392276747e-01) (11, 5.68219697024796244200e-01) (12, 2.67749764257802669309e-01) (13, 3.12344472610065837515e+00) (14, 1.42464836883944179213e+00) (15, -4.36258338350026086960e-01) (16, -7.22255769174697942470e-02) (0, 8.81194393303682543817e-01) (1, 5.83213821476650018383e-01) (2, -3.36070941250708132841e-01) (3, 2.81906476809077100043e-01) (4, 3.44288205285798787347e-01) (5, -2.79932964413493357014e-01) (6, 1.40309986054570429159e-01) (7, -1.48596362079044641558e-01) (8, -9.23090509901198452702e-01) (9, 5.41987277670075373592e-01) (10, 7.30232916391156616776e-01) (11, -1.00046211506868210073e+00) (12, 1.17777861537705738626e-01) (13, -6.29209730106823794671e-01) (14, -6.09415550599480382310e-01) (15, 1.22194260558427136854e-01) (16, 2.67731474472206965043e-01) (0, 9.24603520923854338420e-01) (1, 1.91065088370831759335e+00) (2, 7.37675389020911786986e-01) (3, -5.67217112719392235753e-01) (4, 1.58649312437270229026e+00) (5, 8.39456679936529726049e-01) (6, -2.52382384573540119455e-01) (7, 1.53923554942997542483e+00) (8, 1.71520146182325183837e+00) (9, -2.78968250776114146117e-01) (10, 1.43963528112843658358e-01) (11, 2.39237964457013596586e+00) (12, 5.46434264735973673766e-01) (13, 1.23079778204623391247e+00) (14, 3.07605428426717208978e+00) (15, -1.28023252385489638705e+00) (16, 2.19475999065296717427e-01) (0, 2.09663777388768984844e-01) (1, -6.75882790276452594114e-01) (2, -1.63868489300311659385e+00) (3, 2.34357075734396846922e-01) (4, -4.71925700903138289899e-02) (5, 3.46310721219102002344e-01) (6, 1.38434080779000012740e+00) (7, -1.17742859079922146393e+00) (8, -8.98218483005191803414e-01) (9, -1.41300578430121233364e-02) (10, 1.21094769005404101492e+00) (11, -6.34131967133525820124e-01) (12, 5.96280777639047299132e-01) (13, -9.88911062191220047168e-01) (14, -6.89732836315646191672e-01) (15, -1.80450093820809676082e-01) (16, 1.98233008736331539623e-01) (0, 2.50370352778436333629e-01) (1, -4.78352288707636241760e-01) (2, -1.00557742934730520723e+00) (3, 1.00749472895156372276e-01) (4, -5.28753908613071144096e-01) (5, 6.78440877499461247879e-01) (6, 2.87366984506639333574e-01) (7, 2.88108792854454620613e-01) (8, -9.62684830229503379906e-02) (9, 3.84115690927154862511e-01) (10, 4.81020932794894773288e-01) (11, 5.23686541004383943054e-01) (12, 7.71878975522391708175e-01) (13, 2.28872208275372912567e-01) (14, 2.68795180220455287579e-01) (15, -8.61235453438751852318e-01) (16, -1.67565829199563559593e-01) (0, 4.02449102582984430398e+00) (1, -2.17755258038812371524e+00) (2, -9.75293272529605181909e-01) (3, 6.71827073000503122158e-02) (4, -7.16332524649198387756e-01) (5, -9.57630751881335950948e-02) (6, 6.86592599681549065060e-01) (7, -8.58274384023219094608e-01) (8, -1.30431693820992222754e+00) (9, 9.97845097575884243390e-01) (10, -7.32038950139486943591e-01) (11, -7.09147339147382260727e-01) (12, 4.83066698275756545300e-01) (13, -2.68391897201326223854e-01) (14, -6.42300457727328577562e-01) (15, -2.57995063826342463376e-01) (16, 1.84124578456004650562e+00) (0, 4.93195697879269923103e-01) (1, 8.71995864030734035843e-01) (2, 3.84720160114566334109e-01) (3, 1.53583926480372334744e-01) (4, 1.70498941041954399367e+00) (5, -6.39606641503472905796e-01) (6, 5.06560166461522132231e-01) (7, 1.20545610509210665562e+00) (8, 1.39709559228060209435e+00) (9, -6.70172375799615860359e-01) (10, 5.85995836251855028998e-01) (11, 9.31673956068961417465e-01) (12, 1.40220053099570224342e-01) (13, 1.08265290771401101466e+00) (14, 6.94147734897755164241e-01) (15, 2.31813445701061049409e-01) (16, -2.29299603177467115067e-01) (0, -5.81810334202888523869e-02) (1, 5.92704799781783364665e-01) (2, 4.42235306801690764011e-01) (3, -2.30249568209459021251e-01) (4, 1.46356072925089980563e-01) (5, -5.84161462253740618178e-02) (6, 4.26584420660799448766e-02) (7, 1.55044440449953202510e+00) (8, -7.69287600344535582586e-01) (9, 4.97666959059665903187e-01) (10, 5.41573629648990584329e-01) (11, 2.90446429231353220324e-01) (12, 5.57821985862889002661e-01) (13, 7.44560163488641069129e-01) (14, 5.60859437564232510276e-01) (15, 3.39228297941733869525e-01) (16, -9.15383873141751569502e-02) (17, 7.00548854976191903710e-01) (18, 2.93243337354748834223e-01) (19, 1.82135414630855918539e-01) (20, 9.04152287291415945880e-01) (21, 3.13973175730300813058e-01) (22, 3.00730332192748750497e-01) (23, 6.25851006263588027778e-01) (24, 7.58745415676888246281e-01) (25, 1.86090307530907446421e-02) (17, -3.52389190599894236433e-02) (18, 7.02884954333639844215e-01) (19, -6.17349380637481348622e-01) (20, 3.16988357796045450154e-01) (21, -5.60850657258707863129e-01) (22, -4.80751102997168666686e-01) (23, 7.21834696193854097324e-01) (24, 2.11524173137689341928e-01) (25, 2.98030114824530734108e-01) 
