FANN_FLO_2.1
num_layers=3
learning_rate=0.700000
connection_rate=1.000000
network_type=0
learning_momentum=0.000000
training_algorithm=2
train_error_function=1
train_stop_function=0
cascade_output_change_fraction=0.010000
quickprop_decay=-0.000100
quickprop_mu=1.750000
rprop_increase_factor=1.200000
rprop_decrease_factor=0.500000
rprop_delta_min=0.000000
rprop_delta_max=50.000000
rprop_delta_zero=0.100000
cascade_output_stagnation_epochs=12
cascade_candidate_change_fraction=0.010000
cascade_candidate_stagnation_epochs=12
cascade_max_out_epochs=150
cascade_min_out_epochs=50
cascade_max_cand_epochs=150
cascade_min_cand_epochs=50
cascade_num_candidate_groups=2
bit_fail_limit=3.49999999999999977796e-01
cascade_candidate_limit=1.00000000000000000000e+03
cascade_weight_multiplier=4.00000000000000022204e-01
cascade_activation_functions_count=10
cascade_activation_functions=3 5 7 8 10 11 14 15 16 17 
cascade_activation_steepnesses_count=4
cascade_activation_steepnesses=2.50000000000000000000e-01 5.00000000000000000000e-01 7.50000000000000000000e-01 1.00000000000000000000e+00 
layer_sizes=17 9 3 
scale_included=0
neurons (num_inputs, activation_function, activation_steepness)=(0, 0, 0.00000000000000000000e+00) (0, 0, 0.00000000000000000000e+00) (0, 0, 0.00000000000000000000e+00) (0, 0, 0.00000000000000000000e+00) (0, 0, 0.00000000000000000000e+00) (0, 0, 0.00000000000000000000e+00) (0, 0, 0.00000000000000000000e+00) (0, 0, 0.00000000000000000000e+00) (0, 0, 0.00000000000000000000e+00) (0, 0, 0.00000000000000000000e+00) (0, 0, 0.00000000000000000000e+00) (0, 0, 0.00000000000000000000e+00) (0, 0, 0.00000000000000000000e+00) (0, 0, 0.00000000000000000000e+00) (0, 0, 0.00000000000000000000e+00) (0, 0, 0.00000000000000000000e+00) (0, 0, 0.00000000000000000000e+00) (17, 5, 5.00000000000000000000e-01) (17, 5, 5.00000000000000000000e-01) (17, 5, 5.00000000000000000000e-01) (17, 5, 5.00000000000000000000e-01) (17, 5, 5.00000000000000000000e-01) (17, 5, 5.00000000000000000000e-01) (17, 5, 5.00000000000000000000e-01) (17, 5, 5.00000000000000000000e-01) (0, 5, 0.00000000000000000000e+00) (9, 0, 5.00000000000000000000e-01) (9, 0, 5.00000000000000000000e-01) (0, 0, 0.00000000000000000000e+00) 
connections (connected_to_neuron, weight)=(0, 3.10931810245926093170e-03) (1, 6.29706608115197630227e-01) (2, 3.48432429086188044653e-01) (3, -1.99622669973581912117e-01) (4, 1.15013775907179738311e+00) (5, -5.94161306022697455198e-01) (6, -8.42654115018722338348e-01) (7, 1.34092906136517409088e+00) (8, 8.04234018247279580649e-02) (9, -1.97590467698909244554e+00) (10, 1.59972428890393003620e+00) (11, 6.98260059658236897917e-01) (12, -4.22402127716569097959e-01) (13, 2.56954343488255965156e-01) (14, 1.32111651444967309610e-01) (15, 1.96061631923661189303e-01) (16, -4.30982136091332734829e-01) (0, -9.67306425233484812320e-02) (1, -1.02232557261099565871e+00) (2, 2.52387250401978957548e-01) (3, 6.50844276604721216906e-01) (4, -8.53505014599263089892e-01) (5, -7.49038095851108809420e-01) (6, 5.03209246596481252212e-01) (7, 5.20173259761636308518e-01) (8, -7.41625292385743456469e-02) (9, 2.13341640126331749672e-01) (10, 1.54522255583646318626e-03) (11, 9.36560255203262137513e-01) (12, -1.82339007361719457334e-01) (13, 3.99415035366395776428e-01) (14, 7.11941437997553494554e-01) (15, 6.24686827551711454376e-01) (16, 2.58179822364400457513e-01) (0, 3.36911413046357577361e-01) (1, 5.84341421451545328658e-01) (2, 3.60799087388807837584e-01) (3, 2.80453684796692137571e-01) (4, 5.94473737901765275637e-01) (5, -8.54972756767622132923e-02) (6, 5.15582082042940648137e-01) (7, 3.30251555338895663727e-01) (8, 3.89705561212455753317e-01) (9, 3.06438076242681711747e-01) (10, 3.13231453664902181888e-01) (11, -5.08940170872234198818e-01) (12, 4.65766677780863613823e-01) (13, 2.70897600528246573770e-01) (14, -4.84314316085692364577e-01) (15, 4.38588799071046808731e-01) (16, 5.31008586174309960004e-02) (0, 1.52410786318912833126e-01) (1, 8.48738226577945044371e-03) (2, 7.57831156173030401346e-02) (3, 5.69781263136879712050e-01) (4, 5.13101090094276068854e-01) (5, -3.75837437851356759300e-01) (6, 4.08598910826221128900e-01) (7, 3.79946998657741785710e-01) (8, -5.42020065561793717990e-01) (9, 1.18097830075873932998e+00) (10, 6.87026523716915527018e-01) (11, -6.39118226428293301211e-01) (12, 5.20229393735899492412e-01) (13, 3.62714403887467617960e-01) (14, -7.93550689281483506710e-02) (15, 2.87368871933882330527e-01) (16, 4.91273118444556455842e-01) (0, -1.34312431068528692624e-01) (1, 5.53478452648954122317e-01) (2, 1.54992506613890879130e+00) (3, 1.90401802068939224322e-01) (4, -1.13275974414679669877e+00) (5, 2.13274494393536698245e-02) (6, 7.71020842998870525875e-01) (7, 2.93620806109526177874e-01) (8, 6.38548872922223509363e-01) (9, -4.20277687192454174614e-01) (10, 4.42513176411439890234e-01) (11, 1.52189604827724234148e+00) (12, 3.98974036276321497585e-01) (13, -1.45180308844876582164e+00) (14, 4.59741476438489338197e-01) (15, 1.06322178054379667955e+00) (16, -3.00096092341027185710e-03) (0, 1.31057470669534992247e+00) (1, 1.09788961976945279031e-01) (2, 2.60489649346286600284e-01) (3, -2.38038010179857983939e-01) (4, 9.33523052324409241542e-01) (5, 6.12964885368235123941e-01) (6, -8.85840297890785666191e-01) (7, 7.80167085440647722905e-01) (8, 4.32786021879432380999e-01) (9, -4.52727716876182628702e-01) (10, 3.67506680236209692936e-01) (11, 7.18223014258388525732e-01) (12, -4.87277656299213601798e-01) (13, 1.18499280595456424336e+00) (14, 1.28187338859534460944e+00) (15, -3.16460527754843623516e-01) (16, -3.00238046009149439630e-02) (0, 2.49724613321475746863e-01) (1, -6.37597389308881101755e-01) (2, 1.08653145600789882708e-01) (3, 8.53230894723888244613e-01) (4, 5.03328588986094782598e-01) (5, 2.92218235353952471289e-01) (6, 4.37893142180137362462e-01) (7, 1.31276470713740867069e+00) (8, -5.65425326008147655088e-01) (9, 3.85327092118931124887e-01) (10, 6.07986682516385101849e-01) (11, 7.90692141986673591170e-01) (12, -2.36605316253369918345e-01) (13, 8.55300653972690394511e-01) (14, 1.38733679541751619979e+00) (15, 5.33013532255494637546e-01) (16, -4.21400533174759228672e-01) (0, 1.64956156638511064472e+00) (1, -6.79879150631226170098e-01) (2, -1.09469131702430400033e+00) (3, 1.24567615689063337925e+00) (4, -2.46477844407060719956e-01) (5, -1.61968814608444339198e-01) (6, 2.36009443491195813891e+00) (7, -3.28467231775801449256e-01) (8, 1.61730881783130886475e-01) (9, 2.27303712657320389212e+00) (10, 2.26785819040560637783e-01) (11, 9.75095180941839417832e-02) (12, 2.76199322818626491483e+00) (13, -2.62090230221664298449e-02) (14, -6.77838569720969119636e-01) (15, 4.35949633395769475808e-01) (16, 3.53114530626698619464e-01) (17, 3.46393894474657348947e-01) (18, -6.91285093439514691793e-02) (19, -8.16271759618067763165e-03) (20, 1.01829886251696799526e+00) (21, -4.06778537152978680869e-01) (22, 7.39705281437847195214e-01) (23, 7.43226483572914320419e-01) (24, 3.26387238943242563582e-01) (25, 1.63181079205053855552e-02) (17, 6.62712875285730751429e-01) (18, -5.43446514442716521742e-01) (19, 8.38448077256955248693e-01) (20, 6.88484814249750054493e-01) (21, 2.86477531621117553762e-01) (22, -4.80039756976426978952e-01) (23, 2.01769307705236572437e-01) (24, -3.74498615505216236876e-01) (25, 9.57584083240428651784e-02) 
