FANN_FLO_2.1
num_layers=3
learning_rate=0.700000
connection_rate=1.000000
network_type=0
learning_momentum=0.000000
training_algorithm=2
train_error_function=1
train_stop_function=0
cascade_output_change_fraction=0.010000
quickprop_decay=-0.000100
quickprop_mu=1.750000
rprop_increase_factor=1.200000
rprop_decrease_factor=0.500000
rprop_delta_min=0.000000
rprop_delta_max=50.000000
rprop_delta_zero=0.100000
cascade_output_stagnation_epochs=12
cascade_candidate_change_fraction=0.010000
cascade_candidate_stagnation_epochs=12
cascade_max_out_epochs=150
cascade_min_out_epochs=50
cascade_max_cand_epochs=150
cascade_min_cand_epochs=50
cascade_num_candidate_groups=2
bit_fail_limit=3.49999994039535522461e-01
cascade_candidate_limit=1.00000000000000000000e+03
cascade_weight_multiplier=4.00000005960464477539e-01
cascade_activation_functions_count=10
cascade_activation_functions=3 5 7 8 10 11 14 15 16 17 
cascade_activation_steepnesses_count=4
cascade_activation_steepnesses=2.50000000000000000000e-01 5.00000000000000000000e-01 7.50000000000000000000e-01 1.00000000000000000000e+00 
layer_sizes=5 5 3 
scale_included=0
neurons (num_inputs, activation_function, activation_steepness)=(0, 0, 0.00000000000000000000e+00) (0, 0, 0.00000000000000000000e+00) (0, 0, 0.00000000000000000000e+00) (0, 0, 0.00000000000000000000e+00) (0, 0, 0.00000000000000000000e+00) (5, 5, 5.00000000000000000000e-01) (5, 5, 5.00000000000000000000e-01) (5, 5, 5.00000000000000000000e-01) (5, 5, 5.00000000000000000000e-01) (0, 5, 0.00000000000000000000e+00) (5, 0, 5.00000000000000000000e-01) (5, 0, 5.00000000000000000000e-01) (0, 0, 0.00000000000000000000e+00) 
connections (connected_to_neuron, weight)=(0, -2.61690902709960937500e+01) (1, -1.80644626617431640625e+01) (2, 1.69006366729736328125e+01) (3, 2.76726856231689453125e+01) (4, -8.46106186509132385254e-02) (0, -5.41564064025878906250e+01) (1, 1.75289802551269531250e+01) (2, -1.59777679443359375000e+01) (3, 5.25281181335449218750e+01) (4, 2.35825683921575546265e-02) (0, 7.63473331928253173828e-01) (1, -1.93811569213867187500e+01) (2, 1.95241451263427734375e+01) (3, 2.57461130619049072266e-01) (4, -2.72873073816299438477e-01) (0, -7.61502206325531005859e-01) (1, -7.88560247421264648438e+00) (2, 7.74139976501464843750e+00) (3, 1.20241081714630126953e+00) (4, -6.75572156906127929688e-02) (5, -2.46486592292785644531e+00) (6, 1.31342449188232421875e+01) (7, -9.93783340454101562500e+01) (8, 1.72829467773437500000e+02) (9, 1.04068256914615631104e-01) (5, -3.00550365447998046875e+01) (6, -5.28883075714111328125e+00) (7, -9.99437179565429687500e+01) (8, 1.96562301635742187500e+02) (9, 9.33307409286499023438e-02) 
