FANN_FLO_2.1
num_layers=3
learning_rate=0.700000
connection_rate=1.000000
network_type=0
learning_momentum=0.000000
training_algorithm=2
train_error_function=1
train_stop_function=0
cascade_output_change_fraction=0.010000
quickprop_decay=-0.000100
quickprop_mu=1.750000
rprop_increase_factor=1.200000
rprop_decrease_factor=0.500000
rprop_delta_min=0.000000
rprop_delta_max=50.000000
rprop_delta_zero=0.100000
cascade_output_stagnation_epochs=12
cascade_candidate_change_fraction=0.010000
cascade_candidate_stagnation_epochs=12
cascade_max_out_epochs=150
cascade_min_out_epochs=50
cascade_max_cand_epochs=150
cascade_min_cand_epochs=50
cascade_num_candidate_groups=2
bit_fail_limit=3.49999999999999977796e-01
cascade_candidate_limit=1.00000000000000000000e+03
cascade_weight_multiplier=4.00000000000000022204e-01
cascade_activation_functions_count=10
cascade_activation_functions=3 5 7 8 10 11 14 15 16 17 
cascade_activation_steepnesses_count=4
cascade_activation_steepnesses=2.50000000000000000000e-01 5.00000000000000000000e-01 7.50000000000000000000e-01 1.00000000000000000000e+00 
layer_sizes=17 9 3 
scale_included=0
neurons (num_inputs, activation_function, activation_steepness)=(0, 0, 0.00000000000000000000e+00) (0, 0, 0.00000000000000000000e+00) (0, 0, 0.00000000000000000000e+00) (0, 0, 0.00000000000000000000e+00) (0, 0, 0.00000000000000000000e+00) (0, 0, 0.00000000000000000000e+00) (0, 0, 0.00000000000000000000e+00) (0, 0, 0.00000000000000000000e+00) (0, 0, 0.00000000000000000000e+00) (0, 0, 0.00000000000000000000e+00) (0, 0, 0.00000000000000000000e+00) (0, 0, 0.00000000000000000000e+00) (0, 0, 0.00000000000000000000e+00) (0, 0, 0.00000000000000000000e+00) (0, 0, 0.00000000000000000000e+00) (0, 0, 0.00000000000000000000e+00) (0, 0, 0.00000000000000000000e+00) (17, 5, 5.00000000000000000000e-01) (17, 5, 5.00000000000000000000e-01) (17, 5, 5.00000000000000000000e-01) (17, 5, 5.00000000000000000000e-01) (17, 5, 5.00000000000000000000e-01) (17, 5, 5.00000000000000000000e-01) (17, 5, 5.00000000000000000000e-01) (17, 5, 5.00000000000000000000e-01) (0, 5, 0.00000000000000000000e+00) (9, 0, 5.00000000000000000000e-01) (9, 0, 5.00000000000000000000e-01) (0, 0, 0.00000000000000000000e+00) 
connections (connected_to_neuron, weight)=(0, -1.14320645345543114857e+00) (1, 9.05334904527959394294e-01) (2, 8.74794132364121956869e-01) (3, -7.06262831789574496710e-01) (4, 8.98317633005549009972e-01) (5, -1.46231360605263738250e+00) (6, -2.11778406822579645663e+00) (7, 1.49553127974720845295e+00) (8, 9.84684372400610352649e-01) (9, -4.19820240939123756618e+00) (10, 8.94627614549715954873e-01) (11, 1.19810504989959665245e+00) (12, -3.16058844818537743038e+00) (13, 2.30063911624705186298e-01) (14, 1.38240702952185112729e+00) (15, 7.38103800700345202834e-01) (16, 1.28410557927848167914e-01) (0, 4.97769725954569475235e-01) (1, 3.30836251471110787126e-01) (2, 6.24642958649665347437e-01) (3, 9.49699462282293183080e-01) (4, -4.49276720397036477550e-01) (5, 1.37005370537383708296e+00) (6, 1.75612508418568502577e+00) (7, -5.28973616595107776206e-01) (8, 6.56105210608841415976e-01) (9, 1.45731426393118623785e+00) (10, 8.88263685657557020003e-03) (11, 3.79014829681015796847e-01) (12, 1.45095220800800928096e+00) (13, -1.23887577269957999127e-01) (14, 4.17731041797306579255e-01) (15, 4.28268094295904344637e-01) (16, 6.84921870045017699979e-01) (0, 1.98400129982412090635e-02) (1, 1.22215520012526424054e+00) (2, 4.52085863321749770183e-01) (3, 3.24498326582121576767e-01) (4, 3.56860907385181280738e-01) (5, 5.43418279397524739416e-01) (6, 6.48326261490536182031e-01) (7, 1.12041719582924037546e+00) (8, 3.06516669073950365210e-01) (9, 7.11319481230479722100e-01) (10, 6.48974559859728961086e-01) (11, -2.70319570045609094966e-02) (12, 5.06003954344367623541e-01) (13, 4.82171448790469012180e-02) (14, 4.22879569441347691328e-01) (15, 1.01508811800655696089e+00) (16, 1.12136463853086287834e+00) (0, 4.98647035245275149773e-01) (1, 4.38087998407858114636e-02) (2, -4.83810484583502217748e-02) (3, 8.83038275716179321684e-01) (4, 3.17721119467141321913e-01) (5, 4.52401072207172016970e-01) (6, 5.29841814931669929933e-01) (7, 1.29825661789406821001e+00) (8, -1.08196122553648535480e-01) (9, 5.68112219385040750907e-01) (10, 4.06789651301374122205e-01) (11, 9.59863283645681630851e-01) (12, -1.15897775167383684791e-01) (13, 1.06937471852553867002e+00) (14, 1.13687217919458727344e+00) (15, 9.45402141860374412019e-01) (16, 1.88564486505649192560e-01) (0, -1.10430645566772220323e-01) (1, -1.87478211359504820521e-01) (2, 1.11830638559854755876e+00) (3, 1.43649850457815664306e+00) (4, -2.10851410283823176295e-01) (5, 1.47100042188442192703e+00) (6, 1.97612685840415380767e+00) (7, -7.42850228544512547479e-01) (8, -7.62956952537359456290e-02) (9, 2.03272309446899068774e+00) (10, 8.61342169004888691397e-01) (11, 1.12551030992725134561e-01) (12, 1.82889508281552859437e+00) (13, -2.30827006845151200265e-01) (14, -8.94316555019037839891e-01) (15, 1.17425011173145188437e+00) (16, 9.00693110218458214966e-01) (0, -9.30060665613225978632e-02) (1, 4.33405012923733345964e-01) (2, -3.07828889471115418885e-01) (3, 2.60495999308869297106e-01) (4, 7.46535943606083662871e-01) (5, 2.33854044182615988801e-01) (6, 4.66720611858052247811e-01) (7, 5.44331972026290245026e-01) (8, -2.47279675013620553470e-01) (9, 9.69419269090808555234e-01) (10, 1.36876794666334378192e+00) (11, -1.24067632458306897902e+00) (12, 3.86886563703826236171e-01) (13, 1.03108427771645150273e+00) (14, -7.72449371953669132462e-03) (15, 5.84346068594904455296e-01) (16, 9.66116549716978911810e-01) (0, 9.23877132442137316559e-01) (1, 1.07074653940601582924e+00) (2, 8.90750488453543209921e-01) (3, 2.77215064721662463043e-01) (4, 1.18499127938265536031e+00) (5, 4.86287559382895751003e-01) (6, 3.01397383324707057728e-01) (7, 4.33272098318759735225e-01) (8, 4.87661387822031777706e-01) (9, 7.67419365494846017484e-01) (10, 7.45696360487708598264e-01) (11, -1.53469008472008009575e-02) (12, 9.86790907256581029117e-01) (13, 3.42719545772853295684e-01) (14, 7.66740888680801924160e-02) (15, -4.24415186233704274515e-04) (16, 1.31997120445486892937e-01) (0, -2.82320597427167752080e-01) (1, 1.52702803383964447193e+00) (2, 1.71876550082967871624e+00) (3, -6.55191665132615286282e-01) (4, 1.23200925495429602918e+00) (5, 1.20558991181438424078e+00) (6, -1.91935329202343329946e+00) (7, 1.02023605050585208787e+00) (8, 1.33563053434784251294e+00) (9, -8.31944587512046918043e-01) (10, -2.99384431498387060255e-01) (11, 2.28442468860506364692e+00) (12, -1.78886299694579253838e+00) (13, 1.45297548500820838946e+00) (14, 8.70420625180522433695e-01) (15, 7.98891111459293146169e-01) (16, 6.01921354954995310726e-02) (17, -1.96186016132247953436e-01) (18, -2.88909113974932296731e-01) (19, -8.11822267410815090471e-01) (20, 1.34130971501187779005e+00) (21, -3.79472772080981624043e-01) (22, 7.50602396302877949985e-01) (23, 8.03253933827248189914e-01) (24, -4.22617045723168383020e-01) (25, 1.55243943042355558859e-01) (17, 8.36020985610059663706e-01) (18, -8.37832240557747742749e-01) (19, 9.45796690849145416102e-01) (20, 5.24555720055984386896e-01) (21, 7.48943316023869543052e-01) (22, -2.46185138583977697335e-01) (23, 1.53142021418915197373e+00) (24, -2.26038219434483739212e-01) (25, 2.03160131291162227019e-01) 
