FANN_FLO_2.1
num_layers=3
learning_rate=0.700000
connection_rate=1.000000
network_type=0
learning_momentum=0.000000
training_algorithm=2
train_error_function=1
train_stop_function=0
cascade_output_change_fraction=0.010000
quickprop_decay=-0.000100
quickprop_mu=1.750000
rprop_increase_factor=1.200000
rprop_decrease_factor=0.500000
rprop_delta_min=0.000000
rprop_delta_max=50.000000
rprop_delta_zero=0.100000
cascade_output_stagnation_epochs=12
cascade_candidate_change_fraction=0.010000
cascade_candidate_stagnation_epochs=12
cascade_max_out_epochs=150
cascade_min_out_epochs=50
cascade_max_cand_epochs=150
cascade_min_cand_epochs=50
cascade_num_candidate_groups=2
bit_fail_limit=3.49999999999999977796e-01
cascade_candidate_limit=1.00000000000000000000e+03
cascade_weight_multiplier=4.00000000000000022204e-01
cascade_activation_functions_count=10
cascade_activation_functions=3 5 7 8 10 11 14 15 16 17 
cascade_activation_steepnesses_count=4
cascade_activation_steepnesses=2.50000000000000000000e-01 5.00000000000000000000e-01 7.50000000000000000000e-01 1.00000000000000000000e+00 
layer_sizes=17 9 3 
scale_included=0
neurons (num_inputs, activation_function, activation_steepness)=(0, 0, 0.00000000000000000000e+00) (0, 0, 0.00000000000000000000e+00) (0, 0, 0.00000000000000000000e+00) (0, 0, 0.00000000000000000000e+00) (0, 0, 0.00000000000000000000e+00) (0, 0, 0.00000000000000000000e+00) (0, 0, 0.00000000000000000000e+00) (0, 0, 0.00000000000000000000e+00) (0, 0, 0.00000000000000000000e+00) (0, 0, 0.00000000000000000000e+00) (0, 0, 0.00000000000000000000e+00) (0, 0, 0.00000000000000000000e+00) (0, 0, 0.00000000000000000000e+00) (0, 0, 0.00000000000000000000e+00) (0, 0, 0.00000000000000000000e+00) (0, 0, 0.00000000000000000000e+00) (0, 0, 0.00000000000000000000e+00) (17, 5, 5.00000000000000000000e-01) (17, 5, 5.00000000000000000000e-01) (17, 5, 5.00000000000000000000e-01) (17, 5, 5.00000000000000000000e-01) (17, 5, 5.00000000000000000000e-01) (17, 5, 5.00000000000000000000e-01) (17, 5, 5.00000000000000000000e-01) (17, 5, 5.00000000000000000000e-01) (0, 5, 0.00000000000000000000e+00) (9, 0, 5.00000000000000000000e-01) (9, 0, 5.00000000000000000000e-01) (0, 0, 0.00000000000000000000e+00) 
connections (connected_to_neuron, weight)=(0, 3.48048577005106107851e-01) (1, 1.11724884889807851707e+00) (2, 1.25040955682960586159e+00) (3, 1.92707069484503307200e-02) (4, 1.99494951132415776485e+00) (5, -1.76530491266391886818e+00) (6, -3.07684763093590482597e-03) (7, 2.27981856947956629256e+00) (8, 9.10442844022718800190e-01) (9, -7.85523674487995759996e-01) (10, 1.07485183815772522564e+00) (11, 1.64948389049913801685e+00) (12, -4.08708036974219160453e-02) (13, 1.44903148952590643539e+00) (14, 7.88320223159999167173e-01) (15, 4.58327394842770907690e-01) (16, 1.43602187866663344451e-01) (0, 2.35428301904749504025e-01) (1, 1.49209790892824628594e-01) (2, 7.80396622061872102805e-01) (3, 5.42110229017280564889e-01) (4, 2.24910564245260069516e-01) (5, 3.22337752800220589400e-01) (6, 2.38951262048980150876e-01) (7, -2.10299625006812040962e-01) (8, -1.07554425739252043637e-01) (9, 4.95380233940513337032e-01) (10, 1.50002319508955976601e-02) (11, 2.64609313195531936636e-01) (12, -5.89837247889010620611e-03) (13, -1.66692524194578417518e-01) (14, 2.82178699499862850608e-01) (15, 5.18216447195760099298e-01) (16, -1.40843591274050130430e-02) (0, 2.39049330564444284519e+00) (1, -1.04637447230431912537e+00) (2, -1.27976932714764624066e+00) (3, 3.59085304519630055253e-01) (4, -8.90149900393291226841e-01) (5, 2.22750740975330846494e-01) (6, 7.55309255852913308260e-01) (7, -1.87662516718595961951e-01) (8, -1.14397296145641313991e+00) (9, 1.01021965625781673381e+00) (10, 1.52872273801554325878e-01) (11, -6.92774696487225449815e-01) (12, 1.29772311858524846961e+00) (13, -1.52277580095717623987e-01) (14, -1.38749219313930610697e-01) (15, -2.17528642726708659749e-01) (16, -8.52308419235462202956e-03) (0, 5.94765196900632897581e-01) (1, 3.21684721979156318383e-01) (2, -1.06174774676320443634e-01) (3, 2.98891616146493954709e-01) (4, 7.43139104480802337171e-01) (5, 5.71198868850568697297e-01) (6, 7.67092822162272591768e-01) (7, 5.43551199870308865414e-01) (8, -5.93541582021354929832e-02) (9, 4.62410279692800685325e-01) (10, 4.15216339768705144930e-01) (11, -3.24925470664557014544e-01) (12, 1.18343278922415737209e-01) (13, 6.31160053041420199271e-01) (14, 1.94375741799039103430e-01) (15, 2.60967890740494035118e-01) (16, 2.42757988243699512898e-01) (0, 5.97356687171579303630e-01) (1, -5.21925023521589315223e-01) (2, -8.54765213453268613009e-01) (3, 8.10936407374067580456e-01) (4, -7.58283021470451013002e-01) (5, 6.04910250067946242414e-02) (6, 1.05380976887593180713e+00) (7, -7.15790446252482337464e-01) (8, -1.82030791835914329546e+00) (9, 1.78800794445248767417e-01) (10, 2.24219933548897421005e+00) (11, -1.62443138632295958068e+00) (12, 1.03122475279411029980e+00) (13, -9.59389377188791581119e-01) (14, -5.36090858508010859040e-01) (15, -1.59702088016184629016e-01) (16, 5.22630708142779010217e-01) (0, 7.31402057157387375241e-01) (1, -2.82476266729916714038e-01) (2, 3.54451692062926926319e-01) (3, -1.70114028964062358185e-01) (4, 4.50365026164419923749e-01) (5, 1.01286389731942386150e-01) (6, 1.72728369110735358039e-01) (7, 3.78385872041084592166e-01) (8, 4.20902323066526917739e-01) (9, 8.16445127901452183394e-01) (10, 5.90033414615324325325e-01) (11, 1.15105601176265648355e+00) (12, 3.50341439461629489127e-01) (13, 5.46006629452528313706e-01) (14, 1.72687531206904520964e+00) (15, -6.01393221460986074356e-02) (16, 7.84443449057629638155e-02) (0, -1.09197874109007900256e-01) (1, -2.48080514980133726155e-01) (2, -1.40554673140842023571e-01) (3, 7.96710166462524349562e-01) (4, -2.42778719447934360209e-01) (5, -1.06866703695722820022e-01) (6, 3.74720205183731946974e-01) (7, -4.60072790931434993933e-01) (8, -2.12084076377033831085e-01) (9, 6.23866815599553592442e-01) (10, 1.82124118005099672191e-01) (11, -8.94443334618043928153e-01) (12, 1.17974207941145464718e-01) (13, -6.61340990372014436716e-01) (14, -9.77461645425406810972e-01) (15, 1.24531576834500201656e+00) (16, 2.56525986691473251167e-01) (0, 7.95846353502580705630e-01) (1, -1.34395553586746197006e+00) (2, 2.21561076289824937513e-01) (3, 6.28669143162316146345e-01) (4, -6.14554683897225229039e-01) (5, -1.18813643350195272119e-01) (6, 3.43058897857482947291e-01) (7, 3.81006005002171299623e-01) (8, 4.65565949928544053904e-01) (9, 4.13171201102702057018e-01) (10, 1.91969071822001624561e-01) (11, 5.59981026355413469275e-01) (12, 8.34645919619285581170e-01) (13, 3.78929265385987368298e-01) (14, 1.21730192652186555713e-01) (15, 2.79514111972599621492e-01) (16, 1.19603780683079016778e-01) (17, 5.77284798406960231176e-01) (18, -4.85421913265706106433e-01) (19, 3.85390773428216926177e-01) (20, 8.73462465519423969518e-01) (21, 5.30054476709770350240e-01) (22, 2.55934737660243882829e-01) (23, -6.79274489778444068300e-01) (24, 1.65849793062632866469e-01) (25, 1.73700284647804847893e-01) (17, 5.85605162103455034739e-01) (18, 1.16918388439219891189e-02) (19, -4.86977826072012842662e-01) (20, 3.24997843927263940778e-01) (21, 4.94840876366611615023e-01) (22, -2.58858302075359092420e-01) (23, 9.78456961243499345748e-01) (24, -4.22992800880167774125e-01) (25, -3.45613516667908557412e-02) 
