FANN_FLO_2.1
num_layers=3
learning_rate=0.700000
connection_rate=0.630000
network_type=0
learning_momentum=0.000000
training_algorithm=2
train_error_function=1
train_stop_function=0
cascade_output_change_fraction=0.010000
quickprop_decay=-0.000100
quickprop_mu=1.750000
rprop_increase_factor=1.200000
rprop_decrease_factor=0.500000
rprop_delta_min=0.000000
rprop_delta_max=50.000000
rprop_delta_zero=0.100000
cascade_output_stagnation_epochs=12
cascade_candidate_change_fraction=0.010000
cascade_candidate_stagnation_epochs=12
cascade_max_out_epochs=150
cascade_min_out_epochs=50
cascade_max_cand_epochs=150
cascade_min_cand_epochs=50
cascade_num_candidate_groups=2
bit_fail_limit=2.40999999999999998945e-02
cascade_candidate_limit=1.00000000000000000000e+03
cascade_weight_multiplier=4.00000000000000022204e-01
cascade_activation_functions_count=10
cascade_activation_functions=3 5 7 8 10 11 14 15 16 17 
cascade_activation_steepnesses_count=4
cascade_activation_steepnesses=2.50000000000000000000e-01 5.00000000000000000000e-01 7.50000000000000000000e-01 1.00000000000000000000e+00 
layer_sizes=17 7 3 
scale_included=0
neurons (num_inputs, activation_function, activation_steepness)=(0, 0, 0.00000000000000000000e+00) (0, 0, 0.00000000000000000000e+00) (0, 0, 0.00000000000000000000e+00) (0, 0, 0.00000000000000000000e+00) (0, 0, 0.00000000000000000000e+00) (0, 0, 0.00000000000000000000e+00) (0, 0, 0.00000000000000000000e+00) (0, 0, 0.00000000000000000000e+00) (0, 0, 0.00000000000000000000e+00) (0, 0, 0.00000000000000000000e+00) (0, 0, 0.00000000000000000000e+00) (0, 0, 0.00000000000000000000e+00) (0, 0, 0.00000000000000000000e+00) (0, 0, 0.00000000000000000000e+00) (0, 0, 0.00000000000000000000e+00) (0, 0, 0.00000000000000000000e+00) (0, 0, 0.00000000000000000000e+00) (11, 5, 6.99999999999999955591e-01) (11, 5, 6.99999999999999955591e-01) (11, 5, 6.99999999999999955591e-01) (11, 5, 6.99999999999999955591e-01) (11, 5, 6.99999999999999955591e-01) (11, 5, 6.99999999999999955591e-01) (0, 5, 6.99999999999999955591e-01) (5, 5, 4.50000000000000011102e-01) (5, 5, 4.50000000000000011102e-01) (0, 5, 4.50000000000000011102e-01) 
connections (connected_to_neuron, weight)=(16, 3.84865670206414733912e+00) (13, -1.50160179194968339544e+01) (1, 1.11058229209249414993e+00) (7, -7.12780109179870091651e+00) (3, -1.43708452230432515151e+00) (6, 8.05182956485910494848e+00) (14, -2.61899375712562516583e+01) (12, -1.51596682038843288964e+00) (9, -6.23807905055620093293e+00) (4, 1.35515190362261694901e+01) (11, -3.10391535829152545034e+01) (16, -1.27932026152021416365e+00) (0, -4.30341539162927588791e+01) (6, -2.98732708416018546416e+01) (12, -2.38776157855165083177e+00) (14, 1.39876273000938038393e+01) (4, 2.34555605759835295032e+01) (5, -9.75812426253329157078e+00) (7, 1.48491050482836808300e+01) (1, 5.36277124204714450428e+00) (11, 2.49556725715493499251e+01) (10, 2.01724771683425530000e+01) (16, -1.00560623901928769541e+00) (2, 1.41841492032536553580e+01) (10, 2.20986615374766941500e+01) (3, -3.33355304584065370577e+00) (8, 1.67577970299590894854e+01) (4, -1.32880186017701031886e+01) (5, -1.23545460915823124282e+00) (9, 5.50941640678507330020e-02) (15, 1.88691985880453749758e+01) (6, -1.41171887166868064156e+01) (12, 2.57002603134937279705e+00) (16, -1.08096870639639949796e-01) (1, -7.69922206452203816696e+00) (4, 9.41130813201288995984e-01) (9, 4.07546582951072267065e+00) (14, -2.88035884774306749634e+00) (15, -5.85524716817624479859e+00) (8, -1.99573864089356817209e-01) (10, -1.93583160160739708999e+00) (5, 6.38879987308633268128e-01) (7, 2.79791362037565560783e+00) (3, 6.20752411058756692341e+00) (16, -1.35256209684843753394e-01) (3, -4.26070605459732465459e-01) (7, 3.72425829839707400737e+00) (8, 1.81830684598359115789e+00) (11, -3.94742662518179976416e+00) (13, -6.98526942315495058544e-01) (2, 2.37461491685037362487e+00) (1, 8.91695928858406361428e+00) (6, -8.41266303636560186519e-01) (15, -2.75491455262736195664e+00) (9, 7.83619060907639886082e-01) (16, -5.55132270090735957524e-01) (5, -3.85369354618665260759e+00) (4, 1.56516911679707826366e+00) (6, 4.58358730837677263992e+00) (10, -1.01779055369987303514e+00) (1, 5.90693399659766882337e+00) (7, -8.34309894126570839035e+00) (3, 7.60441898143211147953e+00) (8, 4.97879361057274538727e-01) (12, -4.65268053918529600477e-01) (2, 6.06551895255716111421e+00) (23, -6.04134132141022295315e-01) (19, -5.31594363165876715449e-01) (21, -1.13766030742803536668e+00) (22, -1.71511442714419470867e+00) (17, 2.23378478536744307092e+00) (23, 2.72377844636911392584e+00) (17, -8.79382904883531768547e-01) (18, 9.85918814087300976468e-01) (20, -2.70491167905512464031e+00) (19, 1.06357739686045241201e-01) 
