FANN_FLO_2.1
num_layers=3
learning_rate=0.700000
connection_rate=0.630000
network_type=0
learning_momentum=0.000000
training_algorithm=2
train_error_function=1
train_stop_function=0
cascade_output_change_fraction=0.010000
quickprop_decay=-0.000100
quickprop_mu=1.750000
rprop_increase_factor=1.200000
rprop_decrease_factor=0.500000
rprop_delta_min=0.000000
rprop_delta_max=50.000000
rprop_delta_zero=0.100000
cascade_output_stagnation_epochs=12
cascade_candidate_change_fraction=0.010000
cascade_candidate_stagnation_epochs=12
cascade_max_out_epochs=150
cascade_min_out_epochs=50
cascade_max_cand_epochs=150
cascade_min_cand_epochs=50
cascade_num_candidate_groups=2
bit_fail_limit=2.40999999999999998945e-02
cascade_candidate_limit=1.00000000000000000000e+03
cascade_weight_multiplier=4.00000000000000022204e-01
cascade_activation_functions_count=10
cascade_activation_functions=3 5 7 8 10 11 14 15 16 17 
cascade_activation_steepnesses_count=4
cascade_activation_steepnesses=2.50000000000000000000e-01 5.00000000000000000000e-01 7.50000000000000000000e-01 1.00000000000000000000e+00 
layer_sizes=17 7 3 
scale_included=0
neurons (num_inputs, activation_function, activation_steepness)=(0, 0, 0.00000000000000000000e+00) (0, 0, 0.00000000000000000000e+00) (0, 0, 0.00000000000000000000e+00) (0, 0, 0.00000000000000000000e+00) (0, 0, 0.00000000000000000000e+00) (0, 0, 0.00000000000000000000e+00) (0, 0, 0.00000000000000000000e+00) (0, 0, 0.00000000000000000000e+00) (0, 0, 0.00000000000000000000e+00) (0, 0, 0.00000000000000000000e+00) (0, 0, 0.00000000000000000000e+00) (0, 0, 0.00000000000000000000e+00) (0, 0, 0.00000000000000000000e+00) (0, 0, 0.00000000000000000000e+00) (0, 0, 0.00000000000000000000e+00) (0, 0, 0.00000000000000000000e+00) (0, 0, 0.00000000000000000000e+00) (11, 5, 6.99999999999999955591e-01) (11, 5, 6.99999999999999955591e-01) (11, 5, 6.99999999999999955591e-01) (11, 5, 6.99999999999999955591e-01) (11, 5, 6.99999999999999955591e-01) (11, 5, 6.99999999999999955591e-01) (0, 5, 6.99999999999999955591e-01) (5, 5, 4.50000000000000011102e-01) (5, 5, 4.50000000000000011102e-01) (0, 5, 4.50000000000000011102e-01) 
connections (connected_to_neuron, weight)=(16, 1.00519033753124964470e+00) (9, -1.50048479367815207342e-01) (3, 5.45102721984623883600e+00) (14, -3.33776860921721141295e+00) (7, -4.58224675410213666549e-01) (5, -6.28389969938283421413e+00) (8, -3.30638791984559343717e+00) (1, 3.81347744403014576875e+00) (13, -1.66824927676036227631e+00) (10, -3.97334812756531929878e-01) (0, 9.06555380314125613950e+00) (16, -1.62821582365214467814e+00) (2, -6.23309235102499048509e+00) (4, -1.80032983623590236988e+00) (12, 6.94216725322185013169e+00) (14, 1.44037079504772602689e+01) (11, -1.75214280192435323258e+00) (15, -1.79247651072835658681e+01) (13, -2.20812380786525475074e+00) (8, -1.38228566316242473810e+00) (10, 5.72058871412246627841e+00) (5, -2.98805301410447654575e+00) (16, 9.80407623302446351587e-01) (0, 9.91086892588709034158e+00) (6, 3.00950552860168274449e+00) (8, 5.52774105457062292501e-02) (14, -4.91128407676790068592e+00) (7, -2.87311558280377843388e+00) (13, -6.06688882915953975328e+00) (4, -1.69346246167076852629e+00) (11, -4.27697373459316132482e+00) (1, 3.95491288954735331629e+00) (3, 3.12993001530678460753e+00) (16, -7.23686051302697030962e-01) (1, -1.78438243689359921085e+00) (7, -2.30473955800428242924e+00) (11, 3.10385918588837705911e+00) (2, -4.91342684397376228134e+00) (3, 2.86883238797532191811e+00) (10, 1.47572758992386465771e+00) (9, 5.83222436524238130318e+00) (5, -3.23458307818187362770e+00) (14, -2.50046553186796938206e+00) (6, -1.96925940205645411130e-01) (16, -1.01267066347530310111e+00) (5, -5.97494332545606621210e+00) (10, 9.24692961584698913668e+00) (13, -6.12743689415154602074e+00) (9, 9.13625045382467249055e+00) (2, -1.06977625260540790131e-01) (8, 1.40820697787241666532e+01) (12, 3.15164534198385393182e+00) (15, -1.09203060482639973117e+01) (1, -7.81045519492149331597e+00) (0, 1.68887632609036764109e+01) (16, 1.65469051858452198545e+00) (3, 3.19273517048361155091e+00) (15, 7.98518788790034861336e+00) (14, 5.71219188004819677928e+00) (6, 1.29809823239097688052e+00) (7, 7.15839036132065731355e-02) (13, 2.11933974733350094510e+00) (12, 4.54551000059182541690e+00) (1, -1.42739011981130414775e+00) (0, -1.66284702511664796987e+01) (10, 4.77629075172249262238e+00) (23, -9.12091475032396514777e-01) (18, 5.82807568019302912887e+00) (19, 5.29811109866550022929e+00) (20, 4.29325546918436096178e+00) (17, 2.62341298327859240302e+00) (23, 1.18954136887582695437e+00) (17, 1.29585029807027485305e+00) (21, -1.53809831448211165039e+00) (22, -1.18339130774004286373e+00) (20, -7.95551169870608254620e-01) 
