FANN_FLO_2.1
num_layers=3
learning_rate=0.700000
connection_rate=0.630000
network_type=0
learning_momentum=0.000000
training_algorithm=2
train_error_function=1
train_stop_function=0
cascade_output_change_fraction=0.010000
quickprop_decay=-0.000100
quickprop_mu=1.750000
rprop_increase_factor=1.200000
rprop_decrease_factor=0.500000
rprop_delta_min=0.000000
rprop_delta_max=50.000000
rprop_delta_zero=0.100000
cascade_output_stagnation_epochs=12
cascade_candidate_change_fraction=0.010000
cascade_candidate_stagnation_epochs=12
cascade_max_out_epochs=150
cascade_min_out_epochs=50
cascade_max_cand_epochs=150
cascade_min_cand_epochs=50
cascade_num_candidate_groups=2
bit_fail_limit=2.40999999999999998945e-02
cascade_candidate_limit=1.00000000000000000000e+03
cascade_weight_multiplier=4.00000000000000022204e-01
cascade_activation_functions_count=10
cascade_activation_functions=3 5 7 8 10 11 14 15 16 17 
cascade_activation_steepnesses_count=4
cascade_activation_steepnesses=2.50000000000000000000e-01 5.00000000000000000000e-01 7.50000000000000000000e-01 1.00000000000000000000e+00 
layer_sizes=17 7 3 
scale_included=0
neurons (num_inputs, activation_function, activation_steepness)=(0, 0, 0.00000000000000000000e+00) (0, 0, 0.00000000000000000000e+00) (0, 0, 0.00000000000000000000e+00) (0, 0, 0.00000000000000000000e+00) (0, 0, 0.00000000000000000000e+00) (0, 0, 0.00000000000000000000e+00) (0, 0, 0.00000000000000000000e+00) (0, 0, 0.00000000000000000000e+00) (0, 0, 0.00000000000000000000e+00) (0, 0, 0.00000000000000000000e+00) (0, 0, 0.00000000000000000000e+00) (0, 0, 0.00000000000000000000e+00) (0, 0, 0.00000000000000000000e+00) (0, 0, 0.00000000000000000000e+00) (0, 0, 0.00000000000000000000e+00) (0, 0, 0.00000000000000000000e+00) (0, 0, 0.00000000000000000000e+00) (11, 5, 6.99999999999999955591e-01) (11, 5, 6.99999999999999955591e-01) (11, 5, 6.99999999999999955591e-01) (11, 5, 6.99999999999999955591e-01) (11, 5, 6.99999999999999955591e-01) (11, 5, 6.99999999999999955591e-01) (0, 5, 6.99999999999999955591e-01) (5, 5, 4.50000000000000011102e-01) (5, 5, 4.50000000000000011102e-01) (0, 5, 4.50000000000000011102e-01) 
connections (connected_to_neuron, weight)=(16, 1.18103387973235696151e+00) (2, -5.35715053045656208752e+00) (4, -6.42037784672779943129e-01) (8, -3.08991284125461040944e+00) (9, -2.07918083758897287439e+00) (13, -5.10283736217506778132e-01) (3, -2.34989186046185505319e+00) (7, 1.34847239967474976652e+01) (14, -4.89951102521447978688e+00) (12, 2.19544345752041669684e+00) (10, -5.96617338374470307372e+00) (16, 2.76088366276269647770e-01) (0, 6.78407794643753803143e+00) (7, 4.33483978949641990397e+00) (14, -2.11253899991448346185e+00) (15, 1.26389617146696782157e+01) (12, -9.40766968935637315496e+00) (13, 1.56847776360157205033e+01) (6, -1.09911446307139293310e+01) (3, -4.23405191982592832289e+00) (1, -3.00429891723543462945e+00) (11, 2.31657760067017326477e+00) (16, -9.15953448500177236369e-01) (1, 4.54143794362053743185e+00) (3, -9.45180525844395380552e-01) (6, -4.67137476854627031742e+00) (10, 1.93504020624715256105e+00) (11, -2.85604994926738164907e+00) (15, -7.68299557295161505976e+00) (7, 7.73851747809000567457e+00) (14, -5.25627855418835299162e+00) (9, -2.15968415531492796688e+00) (4, 2.36467100990036849240e+00) (16, 1.79547652468631202538e+00) (1, 6.03038004404720240359e+00) (12, -7.11987855201371644398e+00) (15, 1.01159541246442348239e+01) (3, 2.45570825961118632819e+00) (7, -3.58044239843030220882e+00) (0, 6.01817248576719343589e+00) (14, -3.93793236515082634153e-01) (8, -2.66969996904185713493e-01) (2, 2.32441484207457405020e+00) (9, -5.11681768558189986607e+00) (16, -4.10807422433244417981e-01) (5, -1.47139156962045802857e+00) (12, 3.80164021771684979001e+00) (8, 5.02863211022818168416e-01) (1, 2.82235966209200084265e+00) (13, 2.10646723583582362593e+00) (2, 1.39950523698279261087e-01) (7, 7.10287079894589634677e+00) (6, -2.99372198577511605677e+00) (11, 2.28293593721120080531e+00) (15, -3.15861804148955371829e+00) (16, -2.60862259137884466842e-01) (5, 6.63152190651967643475e+00) (2, -6.39012775792738452196e+00) (7, -3.85364128395069838184e-01) (8, -3.74363652444168959477e+00) (1, 1.05405616403712234369e-02) (6, 3.41644212297934402045e+00) (15, 2.77280775392968017456e+01) (14, 2.60518506976559294230e+00) (10, -1.02036232765609380380e+01) (4, -7.28076586637358302845e-01) (23, 1.14285910222482467447e+00) (20, 3.11485631506026372506e+00) (21, -8.05636266383052829232e-02) (22, -4.77698636454930536388e+00) (18, 2.75593454567544204892e+00) (23, -9.66413737896522406778e-01) (17, 3.90086085506339230733e+00) (18, -3.51694522816542898269e-01) (19, 1.38742199227934870365e+00) (21, -2.68251237204696790783e+00) 
