FANN_FLO_2.1
num_layers=3
learning_rate=0.700000
connection_rate=0.630000
network_type=0
learning_momentum=0.000000
training_algorithm=2
train_error_function=1
train_stop_function=0
cascade_output_change_fraction=0.010000
quickprop_decay=-0.000100
quickprop_mu=1.750000
rprop_increase_factor=1.200000
rprop_decrease_factor=0.500000
rprop_delta_min=0.000000
rprop_delta_max=50.000000
rprop_delta_zero=0.100000
cascade_output_stagnation_epochs=12
cascade_candidate_change_fraction=0.010000
cascade_candidate_stagnation_epochs=12
cascade_max_out_epochs=150
cascade_min_out_epochs=50
cascade_max_cand_epochs=150
cascade_min_cand_epochs=50
cascade_num_candidate_groups=2
bit_fail_limit=2.40999999999999998945e-02
cascade_candidate_limit=1.00000000000000000000e+03
cascade_weight_multiplier=4.00000000000000022204e-01
cascade_activation_functions_count=10
cascade_activation_functions=3 5 7 8 10 11 14 15 16 17 
cascade_activation_steepnesses_count=4
cascade_activation_steepnesses=2.50000000000000000000e-01 5.00000000000000000000e-01 7.50000000000000000000e-01 1.00000000000000000000e+00 
layer_sizes=17 7 3 
scale_included=0
neurons (num_inputs, activation_function, activation_steepness)=(0, 0, 0.00000000000000000000e+00) (0, 0, 0.00000000000000000000e+00) (0, 0, 0.00000000000000000000e+00) (0, 0, 0.00000000000000000000e+00) (0, 0, 0.00000000000000000000e+00) (0, 0, 0.00000000000000000000e+00) (0, 0, 0.00000000000000000000e+00) (0, 0, 0.00000000000000000000e+00) (0, 0, 0.00000000000000000000e+00) (0, 0, 0.00000000000000000000e+00) (0, 0, 0.00000000000000000000e+00) (0, 0, 0.00000000000000000000e+00) (0, 0, 0.00000000000000000000e+00) (0, 0, 0.00000000000000000000e+00) (0, 0, 0.00000000000000000000e+00) (0, 0, 0.00000000000000000000e+00) (0, 0, 0.00000000000000000000e+00) (11, 5, 6.99999999999999955591e-01) (11, 5, 6.99999999999999955591e-01) (11, 5, 6.99999999999999955591e-01) (11, 5, 6.99999999999999955591e-01) (11, 5, 6.99999999999999955591e-01) (11, 5, 6.99999999999999955591e-01) (0, 5, 6.99999999999999955591e-01) (5, 5, 4.50000000000000011102e-01) (5, 5, 4.50000000000000011102e-01) (0, 5, 4.50000000000000011102e-01) 
connections (connected_to_neuron, weight)=(16, -1.62156736049240324249e+00) (0, 1.34147183436210379881e+01) (4, 6.96325281206467572304e+00) (5, 8.24282914991146853367e+00) (7, 4.46422165672668658232e+00) (9, -8.53121570701768838774e+00) (11, -5.69492024552545839100e+00) (13, 6.74563508988327598104e+00) (6, 1.62409128742051556138e+00) (3, 1.69829121918638370481e+00) (10, -2.01821152632448930220e+00) (16, 3.30257807777469047927e-01) (12, -9.96948248603189135508e+00) (4, 6.10147203070788979318e+00) (1, 9.83745697060342827456e+00) (5, 8.07015963154655047163e+00) (2, 2.16081882149334925103e+00) (7, 3.87597610175872553384e+00) (8, 2.51423464481313763130e+00) (6, -1.71652161616328374771e-01) (10, 1.04114252375884164259e+00) (15, -2.11770840456057456436e+01) (16, 7.45561435688695484103e-01) (8, -2.66741385410355258401e+00) (10, -2.92602664338046603021e+00) (3, -1.11264745508361073689e+00) (12, 2.66449681970793550434e+00) (4, -2.74316736752045997605e+00) (9, 1.16098550562369995376e+00) (0, -6.67599147790616420650e+00) (5, -4.81832703016246632899e+00) (13, 3.25578080178615580920e+00) (14, 6.30829025363073281341e+00) (16, 2.46481442136978673441e-01) (1, 8.45742209034389569311e-01) (3, 6.97386609024784220878e+00) (15, -1.18847288698866790924e+01) (0, -6.92599044595822377346e+00) (13, 2.03071782140837342467e+00) (11, -1.36757391597463273669e+00) (14, -5.23744044197017366571e+00) (4, 4.71002386341454082341e-01) (10, 3.42597592584637444801e+00) (2, -1.37428152455571855883e-01) (16, -1.82488472966764492256e+00) (13, -7.91195404480562913818e+00) (9, 3.35616413674687619206e+00) (10, 7.61605889480367626021e+00) (4, -1.08958372013265036848e+00) (1, 6.01357335606868481648e+00) (8, 2.53581135198268858844e+00) (14, -2.44614573092032738799e+00) (11, -5.43102007227065541883e+00) (5, 2.36123594739240960649e+00) (7, -9.52722953668755256906e-01) (16, -4.55079195455149743132e-01) (2, -1.13466543394667485067e+00) (6, 6.71709409015126812648e+00) (14, -9.18490460181054935163e+00) (0, -6.19546867371349652132e+00) (3, -5.65293114035794808103e+00) (7, 2.26107076163888587317e+00) (4, 1.24949032654965086486e+00) (8, 2.60942133313837576480e+00) (10, -1.73288425252963995682e+00) (9, 1.17931517188550536446e+01) (23, 1.46466231949942105039e+00) (17, 2.23858086962129876341e+00) (18, 1.59503420497861370109e-01) (19, 3.70414716574768121404e+00) (21, 2.51780505763562922894e+00) (23, 2.10380599070547891216e+00) (20, 2.48356276891579996757e+00) (22, 1.62831622740354942103e+00) (21, 3.88097324310802527236e+00) (18, -3.13239343178238582865e+00) 
