FANN_FLO_2.1
num_layers=3
learning_rate=0.700000
connection_rate=0.630000
network_type=0
learning_momentum=0.000000
training_algorithm=2
train_error_function=1
train_stop_function=0
cascade_output_change_fraction=0.010000
quickprop_decay=-0.000100
quickprop_mu=1.750000
rprop_increase_factor=1.200000
rprop_decrease_factor=0.500000
rprop_delta_min=0.000000
rprop_delta_max=50.000000
rprop_delta_zero=0.100000
cascade_output_stagnation_epochs=12
cascade_candidate_change_fraction=0.010000
cascade_candidate_stagnation_epochs=12
cascade_max_out_epochs=150
cascade_min_out_epochs=50
cascade_max_cand_epochs=150
cascade_min_cand_epochs=50
cascade_num_candidate_groups=2
bit_fail_limit=2.40999999999999998945e-02
cascade_candidate_limit=1.00000000000000000000e+03
cascade_weight_multiplier=4.00000000000000022204e-01
cascade_activation_functions_count=10
cascade_activation_functions=3 5 7 8 10 11 14 15 16 17 
cascade_activation_steepnesses_count=4
cascade_activation_steepnesses=2.50000000000000000000e-01 5.00000000000000000000e-01 7.50000000000000000000e-01 1.00000000000000000000e+00 
layer_sizes=17 7 3 
scale_included=0
neurons (num_inputs, activation_function, activation_steepness)=(0, 0, 0.00000000000000000000e+00) (0, 0, 0.00000000000000000000e+00) (0, 0, 0.00000000000000000000e+00) (0, 0, 0.00000000000000000000e+00) (0, 0, 0.00000000000000000000e+00) (0, 0, 0.00000000000000000000e+00) (0, 0, 0.00000000000000000000e+00) (0, 0, 0.00000000000000000000e+00) (0, 0, 0.00000000000000000000e+00) (0, 0, 0.00000000000000000000e+00) (0, 0, 0.00000000000000000000e+00) (0, 0, 0.00000000000000000000e+00) (0, 0, 0.00000000000000000000e+00) (0, 0, 0.00000000000000000000e+00) (0, 0, 0.00000000000000000000e+00) (0, 0, 0.00000000000000000000e+00) (0, 0, 0.00000000000000000000e+00) (11, 5, 6.99999999999999955591e-01) (11, 5, 6.99999999999999955591e-01) (11, 5, 6.99999999999999955591e-01) (11, 5, 6.99999999999999955591e-01) (11, 5, 6.99999999999999955591e-01) (11, 5, 6.99999999999999955591e-01) (0, 5, 6.99999999999999955591e-01) (5, 5, 4.50000000000000011102e-01) (5, 5, 4.50000000000000011102e-01) (0, 5, 4.50000000000000011102e-01) 
connections (connected_to_neuron, weight)=(16, -1.61977762786656453997e+00) (1, -1.30032205728945271517e+00) (9, -1.40275141347206089293e+00) (10, -4.37160876523299379848e-01) (11, 6.01787594472275810809e-01) (7, 2.47392720507746233238e+00) (13, 3.35552753570230688496e+00) (0, 1.55793967029809965474e+00) (14, 4.02721666109724285576e+00) (15, 4.25256159124340982203e+00) (8, -1.50312294932044232532e+00) (16, -9.22546672232407938274e-01) (5, -2.20144422522329996639e+00) (9, 1.41185343596967882718e+00) (7, 1.70006243660091049819e+00) (13, -5.61477436608657717865e-02) (15, 5.39098573558966620567e+00) (10, 4.14261837932701659781e+00) (14, 4.98394781383642726524e+00) (8, 3.04387483935032676641e+00) (12, 4.87172705279540974033e+00) (11, 3.31288753039488215180e+00) (16, 3.52307504654272118927e+00) (7, -7.56119270380494068462e+00) (14, -2.27582742724161128933e+01) (6, 1.36390134520029064902e+01) (5, -1.11980242749809577596e+00) (9, 1.59318558220419461691e+01) (8, 4.38899166282036556908e+00) (4, 3.77348097533637538703e+00) (15, -3.12578210529916518112e+01) (1, -1.21991764785781722225e+01) (2, -1.05916887906127730190e+01) (16, 1.29490102483466129613e+00) (3, -3.16398588333334762623e+00) (4, 2.91332998140103383022e+00) (8, -1.81800055997517384654e+00) (13, -2.53105741689630381330e+00) (11, -6.73836998028906730696e-01) (6, 7.05314138762297093699e-01) (9, 1.49450513442994581403e+00) (1, 2.67442861092966088776e+00) (14, -2.30966551870283520742e+00) (7, -7.24080470572338597002e-01) (16, 1.01304103505748899217e+00) (2, -1.24842236721672392719e+01) (12, 7.11470317268657481691e+00) (15, -6.51575357043549985292e+00) (13, -6.01046709978190207835e+00) (6, 4.30220644536461893637e+00) (14, -2.15594962709377524490e+00) (8, 3.87358188573565875856e+00) (3, 1.03227020087508680746e+01) (11, -4.22599607535909305156e-01) (5, 1.77804383441074276284e+00) (16, -7.61411964403210017593e-01) (0, -9.38328627942015280894e+00) (6, 1.38264034785215483847e-01) (7, -9.45999988483176346143e-01) (5, -2.47562327406956439457e-01) (9, -6.74824752229141733295e+00) (1, 4.48262552532549829465e+00) (11, -1.24479198137675406421e+00) (12, -2.75347281129884580153e+00) (15, -6.01177294937826989241e+00) (14, -3.62122591633866974803e+00) (23, -1.22827501910048320077e+00) (17, 6.85948366649229779313e+00) (21, 2.53024940711463441900e+00) (20, 2.88311224437440838386e+00) (19, 1.77267817379208958428e+00) (23, 4.12784337765743813975e+00) (18, -1.31377095543812938416e+00) (19, -1.73910451126464304927e+00) (20, 1.70955875585169114750e+00) (22, 3.12705511604425057115e+00) 
