FANN_FLO_2.1
num_layers=3
learning_rate=0.700000
connection_rate=0.630000
network_type=0
learning_momentum=0.000000
training_algorithm=2
train_error_function=1
train_stop_function=0
cascade_output_change_fraction=0.010000
quickprop_decay=-0.000100
quickprop_mu=1.750000
rprop_increase_factor=1.200000
rprop_decrease_factor=0.500000
rprop_delta_min=0.000000
rprop_delta_max=50.000000
rprop_delta_zero=0.100000
cascade_output_stagnation_epochs=12
cascade_candidate_change_fraction=0.010000
cascade_candidate_stagnation_epochs=12
cascade_max_out_epochs=150
cascade_min_out_epochs=50
cascade_max_cand_epochs=150
cascade_min_cand_epochs=50
cascade_num_candidate_groups=2
bit_fail_limit=2.40999999999999998945e-02
cascade_candidate_limit=1.00000000000000000000e+03
cascade_weight_multiplier=4.00000000000000022204e-01
cascade_activation_functions_count=10
cascade_activation_functions=3 5 7 8 10 11 14 15 16 17 
cascade_activation_steepnesses_count=4
cascade_activation_steepnesses=2.50000000000000000000e-01 5.00000000000000000000e-01 7.50000000000000000000e-01 1.00000000000000000000e+00 
layer_sizes=17 7 3 
scale_included=0
neurons (num_inputs, activation_function, activation_steepness)=(0, 0, 0.00000000000000000000e+00) (0, 0, 0.00000000000000000000e+00) (0, 0, 0.00000000000000000000e+00) (0, 0, 0.00000000000000000000e+00) (0, 0, 0.00000000000000000000e+00) (0, 0, 0.00000000000000000000e+00) (0, 0, 0.00000000000000000000e+00) (0, 0, 0.00000000000000000000e+00) (0, 0, 0.00000000000000000000e+00) (0, 0, 0.00000000000000000000e+00) (0, 0, 0.00000000000000000000e+00) (0, 0, 0.00000000000000000000e+00) (0, 0, 0.00000000000000000000e+00) (0, 0, 0.00000000000000000000e+00) (0, 0, 0.00000000000000000000e+00) (0, 0, 0.00000000000000000000e+00) (0, 0, 0.00000000000000000000e+00) (11, 5, 6.99999999999999955591e-01) (11, 5, 6.99999999999999955591e-01) (11, 5, 6.99999999999999955591e-01) (11, 5, 6.99999999999999955591e-01) (11, 5, 6.99999999999999955591e-01) (11, 5, 6.99999999999999955591e-01) (0, 5, 6.99999999999999955591e-01) (5, 5, 4.50000000000000011102e-01) (5, 5, 4.50000000000000011102e-01) (0, 5, 4.50000000000000011102e-01) 
connections (connected_to_neuron, weight)=(16, 6.85637892678775062727e-01) (14, -5.34405758044950940366e-01) (13, 3.01154526563360747105e+00) (10, -2.25579867771995630221e+01) (15, 1.46622223363979866662e+01) (7, 1.22250398133289372993e+00) (1, -1.98418009109347204255e-01) (8, 1.54554253558123377843e+00) (5, 1.62783351791462322922e+01) (12, -3.59463113239713738523e+00) (11, 7.01085925895663830687e+00) (16, -4.69991274042100837249e-01) (2, -6.66297617199755554118e-01) (8, 2.80675075461459311299e-01) (11, -9.56769249891354922610e-01) (3, -1.49912903874453795616e+00) (9, -1.71681427820929610739e+00) (7, 1.86256919708702284311e+00) (13, 1.14750834319322669863e+00) (1, -1.11985568197932394696e+00) (4, 1.15526426427322381763e+00) (6, -6.27143327127654193198e-01) (16, 2.97379453425114681497e-01) (4, 4.81256072498107911883e+00) (5, -2.71930125248970959717e+01) (10, 2.17686137639644030628e+01) (14, 8.76182335445006899022e+00) (6, -1.40962789331635427459e+01) (1, 3.14192346803448296910e+00) (12, 5.38515341506420686102e+00) (2, -5.03617501970403580458e+00) (8, 2.00834817244806851377e+00) (3, -8.90044854064130319671e+00) (16, -1.55860652739574745418e+00) (3, 1.91804926120867484940e+01) (6, 1.13523167304603656014e+00) (15, -1.67322728166022791640e+01) (1, 2.39994042425268396812e+01) (11, -2.77777812947679727529e+01) (2, -6.95331519261058628167e-01) (10, -2.23361469551218014828e+01) (5, 1.53042968036152160494e+01) (0, 1.61765659178911995753e+01) (4, -1.64708764228686765918e+00) (16, 9.57141737043657681028e-01) (0, 2.27168493410771477059e+00) (7, -5.17475195158394574158e-01) (9, -3.00227477593241776077e+00) (12, -4.58774626994019996129e-01) (2, 2.23292185125017184077e+00) (11, 2.38565450971545045533e+00) (13, -4.20029920779582122137e-01) (8, 9.52632911302036200496e-01) (6, -1.54874477381129982412e+00) (5, -1.82314621603099774605e-02) (16, -4.62036177792922941876e-01) (1, -2.65240341679739710656e+00) (13, -1.65253999008975482887e+00) (8, 1.14958135054820997922e+00) (12, -1.15691035717389389958e+01) (4, 1.79565686014931280567e+01) (14, -3.24899599400458383158e+00) (0, -1.12102811752684399238e+01) (10, 1.07273264338962839304e+01) (15, 5.21317554238963776214e+00) (3, -1.01685544561455323276e+01) (23, 3.15730285204981786507e+00) (17, 3.45577961449305970376e-01) (18, 3.82283573982026814164e+00) (20, -8.93694263663298626987e-01) (21, -1.49178557367314312820e+00) (23, 1.31980841554701155971e+00) (19, 5.03099652468712754683e+00) (22, 8.43983281350601077797e-01) (17, 2.95647188173848407544e+00) (21, 3.93131444880619795867e+00) 
