FANN_FLO_2.1
num_layers=3
learning_rate=0.700000
connection_rate=0.630000
network_type=0
learning_momentum=0.000000
training_algorithm=2
train_error_function=1
train_stop_function=0
cascade_output_change_fraction=0.010000
quickprop_decay=-0.000100
quickprop_mu=1.750000
rprop_increase_factor=1.200000
rprop_decrease_factor=0.500000
rprop_delta_min=0.000000
rprop_delta_max=50.000000
rprop_delta_zero=0.100000
cascade_output_stagnation_epochs=12
cascade_candidate_change_fraction=0.010000
cascade_candidate_stagnation_epochs=12
cascade_max_out_epochs=150
cascade_min_out_epochs=50
cascade_max_cand_epochs=150
cascade_min_cand_epochs=50
cascade_num_candidate_groups=2
bit_fail_limit=2.40999999999999998945e-02
cascade_candidate_limit=1.00000000000000000000e+03
cascade_weight_multiplier=4.00000000000000022204e-01
cascade_activation_functions_count=10
cascade_activation_functions=3 5 7 8 10 11 14 15 16 17 
cascade_activation_steepnesses_count=4
cascade_activation_steepnesses=2.50000000000000000000e-01 5.00000000000000000000e-01 7.50000000000000000000e-01 1.00000000000000000000e+00 
layer_sizes=17 7 3 
scale_included=0
neurons (num_inputs, activation_function, activation_steepness)=(0, 0, 0.00000000000000000000e+00) (0, 0, 0.00000000000000000000e+00) (0, 0, 0.00000000000000000000e+00) (0, 0, 0.00000000000000000000e+00) (0, 0, 0.00000000000000000000e+00) (0, 0, 0.00000000000000000000e+00) (0, 0, 0.00000000000000000000e+00) (0, 0, 0.00000000000000000000e+00) (0, 0, 0.00000000000000000000e+00) (0, 0, 0.00000000000000000000e+00) (0, 0, 0.00000000000000000000e+00) (0, 0, 0.00000000000000000000e+00) (0, 0, 0.00000000000000000000e+00) (0, 0, 0.00000000000000000000e+00) (0, 0, 0.00000000000000000000e+00) (0, 0, 0.00000000000000000000e+00) (0, 0, 0.00000000000000000000e+00) (11, 5, 6.99999999999999955591e-01) (11, 5, 6.99999999999999955591e-01) (11, 5, 6.99999999999999955591e-01) (11, 5, 6.99999999999999955591e-01) (11, 5, 6.99999999999999955591e-01) (11, 5, 6.99999999999999955591e-01) (0, 5, 6.99999999999999955591e-01) (5, 5, 4.50000000000000011102e-01) (5, 5, 4.50000000000000011102e-01) (0, 5, 4.50000000000000011102e-01) 
connections (connected_to_neuron, weight)=(16, 1.84698625862095733297e+00) (8, 5.55824239053178015268e+00) (9, 1.09835607243349002715e+01) (11, 2.42190528962642392941e+00) (7, 3.28934650341760370651e+00) (14, -2.27326466347303135507e+00) (2, -1.90519209097279222931e+01) (0, -3.28814601471868739324e+00) (10, -7.76233112591196539043e-01) (15, 1.91874088173321624140e+01) (1, -1.25169271603661744763e+01) (16, 5.40567233378331013505e-01) (1, 2.04267222360229538936e+00) (2, 3.05213211828077035648e+00) (4, 4.50535250506254225655e+00) (5, -7.27403901747071301997e+00) (10, 4.45942992994553044639e+00) (15, -1.46083938451151773563e+00) (9, 4.79670765687613975814e+00) (3, 3.42602541836055096702e-01) (0, 2.65725087429191964006e+00) (13, -7.55304778736480830759e+00) (16, 1.90987103326852580842e+00) (6, 5.33227854831404179947e+00) (0, -1.20948909735687215594e+00) (12, 2.42224972457510556723e+00) (9, -9.02565410360114506183e-01) (8, -6.05045244787817626531e+00) (4, 1.99388285077959293012e+00) (1, 1.81932356253328930684e+00) (15, 2.14386640053881105672e+00) (2, -1.60994573437580967834e+00) (3, -5.44435006816885458392e+00) (16, 8.15576364504277062650e-01) (0, -3.26234840301149076058e-01) (3, 2.85674617476576431230e+00) (10, -5.59546333228019943107e+00) (11, -9.08986848940337432978e-01) (13, -1.48074354045183348427e-01) (15, -1.04972479601749291156e+00) (6, 3.10828092684465273621e+00) (5, 3.40845370025262761615e+00) (12, 3.57813376876581390462e+00) (4, -1.70096813878380559437e+00) (16, -1.09646521340387992360e-01) (5, 2.78860962667800382775e+00) (7, -3.85174320607274056627e+00) (9, -2.74463449388398217366e+00) (12, -4.16610005028486707346e+00) (14, -2.58178254822005071034e+00) (1, 4.11818459686259163988e+00) (4, 4.26020544821083113618e+00) (11, -5.62078996412740811150e-02) (0, 1.40172803231761089471e+00) (8, -1.89619543246146854409e-01) (16, -7.07856880622202977449e-02) (6, -1.09780167472010496965e+01) (13, -5.99431475861477292000e+00) (4, 9.99292206049470621565e+00) (3, -1.17826077178730859174e+01) (7, 1.19024315469278647583e+01) (5, -1.40825193008372639980e+01) (10, 1.50957906234046816962e+01) (12, -1.13850982190881939715e+01) (1, -5.36882409423109230318e+00) (15, 1.02229919558772697208e+00) (23, 2.67371522602646072286e+00) (18, -1.49170969265127317804e+00) (19, 2.75184530068283361715e+00) (20, 3.60784852753283225013e+00) (22, 7.16322934283197820804e+00) (23, 2.58090121917007753183e+00) (17, -2.35666106985948281549e-01) (20, 5.27744711952658640541e+00) (21, 1.66412553902861626298e+00) (22, 6.08449080890134208488e+00) 
