FANN_FLO_2.1
num_layers=3
learning_rate=0.700000
connection_rate=0.630000
network_type=0
learning_momentum=0.000000
training_algorithm=2
train_error_function=1
train_stop_function=0
cascade_output_change_fraction=0.010000
quickprop_decay=-0.000100
quickprop_mu=1.750000
rprop_increase_factor=1.200000
rprop_decrease_factor=0.500000
rprop_delta_min=0.000000
rprop_delta_max=50.000000
rprop_delta_zero=0.100000
cascade_output_stagnation_epochs=12
cascade_candidate_change_fraction=0.010000
cascade_candidate_stagnation_epochs=12
cascade_max_out_epochs=150
cascade_min_out_epochs=50
cascade_max_cand_epochs=150
cascade_min_cand_epochs=50
cascade_num_candidate_groups=2
bit_fail_limit=2.40999999999999998945e-02
cascade_candidate_limit=1.00000000000000000000e+03
cascade_weight_multiplier=4.00000000000000022204e-01
cascade_activation_functions_count=10
cascade_activation_functions=3 5 7 8 10 11 14 15 16 17 
cascade_activation_steepnesses_count=4
cascade_activation_steepnesses=2.50000000000000000000e-01 5.00000000000000000000e-01 7.50000000000000000000e-01 1.00000000000000000000e+00 
layer_sizes=17 7 3 
scale_included=0
neurons (num_inputs, activation_function, activation_steepness)=(0, 0, 0.00000000000000000000e+00) (0, 0, 0.00000000000000000000e+00) (0, 0, 0.00000000000000000000e+00) (0, 0, 0.00000000000000000000e+00) (0, 0, 0.00000000000000000000e+00) (0, 0, 0.00000000000000000000e+00) (0, 0, 0.00000000000000000000e+00) (0, 0, 0.00000000000000000000e+00) (0, 0, 0.00000000000000000000e+00) (0, 0, 0.00000000000000000000e+00) (0, 0, 0.00000000000000000000e+00) (0, 0, 0.00000000000000000000e+00) (0, 0, 0.00000000000000000000e+00) (0, 0, 0.00000000000000000000e+00) (0, 0, 0.00000000000000000000e+00) (0, 0, 0.00000000000000000000e+00) (0, 0, 0.00000000000000000000e+00) (11, 5, 6.99999999999999955591e-01) (11, 5, 6.99999999999999955591e-01) (11, 5, 6.99999999999999955591e-01) (11, 5, 6.99999999999999955591e-01) (11, 5, 6.99999999999999955591e-01) (11, 5, 6.99999999999999955591e-01) (0, 5, 6.99999999999999955591e-01) (5, 5, 4.50000000000000011102e-01) (5, 5, 4.50000000000000011102e-01) (0, 5, 4.50000000000000011102e-01) 
connections (connected_to_neuron, weight)=(16, -1.05355732488353326382e+00) (0, 4.16005089998101418303e+00) (2, 7.03887448951136818209e+00) (6, -1.37188292445235635597e+01) (7, 2.94183851331801249351e-01) (9, -1.97704776356464800857e-01) (14, 7.47277607281027389519e+00) (13, 1.40180632065630517147e+00) (11, 7.83556689910434389645e+00) (15, -9.36641857618233097948e-02) (1, 8.67973698571133156499e-01) (16, -2.03546819954237667716e+00) (8, -1.57420207430823633210e+00) (12, 4.72332705170611166778e+00) (7, -1.80642837810745326976e+00) (15, 2.08755377277992559826e+00) (2, 9.92718245049972303207e-01) (3, 2.12105117753382810264e+00) (14, 4.04982486376475581125e+00) (10, 1.43954123097577424417e+00) (11, 2.73803165246288005008e+00) (1, -7.33281774137441000327e-01) (16, -9.46990482361546814793e-01) (1, -1.51082724511406585322e+00) (5, 3.55037331487828833332e+00) (13, 1.40121030982429104483e+01) (10, -4.75474093820665988375e+00) (6, 5.30386166400674774479e+00) (8, -1.62987172141849523399e+00) (0, -3.82543111428850135525e+00) (14, 3.84883555616544548172e+00) (12, 7.80617397765760578920e+00) (3, 2.07951211651702116967e+00) (16, 1.65491706163805907259e+00) (10, -2.25382311747542285474e+00) (11, -5.22096467441279576960e-01) (1, -3.98782635457920875410e+00) (6, 9.85215911545858302745e-01) (4, 4.64495025364510283339e+00) (8, -3.18583399712792880720e+00) (9, -3.00392522548295426432e+00) (7, -1.04971223760534845826e-01) (3, -9.08611707053848860483e-01) (0, -2.28319866856570463653e+00) (16, 2.04455901148230578812e+00) (15, 4.06218223628240480139e+01) (7, 2.16029317952730526287e+00) (11, 6.04008511827832439423e-01) (10, -4.34995263491807104828e+00) (0, -6.69476380982596985803e+00) (6, -3.03395465767515704059e+00) (1, -1.76481975773438080068e+01) (3, -1.46240802113624557279e+01) (9, 4.32262141127254739814e+00) (5, 1.48975548033394815661e+01) (16, -1.86992094184516632893e+00) (3, 1.03375907711471246020e-01) (4, -4.55440913147644099723e+00) (0, 4.73808505261111179152e+00) (6, 1.76025166607951555342e+00) (11, 2.99402453734624351966e+00) (15, -2.92828587169777243560e+00) (7, 6.68881772514157102449e+00) (9, -2.24831966731779964164e+00) (5, -1.79260094067826543096e+01) (10, 1.77231116612193595472e+01) (23, 1.86314621061493035370e+00) (17, 4.66063564482186531990e+00) (19, -5.91169847073900189827e-01) (22, 3.98341381467729149790e+00) (18, -9.87203074977337635687e+00) (23, 2.23297358366705855914e+00) (18, -1.94104646229032851146e+00) (20, 3.32164203135081592677e+00) (21, -2.61394869469499235848e+00) (19, -3.74199450818767465066e+00) 
