FANN_FLO_2.1
num_layers=3
learning_rate=0.700000
connection_rate=0.630000
network_type=0
learning_momentum=0.000000
training_algorithm=2
train_error_function=1
train_stop_function=0
cascade_output_change_fraction=0.010000
quickprop_decay=-0.000100
quickprop_mu=1.750000
rprop_increase_factor=1.200000
rprop_decrease_factor=0.500000
rprop_delta_min=0.000000
rprop_delta_max=50.000000
rprop_delta_zero=0.100000
cascade_output_stagnation_epochs=12
cascade_candidate_change_fraction=0.010000
cascade_candidate_stagnation_epochs=12
cascade_max_out_epochs=150
cascade_min_out_epochs=50
cascade_max_cand_epochs=150
cascade_min_cand_epochs=50
cascade_num_candidate_groups=2
bit_fail_limit=2.40999999999999998945e-02
cascade_candidate_limit=1.00000000000000000000e+03
cascade_weight_multiplier=4.00000000000000022204e-01
cascade_activation_functions_count=10
cascade_activation_functions=3 5 7 8 10 11 14 15 16 17 
cascade_activation_steepnesses_count=4
cascade_activation_steepnesses=2.50000000000000000000e-01 5.00000000000000000000e-01 7.50000000000000000000e-01 1.00000000000000000000e+00 
layer_sizes=17 7 3 
scale_included=0
neurons (num_inputs, activation_function, activation_steepness)=(0, 0, 0.00000000000000000000e+00) (0, 0, 0.00000000000000000000e+00) (0, 0, 0.00000000000000000000e+00) (0, 0, 0.00000000000000000000e+00) (0, 0, 0.00000000000000000000e+00) (0, 0, 0.00000000000000000000e+00) (0, 0, 0.00000000000000000000e+00) (0, 0, 0.00000000000000000000e+00) (0, 0, 0.00000000000000000000e+00) (0, 0, 0.00000000000000000000e+00) (0, 0, 0.00000000000000000000e+00) (0, 0, 0.00000000000000000000e+00) (0, 0, 0.00000000000000000000e+00) (0, 0, 0.00000000000000000000e+00) (0, 0, 0.00000000000000000000e+00) (0, 0, 0.00000000000000000000e+00) (0, 0, 0.00000000000000000000e+00) (11, 5, 6.99999999999999955591e-01) (11, 5, 6.99999999999999955591e-01) (11, 5, 6.99999999999999955591e-01) (11, 5, 6.99999999999999955591e-01) (11, 5, 6.99999999999999955591e-01) (11, 5, 6.99999999999999955591e-01) (0, 5, 6.99999999999999955591e-01) (5, 5, 4.50000000000000011102e-01) (5, 5, 4.50000000000000011102e-01) (0, 5, 4.50000000000000011102e-01) 
connections (connected_to_neuron, weight)=(16, -1.42932662855760606035e+00) (5, -7.94677238399630780918e-01) (8, -1.16524728484247233617e-02) (4, -1.13944253835649633722e+00) (9, 1.72936629403798614035e+00) (14, -5.47844362198794398999e-01) (6, -9.53397171417639022195e-01) (0, -5.59359387218669734665e-01) (7, -5.24362650148023190511e-01) (12, 1.10846151071110221586e+00) (3, 1.65608274141028011250e+00) (16, 2.62115361293336990300e+00) (0, 8.69906405131816740095e+00) (12, -2.01864359349759636686e+00) (14, -7.47525734380058359818e+00) (11, -1.11098885453552451708e+01) (6, -1.67637501461538973579e+00) (13, -6.04534128039212159678e+00) (1, 1.15823174051258437345e+00) (3, 6.27640380646384965502e+00) (8, -1.70939533271298249595e+00) (10, 8.52735607514662774520e+00) (16, -4.77200113033270978402e-01) (3, -1.52517063250341404768e+01) (6, 1.20109087165539651920e+00) (13, 1.78303749305774807965e+01) (15, 1.01211130711311803054e+01) (10, -4.40162135363400679466e+01) (5, 7.04436040172304789309e+00) (4, 9.09985650928253697600e+00) (2, 1.22619506143998844294e+01) (8, 3.81311959239818309975e-01) (1, 5.31728401347783830033e+00) (16, 5.90455262059492280713e-01) (2, 5.08928654599905350153e+00) (7, -2.06772693185644262925e+00) (9, 4.10712070972783216405e+00) (10, 2.69204617745412733143e+00) (3, 1.62764663411730703402e+00) (6, -1.62931030949801103347e+00) (13, -1.47526775894874306871e+00) (14, 6.76830853631326223585e-01) (5, -2.72837327831737441741e+00) (15, -2.66525538241531956274e+00) (16, 1.16226431077620206977e-01) (11, -1.16100561211314756704e+00) (14, 2.11674681034757972142e+00) (15, 6.55090398351445823977e+00) (9, -6.46081323690257214309e+00) (1, -2.00187530998152496409e+00) (5, 5.59758591634030366890e+00) (0, -6.93396129467254596079e+00) (8, 1.43761581903096740120e+01) (7, 7.51444190793888910918e+00) (6, -5.60303550916467063558e+00) (16, -1.11670017601295690213e+00) (1, 1.16281879864861537044e+00) (4, 7.71159290094075133837e-01) (10, -2.74709787627289570011e+00) (6, 2.03635115061512461665e+00) (14, 3.74887977955058349089e-01) (13, 1.26406923040084073762e+00) (8, -5.37647928942553643417e-01) (5, 7.68360832365369672559e-01) (9, -2.64399378998691414466e+00) (7, 2.47467065275137426683e-01) (23, 4.08533766824105715187e+00) (17, 8.63686004827747133561e+00) (19, -1.20829619294211210168e+00) (21, -3.26279515117431406779e+00) (20, 1.77025915574483772019e+00) (23, -9.74462126661917116266e-01) (18, 4.41579309342717873932e+00) (20, 4.76882497482544298606e+00) (22, 7.75220816236215615191e+00) (17, 2.24143702621074991654e+00) 
