FANN_FLO_2.1
num_layers=3
learning_rate=0.700000
connection_rate=0.630000
network_type=0
learning_momentum=0.000000
training_algorithm=2
train_error_function=1
train_stop_function=0
cascade_output_change_fraction=0.010000
quickprop_decay=-0.000100
quickprop_mu=1.750000
rprop_increase_factor=1.200000
rprop_decrease_factor=0.500000
rprop_delta_min=0.000000
rprop_delta_max=50.000000
rprop_delta_zero=0.100000
cascade_output_stagnation_epochs=12
cascade_candidate_change_fraction=0.010000
cascade_candidate_stagnation_epochs=12
cascade_max_out_epochs=150
cascade_min_out_epochs=50
cascade_max_cand_epochs=150
cascade_min_cand_epochs=50
cascade_num_candidate_groups=2
bit_fail_limit=2.40999999999999998945e-02
cascade_candidate_limit=1.00000000000000000000e+03
cascade_weight_multiplier=4.00000000000000022204e-01
cascade_activation_functions_count=10
cascade_activation_functions=3 5 7 8 10 11 14 15 16 17 
cascade_activation_steepnesses_count=4
cascade_activation_steepnesses=2.50000000000000000000e-01 5.00000000000000000000e-01 7.50000000000000000000e-01 1.00000000000000000000e+00 
layer_sizes=17 7 3 
scale_included=0
neurons (num_inputs, activation_function, activation_steepness)=(0, 0, 0.00000000000000000000e+00) (0, 0, 0.00000000000000000000e+00) (0, 0, 0.00000000000000000000e+00) (0, 0, 0.00000000000000000000e+00) (0, 0, 0.00000000000000000000e+00) (0, 0, 0.00000000000000000000e+00) (0, 0, 0.00000000000000000000e+00) (0, 0, 0.00000000000000000000e+00) (0, 0, 0.00000000000000000000e+00) (0, 0, 0.00000000000000000000e+00) (0, 0, 0.00000000000000000000e+00) (0, 0, 0.00000000000000000000e+00) (0, 0, 0.00000000000000000000e+00) (0, 0, 0.00000000000000000000e+00) (0, 0, 0.00000000000000000000e+00) (0, 0, 0.00000000000000000000e+00) (0, 0, 0.00000000000000000000e+00) (11, 5, 6.99999999999999955591e-01) (11, 5, 6.99999999999999955591e-01) (11, 5, 6.99999999999999955591e-01) (11, 5, 6.99999999999999955591e-01) (11, 5, 6.99999999999999955591e-01) (11, 5, 6.99999999999999955591e-01) (0, 5, 6.99999999999999955591e-01) (5, 5, 4.50000000000000011102e-01) (5, 5, 4.50000000000000011102e-01) (0, 5, 4.50000000000000011102e-01) 
connections (connected_to_neuron, weight)=(16, 3.85057053872088861368e+00) (7, -7.29421847042939042183e+00) (13, 2.17633743929017908769e-01) (8, -1.62017748096135392188e+01) (10, 1.65170669724211975904e+01) (1, 6.80958641872392300698e-01) (14, 5.06458704720239438757e+00) (0, -2.91647169988270782426e+00) (11, -1.42547780029183748240e+01) (5, -7.18995324991852324814e+00) (3, 1.23874638816056368285e+01) (16, -1.46769221186822074188e+00) (3, -3.84799213678310003672e+00) (4, -9.33941667319686175119e+00) (6, -1.86068776916867739679e+00) (7, -3.94783229609895480738e-01) (8, -5.55627306057869230216e+00) (9, 8.60412662225860636056e+00) (14, 3.93401343964947347587e+00) (15, 1.25069198341239093963e+01) (12, 7.60009074312725574352e-01) (11, 6.66576774578400144122e+00) (16, -8.83559880613757758772e-02) (10, -6.32244794057777337315e+00) (13, -7.14258308461538860001e+00) (9, 6.44993150194960573884e+00) (12, 6.49312589992003363903e-01) (14, -3.86949607140113727155e+00) (3, -6.14746663511592483786e+00) (4, -1.52988959226506668898e+01) (6, -6.58644243639956084024e+00) (1, -8.20270952570201750120e+00) (5, -4.18943759998570097736e+00) (16, -2.24120117790764306065e+00) (2, -1.86248329794746836363e+00) (5, -4.36957379638821308276e+01) (11, -3.72115403724373106087e+00) (1, -1.09048431402173697791e+01) (9, 1.12934156660169389141e+01) (13, -8.34762624231614047687e+00) (3, 2.28261908552064056721e+01) (12, 2.80939244485011556662e+01) (14, 1.57218759787188826493e+01) (6, 7.33360217977400896672e+00) (16, -7.36467781443026270338e-01) (0, -5.51124727056723009988e-02) (1, 1.55799291736049694279e+00) (12, -6.87617965591279300952e-01) (4, 3.45259253216769257389e-01) (14, -1.39074986420469848269e+00) (15, 8.93338832366233237536e-01) (6, 9.49548262217397187612e-01) (3, -6.13225575583271398372e-01) (10, -4.60634950924220021307e+00) (8, -4.70186791644928825384e-01) (16, 9.13969648165281367547e-01) (12, -3.48709541451521021216e+00) (14, -5.87936100702881603297e+00) (2, 2.88568947832218203331e+00) (8, 3.25406812604791451093e+00) (10, -1.10800221714856199640e+01) (11, -1.98455816243199767435e+00) (3, 2.12363286436692444425e+00) (13, -4.96002434999024188755e+00) (5, -8.85672503601461968969e+00) (1, 2.55599957070618799548e+00) (23, -1.48776509693623837371e+00) (17, 3.55853958365527534013e+00) (20, 1.70660441669596885106e+00) (22, -1.36935574847862873149e+00) (21, 6.85060538937225160794e+00) (23, -3.47714000132062828197e-01) (18, -9.50649709207416204748e-01) (19, 3.86285786985321077935e+00) (21, 5.08310756608819858116e+00) (17, 6.52986302408461760649e+00) 
