FANN_FLO_2.1
num_layers=3
learning_rate=0.700000
connection_rate=0.630000
network_type=0
learning_momentum=0.000000
training_algorithm=2
train_error_function=1
train_stop_function=0
cascade_output_change_fraction=0.010000
quickprop_decay=-0.000100
quickprop_mu=1.750000
rprop_increase_factor=1.200000
rprop_decrease_factor=0.500000
rprop_delta_min=0.000000
rprop_delta_max=50.000000
rprop_delta_zero=0.100000
cascade_output_stagnation_epochs=12
cascade_candidate_change_fraction=0.010000
cascade_candidate_stagnation_epochs=12
cascade_max_out_epochs=150
cascade_min_out_epochs=50
cascade_max_cand_epochs=150
cascade_min_cand_epochs=50
cascade_num_candidate_groups=2
bit_fail_limit=2.40999999999999998945e-02
cascade_candidate_limit=1.00000000000000000000e+03
cascade_weight_multiplier=4.00000000000000022204e-01
cascade_activation_functions_count=10
cascade_activation_functions=3 5 7 8 10 11 14 15 16 17 
cascade_activation_steepnesses_count=4
cascade_activation_steepnesses=2.50000000000000000000e-01 5.00000000000000000000e-01 7.50000000000000000000e-01 1.00000000000000000000e+00 
layer_sizes=17 7 3 
scale_included=0
neurons (num_inputs, activation_function, activation_steepness)=(0, 0, 0.00000000000000000000e+00) (0, 0, 0.00000000000000000000e+00) (0, 0, 0.00000000000000000000e+00) (0, 0, 0.00000000000000000000e+00) (0, 0, 0.00000000000000000000e+00) (0, 0, 0.00000000000000000000e+00) (0, 0, 0.00000000000000000000e+00) (0, 0, 0.00000000000000000000e+00) (0, 0, 0.00000000000000000000e+00) (0, 0, 0.00000000000000000000e+00) (0, 0, 0.00000000000000000000e+00) (0, 0, 0.00000000000000000000e+00) (0, 0, 0.00000000000000000000e+00) (0, 0, 0.00000000000000000000e+00) (0, 0, 0.00000000000000000000e+00) (0, 0, 0.00000000000000000000e+00) (0, 0, 0.00000000000000000000e+00) (11, 5, 6.99999999999999955591e-01) (11, 5, 6.99999999999999955591e-01) (11, 5, 6.99999999999999955591e-01) (11, 5, 6.99999999999999955591e-01) (11, 5, 6.99999999999999955591e-01) (11, 5, 6.99999999999999955591e-01) (0, 5, 6.99999999999999955591e-01) (5, 5, 4.50000000000000011102e-01) (5, 5, 4.50000000000000011102e-01) (0, 5, 4.50000000000000011102e-01) 
connections (connected_to_neuron, weight)=(16, 1.74345532367122424411e+00) (5, -1.10607509781142070437e+01) (13, 6.80829750410505418756e-01) (14, 1.57588347583753449754e+01) (4, -1.01216391152329840963e+01) (12, 9.46539575792952092570e+00) (15, -2.22399630440586104640e+00) (7, -8.59072653831478127984e+00) (3, -3.19658570698410260391e+00) (6, 5.01124574049370552498e-02) (2, -7.88390921758202178893e+00) (16, -1.29314319299254232298e+00) (13, 4.34283748188947260616e+00) (10, -9.37072835657850689017e+00) (4, 5.74101712623741189390e+00) (0, 4.12001551231717666468e+00) (1, 4.22242123886437425995e+00) (15, 3.35600350613976683434e+00) (7, 4.43001526938520395760e+00) (3, -2.98021729436378501887e+00) (9, -5.61404214360538311723e+00) (2, -2.52997515763713476389e+00) (16, -1.90558510436868999705e+00) (2, 1.45512846411665536239e-01) (4, -7.35488440328164183590e-01) (6, 1.08003690408715047333e+00) (7, 1.21790505279438687758e+00) (9, 1.58049453909449155731e+00) (11, -6.18832845850797522158e-02) (1, 8.18079763396499792805e-01) (3, 6.01376986964537008085e-01) (5, 1.50688685888613171926e+00) (12, 6.67006560393499814410e-01) (16, 2.57584957524014113162e+00) (1, -1.46053157486813578458e+00) (12, -6.91860128896714599023e+00) (2, -1.77879258614324484711e+01) (11, -8.24994074451005587889e-01) (6, 3.20434051392324237284e+00) (13, 3.28359183235177525262e+01) (5, -5.13315796280072262903e+01) (8, 1.64286637574407912155e+01) (10, 1.60178849639549945039e+01) (7, -1.65985562297848936453e+01) (16, -7.20064697145838317205e-01) (0, 6.02994698751539637271e+00) (3, -1.94596666896631220744e+00) (8, 5.86645991392315302448e+00) (10, -6.36018198536417056488e+00) (15, -2.95915630992844702618e+00) (7, 6.05456670834019702876e-02) (12, -1.53068159118919688844e+00) (11, 3.37102488978913727991e+00) (2, -1.07789099698350021583e+00) (1, 4.73950607004012258727e+00) (16, -1.00570732877055912802e+00) (2, -9.55290765412978581939e-02) (7, 2.21377778645877265618e+00) (5, -3.17372394862713003150e+00) (9, -8.87929129863413296730e-02) (11, -5.96104238569539823800e+00) (3, 1.50107139458702976142e+00) (0, -2.83167181379014731846e+00) (15, 6.86455281992172938743e+00) (4, 2.01436540867867153182e+00) (12, 7.94239935571255095681e+00) (23, 5.04747562400987614950e-01) (17, 4.74596136589762629399e+00) (18, 2.67793778159420003959e+00) (21, -1.39520998825745135008e+00) (19, 4.34003438821066200859e+00) (23, 1.72130295189663318212e+00) (19, 1.79871744035100569192e+01) (20, 5.62362867148132217210e+00) (22, 3.50712363628756174094e+00) (18, -8.00282395795040812914e+00) 
