FANN_FLO_2.1
num_layers=3
learning_rate=0.700000
connection_rate=0.630000
network_type=0
learning_momentum=0.000000
training_algorithm=2
train_error_function=1
train_stop_function=0
cascade_output_change_fraction=0.010000
quickprop_decay=-0.000100
quickprop_mu=1.750000
rprop_increase_factor=1.200000
rprop_decrease_factor=0.500000
rprop_delta_min=0.000000
rprop_delta_max=50.000000
rprop_delta_zero=0.100000
cascade_output_stagnation_epochs=12
cascade_candidate_change_fraction=0.010000
cascade_candidate_stagnation_epochs=12
cascade_max_out_epochs=150
cascade_min_out_epochs=50
cascade_max_cand_epochs=150
cascade_min_cand_epochs=50
cascade_num_candidate_groups=2
bit_fail_limit=2.40999999999999998945e-02
cascade_candidate_limit=1.00000000000000000000e+03
cascade_weight_multiplier=4.00000000000000022204e-01
cascade_activation_functions_count=10
cascade_activation_functions=3 5 7 8 10 11 14 15 16 17 
cascade_activation_steepnesses_count=4
cascade_activation_steepnesses=2.50000000000000000000e-01 5.00000000000000000000e-01 7.50000000000000000000e-01 1.00000000000000000000e+00 
layer_sizes=17 7 3 
scale_included=0
neurons (num_inputs, activation_function, activation_steepness)=(0, 0, 0.00000000000000000000e+00) (0, 0, 0.00000000000000000000e+00) (0, 0, 0.00000000000000000000e+00) (0, 0, 0.00000000000000000000e+00) (0, 0, 0.00000000000000000000e+00) (0, 0, 0.00000000000000000000e+00) (0, 0, 0.00000000000000000000e+00) (0, 0, 0.00000000000000000000e+00) (0, 0, 0.00000000000000000000e+00) (0, 0, 0.00000000000000000000e+00) (0, 0, 0.00000000000000000000e+00) (0, 0, 0.00000000000000000000e+00) (0, 0, 0.00000000000000000000e+00) (0, 0, 0.00000000000000000000e+00) (0, 0, 0.00000000000000000000e+00) (0, 0, 0.00000000000000000000e+00) (0, 0, 0.00000000000000000000e+00) (11, 5, 6.99999999999999955591e-01) (11, 5, 6.99999999999999955591e-01) (11, 5, 6.99999999999999955591e-01) (11, 5, 6.99999999999999955591e-01) (11, 5, 6.99999999999999955591e-01) (11, 5, 6.99999999999999955591e-01) (0, 5, 6.99999999999999955591e-01) (5, 5, 4.50000000000000011102e-01) (5, 5, 4.50000000000000011102e-01) (0, 5, 4.50000000000000011102e-01) 
connections (connected_to_neuron, weight)=(16, -2.57683444843635922616e-01) (2, -4.22975258568845380314e-01) (10, 1.76513274867292818682e-01) (14, 9.90341754234232207743e-01) (4, 7.22361593269383761573e-01) (7, 2.61125511372458074533e+00) (15, 1.18564863247590232542e-01) (9, -1.31817210460946498962e+00) (11, -3.24656449962218485172e-01) (8, -5.78621028609020270767e-03) (5, 1.01198386980220678133e+00) (16, -1.95674784669387126501e-03) (0, -7.41767652918666264839e+00) (13, -1.27178805052891004124e+01) (11, 5.24833732939758323965e+00) (8, 2.62213299502071883751e+00) (3, 9.47252757264586442432e+00) (12, 6.93246117098562297798e+00) (5, 5.58578968704654688082e+00) (10, 2.83743426964056366657e+00) (1, -2.66867451190329818544e+00) (7, 1.56122315029040290568e+01) (16, -1.84398691781877066553e+00) (3, 9.85071860990714398554e+00) (4, 3.82968045524299105509e+00) (11, 6.04965981563204557858e+00) (12, 1.27906022274496393720e+01) (15, 1.26868584906387411593e+01) (13, -9.42081320797202081962e+00) (2, -2.27601905437149287792e+00) (0, -1.26130509672904835838e+01) (1, -5.02785996104417787222e+00) (6, 2.32723013847694844003e+01) (16, -9.26772225538651683863e-01) (1, 2.33571955760188965101e+00) (5, 6.52892590468003075621e-01) (6, -1.09574437188208850813e+00) (8, 2.29046986430081311870e-01) (9, -8.06876604556996279705e-01) (12, -9.99234215182629226248e-01) (15, -6.31916332227322685711e-01) (2, 6.82710172962327721535e-01) (11, -4.97290204819452130724e-01) (4, 1.31944450789669986968e+00) (16, -9.12824093920523577106e-02) (7, 5.65643512237588552694e+00) (13, 3.41986673702234611483e+00) (9, 5.70729315764240130449e+00) (14, -4.21701185680106593878e+00) (5, 2.64186253584485308821e+00) (2, 1.55634780504694214542e+00) (8, 2.02785214071921382484e+00) (0, 7.53294278394741123606e+00) (3, 7.26984064723740108782e-01) (10, 1.64000061984756917433e+00) (16, 7.53083401244779571115e-01) (8, 2.74954205388870276394e+00) (3, 1.36021058542525685731e+00) (11, 2.67944931646469308717e+00) (4, 5.03471930943383405577e+00) (1, 9.47048473405300739181e-01) (2, -2.96570364447430512289e-01) (13, -7.00899805072587778199e+00) (6, 5.39431566485286850821e+00) (15, 8.07562994076820750422e+00) (10, 3.18398116293135569066e+00) (23, 4.20161746109997569221e+00) (17, 5.57297994414710373690e+00) (18, -2.21867510337367779272e+00) (20, -4.29974804568460544640e-01) (22, -2.05549129128258334376e+00) (23, -1.15183555872987719582e+00) (19, 5.74498562806191603869e+00) (21, 2.93584306985750931318e+00) (22, -1.56254298757904908079e+00) (20, 8.48577064068055975099e+00) 
