FANN_FLO_2.1
num_layers=3
learning_rate=0.700000
connection_rate=1.000000
network_type=0
learning_momentum=0.000000
training_algorithm=2
train_error_function=1
train_stop_function=0
cascade_output_change_fraction=0.010000
quickprop_decay=-0.000100
quickprop_mu=1.750000
rprop_increase_factor=1.200000
rprop_decrease_factor=0.500000
rprop_delta_min=0.000000
rprop_delta_max=50.000000
rprop_delta_zero=0.100000
cascade_output_stagnation_epochs=12
cascade_candidate_change_fraction=0.010000
cascade_candidate_stagnation_epochs=12
cascade_max_out_epochs=150
cascade_min_out_epochs=50
cascade_max_cand_epochs=150
cascade_min_cand_epochs=50
cascade_num_candidate_groups=2
bit_fail_limit=3.49999994039535522461e-01
cascade_candidate_limit=1.00000000000000000000e+03
cascade_weight_multiplier=4.00000005960464477539e-01
cascade_activation_functions_count=10
cascade_activation_functions=3 5 7 8 10 11 14 15 16 17 
cascade_activation_steepnesses_count=4
cascade_activation_steepnesses=2.50000000000000000000e-01 5.00000000000000000000e-01 7.50000000000000000000e-01 1.00000000000000000000e+00 
layer_sizes=5 5 3 
scale_included=0
neurons (num_inputs, activation_function, activation_steepness)=(0, 0, 0.00000000000000000000e+00) (0, 0, 0.00000000000000000000e+00) (0, 0, 0.00000000000000000000e+00) (0, 0, 0.00000000000000000000e+00) (0, 0, 0.00000000000000000000e+00) (5, 5, 5.00000000000000000000e-01) (5, 5, 5.00000000000000000000e-01) (5, 5, 5.00000000000000000000e-01) (5, 5, 5.00000000000000000000e-01) (0, 5, 0.00000000000000000000e+00) (5, 0, 5.00000000000000000000e-01) (5, 0, 5.00000000000000000000e-01) (0, 0, 0.00000000000000000000e+00) 
connections (connected_to_neuron, weight)=(0, 2.51558828353881835938e+00) (1, 2.56794905662536621094e+00) (2, -8.02518463134765625000e+00) (3, -8.22761440277099609375e+00) (4, -2.60272383689880371094e-01) (0, -2.61978173255920410156e+00) (1, 8.19605064392089843750e+00) (2, -2.66160655021667480469e+00) (3, 8.40868473052978515625e+00) (4, 2.78564304113388061523e-01) (0, -7.52771091461181640625e+00) (1, 1.92617607116699218750e+00) (2, -7.59329748153686523438e+00) (3, 1.95835506916046142578e+00) (4, -8.96178781986236572266e-02) (0, 8.29996299743652343750e+00) (1, 8.22867107391357421875e+00) (2, -2.53809642791748046875e+00) (3, -2.50837755203247070312e+00) (4, 2.23890408873558044434e-01) (5, 1.79711699485778808594e-01) (6, 4.41248779296875000000e+01) (7, 5.27919464111328125000e+01) (8, -9.91463288664817810059e-03) (9, 6.95757722854614257812e+00) (5, 4.93682670593261718750e+01) (6, -8.59299898147583007812e-02) (7, 3.03645044565200805664e-01) (8, 4.91110496520996093750e+01) (9, 3.28471481800079345703e-01) 
