FANN_FLO_2.1
num_layers=3
learning_rate=0.700000
connection_rate=1.000000
network_type=0
learning_momentum=0.000000
training_algorithm=2
train_error_function=1
train_stop_function=0
cascade_output_change_fraction=0.010000
quickprop_decay=-0.000100
quickprop_mu=1.750000
rprop_increase_factor=1.200000
rprop_decrease_factor=0.500000
rprop_delta_min=0.000000
rprop_delta_max=50.000000
rprop_delta_zero=0.100000
cascade_output_stagnation_epochs=12
cascade_candidate_change_fraction=0.010000
cascade_candidate_stagnation_epochs=12
cascade_max_out_epochs=150
cascade_min_out_epochs=50
cascade_max_cand_epochs=150
cascade_min_cand_epochs=50
cascade_num_candidate_groups=2
bit_fail_limit=3.49999994039535522461e-01
cascade_candidate_limit=1.00000000000000000000e+03
cascade_weight_multiplier=4.00000005960464477539e-01
cascade_activation_functions_count=10
cascade_activation_functions=3 5 7 8 10 11 14 15 16 17 
cascade_activation_steepnesses_count=4
cascade_activation_steepnesses=2.50000000000000000000e-01 5.00000000000000000000e-01 7.50000000000000000000e-01 1.00000000000000000000e+00 
layer_sizes=17 9 3 
scale_included=0
neurons (num_inputs, activation_function, activation_steepness)=(0, 0, 0.00000000000000000000e+00) (0, 0, 0.00000000000000000000e+00) (0, 0, 0.00000000000000000000e+00) (0, 0, 0.00000000000000000000e+00) (0, 0, 0.00000000000000000000e+00) (0, 0, 0.00000000000000000000e+00) (0, 0, 0.00000000000000000000e+00) (0, 0, 0.00000000000000000000e+00) (0, 0, 0.00000000000000000000e+00) (0, 0, 0.00000000000000000000e+00) (0, 0, 0.00000000000000000000e+00) (0, 0, 0.00000000000000000000e+00) (0, 0, 0.00000000000000000000e+00) (0, 0, 0.00000000000000000000e+00) (0, 0, 0.00000000000000000000e+00) (0, 0, 0.00000000000000000000e+00) (0, 0, 0.00000000000000000000e+00) (17, 5, 5.00000000000000000000e-01) (17, 5, 5.00000000000000000000e-01) (17, 5, 5.00000000000000000000e-01) (17, 5, 5.00000000000000000000e-01) (17, 5, 5.00000000000000000000e-01) (17, 5, 5.00000000000000000000e-01) (17, 5, 5.00000000000000000000e-01) (17, 5, 5.00000000000000000000e-01) (0, 5, 0.00000000000000000000e+00) (9, 0, 5.00000000000000000000e-01) (9, 0, 5.00000000000000000000e-01) (0, 0, 0.00000000000000000000e+00) 
connections (connected_to_neuron, weight)=(0, -9.44732131958007812500e+01) (1, 9.95662784576416015625e+00) (2, 1.08690271377563476562e+01) (3, 7.37304611206054687500e+01) (4, -1.00411014556884765625e+01) (5, -9.94508326053619384766e-01) (6, 1.28023872375488281250e+01) (7, -8.47690677642822265625e+00) (8, -8.15188312530517578125e+00) (9, -4.81207799911499023438e+00) (10, 4.42427520751953125000e+01) (11, -7.33046245574951171875e+00) (12, -7.47493171691894531250e+00) (13, -1.76026973724365234375e+01) (14, -2.00517482757568359375e+01) (15, 7.45377502441406250000e+01) (16, -8.73170718550682067871e-02) (0, 7.86282777786254882812e-01) (1, 8.38277721405029296875e+00) (2, -6.42898750305175781250e+00) (3, -2.90791988372802734375e+00) (4, -1.52467765808105468750e+01) (5, 2.15239763259887695312e+00) (6, 7.37587547302246093750e+00) (7, -1.65337944030761718750e+01) (8, 1.91288890838623046875e+01) (9, 6.01191444396972656250e+01) (10, -8.31738204956054687500e+01) (11, 7.97563982009887695312e+00) (12, 2.49588050842285156250e+01) (13, 4.47302281856536865234e-01) (14, -4.42176103591918945312e+00) (15, -1.76572666168212890625e+01) (16, 1.45688921213150024414e-01) (0, 6.16115951538085937500e+00) (1, -1.08378391265869140625e+01) (2, -7.95886182785034179688e+00) (3, 6.62131023406982421875e+00) (4, 4.64329957962036132812e-01) (5, -1.65038032531738281250e+01) (6, 1.69476127624511718750e+01) (7, 1.04208555221557617188e+01) (8, -1.14349288940429687500e+01) (9, 6.92471408843994140625e+00) (10, 1.62753467559814453125e+01) (11, -9.70750522613525390625e+00) (12, 3.05286955833435058594e+00) (13, 9.54804420471191406250e+00) (14, -3.76859378814697265625e+00) (15, -6.00990056991577148438e-01) (16, 3.11303585767745971680e-01) (0, 5.00877428054809570312e+00) (1, -2.42598018646240234375e+01) (2, 1.73023338317871093750e+01) (3, 6.31242609024047851562e+00) (4, -7.04643344879150390625e+00) (5, 3.09131984710693359375e+01) (6, 1.00868492126464843750e+01) (7, -8.57845115661621093750e+00) (8, 1.84705448150634765625e+01) (9, 1.34552850723266601562e+01) (10, -1.95626640319824218750e+01) (11, 3.28623867034912109375e+00) (12, 8.50747776031494140625e+00) (13, -1.37468614578247070312e+01) (14, -6.89518785476684570312e+00) (15, -1.38756866455078125000e+01) (16, -4.95272874832153320312e-02) (0, -4.65329933166503906250e+00) (1, 1.94069652557373046875e+01) (2, 1.39534149169921875000e+01) (3, 1.57020699977874755859e+00) (4, 5.53500556945800781250e+00) (5, -8.56940174102783203125e+00) (6, -3.32283407449722290039e-01) (7, -1.10060377120971679688e+01) (8, 1.63438110351562500000e+01) (9, -2.96526169776916503906e+00) (10, 3.51342821121215820312e+00) (11, -3.88501429557800292969e+00) (12, -1.62120997905731201172e+00) (13, -1.71629428863525390625e+01) (14, -1.34969120025634765625e+01) (15, 3.59211564064025878906e+00) (16, -1.93172432482242584229e-02) (0, 6.55272769927978515625e+00) (1, 1.90980663299560546875e+01) (2, -1.20848104357719421387e-01) (3, -1.14490890502929687500e+00) (4, 1.11207695007324218750e+01) (5, -6.09142446517944335938e+00) (6, 3.45640468597412109375e+00) (7, -3.85676789283752441406e+00) (8, 5.42995643615722656250e+00) (9, -2.42904090881347656250e+00) (10, 3.88045597076416015625e+00) (11, -1.77012596130371093750e+01) (12, 1.02169716358184814453e+00) (13, 9.61530208587646484375e+00) (14, -9.77207946777343750000e+00) (15, -3.47505264282226562500e+01) (16, 1.75860211253166198730e-01) (0, -2.11493911743164062500e+01) (1, 6.38532066345214843750e+00) (2, -9.04595279693603515625e+00) (3, 3.12352066040039062500e+01) (4, -4.07651615142822265625e+00) (5, -3.99213485717773437500e+01) (6, 4.76406440734863281250e+01) (7, 3.44405674934387207031e+00) (8, -8.58732414245605468750e+00) (9, 8.51722621917724609375e+00) (10, -7.94619321823120117188e+00) (11, -7.71521425247192382812e+00) (12, 8.85917854309082031250e+00) (13, -6.60077762603759765625e+00) (14, -1.31545376777648925781e+00) (15, -2.94979705810546875000e+01) (16, 2.76534020900726318359e-01) (0, 1.96199188232421875000e+01) (1, -2.03796920776367187500e+01) (2, -1.47234535217285156250e+01) (3, 4.12931251525878906250e+00) (4, -3.75311064720153808594e+00) (5, 2.45014076232910156250e+01) (6, -2.72803425788879394531e+00) (7, 1.42776501178741455078e+00) (8, -6.53894281387329101562e+00) (9, 2.69781246185302734375e+01) (10, -1.73939113616943359375e+01) (11, -6.02685451507568359375e+00) (12, 6.70121307373046875000e+01) (13, 1.01728868484497070312e+01) (14, 1.28834209442138671875e+01) (15, -1.04915229797363281250e+02) (16, 2.59921848773956298828e-01) (17, -7.17114973068237304688e+00) (18, -9.70661735534667968750e+00) (19, 2.42103767395019531250e+01) (20, -1.37923488616943359375e+01) (21, -1.35375499725341796875e+01) (22, 7.57761669158935546875e+00) (23, -9.32784199714660644531e-01) (24, 8.71282291412353515625e+00) (25, 3.49156498908996582031e-01) (17, 1.41169862747192382812e+01) (18, -1.62334613800048828125e+01) (19, 7.96426391601562500000e+00) (20, -1.46977865695953369141e+00) (21, -7.88169801235198974609e-01) (22, 1.58286275863647460938e+01) (23, 1.39364252090454101562e+01) (24, -1.66248054504394531250e+01) (25, -3.41343909502029418945e-01) 
