svm_type epsilon_svr
kernel_type polynomial
degree 2
gamma 8e-05
coef0 500
nr_class 2
total_sv 1837
rho -113.702
SV
0.9 0:0.67 3:0.67 4:0.67 16:1.33 17:0.67 18:0.67 20:2 21:3.99 22:22.64 23:196.4 24:125.83 25:11.32 26:0.67 27:0.67 30:0.67 32:1.33 33:0.67 34:0.67 36:1.33 40:1.33 41:1.33 42:1.33 43:0.67 44:1.33 45:3.33 46:2 47:10.65 48:125.83 49:300.93 50:28.63 51:2 52:2.66 53:0.67 54:1.33 55:0.67 58:0.67 60:0.67 62:1.33 63:1.33 64:0.67 66:1.33 67:5.33 68:7.32 69:25.97 70:36.62 71:12.65 72:0.67 73:2.66 75:2.66 76:1.33 77:0.67 78:1.33 79:0.67 80:0.67 81:0.67 83:2 84:5.99 85:9.32 86:2.66 87:3.99 89:0.67 90:1.33 91:0.67 92:1.33 93:2 94:2.66 95:2.66 96:1.33 97:0.67 
-0.3690698099884247 0:0.71 6:0.71 16:1.43 20:0.71 21:4.28 22:44.97 23:224.13 24:82.8 25:10.71 26:3.57 27:1.43 28:0.71 29:0.71 32:0.71 33:1.43 35:0.71 36:2.14 37:1.43 39:0.71 40:2.14 41:0.71 42:0.71 43:2.14 44:0.71 45:2.86 46:7.85 47:19.99 48:187.01 49:221.27 50:15.7 51:4.28 52:2.14 53:2.14 54:2.14 55:0.71 56:0.71 61:1.43 62:1.43 63:0.71 64:2.14 65:1.43 67:2.14 68:7.14 69:37.83 70:32.83 71:8.57 72:2.86 73:1.43 76:0.71 77:0.71 78:1.43 79:0.71 80:1.43 81:0.71 82:2.86 83:2.86 84:7.14 85:6.42 86:3.57 87:0.71 88:0.71 89:0.71 90:0.71 92:0.71 93:2.86 94:2.86 95:1.43 96:1.43 97:2.14 
-0.9 2:0.68 6:0.68 10:0.68 11:0.68 13:0.68 15:0.68 18:2.04 19:2.04 21:6.8 22:59.18 23:250.34 24:63.27 25:4.76 26:0.68 27:1.36 29:0.68 30:0.68 31:1.36 34:2.04 35:1.36 36:0.68 37:0.68 41:0.68 42:0.68 44:0.68 45:1.36 46:4.76 47:23.13 48:267.35 49:154.42 50:14.29 51:4.76 52:2.04 53:0.68 58:1.36 60:1.36 64:1.36 65:2.04 67:1.36 68:6.8 69:37.41 70:26.53 71:2.04 72:4.76 73:0.68 77:0.68 78:0.68 79:1.36 82:2.04 83:2.72 84:4.76 85:8.84 86:3.4 87:0.68 88:0.68 89:1.36 90:2.04 91:0.68 92:0.68 93:1.36 94:2.72 95:2.04 96:0.68 
0.9 0:0.66 5:0.66 7:0.66 10:1.31 16:1.97 18:0.66 19:0.66 20:1.31 21:11.14 22:91.74 23:192.66 24:28.83 25:3.28 26:0.66 27:0.66 28:0.66 30:1.31 34:0.66 36:0.66 37:0.66 41:0.66 42:1.31 43:0.66 44:1.97 45:1.31 46:6.55 47:23.59 48:360.42 49:93.05 50:9.83 51:5.9 52:1.31 54:1.97 58:0.66 59:1.31 60:0.66 61:1.31 62:0.66 64:1.31 65:1.31 66:1.97 67:3.28 68:21.63 69:43.25 70:23.59 71:3.93 72:1.97 73:0.66 75:0.66 76:0.66 77:0.66 78:0.66 80:1.31 81:1.31 82:1.31 83:2.62 84:7.86 85:5.24 86:5.24 87:2.62 88:1.97 89:0.66 91:0.66 92:1.97 93:3.28 94:3.28 95:1.31 
0.9 2:0.64 6:0.64 7:0.64 19:1.27 20:1.27 21:10.8 22:120.08 23:141.68 24:21.6 25:2.54 26:1.91 27:1.27 29:0.64 30:0.64 31:0.64 32:1.27 34:0.64 37:0.64 42:1.27 43:0.64 44:0.64 45:1.27 46:6.99 47:52.73 48:400.25 49:65.44 50:7.62 51:0.64 52:0.64 53:1.27 54:0.64 55:0.64 56:0.64 58:0.64 59:1.91 60:0.64 61:0.64 64:1.27 65:0.64 66:0.64 67:3.18 68:19.7 69:51.46 70:23.51 71:5.72 75:0.64 77:0.64 78:0.64 79:1.27 80:1.27 81:1.27 82:0.64 83:3.18 84:8.89 85:6.35 86:2.54 87:1.27 88:0.64 89:0.64 92:1.91 94:4.45 95:2.54 96:0.64 97:0.64 
0.2434365083242137 17:0.62 18:0.62 19:1.86 20:4.33 21:17.95 22:180.69 23:97.77 24:9.9 25:3.09 26:1.24 27:0.62 28:0.62 31:0.62 32:1.24 34:0.62 35:0.62 39:1.24 40:1.24 41:1.86 42:1.86 44:0.62 45:3.09 46:8.04 47:59.41 48:399.75 49:51.36 50:4.33 51:3.09 52:1.86 54:1.24 55:0.62 56:0.62 59:0.62 60:1.86 63:1.24 64:2.48 65:1.24 66:0.62 67:4.33 68:14.23 69:45.79 70:18.56 71:3.09 72:1.86 73:1.24 74:2.48 75:0.62 76:0.62 80:0.62 81:0.62 82:2.48 83:1.24 84:8.04 85:6.81 86:1.24 88:2.48 89:0.62 90:1.86 91:1.86 92:0.62 93:0.62 94:2.48 95:1.86 96:1.24 97:1.86 
-0.9 2:0.64 4:0.64 6:0.64 16:1.28 18:0.64 19:1.28 20:2.57 21:35.3 22:191.91 23:84.08 24:8.99 25:4.49 26:2.57 29:0.64 30:1.93 32:0.64 33:2.57 34:1.28 37:1.28 40:1.28 41:0.64 43:0.64 44:1.93 45:1.93 46:6.42 47:96.92 48:378.69 49:32.09 50:5.78 51:1.93 52:0.64 53:1.28 58:1.93 59:1.28 60:1.28 64:0.64 65:1.28 66:0.64 67:0.64 68:20.54 69:39.79 70:13.48 71:5.13 72:2.57 73:1.28 74:0.64 78:0.64 80:0.64 81:1.28 82:1.28 83:3.85 84:9.63 85:3.21 86:1.93 89:1.28 90:1.28 92:0.64 93:1.93 94:1.93 95:3.21 96:1.28 97:1.28 
-0.9 5:0.68 9:0.68 13:0.68 16:0.68 17:0.68 18:2.04 19:1.36 20:8.18 21:63.39 22:224.95 23:58.62 24:6.82 25:1.36 26:0.68 27:0.68 28:0.68 30:0.68 32:0.68 35:0.68 37:0.68 39:0.68 40:0.68 42:1.36 43:4.09 44:2.04 45:4.09 46:16.36 47:155.42 48:282.89 49:21.13 50:2.73 51:1.36 52:2.04 53:0.68 54:0.68 55:0.68 58:1.36 59:0.68 61:0.68 62:0.68 63:1.36 64:2.04 65:0.68 66:2.04 67:6.13 68:28.63 69:41.58 70:10.22 71:3.41 72:2.73 73:0.68 79:0.68 80:0.68 81:0.68 82:1.36 83:2.04 84:6.13 85:2.73 86:0.68 88:0.68 89:0.68 90:1.36 91:1.36 92:0.68 93:0.68 94:2.04 95:1.36 97:1.36 
0.05883526941230186 0:0.68 2:0.68 9:0.68 11:0.68 12:0.68 14:0.68 18:0.68 19:0.68 20:8.89 21:75.87 22:235.82 23:49.9 24:8.89 26:1.37 27:0.68 30:1.37 31:0.68 33:1.37 35:0.68 36:0.68 39:2.05 40:1.37 41:0.68 42:2.73 43:0.68 44:2.05 45:6.15 46:15.72 47:237.18 48:181.82 49:12.3 50:4.1 51:2.73 52:2.05 55:0.68 58:0.68 59:0.68 60:1.37 62:0.68 63:2.73 64:0.68 65:0.68 66:1.37 67:8.2 68:32.13 69:36.23 70:6.15 71:3.42 72:1.37 73:0.68 74:1.37 75:0.68 77:0.68 78:0.68 79:0.68 80:0.68 82:1.37 83:4.78 84:10.25 85:4.1 86:2.73 87:1.37 90:1.37 91:0.68 92:1.37 93:0.68 94:2.05 95:2.05 96:0.68 97:0.68 
0.61490776829038 3:0.68 14:0.68 18:2.7 19:3.38 20:16.9 21:137.25 22:209.6 23:27.05 24:3.38 25:1.35 26:0.68 28:0.68 30:0.68 32:2.03 33:0.68 34:0.68 36:1.35 37:0.68 40:1.35 41:0.68 43:0.68 44:2.03 45:3.38 46:27.72 47:275.86 48:141.99 49:10.14 50:2.7 51:1.35 52:1.35 54:0.68 55:0.68 56:0.68 58:0.68 60:0.68 62:2.03 64:0.68 65:0.68 66:3.38 67:8.79 68:32.45 69:21.64 70:9.47 71:4.06 72:1.35 73:0.68 74:0.68 75:0.68 77:1.35 78:2.03 80:1.35 81:0.68 82:1.35 83:3.38 84:1.35 85:3.38 86:1.35 87:0.68 89:0.68 90:0.68 91:1.35 92:0.68 93:1.35 94:4.73 95:1.35 97:2.7 
-0.3932866053436671 10:0.63 13:0.63 19:1.26 20:1.26 21:1.26 22:7.56 23:54.19 24:229.36 25:47.26 26:7.56 27:2.52 28:1.89 29:0.63 30:1.89 31:0.63 36:0.63 37:0.63 39:0.63 40:1.26 41:0.63 42:0.63 43:0.63 44:2.52 46:0.63 47:3.15 48:32.14 49:367.99 50:84.44 51:13.86 52:1.89 53:2.52 54:0.63 55:1.26 56:1.26 60:1.26 61:0.63 64:0.63 66:1.26 67:0.63 68:3.78 69:15.12 70:40.33 71:16.38 72:3.78 73:1.26 74:2.52 75:0.63 76:1.26 77:0.63 79:0.63 80:1.26 82:1.89 84:3.15 85:7.56 86:6.93 87:1.89 88:2.52 89:0.63 90:1.26 92:1.89 93:0.63 94:0.63 95:1.26 96:1.26 97:0.63 
0.9 1:0.64 7:0.64 11:1.28 18:0.64 20:0.64 21:1.28 22:16.67 23:88.46 24:120.51 25:20.51 26:5.13 27:1.28 28:0.64 29:0.64 30:0.64 31:1.28 32:0.64 36:1.92 37:1.92 39:0.64 41:1.28 42:0.64 43:0.64 44:1.92 45:1.92 46:5.77 47:12.18 48:89.1 49:424.36 50:38.46 51:8.97 52:3.85 54:2.56 55:0.64 56:0.64 58:1.28 59:1.28 60:2.56 62:0.64 64:1.92 65:0.64 67:3.85 68:6.41 69:23.72 70:43.59 71:8.97 72:2.56 73:1.28 74:0.64 77:1.28 78:1.92 79:1.92 80:1.28 82:1.28 83:1.92 84:3.21 85:7.69 86:6.41 87:2.56 88:0.64 89:1.28 92:0.64 93:2.56 94:1.92 95:3.21 97:1.92 
-0.7633937096693703 11:0.64 16:0.64 19:1.29 20:2.57 21:2.57 22:20.58 23:133.12 24:102.25 25:14.79 26:5.14 27:1.93 30:2.57 31:0.64 32:1.29 37:0.64 39:1.29 40:0.64 41:0.64 45:0.64 46:7.07 47:12.22 48:118.33 49:369.77 50:32.8 51:4.5 52:1.29 53:2.57 54:0.64 55:1.29 56:1.93 58:1.29 59:1.29 60:1.29 62:0.64 64:1.29 65:0.64 66:1.93 67:3.22 68:9 69:37.94 70:32.15 71:9 72:3.22 73:2.57 74:1.93 75:1.29 76:0.64 77:0.64 78:1.29 81:0.64 82:0.64 83:1.29 84:4.5 85:7.72 86:3.86 87:0.64 88:3.22 89:1.93 90:1.93 92:1.93 93:1.29 94:3.86 95:3.86 96:1.29 97:3.86 
0.2870805410697876 1:0.67 2:0.67 5:0.67 15:0.67 18:0.67 19:1.34 20:4.69 21:10.06 22:31.52 23:155.6 24:63.72 25:10.06 26:4.02 27:1.34 28:0.67 29:0.67 30:2.01 31:0.67 32:0.67 35:0.67 40:1.34 41:0.67 42:0.67 44:1.34 45:2.01 46:7.38 47:16.77 48:197.85 49:280.35 50:20.79 51:6.04 52:2.01 53:2.01 54:0.67 55:0.67 58:2.01 59:1.34 61:0.67 62:0.67 64:2.68 65:0.67 66:1.34 67:4.69 68:10.73 69:36.89 70:48.96 71:8.72 72:3.35 73:0.67 80:2.01 82:2.01 83:4.02 84:6.04 85:10.73 86:5.37 87:0.67 88:1.34 89:0.67 90:2.01 91:1.34 92:0.67 93:1.34 94:2.01 95:2.01 96:2.01 97:0.67 
0.9 0:1.37 5:0.69 6:0.69 9:0.69 13:0.69 15:0.69 16:0.69 19:0.69 20:4.11 21:6.17 22:43.87 23:137.08 24:47.98 25:10.28 26:0.69 27:0.69 30:2.74 32:1.37 33:0.69 34:0.69 35:1.37 40:0.69 41:1.37 43:1.37 44:1.37 45:1.37 46:2.06 47:26.05 48:291.98 49:206.99 50:16.45 51:4.11 52:0.69 54:2.06 55:0.69 56:1.37 61:0.69 62:0.69 63:0.69 64:2.06 65:1.37 66:1.37 67:4.11 68:11.65 69:60.32 70:39.07 71:7.54 72:5.48 74:0.69 75:1.37 76:1.37 77:1.37 81:0.69 82:3.43 83:3.43 84:4.11 85:10.28 86:2.74 88:0.69 89:1.37 91:0.69 93:2.06 94:2.06 95:3.43 96:1.37 97:1.37 
-0.6195950833247302 1:1.9 16:0.63 18:1.9 20:1.26 21:12.64 22:51.2 23:132.74 24:30.34 25:6.32 26:3.16 27:0.63 29:1.26 30:1.26 32:0.63 33:0.63 34:1.26 37:1.26 40:0.63 42:1.26 43:2.53 44:0.63 45:1.9 46:3.79 47:34.13 48:388.12 49:136.54 50:8.22 51:5.06 52:0.63 53:0.63 54:1.26 59:0.63 60:1.9 61:1.26 62:1.26 64:1.26 65:0.63 66:2.53 67:3.79 68:13.91 69:56.89 70:33.5 71:5.69 72:1.9 73:1.9 75:1.26 76:0.63 78:1.26 79:0.63 80:1.26 81:0.63 82:2.53 83:2.53 84:4.42 85:6.32 86:3.16 87:2.53 88:0.63 90:2.53 91:0.63 93:3.16 94:3.16 95:0.63 97:0.63 
-0.9 1:0.63 16:0.63 17:0.63 18:0.63 19:1.26 20:1.89 21:12.57 22:77.94 23:120.68 24:20.11 25:3.14 26:1.89 27:0.63 30:0.63 33:1.26 34:0.63 35:1.26 36:0.63 39:2.51 40:0.63 41:0.63 43:2.51 44:1.89 45:0.63 46:5.66 47:49.03 48:455.69 49:75.42 50:5.03 51:5.66 52:2.51 53:0.63 56:0.63 58:0.63 65:0.63 66:0.63 67:3.14 68:16.34 69:57.2 70:23.26 71:3.14 72:1.89 73:2.51 74:1.89 75:2.51 77:1.26 78:0.63 79:1.26 80:1.89 81:2.51 83:1.26 84:2.51 85:8.8 86:1.89 88:0.63 89:1.26 91:0.63 92:1.26 93:0.63 94:0.63 95:1.89 96:1.26 
0.9 5:0.63 18:0.63 19:0.63 20:5.03 21:21.37 22:103.71 23:73.54 24:15.71 25:5.03 26:1.89 27:0.63 28:0.63 30:0.63 31:1.26 33:1.26 35:0.63 36:1.89 37:0.63 39:1.26 41:1.89 44:3.14 45:2.51 46:11.94 47:71.65 48:441.86 49:49.65 50:5.03 51:1.89 52:0.63 53:1.26 55:3.14 58:0.63 59:0.63 62:1.26 63:0.63 65:1.89 66:1.26 67:3.77 68:23.88 69:62.23 70:21.37 71:8.17 72:0.63 73:1.26 74:1.26 77:0.63 78:1.26 79:0.63 80:1.26 81:0.63 83:5.03 84:7.54 85:5.03 86:3.77 88:1.26 89:1.26 90:0.63 91:0.63 92:1.89 93:1.26 94:2.51 95:1.26 96:1.89 97:1.26 
0.9 1:0.62 5:0.62 9:0.62 13:0.62 15:0.62 18:0.62 19:1.24 20:6.81 21:27.24 22:127.55 23:55.73 24:2.48 25:3.1 26:1.24 27:1.24 30:0.62 32:0.62 33:1.24 35:0.62 39:0.62 40:0.62 43:1.86 44:2.48 45:6.81 46:9.29 47:120.74 48:404.33 49:33.44 50:4.33 51:1.86 52:1.24 53:0.62 54:1.86 55:1.24 56:0.62 58:0.62 61:1.86 62:1.86 63:0.62 64:0.62 65:3.1 66:2.48 67:6.81 68:31.58 69:66.87 70:11.15 71:3.72 72:2.48 73:1.24 75:1.86 76:0.62 78:0.62 79:1.86 80:1.24 81:1.24 82:1.24 83:2.48 84:6.81 85:7.43 86:1.86 87:0.62 88:0.62 89:1.24 91:0.62 92:1.24 93:1.24 94:3.1 95:1.86 97:1.86 
-0.1418847838940356 1:0.66 2:0.66 6:1.32 9:0.66 18:1.97 19:1.97 20:5.92 21:46.74 22:156.02 23:41.47 24:5.27 25:3.95 27:0.66 28:0.66 30:1.97 31:1.97 32:0.66 33:1.32 36:0.66 37:1.97 39:1.32 40:1.97 41:1.32 42:1.32 43:0.66 44:4.61 45:4.61 46:18.43 47:178.41 48:304.81 49:26.33 50:3.95 51:4.61 54:0.66 58:0.66 59:0.66 60:0.66 63:0.66 64:1.97 65:2.63 66:1.97 67:10.53 68:29.62 69:61.88 70:10.53 71:2.63 72:0.66 73:1.97 74:1.32 78:0.66 79:0.66 81:0.66 82:0.66 83:2.63 84:9.22 85:7.9 87:1.97 88:1.97 89:1.32 90:1.32 91:1.97 92:1.97 93:1.32 94:3.29 95:3.95 97:0.66 
0.9 0:1.28 9:0.64 10:0.64 12:0.64 18:1.28 19:1.28 20:10.84 21:75.89 22:144.77 23:31.25 24:5.74 25:1.91 26:1.91 27:0.64 29:0.64 30:1.91 32:0.64 33:0.64 34:0.64 35:1.28 36:1.91 39:1.91 41:1.28 42:0.64 43:1.91 44:3.19 45:7.65 46:16.58 47:286.99 48:198.34 49:22.32 50:3.83 51:2.55 52:1.28 53:1.91 55:0.64 56:1.91 60:1.28 63:1.28 64:1.28 65:0.64 66:1.91 67:9.57 68:45.28 69:42.73 70:8.93 71:1.91 72:3.19 73:1.91 74:0.64 76:1.28 77:0.64 79:0.64 80:1.91 81:1.28 82:1.91 83:3.19 84:8.93 85:6.38 86:1.28 87:0.64 88:1.91 89:1.28 90:0.64 92:1.91 93:1.28 94:1.28 95:1.91 96:0.64 97:1.28 
-0.9 6:0.69 11:0.69 14:0.69 18:1.38 19:3.45 20:13.79 21:98.62 22:129.66 23:29.66 24:4.14 25:1.38 26:1.38 29:0.69 30:1.38 32:0.69 35:0.69 36:0.69 37:0.69 40:1.38 41:0.69 44:2.76 45:6.21 46:29.66 47:374.48 48:122.07 49:13.1 50:4.83 51:2.07 52:2.76 56:0.69 59:0.69 60:2.07 64:1.38 65:1.38 66:4.14 67:6.9 68:39.31 69:42.76 70:14.48 71:1.38 72:1.38 73:0.69 75:0.69 76:0.69 77:0.69 79:0.69 80:0.69 81:1.38 82:2.07 83:3.45 84:6.9 85:3.45 86:2.07 87:0.69 90:0.69 91:0.69 93:4.14 94:2.76 95:0.69 
0.9 4:0.63 13:0.63 16:1.25 17:0.63 18:1.88 19:8.13 20:23.14 21:115.07 22:98.19 23:11.26 24:3.13 25:1.25 29:0.63 30:1.25 31:1.25 36:0.63 39:0.63 40:0.63 43:1.88 44:1.88 45:5.63 46:42.53 47:445.9 48:73.17 49:8.76 50:3.75 52:1.88 53:0.63 56:1.25 58:0.63 59:0.63 61:0.63 62:1.88 64:1.88 65:2.5 66:1.88 67:16.89 68:37.52 69:22.51 70:5.63 71:1.25 72:1.25 73:1.25 74:0.63 75:0.63 76:0.63 79:0.63 80:1.25 81:3.13 82:2.5 83:6.88 84:6.25 85:5 86:0.63 87:1.25 88:1.88 90:1.25 91:1.25 93:3.75 94:3.13 95:2.5 96:1.25 97:1.88 
-0.9 1:0.63 2:0.63 4:0.63 5:0.63 9:0.63 14:0.63 15:1.27 18:2.53 19:6.97 20:22.17 21:182.39 22:78.53 23:11.4 24:1.9 25:2.53 28:0.63 30:0.63 31:0.63 32:1.27 34:0.63 35:0.63 36:1.27 40:0.63 41:0.63 42:1.9 43:1.27 44:2.53 45:8.87 46:59.53 47:419.89 48:53.2 49:7.6 51:1.9 52:0.63 53:1.27 55:0.63 56:0.63 59:0.63 60:1.27 61:0.63 62:0.63 63:0.63 64:0.63 65:1.9 66:2.53 67:12.67 68:39.27 69:15.83 70:5.7 71:1.27 72:0.63 73:0.63 74:1.9 76:2.53 77:0.63 78:1.27 79:0.63 80:0.63 82:2.53 83:3.17 84:3.8 85:2.53 86:1.9 87:1.9 88:0.63 89:1.27 90:0.63 92:2.53 93:3.17 94:1.27 95:0.63 96:1.27 
0.9 0:0.65 15:0.65 17:0.65 18:1.94 19:7.77 20:47.9 21:213.59 22:47.9 23:6.47 24:3.24 25:0.65 30:0.65 32:1.94 34:0.65 36:0.65 39:0.65 40:0.65 42:2.59 43:1.29 44:1.94 45:7.77 46:97.09 47:381.88 48:33.01 49:5.83 50:4.53 52:0.65 55:1.29 61:0.65 63:1.29 65:2.59 66:2.59 67:10.36 68:51.78 69:16.83 70:3.88 71:1.94 72:1.94 73:0.65 74:0.65 75:1.29 76:1.29 79:0.65 81:0.65 82:1.29 83:3.24 84:3.88 85:2.59 86:1.29 87:1.94 88:1.94 89:0.65 91:0.65 92:0.65 93:0.65 94:3.24 95:3.24 97:1.29 
-0.6996332040012796 7:0.68 14:0.68 15:0.68 16:0.68 18:2.04 19:5.45 20:77.66 21:243.87 22:46.32 23:6.81 24:2.04 26:2.04 27:0.68 28:0.68 30:1.36 33:0.68 34:1.36 35:1.36 36:0.68 39:0.68 40:0.68 42:0.68 43:3.41 44:3.41 45:10.22 46:132.15 47:299.73 48:28.61 49:3.41 50:0.68 51:0.68 52:0.68 58:1.36 62:0.68 63:0.68 64:1.36 65:0.68 66:6.81 67:18.39 68:36.78 69:16.35 70:0.68 71:2.04 72:2.04 73:1.36 76:0.68 79:0.68 81:1.36 82:2.04 83:2.04 84:4.09 85:4.77 86:1.36 87:0.68 88:1.36 89:0.68 91:0.68 92:2.04 93:3.41 94:2.04 95:1.36 97:0.68 
-0.2758357439729661 3:0.68 9:0.68 20:1.37 22:4.79 23:20.55 24:163.01 25:115.07 26:14.38 27:3.42 28:0.68 30:0.68 31:2.05 32:0.68 33:0.68 36:0.68 37:0.68 39:1.37 40:1.37 41:0.68 44:0.68 45:0.68 46:3.42 47:2.74 48:19.18 49:217.12 50:257.53 51:20.55 52:5.48 53:2.05 55:2.05 56:0.68 58:0.68 60:0.68 61:2.05 62:1.37 63:0.68 65:0.68 67:0.68 68:6.16 69:15.07 70:31.51 71:31.51 72:3.42 73:2.05 74:0.68 75:0.68 76:0.68 78:1.37 79:0.68 80:0.68 81:1.37 83:3.42 84:2.74 85:7.53 86:2.74 87:2.74 88:1.37 89:1.37 91:2.05 92:0.68 93:1.37 94:1.37 96:2.74 97:1.37 
0.3416274716028796 1:0.69 4:1.38 7:0.69 10:1.38 17:0.69 18:0.69 19:0.69 20:2.76 21:1.38 22:4.14 23:31.03 24:167.59 25:74.48 26:11.72 27:2.76 28:1.38 29:0.69 30:1.38 32:0.69 33:1.38 36:2.07 37:0.69 39:1.38 41:2.76 43:0.69 44:0.69 45:2.07 46:2.07 47:5.52 48:23.45 49:308.28 50:175.86 51:12.41 52:2.07 53:1.38 54:1.38 58:0.69 59:0.69 61:0.69 62:1.38 63:0.69 64:0.69 65:0.69 67:3.45 68:2.07 69:15.86 70:45.52 71:23.45 72:2.76 73:2.07 74:1.38 75:2.07 76:0.69 78:0.69 80:2.07 81:0.69 82:0.69 83:1.38 84:4.14 85:12.41 86:4.14 87:4.14 88:0.69 89:0.69 90:0.69 91:0.69 92:1.38 93:0.69 94:5.52 95:2.76 96:0.69 97:0.69 
-0.7352398207245262 0:0.66 5:0.66 10:0.66 18:0.66 19:0.66 21:4.65 22:9.31 23:37.9 24:148.94 25:45.88 26:7.31 27:2.66 28:1.33 31:1.33 34:1.33 35:0.66 37:0.66 39:0.66 41:0.66 42:0.66 43:0.66 44:2.66 45:3.32 46:3.32 47:3.99 48:30.59 49:404.26 50:122.34 51:13.96 52:2.66 53:1.33 54:1.33 55:0.66 56:0.66 58:0.66 61:1.33 62:1.33 63:1.33 66:1.99 67:1.99 68:3.99 69:12.63 70:47.87 71:23.94 72:1.33 73:1.33 74:2.66 75:0.66 76:0.66 77:1.33 81:1.99 84:5.98 85:5.32 86:7.98 87:3.99 88:1.33 90:1.33 92:1.33 93:0.66 94:1.99 95:2.66 96:1.33 
0.3961390928808086 1:0.59 3:0.59 15:0.59 20:0.59 21:2.94 22:8.22 23:53.44 24:125.07 25:32.88 26:4.11 27:1.76 28:1.17 29:0.59 30:1.17 31:0.59 32:0.59 34:0.59 36:1.17 39:0.59 40:1.17 42:0.59 44:0.59 45:2.94 46:3.52 47:10.57 48:38.17 49:438.64 50:72.81 51:11.16 52:3.52 53:1.17 54:0.59 56:1.17 58:0.59 60:0.59 61:1.17 62:1.76 63:1.17 64:0.59 65:0.59 66:1.17 67:0.59 68:3.52 69:28.19 70:78.1 71:17.03 72:2.35 74:0.59 75:0.59 77:1.76 78:0.59 79:1.76 80:0.59 81:0.59 82:1.17 83:0.59 84:4.11 85:8.22 86:2.94 87:0.59 88:0.59 89:0.59 90:1.17 92:1.17 93:2.94 94:1.76 95:2.35 96:2.35 97:1.76 
-0.9 0:0.6 1:0.6 20:1.81 21:3.62 22:10.85 23:65.1 24:92.22 25:15.67 26:3.62 27:1.21 30:0.6 32:0.6 33:0.6 34:1.21 36:0.6 37:1.21 41:1.21 42:1.81 43:2.41 44:2.41 45:1.21 46:3.01 47:10.25 48:81.98 49:470.77 50:49.43 51:4.82 52:3.01 53:0.6 55:1.21 59:0.6 62:0.6 63:0.6 65:0.6 66:1.21 67:1.21 68:5.42 69:44 70:61.48 71:13.26 72:3.01 75:0.6 76:0.6 77:1.81 78:1.81 81:0.6 82:0.6 83:1.21 84:1.81 85:4.82 86:7.23 87:1.81 88:1.21 92:1.21 93:1.21 94:4.22 95:1.81 96:0.6 97:0.6 
0.3601225039355222 0:0.64 1:1.28 4:0.64 6:0.64 9:0.64 16:0.64 17:0.64 20:1.28 21:6.39 22:13.42 23:79.23 24:69.65 25:16.61 26:5.11 27:0.64 28:0.64 29:0.64 30:1.28 31:0.64 32:0.64 33:1.92 34:1.28 35:1.28 37:0.64 40:2.56 41:0.64 42:1.92 43:0.64 44:0.64 45:2.56 46:5.75 47:7.67 48:130.35 49:406.39 50:30.67 51:5.11 52:1.92 53:1.92 54:3.83 55:1.28 58:0.64 60:0.64 61:2.56 62:0.64 65:1.92 66:0.64 67:4.47 68:7.03 69:44.09 70:60.7 71:12.78 72:1.92 73:1.92 74:2.56 75:0.64 76:1.28 77:2.56 80:1.28 81:0.64 82:1.28 83:3.83 84:5.11 85:10.86 86:8.95 87:0.64 88:1.28 90:0.64 91:0.64 92:0.64 93:1.92 94:3.19 95:0.64 96:0.64 97:0.64 
-0.9 2:0.65 12:0.65 19:0.65 20:0.65 21:5.84 22:27.27 23:88.96 24:57.79 25:9.74 26:4.55 28:0.65 29:0.65 30:1.3 32:0.65 34:0.65 35:0.65 36:1.95 37:1.95 39:0.65 43:1.95 44:1.3 45:1.95 46:7.14 47:18.18 48:198.05 49:318.83 50:24.68 51:5.19 52:1.3 53:1.95 54:1.3 55:3.9 56:0.65 58:0.65 59:1.95 60:0.65 61:0.65 62:0.65 63:0.65 65:1.95 66:1.3 67:1.95 68:11.04 69:61.04 70:64.94 71:7.79 72:4.55 73:0.65 74:0.65 75:1.95 76:1.3 80:1.3 81:1.3 82:1.95 83:3.25 84:5.84 85:7.79 86:5.19 87:3.25 89:2.6 90:1.3 91:0.65 92:1.95 93:1.95 94:3.25 95:1.3 97:0.65 
0.9 0:0.62 1:0.62 14:1.25 15:0.62 19:0.62 20:3.12 21:4.98 22:42.37 23:64.17 24:15.58 25:2.49 26:1.25 28:0.62 30:1.87 31:0.62 32:1.87 33:0.62 34:1.87 35:1.25 36:1.25 37:0.62 40:0.62 41:0.62 42:0.62 43:1.25 44:3.74 45:0.62 46:3.12 47:25.55 48:414.33 49:146.42 50:11.21 51:5.61 52:0.62 53:1.25 54:1.25 55:1.25 58:0.62 60:0.62 63:1.87 64:0.62 65:1.87 66:3.12 67:6.85 68:16.2 69:96.57 70:31.15 71:6.23 72:3.12 73:2.49 74:0.62 75:0.62 77:0.62 78:0.62 79:1.87 80:0.62 82:0.62 83:5.61 84:14.33 85:14.33 86:2.49 87:0.62 88:1.25 89:0.62 90:0.62 91:0.62 92:3.12 93:1.87 94:3.12 95:4.98 96:0.62 97:2.49 
-0.9 1:0.63 4:0.63 5:1.26 7:0.63 9:0.63 13:1.26 14:0.63 15:0.63 20:3.77 21:15.72 22:67.92 23:59.75 24:15.09 25:4.4 26:1.26 27:0.63 28:1.89 30:3.14 31:0.63 32:0.63 33:0.63 34:0.63 35:1.26 36:1.89 37:0.63 40:0.63 41:1.26 42:1.26 43:3.14 44:1.26 45:3.77 46:10.69 47:74.21 48:452.83 49:52.2 50:5.03 51:2.52 53:1.26 54:1.89 55:0.63 58:1.89 59:1.89 60:0.63 62:1.26 63:1.89 64:0.63 65:0.63 66:3.14 67:5.03 68:27.67 69:83.65 70:25.16 71:2.52 72:1.26 73:0.63 74:1.89 77:0.63 78:0.63 80:0.63 82:1.26 83:1.89 84:10.06 85:5.66 86:2.52 87:0.63 88:1.89 89:1.26 91:0.63 92:1.89 93:2.52 94:3.77 95:3.14 96:0.63 97:1.89 
0.9 0:0.62 4:0.62 5:0.62 11:0.62 19:3.1 20:2.48 21:24.21 22:76.97 23:45.93 24:8.69 25:4.35 27:0.62 28:0.62 30:1.24 31:0.62 32:0.62 33:0.62 34:0.62 35:0.62 36:1.86 40:1.24 41:0.62 42:1.24 43:1.86 44:0.62 45:3.1 46:9.93 47:126.01 48:395.41 49:40.97 50:4.97 51:2.48 52:1.24 53:1.24 54:0.62 55:1.24 56:1.24 59:1.24 61:1.24 62:1.86 64:0.62 65:0.62 66:2.48 67:4.35 68:47.18 69:96.83 70:14.28 71:3.72 72:2.48 73:1.86 74:2.48 76:1.86 77:0.62 78:1.24 79:1.24 81:2.48 82:1.86 83:5.59 84:13.04 85:7.45 86:2.48 89:1.24 91:0.62 93:1.86 94:5.59 95:0.62 97:1.24 
-0.9 0:0.65 3:0.65 4:0.65 13:0.65 15:1.3 17:0.65 18:1.95 19:1.95 20:9.08 21:29.18 22:103.11 23:36.96 24:7.13 25:1.95 26:1.3 27:0.65 28:0.65 30:0.65 31:1.3 32:0.65 35:0.65 36:0.65 39:1.95 40:1.95 41:1.3 42:1.3 43:1.95 44:3.89 45:2.59 46:23.35 47:199.09 48:303.5 49:23.99 50:6.49 51:1.95 52:0.65 53:0.65 54:0.65 55:2.59 59:1.3 61:1.95 62:0.65 63:2.59 64:0.65 65:1.3 66:3.24 67:7.78 68:49.29 69:78.47 70:14.27 71:3.24 72:2.59 74:0.65 75:1.3 76:0.65 77:0.65 80:2.59 82:1.3 83:5.84 84:14.27 85:12.97 86:2.59 87:1.95 89:0.65 90:0.65 92:0.65 93:1.3 94:3.24 95:0.65 97:0.65 
0.9 15:0.66 17:0.66 18:2.65 19:3.31 20:9.27 21:54.27 22:93.98 23:22.5 24:4.63 25:3.97 26:0.66 27:1.32 30:0.66 31:0.66 32:1.32 36:0.66 39:1.32 40:0.66 41:0.66 42:1.32 43:1.32 44:2.65 45:3.97 46:19.19 47:317.67 48:195.23 49:15.22 50:5.29 51:1.99 52:1.32 54:0.66 55:0.66 56:0.66 59:0.66 60:1.99 61:0.66 62:1.32 63:0.66 64:0.66 66:3.97 67:9.93 68:64.2 69:75.45 70:11.25 71:3.97 72:0.66 74:0.66 76:1.99 77:0.66 78:1.32 80:0.66 81:1.32 82:3.31 83:3.97 84:9.27 85:9.93 86:1.32 87:1.32 89:3.31 90:1.32 91:0.66 93:3.31 94:3.97 95:3.31 96:0.66 97:1.32 
-0.7484969814930237 5:0.66 11:1.32 15:0.66 18:0.66 19:1.99 20:16.55 21:64.2 22:87.36 23:18.53 24:2.65 25:0.66 26:1.32 29:0.66 30:1.32 31:0.66 32:0.66 33:0.66 36:1.32 37:1.99 39:0.66 40:1.32 41:0.66 43:1.32 44:1.99 45:5.96 46:36.4 47:405.69 48:133.02 49:11.25 50:1.32 51:1.99 52:1.32 54:1.32 56:1.32 60:0.66 61:0.66 63:1.32 64:0.66 65:0.66 66:7.28 67:7.94 68:63.53 69:50.3 70:6.62 71:3.31 72:1.99 74:1.32 75:0.66 76:2.65 77:1.32 78:2.65 80:1.32 81:1.99 82:1.99 83:3.31 84:9.93 85:3.31 86:1.99 87:1.32 88:1.32 92:1.99 93:1.99 94:3.97 95:1.32 96:0.66 97:0.66 
0.09390445495066845 0:1.25 2:1.25 11:0.62 15:0.62 16:0.62 18:1.25 19:3.74 20:16.84 21:85.46 22:64.88 23:9.98 24:1.87 26:0.62 27:0.62 31:0.62 32:1.25 33:1.25 36:0.62 37:1.25 40:1.25 41:0.62 44:2.5 45:4.37 46:51.78 47:471.62 48:73.61 49:7.49 50:6.86 51:1.87 52:1.25 54:0.62 56:1.25 58:1.25 59:1.87 62:1.25 64:1.25 65:1.87 66:1.25 67:14.35 68:61.14 69:31.19 70:7.49 71:2.5 72:0.62 73:1.87 75:1.87 76:0.62 77:1.25 78:1.25 80:1.25 81:1.87 83:6.24 84:15.6 85:4.99 86:1.87 87:1.87 88:1.87 89:0.62 90:0.62 91:1.25 92:0.62 93:3.12 94:2.5 96:1.87 97:1.25 
0.8798294486455177 7:0.63 9:0.63 13:1.25 14:0.63 15:0.63 17:0.63 18:0.63 19:5.02 20:31.99 21:111.04 22:58.34 23:6.27 24:3.14 26:0.63 27:1.25 31:1.25 34:0.63 37:0.63 39:0.63 40:0.63 41:1.25 43:1.25 44:3.76 45:8.78 46:74.03 47:452.32 48:47.05 49:3.76 51:1.25 52:1.88 53:0.63 54:1.88 55:0.63 58:1.25 59:0.63 60:0.63 61:0.63 62:1.25 63:0.63 64:0.63 65:0.63 66:4.39 67:13.8 68:73.4 69:25.09 70:5.65 71:1.88 72:0.63 73:0.63 74:1.25 75:1.25 78:0.63 80:0.63 81:1.25 82:0.63 83:5.02 84:9.41 85:5.02 86:0.63 87:1.25 88:1.25 89:1.88 90:0.63 91:0.63 93:4.39 94:2.51 95:3.14 96:0.63 97:1.25 
-0.9 5:1.29 14:0.65 16:0.65 18:1.94 19:4.53 20:44.01 21:157.93 22:35.6 23:4.53 24:3.24 25:1.94 27:0.65 30:3.24 31:0.65 32:1.94 34:0.65 35:0.65 37:1.29 39:1.29 40:1.29 41:0.65 43:1.29 44:3.24 45:15.53 46:108.74 47:407.77 48:31.72 49:7.77 51:1.29 52:0.65 54:1.29 58:0.65 59:0.65 62:0.65 64:0.65 65:0.65 66:3.88 67:16.83 68:61.49 69:27.18 70:2.59 71:0.65 72:0.65 73:0.65 74:1.29 75:1.94 76:1.94 77:0.65 78:0.65 80:1.29 82:1.29 83:4.53 84:4.53 85:1.94 86:2.59 87:1.94 90:0.65 92:1.29 93:0.65 94:0.65 95:3.24 96:1.29 97:2.59 
0.4905476023496025 3:0.67 5:0.67 9:0.67 10:0.67 12:0.67 14:0.67 17:1.33 18:3.33 19:10.65 20:64.54 21:154.36 22:31.27 23:3.99 24:2 25:0.67 30:0.67 31:1.33 33:2.66 35:0.67 36:1.33 37:1.33 39:0.67 41:0.67 42:0.67 43:1.33 44:2.66 45:22.62 46:181.64 47:333.33 48:16.63 49:5.99 51:1.33 52:1.33 53:2.66 54:0.67 56:1.33 59:2 61:0.67 62:2 63:0.67 65:3.33 66:5.32 67:27.94 68:39.25 69:17.3 70:3.99 72:0.67 73:0.67 74:1.33 75:1.33 76:1.33 77:1.33 78:0.67 79:0.67 81:0.67 82:2 83:2.66 84:5.32 85:3.99 86:2.66 87:2 88:0.67 90:1.33 91:1.33 92:2 93:1.33 94:2.66 95:2.66 97:0.67 
0.9 0:0.72 5:0.72 11:1.45 15:1.45 16:0.72 17:0.72 18:5.07 19:18.09 20:115.77 21:157.02 22:19.54 23:4.34 24:1.45 25:1.45 26:0.72 30:0.72 32:0.72 33:0.72 35:0.72 37:0.72 39:2.17 41:1.45 42:2.89 43:1.45 44:2.89 45:24.6 46:222.87 47:229.38 48:18.81 49:2.89 50:2.17 51:1.45 52:0.72 53:0.72 54:0.72 55:0.72 56:1.45 62:1.45 63:1.45 64:1.45 65:1.45 66:6.51 67:32.56 68:41.24 69:11.58 70:1.45 71:2.17 72:2.89 73:2.17 74:1.45 75:0.72 78:0.72 80:2.89 81:3.62 82:3.62 83:6.51 84:5.07 85:2.89 86:0.72 87:0.72 88:2.17 89:1.45 90:1.45 91:0.72 92:0.72 93:2.89 94:2.89 95:0.72 96:0.72 97:0.72 
-0.39572843746796 9:0.7 17:1.41 18:7.04 19:24.63 20:192.12 21:155.52 22:11.96 23:2.81 24:0.7 25:1.41 37:0.7 39:0.7 40:0.7 41:0.7 42:0.7 43:2.11 44:3.52 45:18.3 46:284.31 47:137.93 48:16.19 49:3.52 50:0.7 52:1.41 53:2.81 58:0.7 59:0.7 61:1.41 62:0.7 63:0.7 64:1.41 65:1.41 66:8.44 67:35.19 68:30.26 69:10.56 70:1.41 72:1.41 73:1.41 75:0.7 76:2.81 77:1.41 78:0.7 79:2.11 81:0.7 82:0.7 83:6.33 84:5.63 86:1.41 87:0.7 89:1.41 90:1.41 91:1.41 92:0.7 93:0.7 94:1.41 95:0.7 97:0.7 
-0.6390282278200682 0:0.65 2:0.65 14:0.65 15:0.65 17:0.65 22:1.96 23:5.87 24:51.5 25:241.2 26:62.58 27:7.82 28:1.3 29:0.65 30:1.3 32:1.3 33:0.65 36:0.65 42:0.65 44:1.3 45:1.3 47:1.96 48:7.82 49:50.2 50:394.39 51:49.54 52:5.87 53:2.61 54:1.96 55:0.65 63:0.65 65:0.65 67:1.96 68:0.65 69:3.26 70:26.73 71:35.2 72:5.22 73:1.96 77:0.65 78:1.3 80:0.65 83:1.3 84:1.3 85:3.91 86:3.26 87:0.65 88:1.3 89:1.96 91:0.65 92:1.3 94:2.61 95:1.96 96:1.3 97:1.3 
-0.2663252995196396 0:1.3 1:0.65 3:0.65 6:0.65 17:0.65 20:0.65 21:1.95 22:2.6 23:9.09 24:58.44 25:205.19 26:36.36 27:6.49 28:2.6 29:1.3 30:0.65 31:1.3 33:0.65 34:1.3 41:0.65 42:1.95 44:3.25 45:1.95 46:1.95 47:1.95 48:9.74 49:81.17 50:391.56 51:31.82 52:5.19 53:2.6 54:0.65 55:1.3 56:1.3 59:1.95 61:1.3 62:0.65 65:0.65 66:0.65 67:1.3 68:3.25 69:9.09 70:33.12 71:30.52 72:9.09 73:3.9 74:2.6 76:1.3 78:0.65 79:1.3 80:1.3 81:1.3 82:0.65 84:2.6 85:2.6 86:6.49 87:3.9 88:0.65 89:0.65 90:0.65 91:0.65 93:0.65 94:1.95 95:5.19 
0.9 7:0.66 13:0.66 18:0.66 20:0.66 21:0.66 22:1.32 23:10.58 24:95.84 25:140.12 26:16.52 27:5.29 28:3.3 29:0.66 30:1.98 32:1.32 33:0.66 35:1.32 36:0.66 37:0.66 42:0.66 44:0.66 45:1.32 46:1.32 47:1.32 48:9.91 49:129.54 50:366.82 51:28.42 52:5.29 53:2.64 54:1.98 56:1.32 58:0.66 60:2.64 61:0.66 63:0.66 64:0.66 65:0.66 66:1.32 67:1.98 68:2.64 69:9.25 70:48.25 71:32.39 72:9.25 73:3.97 74:1.32 75:0.66 77:1.98 78:1.32 79:0.66 80:1.32 81:1.32 83:1.98 84:1.98 85:7.93 86:9.91 87:5.29 88:5.29 89:1.32 90:0.66 92:0.66 93:1.98 94:1.98 95:1.98 96:0.66 
0.9 1:0.68 2:0.68 3:0.68 4:0.68 7:0.68 16:0.68 17:0.68 20:2.03 21:2.03 22:4.07 23:15.58 24:89.43 25:96.88 26:21 27:2.03 28:0.68 29:0.68 30:1.36 31:0.68 32:0.68 33:2.03 39:2.03 41:0.68 45:0.68 46:0.68 47:3.39 48:21.68 49:199.19 50:313.69 51:27.1 52:6.1 53:1.36 54:2.71 55:2.03 56:0.68 58:0.68 59:2.03 60:2.71 61:0.68 64:1.36 65:0.68 67:2.03 68:3.39 69:7.45 70:52.17 71:50.14 72:6.78 73:2.03 74:0.68 75:0.68 76:1.36 78:1.36 80:0.68 81:3.39 82:0.68 83:2.03 84:1.36 85:4.74 86:10.16 87:2.71 88:3.39 89:0.68 90:0.68 91:0.68 92:1.36 93:1.36 94:1.36 95:1.36 97:1.36 
-0.9 4:0.68 12:0.68 16:0.68 17:0.68 20:1.36 21:1.36 22:10.88 23:19.71 24:106.05 25:73.42 26:13.6 27:2.72 28:3.4 29:2.04 30:0.68 31:0.68 32:2.04 34:1.36 35:0.68 37:1.36 40:0.68 41:4.76 42:2.72 43:0.68 44:2.72 45:2.04 46:2.72 47:4.76 48:25.15 49:277.36 50:214.82 51:14.28 52:2.72 53:3.4 54:1.36 55:2.72 58:1.36 59:0.68 62:1.36 63:2.04 65:1.36 67:2.04 68:4.08 69:19.71 70:74.78 71:36.03 72:6.12 73:0.68 74:1.36 76:1.36 79:0.68 80:0.68 81:0.68 82:0.68 84:2.72 85:10.88 86:8.16 87:2.04 88:0.68 89:3.4 91:1.36 92:0.68 93:0.68 94:2.04 95:2.72 96:2.04 
0.9 0:0.63 20:1.9 21:3.81 22:5.08 23:23.49 24:107.94 25:36.19 26:8.89 27:1.27 28:2.54 30:3.17 31:1.27 32:1.27 33:1.27 36:0.63 37:1.27 39:1.27 40:0.63 41:1.27 42:1.9 43:0.63 44:1.27 45:2.54 46:1.9 47:5.08 48:31.75 49:373.97 50:137.14 51:13.33 52:4.44 53:2.54 54:1.27 58:1.9 59:0.63 60:1.27 61:0.63 62:1.9 63:0.63 64:1.27 65:1.9 66:1.9 67:1.9 68:7.62 69:24.13 70:87.62 71:28.57 72:8.89 74:0.63 75:0.63 76:0.63 78:0.63 80:1.27 82:0.63 83:4.44 84:4.44 85:6.98 86:5.08 87:2.54 88:2.54 89:0.63 91:0.63 93:1.27 94:6.35 95:5.08 96:1.27 97:1.9 
0.9 1:1.23 3:0.62 4:0.62 9:0.62 12:0.62 15:0.62 18:0.62 19:0.62 20:0.62 21:0.62 22:5.55 23:40.67 24:72.09 25:22.8 26:5.55 27:3.08 28:0.62 30:3.08 31:0.62 33:0.62 34:0.62 36:1.85 37:1.85 41:0.62 43:0.62 44:1.23 46:2.46 47:4.31 48:41.28 49:435 50:93.04 51:11.09 52:0.62 53:1.85 54:0.62 55:1.23 58:1.23 61:0.62 63:1.85 65:1.23 66:1.23 67:0.62 68:6.78 69:25.26 70:118.92 71:20.33 72:3.7 73:1.23 74:0.62 75:1.85 76:1.23 77:0.62 80:3.08 81:2.46 82:0.62 83:2.46 84:4.31 85:16.64 86:5.55 87:1.85 88:0.62 89:1.23 90:0.62 91:1.23 92:1.23 93:2.46 94:2.46 95:1.85 96:1.85 97:2.46 
0.9 0:0.61 12:0.61 17:0.61 19:0.61 20:1.22 21:1.22 22:12.25 23:42.87 24:62.46 25:18.98 26:4.9 27:2.45 29:0.61 31:1.22 34:0.61 35:1.22 36:1.22 39:2.45 42:0.61 43:1.84 45:0.61 46:1.84 47:6.74 48:67.97 49:444.58 50:53.89 51:5.51 52:2.45 53:1.84 54:0.61 55:0.61 58:0.61 59:1.22 60:0.61 61:1.84 62:1.22 64:1.22 65:1.84 66:3.06 67:1.84 68:6.74 69:39.8 70:107.78 71:19.6 72:6.12 73:1.22 74:3.06 75:0.61 76:1.84 77:1.22 80:0.61 81:0.61 82:1.22 83:1.22 84:7.96 85:13.47 86:9.8 87:1.84 88:1.22 90:0.61 91:0.61 93:2.45 94:3.06 95:3.67 96:2.45 97:2.45 
-0.9 1:1.27 3:0.64 13:0.64 16:0.64 18:0.64 19:0.64 20:2.55 21:4.46 22:9.55 23:52.83 24:47.1 25:14 26:4.46 27:1.91 30:1.27 31:1.91 32:1.27 35:0.64 36:0.64 37:1.91 39:1.91 40:0.64 41:0.64 42:0.64 43:1.27 45:1.27 46:3.82 47:12.09 48:110.76 49:425.21 50:35.01 51:8.91 52:1.91 53:0.64 55:1.91 59:1.91 60:0.64 62:1.91 63:0.64 64:0.64 66:2.55 67:3.18 68:12.09 69:59.83 70:89.12 71:17.82 72:3.82 73:1.91 75:1.91 77:0.64 78:2.55 79:1.91 80:1.27 81:0.64 82:1.27 83:0.64 84:6.37 85:10.18 86:5.73 87:2.55 88:1.27 89:1.91 90:1.91 91:0.64 92:0.64 94:3.18 95:1.91 96:0.64 97:0.64 
-0.1958939465370267 0:0.67 10:0.67 18:1.33 19:0.67 20:2 21:3.33 22:20.65 23:39.97 24:53.3 25:7.99 26:2 29:0.67 30:0.67 32:0.67 33:1.33 34:1.33 36:0.67 37:1.33 41:0.67 44:1.33 45:3.33 46:3.33 47:13.99 48:181.88 49:341.77 50:31.31 51:9.33 52:2.66 53:0.67 55:1.33 56:0.67 58:1.33 59:0.67 61:0.67 62:0.67 65:0.67 67:4 68:13.32 69:85.28 70:76.62 71:12.66 72:5.33 73:1.33 74:2 75:1.33 76:2 77:0.67 78:0.67 79:0.67 80:0.67 81:0.67 82:2 84:11.99 85:15.99 86:6.66 87:2.66 88:1.33 90:3.33 91:0.67 92:0.67 94:4 95:2.66 96:2 97:3.33 
-0.6647266836621359 0:1.36 3:0.68 16:0.68 17:0.68 18:1.36 19:1.36 20:2.04 21:6.13 22:24.51 23:48.33 24:25.87 25:6.13 26:4.77 27:1.36 28:0.68 29:0.68 30:0.68 31:0.68 32:0.68 33:0.68 34:1.36 36:1.36 39:2.72 40:1.36 41:2.72 42:2.04 44:2.04 45:2.04 46:4.08 47:24.51 48:301.57 49:208.3 50:22.46 51:4.08 52:1.36 53:1.36 54:2.72 55:1.36 59:0.68 60:0.68 61:1.36 63:0.68 65:0.68 67:2.04 68:8.85 69:118.45 70:75.56 71:14.98 72:4.08 73:2.72 79:0.68 80:2.04 81:0.68 83:2.72 84:10.89 85:12.25 86:7.49 87:1.36 88:1.36 89:2.04 90:0.68 93:1.36 94:2.04 95:2.04 96:2.72 97:2.04 
0.9 0:1.3 1:0.65 2:0.65 7:0.65 17:0.65 19:1.95 20:3.25 21:9.75 22:31.86 23:44.86 24:17.56 25:1.95 27:1.3 28:0.65 31:1.3 32:1.3 33:1.3 34:0.65 35:1.95 36:1.3 39:1.3 41:1.95 43:1.95 44:1.3 45:4.55 46:5.85 47:35.11 48:377.11 49:130.69 50:11.7 51:5.2 52:0.65 54:1.95 55:0.65 56:1.95 58:0.65 59:0.65 61:0.65 62:0.65 63:1.3 64:2.6 65:1.3 66:2.6 67:3.9 68:20.16 69:137.84 70:50.72 71:6.5 72:3.25 74:0.65 75:1.95 77:1.95 78:0.65 81:2.6 82:1.3 83:4.55 84:13.65 85:14.3 86:3.25 88:1.95 89:0.65 90:1.3 91:1.3 92:0.65 93:0.65 94:4.55 95:1.95 96:0.65 97:1.95 
-0.9 0:0.61 1:1.22 7:0.61 16:0.61 18:1.83 19:1.22 20:5.49 21:12.2 22:36.59 23:42.07 24:12.2 25:2.44 26:0.61 27:1.22 28:0.61 30:0.61 31:0.61 32:0.61 33:1.22 36:2.44 39:0.61 40:1.22 42:1.83 44:1.83 45:1.83 46:11.59 47:42.68 48:407.93 49:86.59 50:12.2 51:4.88 52:1.22 54:1.22 55:0.61 56:1.22 59:1.22 60:0.61 62:0.61 63:1.22 64:1.22 65:0.61 66:1.83 67:6.1 68:18.9 69:156.71 70:39.63 71:3.66 72:3.66 73:1.83 74:0.61 75:1.22 77:1.83 78:0.61 79:0.61 80:1.22 81:1.83 82:1.83 83:2.44 84:15.85 85:12.8 86:4.88 87:0.61 90:0.61 91:1.83 92:2.44 93:1.22 94:4.27 95:1.83 97:1.22 
0.4553305615539102 1:0.62 6:0.62 7:0.62 16:1.24 17:0.62 18:1.87 19:1.87 20:1.87 21:15.55 22:42.91 23:29.85 24:9.33 25:1.87 26:0.62 28:0.62 29:1.87 30:1.87 31:1.87 33:2.49 35:0.62 36:1.87 37:1.24 40:0.62 41:0.62 42:2.49 43:0.62 44:0.62 45:2.49 46:11.19 47:88.93 48:403.61 49:49.13 50:8.71 51:1.87 52:0.62 53:1.24 54:0.62 55:0.62 56:1.24 59:0.62 61:0.62 62:2.49 63:0.62 64:1.87 65:1.87 66:1.24 67:3.11 68:34.83 69:155.47 70:32.96 71:5.6 72:1.87 73:2.49 74:2.49 76:1.87 77:1.87 78:0.62 79:0.62 80:1.24 81:0.62 82:0.62 83:2.49 84:12.44 85:19.28 86:1.24 89:1.87 90:0.62 91:1.24 93:1.87 94:3.11 95:1.24 96:1.24 97:0.62 
-0.218168272492111 0:0.64 14:0.64 17:1.27 18:0.64 19:1.91 20:5.09 21:22.25 22:37.51 23:33.69 24:9.54 25:1.91 26:1.91 27:0.64 30:1.27 31:1.91 32:1.27 33:0.64 36:1.27 39:0.64 41:1.27 42:3.18 43:1.91 44:0.64 45:3.18 46:12.71 47:126.51 48:384.62 49:30.51 50:10.17 51:2.54 52:3.18 53:1.27 54:1.27 55:1.27 58:0.64 61:1.91 62:1.27 63:1.27 64:0.64 65:1.91 66:1.27 67:5.09 68:50.86 69:131.6 70:20.98 71:5.72 72:2.54 73:1.91 74:1.27 75:1.27 76:1.27 77:1.27 78:1.27 79:0.64 82:0.64 83:6.36 84:22.89 85:9.54 86:1.27 88:0.64 89:0.64 90:0.64 91:0.64 92:1.27 93:3.18 94:3.81 95:3.18 96:1.91 
-0.9 1:0.67 2:0.67 4:0.67 9:0.67 10:0.67 14:2.01 16:0.67 17:0.67 19:0.67 20:6.02 21:33.47 22:53.55 23:24.1 24:6.69 25:3.35 26:0.67 27:0.67 30:1.34 33:0.67 34:0.67 35:0.67 36:0.67 41:2.01 42:0.67 44:1.34 45:2.01 46:24.1 47:210.17 48:278.45 49:28.11 50:2.68 51:2.01 52:1.34 54:1.34 58:0.67 59:0.67 61:0.67 62:2.68 65:2.01 66:0.67 67:8.03 68:82.33 69:125.17 70:18.07 71:1.34 72:3.35 73:2.68 74:0.67 75:1.34 76:0.67 77:0.67 79:1.34 81:0.67 82:2.68 83:6.69 84:12.05 85:9.37 86:4.02 87:2.01 88:1.34 89:1.34 90:0.67 92:2.01 93:2.01 94:2.68 95:3.35 96:2.01 
0.9 3:0.68 10:0.68 15:0.68 16:0.68 17:0.68 18:1.36 19:1.36 20:10.2 21:29.91 22:48.27 23:20.39 24:2.04 25:2.04 26:1.36 30:1.36 31:0.68 34:0.68 36:1.36 37:0.68 40:2.04 44:0.68 45:6.12 46:29.91 47:320.19 48:203.26 49:14.28 50:6.12 51:2.04 52:0.68 53:1.36 54:2.72 55:1.36 58:0.68 59:1.36 60:0.68 62:2.04 63:0.68 64:1.36 65:4.76 66:4.76 67:6.8 68:83.62 69:92.45 70:10.2 71:5.44 72:1.36 73:0.68 74:1.36 78:0.68 81:1.36 82:4.08 83:4.76 84:22.43 85:12.24 86:2.72 87:2.72 88:1.36 89:1.36 90:1.36 91:1.36 92:0.68 94:4.08 95:2.72 96:1.36 97:0.68 
0.9 15:0.6 16:0.6 17:0.6 19:4.17 20:7.74 21:41.07 22:33.93 23:6.55 24:4.76 25:2.98 26:1.19 27:0.6 28:1.19 30:0.6 31:0.6 32:1.79 33:1.19 37:1.19 40:1.79 41:0.6 42:2.38 43:2.38 44:2.98 45:4.76 46:39.88 47:423.81 48:126.19 49:10.12 50:3.57 51:1.79 52:1.19 54:0.6 55:0.6 56:1.19 58:0.6 60:0.6 63:1.19 64:2.38 65:0.6 66:4.17 67:17.26 68:94.05 69:62.5 70:14.88 71:2.98 72:2.98 73:0.6 74:1.79 75:1.19 76:1.19 77:1.19 78:0.6 79:0.6 80:0.6 81:1.19 82:1.79 83:7.14 84:17.26 85:6.55 86:1.79 87:1.79 91:1.79 92:1.19 93:4.17 94:5.36 95:0.6 96:0.6 97:1.79 
0.5140184405988883 9:1.24 16:0.62 17:0.62 18:1.85 19:4.94 20:16.06 21:59.91 22:33.97 23:6.79 24:4.32 25:1.24 27:0.62 28:0.62 30:1.24 31:1.85 32:1.24 33:0.62 34:1.24 35:0.62 39:0.62 41:0.62 42:0.62 43:0.62 44:3.09 45:6.18 46:63.62 47:466.95 48:71.65 49:3.71 50:3.71 51:2.47 52:1.24 53:1.85 54:3.09 55:1.24 56:1.24 59:1.24 61:2.47 62:1.24 63:0.62 64:1.24 65:3.09 66:2.47 67:19.15 68:99.44 69:38.91 71:3.09 72:1.24 73:0.62 75:1.85 76:1.24 77:0.62 78:1.85 79:0.62 81:1.24 82:1.85 83:5.56 84:12.35 85:4.32 86:3.71 88:1.85 89:1.24 90:1.24 91:1.24 92:0.62 93:3.09 94:1.85 95:1.85 97:4.94 
-0.9 4:0.61 6:0.61 13:0.61 17:0.61 18:0.61 19:4.26 20:29.81 21:78.47 22:34.67 23:7.3 24:2.43 25:0.61 32:0.61 33:0.61 34:1.22 35:0.61 37:0.61 41:1.22 42:0.61 43:0.61 44:0.61 45:6.69 46:93.07 47:464.72 48:38.93 49:4.26 50:1.22 51:2.43 52:1.22 53:1.22 54:0.61 56:1.82 58:0.61 59:1.22 60:1.22 61:1.22 62:0.61 63:0.61 64:0.61 65:2.43 66:3.65 67:18.25 68:104.01 69:31.63 70:3.65 71:1.22 72:1.82 73:0.61 75:1.22 77:1.22 79:1.22 80:0.61 81:1.22 82:2.43 83:6.69 84:11.56 85:2.43 86:0.61 87:1.22 88:0.61 89:1.82 90:0.61 92:0.61 93:3.04 94:3.65 95:1.22 96:0.61 97:0.61 
0.9 2:0.65 10:0.65 15:0.65 16:0.65 17:0.65 18:1.31 19:7.86 20:41.91 21:89.72 22:31.43 23:5.24 24:1.31 25:1.31 29:0.65 31:0.65 32:1.31 33:0.65 35:0.65 36:0.65 37:1.96 39:0.65 40:1.31 41:0.65 42:1.31 43:3.27 44:3.27 45:17.68 46:154.55 47:370.01 48:28.16 49:5.89 50:1.31 51:3.27 54:1.31 55:0.65 58:0.65 60:0.65 61:0.65 62:1.31 64:1.96 65:1.96 66:2.62 67:26.85 68:87.75 69:20.96 70:5.89 71:3.93 72:1.96 73:0.65 74:1.96 76:1.31 77:0.65 78:1.31 79:1.96 81:1.31 82:2.62 83:10.48 84:8.51 85:5.89 86:1.31 88:4.58 89:2.62 90:1.31 92:1.96 93:1.96 94:2.62 95:2.62 96:2.62 97:1.31 
-0.5193722858336928 10:1.29 13:0.64 16:0.64 17:0.64 18:5.15 19:18.03 20:67.61 21:92.08 22:32.2 23:4.51 24:1.93 30:1.29 31:0.64 33:1.29 35:1.29 39:2.58 40:0.64 41:1.93 43:1.29 44:5.15 45:15.45 46:218.93 47:305.22 48:18.03 49:8.37 50:1.93 51:0.64 52:0.64 53:0.64 54:1.29 55:1.29 58:0.64 59:2.58 60:0.64 61:1.29 62:1.29 63:0.64 65:1.29 66:1.93 67:29.62 68:74.69 69:16.74 70:3.86 71:1.29 77:0.64 78:0.64 79:1.29 80:1.29 81:2.58 82:3.22 83:5.8 84:9.01 85:5.8 86:1.29 87:0.64 88:1.93 89:1.29 90:0.64 91:1.29 92:1.93 93:4.51 94:1.93 95:1.29 96:1.29 97:1.93 
0.05465136966280861 6:1.27 9:0.63 15:1.27 16:0.63 17:2.53 18:4.43 19:16.47 20:134.26 21:77.26 22:10.77 23:1.9 24:1.27 26:1.27 30:1.27 31:0.63 32:0.63 33:1.9 34:0.63 37:0.63 39:1.27 41:1.9 42:3.17 43:0.63 44:5.07 45:31.03 46:402.79 47:117.8 48:15.83 49:1.9 50:1.27 51:1.27 53:1.9 54:0.63 56:1.9 58:0.63 59:0.63 60:1.27 61:0.63 62:0.63 63:1.9 64:0.63 65:1.27 66:12.03 67:36.73 68:50.03 69:5.07 70:0.63 71:1.27 72:0.63 73:1.27 76:0.63 77:0.63 78:0.63 79:1.9 80:0.63 81:1.27 82:1.27 83:8.23 84:6.97 85:3.8 86:0.63 87:1.9 88:0.63 90:1.27 91:0.63 92:0.63 93:0.63 94:3.17 95:1.27 
0.9 3:0.63 6:0.63 15:0.63 16:0.63 17:2.53 18:8.87 19:43.7 20:158.33 21:79.16 22:10.77 23:3.17 24:0.63 25:0.63 26:0.63 27:0.63 28:0.63 31:0.63 33:0.63 34:0.63 36:0.63 39:0.63 41:1.9 42:1.9 43:3.8 44:4.43 45:34.2 46:405.32 47:73.46 48:10.77 49:2.53 50:1.27 51:2.53 52:1.27 53:0.63 54:0.63 55:0.63 56:0.63 58:1.27 59:1.27 62:1.9 63:0.63 64:1.9 65:5.07 66:4.43 67:39.9 68:28.5 69:7.6 70:1.9 71:1.27 73:1.27 74:1.27 76:1.27 78:1.27 79:1.27 80:1.27 81:1.9 82:2.53 83:3.8 84:10.13 85:1.27 86:0.63 88:0.63 90:0.63 91:1.27 92:1.9 93:1.9 94:3.17 95:1.9 96:1.9 97:1.9 
-0.6314840772166157 1:0.63 2:0.63 4:0.63 10:1.89 11:0.63 13:0.63 15:0.63 16:2.52 17:1.89 18:7.55 19:52.23 20:254.88 21:44.05 22:6.92 23:0.63 24:0.63 28:0.63 29:0.63 31:0.63 32:0.63 33:0.63 36:1.26 40:0.63 42:1.89 43:2.52 44:10.07 45:50.35 46:371.93 47:52.23 48:8.81 49:2.52 50:1.26 51:3.15 53:1.26 54:1.26 56:1.89 58:0.63 59:0.63 61:1.26 63:0.63 64:1.26 65:4.41 66:9.44 67:29.58 68:19.51 69:6.92 71:1.26 73:1.26 77:0.63 78:0.63 79:0.63 81:1.89 82:2.52 83:3.78 84:8.81 85:3.15 86:0.63 87:1.26 88:0.63 90:0.63 93:0.63 94:3.15 95:1.89 96:0.63 97:0.63 
0.9 0:2.03 2:0.68 3:0.68 6:0.68 9:0.68 10:0.68 14:0.68 15:0.68 18:0.68 20:2.71 22:2.03 23:6.09 24:27.76 25:188.9 26:86.66 27:12.19 28:3.39 30:1.35 32:0.68 33:0.68 34:0.68 37:1.35 40:0.68 43:2.03 45:1.35 46:2.03 47:2.03 48:7.45 49:26.4 50:372.38 51:98.17 52:10.16 53:3.39 54:1.35 55:1.35 56:1.35 58:0.68 61:0.68 62:0.68 63:0.68 64:0.68 65:0.68 66:1.35 67:2.03 69:0.68 70:23.02 71:42.65 72:16.25 73:0.68 74:0.68 75:2.71 77:1.35 79:1.35 81:1.35 82:2.71 83:1.35 84:2.71 85:5.42 86:2.71 87:2.71 88:0.68 91:0.68 92:2.03 93:1.35 94:2.03 95:2.71 96:1.35 97:1.35 
0.9 0:1.28 3:0.64 5:0.64 7:0.64 9:0.64 20:0.64 21:0.64 22:1.92 23:7.66 24:38.95 25:162.84 26:45.34 27:12.13 28:1.28 29:0.64 30:0.64 31:1.28 32:1.92 33:0.64 40:0.64 41:1.28 42:1.28 43:0.64 44:1.28 45:0.64 46:1.28 47:1.92 48:8.94 49:41.51 50:428.48 51:67.69 52:9.58 53:5.11 54:1.92 55:2.55 56:1.28 59:1.28 60:0.64 65:0.64 67:0.64 68:0.64 69:10.22 70:26.82 71:42.78 72:12.77 73:3.83 74:1.92 76:0.64 77:0.64 78:0.64 79:1.28 80:1.28 84:0.64 85:7.02 86:5.75 87:1.92 88:3.19 89:3.19 90:0.64 91:0.64 92:0.64 93:1.92 94:3.19 95:3.83 96:1.92 97:2.55 
-0.9 3:0.61 4:0.61 6:0.61 16:0.61 20:0.61 21:1.22 22:1.82 23:9.73 24:48.05 25:131.39 26:39.54 27:4.26 28:1.22 29:0.61 30:1.22 31:1.82 32:1.22 33:0.61 34:0.61 35:1.22 43:0.61 44:0.61 45:0.61 46:1.82 47:4.26 48:7.91 49:57.18 50:452.55 51:54.74 52:7.91 53:5.47 58:0.61 60:0.61 62:0.61 63:0.61 64:0.61 66:0.61 67:0.61 68:1.82 69:3.65 70:40.75 71:50.49 72:10.95 73:4.87 75:0.61 76:0.61 80:1.82 81:0.61 82:1.82 83:0.61 84:3.65 85:6.08 86:8.52 87:2.43 88:3.04 89:0.61 90:1.82 91:0.61 92:1.22 93:0.61 94:2.43 95:1.82 96:1.22 97:1.82 
0.9 0:0.63 2:0.63 3:0.63 5:0.63 10:1.25 15:0.63 18:0.63 22:1.88 23:12.52 24:58.23 25:95.18 26:18.16 27:3.76 28:2.5 29:0.63 30:1.25 31:1.25 32:0.63 34:1.25 37:0.63 39:0.63 40:1.25 42:0.63 43:1.25 44:1.25 45:1.25 46:1.88 47:1.25 48:14.4 49:95.8 50:425.8 51:41.33 52:6.26 53:1.25 54:2.5 55:0.63 56:0.63 58:3.13 59:0.63 62:0.63 63:1.25 64:0.63 65:1.25 66:1.25 67:0.63 68:3.13 69:10.64 70:59.49 71:56.98 72:6.26 73:2.5 74:1.25 75:1.88 77:0.63 78:0.63 79:1.25 81:1.25 82:2.5 83:1.25 84:3.76 85:5.01 86:10.64 87:5.01 88:0.63 90:1.25 91:0.63 92:0.63 93:4.38 94:3.13 95:2.5 96:1.25 97:1.25 
-0.9 0:0.63 2:0.63 3:1.26 11:0.63 18:0.63 21:1.89 22:3.78 23:18.25 24:64.19 25:71.11 26:21.4 27:5.66 28:2.52 29:0.63 30:2.52 31:1.26 32:0.63 33:1.89 34:1.26 35:1.26 37:0.63 39:0.63 40:1.26 43:0.63 44:0.63 45:0.63 46:1.89 47:3.78 48:16.99 49:181.25 50:328.51 51:25.17 52:6.92 53:1.89 54:0.63 56:1.26 58:1.26 59:1.26 61:2.52 62:0.63 63:0.63 65:1.26 66:1.26 67:1.89 68:6.92 69:10.7 70:78.04 71:59.16 72:6.29 73:1.26 74:0.63 75:1.26 78:0.63 79:0.63 81:0.63 82:2.52 83:1.26 84:3.15 85:11.96 86:9.44 87:5.03 88:1.89 89:1.89 91:0.63 92:1.89 93:0.63 94:0.63 95:3.15 96:2.52 97:1.89 
-0.6484328624647429 0:0.68 1:0.68 5:0.68 12:0.68 16:0.68 18:1.36 21:4.08 22:3.4 23:27.17 24:55.71 25:46.2 26:10.87 27:4.76 28:2.04 30:0.68 31:0.68 32:0.68 36:0.68 37:0.68 39:0.68 40:1.36 42:2.04 43:0.68 46:2.04 47:5.43 48:21.06 49:249.32 50:257.47 51:25.14 52:4.08 53:5.43 54:2.72 55:1.36 56:0.68 58:0.68 59:1.36 63:1.36 65:1.36 66:0.68 67:2.72 68:3.4 69:16.3 70:112.09 71:55.71 72:8.15 73:2.72 75:1.36 77:1.36 78:0.68 79:0.68 80:0.68 81:0.68 82:1.36 83:0.68 84:4.08 85:14.95 86:7.47 87:1.36 88:0.68 89:0.68 90:2.04 91:3.4 92:1.36 94:4.08 95:2.04 96:0.68 97:1.36 
0.9 4:1.4 5:0.7 6:0.7 10:0.7 17:0.7 18:0.7 21:2.8 22:5.61 23:24.53 24:51.86 25:32.24 26:6.31 27:3.5 30:0.7 31:0.7 32:1.4 33:1.4 37:0.7 39:1.4 41:0.7 42:0.7 43:0.7 44:1.4 45:0.7 46:2.1 47:4.2 48:35.04 49:338.47 50:159.78 51:12.61 52:4.91 53:3.5 54:2.8 56:0.7 58:1.4 63:1.4 64:1.4 65:0.7 66:2.8 67:1.4 68:6.31 69:22.42 70:149.96 71:35.74 72:5.61 73:3.5 74:0.7 75:0.7 76:1.4 81:0.7 82:0.7 83:2.1 84:5.61 85:12.61 86:13.31 87:4.2 88:1.4 90:1.4 91:3.5 92:1.4 93:3.5 94:4.91 95:2.1 96:0.7 
-0.9 1:0.65 4:0.65 5:0.65 7:0.65 9:0.65 11:0.65 13:0.65 16:0.65 19:0.65 21:1.95 22:5.84 23:23.38 24:46.75 25:25.32 26:5.19 27:2.6 28:1.95 29:1.3 30:2.6 31:0.65 32:0.65 33:0.65 34:0.65 36:1.95 40:0.65 41:1.3 42:1.3 43:0.65 44:1.3 45:2.6 46:1.95 47:5.19 48:44.16 49:383.77 50:105.84 51:7.79 52:3.9 53:1.95 54:0.65 55:0.65 58:0.65 59:0.65 60:0.65 62:0.65 63:0.65 65:0.65 66:1.3 68:5.84 69:26.62 70:168.18 71:31.82 72:7.14 73:1.3 74:4.55 75:1.3 76:1.3 78:2.6 80:1.3 81:2.6 82:0.65 83:3.25 84:4.55 85:19.48 86:5.84 88:1.3 90:0.65 91:0.65 92:0.65 93:2.6 94:3.9 95:3.25 96:1.3 97:1.3 
-0.9 1:0.62 11:0.62 14:0.62 15:0.62 17:0.62 18:1.25 19:0.62 20:0.62 21:1.25 22:6.85 23:21.17 24:40.47 25:18.06 26:6.23 27:1.87 28:0.62 31:0.62 32:0.62 33:1.25 35:1.25 40:0.62 42:0.62 43:1.25 44:1.25 45:1.25 46:6.85 47:8.09 48:75.97 49:396.01 50:61.02 51:9.96 52:1.87 53:1.25 54:1.87 55:2.49 56:1.25 58:0.62 59:1.25 60:0.62 61:1.25 63:1.87 64:1.25 65:1.87 66:0.62 67:1.87 68:5.6 69:50.44 70:165.63 71:23.66 72:5.6 73:1.87 74:1.87 75:2.49 76:1.25 80:0.62 81:1.25 82:0.62 83:3.11 84:9.34 85:18.68 86:3.74 87:0.62 88:0.62 89:0.62 90:0.62 91:0.62 92:1.25 93:2.49 94:1.87 95:3.74 96:1.25 97:1.87 
0.2043783267061654 2:0.66 3:0.66 4:0.66 14:0.66 15:0.66 18:0.66 19:1.31 20:0.66 21:1.31 22:9.19 23:36.77 24:38.74 25:13.79 26:3.94 27:0.66 28:1.97 30:1.31 31:0.66 32:1.97 33:0.66 34:0.66 35:1.97 36:1.31 39:0.66 43:0.66 44:0.66 45:3.94 46:2.63 47:13.13 48:102.43 49:329.61 50:40.05 51:2.63 52:1.31 53:1.31 54:0.66 55:0.66 56:1.97 61:0.66 63:0.66 64:1.97 65:1.31 66:0.66 67:3.94 68:10.51 69:82.07 70:161.52 71:23.64 72:4.6 73:2.63 74:1.31 75:2.63 76:3.28 77:1.31 78:3.94 79:1.31 82:1.97 83:3.28 84:9.85 85:17.73 86:11.82 87:2.63 89:0.66 91:0.66 92:1.31 93:3.94 94:5.25 95:4.6 96:1.97 97:3.28 
0.9 1:0.69 9:0.69 16:1.38 18:0.69 19:2.07 20:4.14 21:4.14 22:11.72 23:34.46 24:28.26 25:15.16 26:6.2 27:0.69 28:0.69 30:1.38 31:1.38 32:2.07 33:1.38 34:0.69 35:1.38 37:0.69 39:1.38 40:0.69 41:0.69 43:1.38 44:2.07 45:3.45 46:6.2 47:13.09 48:156.44 49:262.58 50:34.46 51:4.14 52:2.07 53:2.07 54:1.38 58:1.38 60:1.38 61:1.38 63:0.69 64:0.69 65:3.45 67:3.45 68:15.16 69:124.74 70:124.05 71:15.85 72:2.07 73:2.76 74:5.51 75:0.69 76:0.69 77:1.38 78:0.69 79:0.69 81:2.76 82:2.76 83:1.38 84:11.72 85:20.68 86:11.72 87:2.07 88:2.07 89:2.07 90:2.07 91:2.76 92:1.38 93:2.76 94:4.82 95:3.45 96:3.45 97:3.45 
0.5470323848458968 1:1.96 10:0.65 13:1.31 17:0.65 19:1.96 20:0.65 21:3.93 22:18.98 23:34.69 24:21.6 25:8.51 26:1.96 29:1.31 30:1.31 31:1.31 32:0.65 33:0.65 34:1.31 39:0.65 40:0.65 42:1.31 43:0.65 44:1.96 45:0.65 46:5.24 47:24.87 48:220.55 49:198.95 50:17.67 51:6.54 52:2.62 53:1.31 55:1.31 56:0.65 60:0.65 61:1.31 62:1.31 63:0.65 65:0.65 66:1.96 67:5.89 68:20.94 69:170.16 70:115.18 71:9.16 72:2.62 73:3.27 74:0.65 75:0.65 78:0.65 79:1.31 80:0.65 81:0.65 83:4.58 84:10.47 85:28.8 86:9.16 87:0.65 89:0.65 90:0.65 91:3.27 92:2.62 93:3.27 94:5.24 95:1.96 96:0.65 97:0.65 
-0.9 3:0.65 4:0.65 5:0.65 7:0.65 17:0.65 18:0.65 19:1.3 20:4.54 21:7.14 22:20.77 23:34.39 24:15.57 25:5.84 26:1.3 27:1.3 31:0.65 33:0.65 34:1.3 36:0.65 37:0.65 39:0.65 40:3.24 42:1.3 43:3.24 44:1.3 45:2.6 46:3.24 47:27.26 48:291.37 49:119.4 50:16.87 51:7.79 54:0.65 55:0.65 56:1.3 58:1.3 59:1.3 60:0.65 64:1.3 65:1.3 67:3.89 68:25.31 69:221.28 70:86.31 71:6.49 72:3.89 73:0.65 74:3.24 80:1.95 81:1.3 82:0.65 83:3.24 84:15.57 85:18.82 86:3.24 87:1.95 88:1.95 89:1.3 90:1.3 91:0.65 92:1.3 93:2.6 94:1.95 95:2.6 96:1.3 97:0.65 
-0.6028728996451734 2:0.64 11:0.64 12:0.64 17:0.64 19:1.93 20:2.58 21:8.37 22:23.82 23:32.2 24:6.44 25:6.44 26:0.64 29:0.64 35:1.93 36:1.29 39:0.64 40:1.29 42:1.29 43:0.64 44:1.29 45:5.15 46:14.17 47:46.36 48:332.26 49:70.19 50:10.3 51:2.58 52:1.29 53:1.29 56:1.93 58:1.93 59:1.29 60:1.29 61:3.22 62:0.64 63:0.64 64:0.64 65:0.64 66:0.64 67:3.22 68:39.92 69:235.67 70:48.94 71:5.8 72:1.29 73:0.64 74:0.64 75:2.58 76:0.64 80:1.29 81:1.93 82:0.64 83:5.15 84:18.67 85:18.03 86:6.44 87:1.93 88:1.29 89:0.64 90:0.64 92:0.64 93:1.93 94:3.86 95:2.58 96:3.86 97:0.64 
-0.9 1:0.6 2:0.6 3:0.6 10:1.19 11:0.6 12:0.6 17:0.6 18:1.19 19:1.19 20:5.96 21:13.11 22:29.8 23:26.22 24:8.34 25:2.38 26:0.6 27:1.19 28:1.19 31:0.6 32:0.6 33:0.6 34:0.6 36:0.6 37:0.6 39:0.6 40:0.6 41:0.6 42:1.79 43:1.79 44:1.79 45:2.98 46:13.71 47:80.45 48:307.51 49:49.46 50:7.75 51:2.38 52:2.38 53:1.19 54:1.79 55:0.6 56:0.6 58:0.6 61:2.38 62:1.19 63:0.6 64:1.19 65:1.19 66:2.38 67:4.17 68:49.46 69:246.13 70:32.78 71:8.34 72:1.19 73:1.79 74:1.19 76:1.19 77:1.19 78:1.19 80:1.19 81:0.6 82:1.79 83:8.34 84:19.67 85:16.09 86:2.38 87:1.19 88:0.6 90:0.6 91:1.19 93:2.98 94:3.58 95:1.19 96:1.79 97:1.19 
-0.9 2:0.69 10:0.69 11:0.69 14:0.69 16:0.69 18:2.75 19:2.75 20:4.12 21:19.24 22:28.87 23:21.31 24:5.5 25:1.37 26:2.75 27:0.69 28:0.69 30:1.37 32:0.69 33:0.69 35:0.69 36:2.06 37:0.69 39:1.37 40:0.69 41:2.75 42:2.75 43:1.37 44:1.37 45:2.06 46:19.93 47:193.13 48:231.62 49:22.68 50:7.56 51:1.37 52:2.06 53:1.37 54:0.69 55:0.69 58:0.69 61:0.69 62:0.69 63:2.75 64:1.37 65:2.75 66:0.69 67:15.12 68:99.66 69:182.82 70:24.05 71:4.81 72:2.06 73:2.06 74:1.37 75:0.69 78:2.06 79:0.69 80:1.37 82:4.12 83:5.5 84:16.49 85:13.06 86:5.5 87:0.69 88:0.69 90:2.06 91:2.75 93:1.37 94:4.12 95:1.37 96:0.69 97:2.06 
-0.9 0:0.66 1:0.66 5:0.66 10:0.66 12:0.66 15:0.66 18:0.66 19:3.96 20:6.6 21:26.39 22:36.28 23:13.19 24:5.94 25:3.3 26:0.66 27:0.66 28:0.66 30:1.98 31:0.66 32:2.64 33:1.98 36:1.32 39:0.66 41:1.32 42:0.66 43:1.32 44:4.62 45:11.87 46:23.75 47:280.34 48:155.67 49:19.13 50:2.64 51:4.62 52:1.98 53:1.32 54:0.66 55:0.66 56:0.66 60:1.32 61:0.66 62:1.32 63:2.64 64:1.98 65:0.66 66:1.98 67:9.23 68:143.8 69:123.35 70:15.17 71:1.32 72:0.66 73:1.32 75:1.32 79:0.66 80:1.32 81:0.66 82:4.62 83:10.55 84:17.81 85:9.89 86:4.62 87:1.32 90:1.98 91:0.66 92:1.98 93:2.64 94:6.6 95:2.64 96:1.32 97:1.32 
-0.3026397059804961 7:0.66 14:0.66 15:0.66 18:0.66 19:3.3 20:9.23 21:25.73 22:32.98 23:11.21 24:1.98 25:1.98 26:1.32 27:0.66 31:0.66 32:0.66 33:0.66 34:1.32 35:1.32 36:0.66 39:1.98 40:1.98 41:0.66 42:1.98 43:1.32 44:2.64 45:7.26 46:47.49 47:349.6 48:101.58 49:13.19 50:5.28 51:1.32 52:0.66 53:1.98 54:0.66 55:0.66 56:0.66 59:0.66 60:1.98 61:0.66 62:0.66 63:0.66 64:1.32 65:1.98 66:3.96 67:19.13 68:168.87 69:69.92 70:11.87 71:0.66 72:1.32 73:2.64 74:0.66 75:0.66 76:0.66 78:0.66 80:0.66 81:0.66 82:2.64 83:13.85 84:24.41 85:12.53 86:3.3 87:3.3 90:0.66 91:0.66 92:0.66 93:2.64 94:2.64 95:2.64 96:1.98 97:0.66 
-0.9 10:0.63 12:0.63 13:0.63 16:0.63 17:0.63 18:1.88 19:2.51 20:19.47 21:40.83 22:37.69 23:5.65 24:3.14 25:1.26 26:1.26 28:0.63 31:0.63 32:1.26 33:1.26 34:1.88 35:1.26 36:1.26 37:1.26 39:0.63 41:0.63 42:3.14 43:4.4 44:1.26 45:10.05 46:69.72 47:378.14 48:59.05 49:7.54 50:1.88 51:1.88 54:1.26 56:0.63 58:0.63 59:0.63 62:0.63 63:0.63 64:3.77 65:3.14 66:2.51 67:31.41 68:170.85 69:45.23 70:6.91 71:0.63 72:1.26 73:1.88 74:1.26 75:0.63 77:1.26 79:1.88 80:0.63 82:2.51 83:11.31 84:16.33 85:4.4 86:2.51 87:0.63 88:1.26 89:0.63 90:1.26 91:1.26 92:0.63 93:4.4 94:6.91 95:2.51 96:0.63 97:0.63 
-0.9 1:0.64 6:0.64 10:0.64 12:0.64 13:0.64 16:0.64 17:1.28 18:1.91 19:7.02 20:18.49 21:44.01 22:26.79 23:5.1 24:5.1 25:1.28 27:1.28 30:1.28 32:0.64 35:0.64 39:0.64 41:0.64 42:0.64 43:1.91 44:6.38 45:14.03 46:98.21 47:394.77 48:46.56 49:9.57 50:2.55 51:2.55 52:2.55 53:0.64 56:1.28 58:0.64 59:2.55 60:0.64 61:1.28 62:0.64 63:2.55 64:0.64 65:2.55 66:4.46 67:27.42 68:151.79 69:36.35 70:4.46 71:1.28 72:1.28 75:0.64 76:0.64 77:0.64 78:0.64 79:2.55 80:3.83 81:1.28 82:1.28 83:8.93 84:14.03 85:6.38 86:3.83 87:2.55 89:0.64 90:1.91 92:0.64 93:4.46 94:0.64 95:1.28 96:1.28 97:1.91 
-0.2811191693169016 7:0.63 9:0.63 11:0.63 13:0.63 17:0.63 18:1.88 19:7.53 20:32.02 21:56.5 22:24.48 23:5.65 24:1.88 25:1.88 26:0.63 28:0.63 31:0.63 32:0.63 35:0.63 37:1.26 39:0.63 40:2.51 41:1.26 42:3.14 43:1.88 44:3.77 45:17.58 46:168.24 47:343.38 48:27.62 49:5.65 50:2.51 51:1.26 52:1.88 53:0.63 54:0.63 55:1.26 56:1.26 59:0.63 60:1.26 62:0.63 64:2.51 65:0.63 66:7.53 67:45.2 68:128.06 69:18.83 70:5.65 71:1.26 72:4.39 74:3.77 75:0.63 76:1.26 78:1.88 79:1.26 80:1.26 81:1.26 82:0.63 83:8.16 84:13.18 85:2.51 86:3.77 87:0.63 89:1.26 92:2.51 93:0.63 94:5.02 95:3.14 96:1.26 97:5.02 
-0.9 3:0.6 9:0.6 10:0.6 13:0.6 15:0.6 17:2.99 18:7.78 19:35.93 20:125.75 21:43.11 22:5.39 23:1.2 25:1.2 29:0.6 30:0.6 31:0.6 32:0.6 33:0.6 35:0.6 36:1.2 37:1.2 39:1.2 40:1.8 41:1.8 42:1.8 43:1.2 44:7.19 45:44.91 46:453.89 47:69.46 48:4.19 49:3.59 50:1.8 52:0.6 53:1.2 55:0.6 56:0.6 58:2.4 59:1.2 61:0.6 62:0.6 63:1.2 64:2.4 65:0.6 66:10.18 67:64.67 68:40.72 69:5.99 70:1.8 71:2.4 72:0.6 73:0.6 75:2.4 77:2.99 80:0.6 81:1.8 82:3.59 83:2.99 84:7.78 85:2.4 86:1.2 87:1.8 88:0.6 89:1.2 90:0.6 91:0.6 92:1.8 93:0.6 94:1.2 95:1.2 97:0.6 
0.4750740226794789 2:0.64 3:0.64 9:1.28 13:0.64 17:3.83 18:11.49 19:56.19 20:146.87 21:34.48 22:6.39 23:1.92 24:1.28 25:0.64 31:2.55 32:0.64 34:1.28 35:0.64 37:1.92 40:1.28 41:1.92 42:0.64 43:4.47 44:6.39 45:71.52 46:426.56 47:50.45 48:10.22 49:3.83 50:2.55 51:1.28 52:1.28 53:1.92 54:0.64 55:0.64 56:0.64 59:0.64 60:0.64 61:0.64 63:1.28 64:1.92 65:0.64 66:11.49 67:51.72 68:23.63 69:2.55 70:2.55 71:1.92 72:1.28 73:0.64 74:1.28 75:0.64 76:0.64 77:0.64 78:0.64 79:1.28 80:1.92 81:1.92 82:3.19 83:5.11 84:3.83 85:1.28 86:1.28 87:0.64 88:1.28 89:1.28 90:1.28 91:3.19 92:1.92 93:1.92 94:1.92 95:0.64 97:1.28 
0.9 5:0.66 9:0.66 14:0.66 15:0.66 16:1.31 17:0.66 18:10.5 19:96.46 20:177.82 21:25.59 22:3.94 23:3.28 24:0.66 25:0.66 26:0.66 27:0.66 34:1.31 35:1.31 36:0.66 39:1.31 40:0.66 42:1.31 43:2.62 44:7.87 45:113.52 46:363.52 47:30.18 48:4.59 49:4.59 53:1.31 54:0.66 55:1.31 56:0.66 58:0.66 60:0.66 63:1.31 64:1.97 65:3.28 66:19.69 67:39.37 68:24.93 69:3.94 70:1.31 71:0.66 72:1.31 75:1.31 76:0.66 77:0.66 78:1.31 80:0.66 81:1.97 82:0.66 83:9.19 84:4.59 85:2.62 86:1.31 89:1.97 90:0.66 91:0.66 92:0.66 93:3.94 94:3.28 95:1.31 96:0.66 97:0.66 
0.4944601937273573 0:0.71 4:0.71 5:2.86 10:1.43 20:1.43 22:0.71 23:6.43 24:14.29 25:97.86 26:235.71 27:27.86 28:5 29:1.43 30:2.86 31:1.43 32:2.14 33:2.86 37:0.71 40:0.71 41:0.71 42:0.71 45:0.71 47:5 48:2.14 49:11.43 50:173.57 51:244.29 52:18.57 53:5 54:4.29 55:2.14 56:2.14 58:0.71 60:1.43 61:0.71 64:0.71 65:0.71 66:0.71 69:3.57 70:13.57 71:40 72:16.43 73:6.43 74:0.71 75:2.86 79:0.71 80:1.43 81:2.14 82:0.71 83:1.43 84:0.71 85:3.57 86:5.71 87:5.71 88:0.71 89:1.43 91:2.14 92:0.71 93:0.71 94:2.14 95:2.14 96:0.71 97:0.71 
-0.5950630234852716 0:1.35 4:1.35 12:0.67 20:0.67 23:3.36 24:18.17 25:123.82 26:157.47 27:23.55 28:3.36 29:0.67 30:4.04 31:2.69 32:0.67 34:1.35 35:0.67 37:2.02 40:0.67 41:0.67 42:0.67 44:0.67 46:0.67 47:0.67 48:2.69 49:18.17 50:261.78 51:193.81 52:15.48 53:6.06 54:2.02 55:0.67 58:0.67 59:0.67 62:0.67 65:2.02 66:0.67 67:2.02 68:0.67 69:0.67 70:23.55 71:53.16 72:20.19 73:5.38 74:0.67 75:2.02 76:2.02 79:0.67 80:0.67 81:0.67 82:0.67 83:1.35 84:2.69 85:4.04 86:4.71 87:4.71 88:1.35 89:0.67 92:0.67 93:3.36 94:0.67 95:4.04 96:2.02 97:1.35 
-0.7103426978903215 0:0.68 1:1.36 14:0.68 15:0.68 16:0.68 18:0.68 20:0.68 21:1.36 22:2.72 23:7.47 24:21.72 25:120.16 26:95.72 27:8.15 28:2.72 29:1.36 30:2.72 33:2.04 34:0.68 35:0.68 39:1.36 40:0.68 41:0.68 43:0.68 44:2.04 46:2.04 47:2.04 48:2.72 49:21.72 50:368.64 51:150.03 52:14.26 53:6.79 54:2.72 55:2.72 58:0.68 60:1.36 61:0.68 62:0.68 63:0.68 65:0.68 66:0.68 67:2.72 68:1.36 69:4.07 70:20.37 71:55.67 72:10.86 73:4.07 74:0.68 75:1.36 77:0.68 78:1.36 80:0.68 81:1.36 82:0.68 83:1.36 84:3.39 85:6.11 86:8.83 87:3.39 88:1.36 89:1.36 90:2.72 91:0.68 92:0.68 93:2.04 94:0.68 95:2.04 96:2.04 
-0.9 0:1.88 2:1.88 12:0.63 18:0.63 20:1.25 21:2.51 22:1.25 23:6.89 24:28.82 25:86.47 26:36.97 27:7.52 28:4.39 30:1.25 31:0.63 32:0.63 33:1.25 34:2.51 35:0.63 41:0.63 42:0.63 44:2.51 45:0.63 46:2.51 47:3.13 48:11.9 49:55.76 50:472.43 51:63.28 52:9.4 53:1.88 54:0.63 56:0.63 58:0.63 59:1.88 61:0.63 62:0.63 63:1.88 64:0.63 65:0.63 66:0.63 68:3.76 69:1.88 70:36.97 71:72.06 72:9.4 73:2.51 74:1.25 75:0.63 77:0.63 82:1.25 83:0.63 84:3.13 85:13.78 86:11.9 87:6.27 88:1.25 89:1.25 90:0.63 91:1.25 92:1.88 93:1.88 94:1.88 95:1.25 97:1.25 
0.491743568074178 0:1.94 1:1.29 3:0.65 7:0.65 12:0.65 13:0.65 20:0.65 21:1.29 22:3.87 23:7.74 24:30.32 25:56.13 26:25.81 27:7.74 28:0.65 29:1.29 30:0.65 32:2.58 34:0.65 36:0.65 40:1.29 42:0.65 43:1.29 44:0.65 46:1.29 47:3.87 48:9.03 49:86.45 50:441.29 51:48.39 52:6.45 53:1.94 54:0.65 55:1.29 56:1.29 58:0.65 60:1.94 61:0.65 62:0.65 63:1.29 64:0.65 66:0.65 67:0.65 68:1.94 69:3.87 70:63.87 71:98.71 72:14.19 73:5.16 74:4.52 75:1.29 76:1.29 78:1.29 79:0.65 80:1.94 81:0.65 82:0.65 83:0.65 84:3.87 85:5.81 86:11.61 87:1.29 88:1.29 89:0.65 91:1.94 92:1.29 93:2.58 94:5.16 95:3.23 96:0.65 97:1.29 
0.9 1:0.69 3:0.69 7:0.69 11:0.69 17:0.69 19:0.69 21:1.37 22:2.06 23:9.62 24:33.65 25:45.33 26:13.05 27:4.81 28:2.75 29:0.69 30:1.37 31:2.75 32:0.69 33:0.69 37:0.69 39:0.69 40:1.37 41:1.37 42:0.69 43:1.37 45:0.69 46:2.75 47:4.12 48:9.62 49:142.17 50:377.06 51:25.41 52:7.55 53:2.75 54:2.75 55:1.37 56:0.69 58:1.37 61:1.37 65:2.06 67:1.37 68:5.49 69:12.36 70:90.66 71:92.72 72:9.62 73:2.06 74:2.06 75:2.06 76:1.37 77:1.37 78:2.06 80:1.37 82:2.06 83:2.06 84:6.87 85:16.48 86:16.48 87:4.81 88:2.75 91:2.06 92:0.69 93:0.69 94:0.69 95:3.43 96:2.75 97:2.75 
-0.9 4:1.37 5:0.68 13:0.68 18:0.68 20:0.68 21:0.68 22:5.46 23:21.16 24:33.45 25:34.13 26:14.33 27:2.73 28:1.37 29:0.68 30:2.73 31:2.73 32:0.68 33:1.37 34:1.37 36:0.68 37:1.37 39:1.37 41:1.37 43:0.68 45:1.37 47:2.05 48:22.53 49:210.24 50:281.91 51:30.72 52:6.14 53:2.05 56:0.68 58:0.68 59:1.37 61:0.68 62:0.68 63:2.05 66:0.68 67:2.05 68:2.73 69:17.75 70:147.44 71:64.16 72:8.19 73:3.41 74:3.41 75:0.68 76:0.68 77:0.68 78:2.05 79:1.37 80:0.68 81:1.37 83:3.41 84:4.1 85:17.06 86:6.14 87:3.41 88:2.05 89:0.68 90:0.68 91:0.68 92:1.37 94:0.68 95:2.73 96:2.73 97:1.37 
0.8813824713088375 0:0.67 2:0.67 14:0.67 18:0.67 20:0.67 21:0.67 22:4.69 23:14.06 24:36.14 25:30.12 26:12.72 28:2.01 29:0.67 31:1.34 32:0.67 33:0.67 36:0.67 39:3.35 40:0.67 41:0.67 42:1.34 43:1.34 44:1.34 45:4.02 46:1.34 47:8.7 48:23.43 49:273.76 50:148.59 51:16.73 52:2.68 53:0.67 54:0.67 55:1.34 56:1.34 58:0.67 59:1.34 61:1.34 62:0.67 64:1.34 65:2.01 66:1.34 67:2.68 68:2.68 69:23.43 70:208.17 71:65.6 72:9.37 73:2.01 75:2.01 76:2.01 77:2.01 79:1.34 80:2.01 82:0.67 83:3.35 84:2.01 85:20.08 86:16.73 87:4.02 88:0.67 89:0.67 90:0.67 92:2.68 93:4.02 94:5.35 95:4.69 96:2.01 97:0.67 
-0.9 1:0.65 2:0.65 5:0.65 9:0.65 12:0.65 17:0.65 18:0.65 20:0.65 21:3.88 22:5.17 23:19.4 24:31.05 25:21.99 26:9.7 27:1.29 28:1.29 29:0.65 30:1.94 32:0.65 33:1.94 34:1.29 37:0.65 39:0.65 40:0.65 41:1.29 42:1.29 43:0.65 44:1.94 45:1.29 46:1.94 47:7.76 48:32.99 49:304.66 50:95.73 51:11 52:3.88 53:2.59 54:1.94 55:1.29 58:1.29 59:1.94 62:1.94 63:1.29 64:0.65 66:1.94 67:2.59 68:4.53 69:45.28 70:236.74 71:46.57 72:5.82 73:2.59 74:0.65 75:1.29 78:1.29 79:0.65 82:1.29 83:2.59 84:3.23 85:23.29 86:14.88 87:5.17 88:0.65 89:1.29 90:1.29 91:2.59 93:1.29 94:2.59 95:3.23 96:0.65 97:1.29 
0.9 2:0.65 3:0.65 7:0.65 9:0.65 14:0.65 18:0.65 20:0.65 21:4.52 22:5.16 23:21.94 24:22.58 25:17.42 26:7.74 27:2.58 28:1.29 30:1.29 31:1.94 33:0.65 35:1.29 36:1.29 37:0.65 40:1.94 43:2.58 44:1.29 45:0.65 46:3.87 47:9.03 48:62.58 49:266.45 50:62.58 51:8.39 52:3.87 53:1.94 54:1.29 55:0.65 56:1.29 59:1.29 60:0.65 61:1.29 62:0.65 63:0.65 65:0.65 66:1.29 67:1.94 68:7.1 69:57.42 70:285.81 71:35.48 72:6.45 73:1.29 74:1.94 75:0.65 78:2.58 81:0.65 82:1.29 83:1.94 84:7.74 85:21.29 86:9.68 87:1.29 88:1.29 89:1.94 90:0.65 91:1.29 92:2.58 93:3.87 94:3.23 95:7.1 96:0.65 97:3.23 
0.9 0:0.67 1:0.67 3:0.67 10:0.67 13:0.67 17:0.67 19:0.67 20:1.35 21:6.06 22:8.08 23:18.17 24:20.86 25:7.4 26:1.35 27:3.36 28:1.35 29:0.67 30:2.02 32:1.35 33:0.67 35:0.67 36:0.67 39:2.02 41:1.35 42:0.67 43:0.67 45:0.67 46:8.08 47:14.13 48:86.81 49:243.61 50:44.41 51:9.42 52:3.36 54:4.04 55:1.35 56:0.67 58:0.67 61:0.67 63:0.67 64:2.02 65:0.67 66:1.35 67:2.69 68:8.75 69:97.58 70:259.76 71:24.9 72:4.71 73:1.35 74:2.02 75:3.36 77:2.02 78:0.67 79:2.69 80:1.35 81:0.67 83:3.36 84:14.8 85:28.26 86:8.75 87:5.38 88:2.02 89:2.02 90:1.35 92:1.35 93:2.69 94:6.73 95:2.69 96:1.35 97:0.67 
0.2525205028796333 3:1.33 4:0.67 5:0.67 14:0.67 16:0.67 17:0.67 19:1.33 20:2 21:3.33 22:12.64 23:17.96 24:19.96 25:9.98 26:2.66 27:1.33 30:2 31:0.67 33:2 34:1.33 40:1.33 42:2 44:2.66 45:2 46:4.66 47:20.63 48:97.8 49:222.22 50:28.61 51:6.65 52:5.32 53:1.33 54:2 55:0.67 58:0.67 59:0.67 61:2 63:0.67 64:1.33 65:1.33 66:3.33 67:4.66 68:15.3 69:161.68 70:208.92 71:19.96 72:4.66 73:2 74:2 75:0.67 77:1.33 79:0.67 80:2 81:0.67 82:0.67 83:2 84:19.29 85:36.59 86:6.65 87:2.66 88:0.67 89:2 91:2 92:1.33 93:0.67 94:2.66 95:3.99 96:2.66 97:2 
-0.9 6:1.34 9:0.67 13:0.67 15:0.67 17:0.67 18:0.67 19:1.34 20:1.34 21:4.7 22:16.11 23:21.48 24:16.78 25:8.72 26:2.01 27:0.67 28:0.67 29:1.34 30:2.01 31:3.36 33:0.67 34:2.01 35:3.36 36:1.34 39:0.67 40:3.36 41:1.34 43:0.67 44:1.34 45:2.01 46:5.37 47:23.49 48:157.05 49:149.66 50:18.79 51:6.04 52:4.03 53:0.67 54:1.34 55:2.01 59:0.67 60:0.67 62:0.67 63:1.34 64:1.34 65:0.67 66:2.68 67:3.36 68:18.12 69:229.53 70:151.68 71:14.77 72:4.7 73:2.68 74:0.67 75:0.67 77:1.34 78:0.67 79:3.36 80:2.01 81:1.34 82:3.36 83:2.68 84:20.81 85:33.56 86:9.4 87:2.68 88:0.67 90:0.67 91:1.34 93:2.01 94:4.03 95:3.36 96:1.34 97:0.67 
0.9 3:0.66 15:0.66 20:1.99 21:5.31 22:15.25 23:22.55 24:11.94 25:7.29 26:0.66 27:1.33 28:1.33 29:0.66 31:1.33 32:1.33 33:0.66 36:0.66 37:0.66 39:0.66 40:1.33 41:0.66 42:1.33 43:0.66 44:1.33 45:1.99 46:9.28 47:26.53 48:185.01 49:88.86 50:13.26 51:3.98 52:0.66 53:1.33 54:1.33 55:1.99 56:1.33 59:1.33 64:1.33 65:0.66 66:0.66 67:5.31 68:29.84 69:321.62 70:110.74 71:7.29 72:2.65 73:1.99 74:0.66 75:0.66 76:0.66 77:1.99 80:0.66 81:1.33 82:1.99 83:7.29 84:23.87 85:31.17 86:5.97 87:1.99 88:2.65 89:0.66 92:0.66 93:4.64 94:7.29 95:3.32 96:0.66 97:2.65 
0.9 0:0.61 2:1.23 3:0.61 15:0.61 16:0.61 20:4.92 21:11.68 22:17.21 23:15.37 24:7.38 25:4.92 26:1.23 27:2.46 29:0.61 30:1.23 31:1.84 32:1.84 33:0.61 34:0.61 35:0.61 36:0.61 37:0.61 39:0.61 41:0.61 42:1.84 43:1.84 44:3.69 45:2.46 46:9.83 47:42.41 48:210.2 49:67.61 50:9.83 51:2.46 52:1.23 53:1.23 54:1.23 55:1.84 58:0.61 59:1.23 60:0.61 62:1.23 64:1.84 65:1.84 66:1.84 67:4.3 68:37.49 69:341.73 70:62.08 71:5.53 72:1.84 73:1.23 74:1.23 75:1.23 76:1.23 78:0.61 80:4.3 82:2.46 83:4.92 84:25.2 85:29.5 86:4.92 87:1.84 88:1.84 89:1.84 91:1.84 92:1.23 93:1.84 94:4.3 95:3.07 96:3.69 97:3.07 
0.9 0:1.26 1:0.63 4:0.63 6:0.63 11:0.63 13:0.63 17:0.63 19:0.63 21:7.56 22:22.67 23:18.26 24:9.45 25:3.78 30:0.63 33:0.63 34:1.26 36:0.63 39:0.63 40:0.63 44:1.89 45:1.26 46:7.56 47:57.3 48:207.81 49:37.15 50:6.93 51:3.78 52:1.89 53:1.26 54:0.63 55:1.26 56:1.26 59:0.63 60:0.63 62:0.63 63:0.63 64:0.63 65:3.78 66:4.41 67:7.56 68:62.34 69:349.5 70:47.23 71:7.56 72:1.89 73:1.89 74:1.89 76:0.63 77:0.63 78:1.26 79:1.89 80:0.63 81:3.78 82:1.26 83:5.04 84:32.12 85:26.45 86:3.78 87:0.63 88:1.26 89:1.89 91:3.15 92:1.26 93:3.78 94:8.19 95:4.41 96:1.89 97:3.15 
0.9 10:0.65 19:1.95 20:1.95 21:14.93 22:16.87 23:14.93 24:7.14 25:1.95 27:0.65 28:0.65 30:1.3 32:0.65 33:1.95 36:0.65 37:0.65 39:1.3 40:1.3 41:1.3 42:1.3 43:1.95 44:0.65 45:5.84 46:13.63 47:104.48 48:166.77 49:31.8 50:3.89 51:3.89 52:1.3 53:0.65 55:1.95 58:0.65 59:3.24 60:0.65 62:0.65 63:1.95 64:1.3 65:3.24 66:6.49 67:12.33 68:98.64 69:321.22 70:26.61 71:4.54 72:2.6 73:2.6 74:1.3 75:1.95 76:1.95 77:1.3 78:0.65 79:0.65 80:0.65 81:1.95 82:2.6 83:7.14 84:38.94 85:20.12 86:4.54 87:1.3 88:1.3 90:1.95 91:1.95 93:2.6 94:7.14 95:3.24 97:1.3 
0.9 3:0.71 16:2.12 17:0.71 18:1.42 19:2.12 20:3.54 21:12.74 22:27.6 23:12.74 24:4.95 25:2.12 26:0.71 27:1.42 28:0.71 30:1.42 31:0.71 32:2.12 36:0.71 37:0.71 39:2.12 40:1.42 42:2.12 43:4.25 44:2.83 45:7.08 46:25.48 47:139.42 48:139.42 49:19.82 50:8.49 52:2.12 54:2.12 55:0.71 56:0.71 58:0.71 61:0.71 62:2.12 65:1.42 66:2.83 67:7.78 68:155.7 69:239.92 70:24.77 71:4.25 72:3.54 73:2.83 74:2.12 77:1.42 78:0.71 79:2.12 80:0.71 81:1.42 82:2.12 83:7.78 84:46 85:26.89 86:5.66 87:0.71 88:2.12 89:1.42 91:0.71 92:0.71 93:3.54 94:3.54 95:2.12 96:3.54 97:0.71 
0.6004467686535123 3:0.67 10:0.67 14:1.33 16:0.67 17:2 19:3.34 20:8.67 21:19.35 22:20.68 23:8.67 24:5.34 25:0.67 26:1.33 28:1.33 29:2.67 30:2 34:1.33 35:2 36:0.67 37:1.33 39:0.67 41:1.33 42:1.33 43:0.67 44:5.34 45:6.67 46:34.02 47:192.13 48:116.74 49:17.34 50:3.34 51:3.34 52:1.33 53:0.67 54:1.33 55:1.33 56:0.67 58:0.67 61:1.33 62:2 63:0.67 64:1.33 65:3.34 66:3.34 67:14.68 68:214.81 69:170.11 70:16.01 71:3.34 72:2.67 74:0.67 75:1.33 76:1.33 79:1.33 80:0.67 81:1.33 82:2 83:11.34 84:32.69 85:12.01 86:5.34 87:1.33 88:0.67 89:1.33 90:2 93:2.67 94:6.67 95:4 96:2.67 97:1.33 
-0.9 9:0.65 13:0.65 18:3.91 19:3.91 20:11.73 21:20.85 22:22.8 23:7.17 24:3.26 25:1.95 26:0.65 30:0.65 31:1.95 34:1.3 35:0.65 39:0.65 40:0.65 41:1.3 42:0.65 43:2.61 44:2.61 45:6.51 46:46.91 47:277.52 48:78.18 49:12.38 50:4.56 51:1.3 52:1.3 53:0.65 54:0.65 55:0.65 56:1.3 58:0.65 59:0.65 60:0.65 61:1.3 62:1.3 63:1.3 64:1.3 65:1.95 66:5.21 67:22.15 68:245.6 69:105.54 70:8.47 71:0.65 72:0.65 73:1.3 74:1.95 75:0.65 76:0.65 78:1.3 79:1.95 80:1.3 81:1.3 82:2.61 83:9.12 84:28.66 85:9.77 86:2.61 87:1.95 88:1.3 89:2.61 90:0.65 92:0.65 93:0.65 94:5.21 95:1.95 97:1.95 
0.9 1:0.66 4:0.66 7:0.66 14:0.66 17:1.31 18:2.63 19:2.63 20:12.48 21:30.22 22:11.17 23:5.91 24:1.31 26:0.66 31:0.66 32:1.31 35:0.66 36:0.66 37:2.63 39:0.66 40:0.66 41:1.97 42:0.66 43:0.66 44:5.91 45:5.91 46:72.27 47:275.3 48:53.88 49:9.86 50:3.94 51:1.31 52:1.31 53:1.97 55:0.66 58:0.66 59:1.31 61:1.31 62:0.66 63:3.29 64:1.31 65:3.94 66:6.57 67:29.57 68:275.3 69:64.39 70:3.94 71:1.97 72:1.31 73:1.31 74:2.63 75:1.97 76:0.66 77:0.66 78:0.66 79:0.66 80:0.66 81:3.29 82:3.29 83:9.86 84:20.37 85:7.88 86:3.94 87:3.94 88:0.66 89:1.97 90:1.97 91:0.66 92:1.97 93:5.91 94:6.57 95:3.29 96:3.94 97:1.97 
-0.8718287485699709 0:1.33 1:0.67 11:0.67 15:0.67 17:2.66 18:3.33 19:6.66 20:23.32 21:28.65 22:12.66 23:6 24:1.33 25:0.67 27:0.67 28:0.67 30:0.67 31:1.33 32:1.33 36:1.33 37:0.67 40:1.33 42:2 43:2.66 44:6 45:13.32 46:105.26 47:287.14 48:39.97 49:11.33 50:3.33 51:1.33 52:0.67 53:1.33 54:2 55:0.67 59:0.67 61:1.33 63:1.33 64:2.66 65:2 66:5.33 67:50.63 68:254.5 69:35.98 70:6 71:2 72:2 73:1.33 75:1.33 80:0.67 81:0.67 82:2 83:14.66 84:14.66 85:5.33 86:2.66 87:1.33 88:2.66 89:0.67 90:2 92:3.33 93:3.33 94:1.33 95:1.33 96:0.67 97:2 
0.9 0:0.68 6:0.68 11:0.68 12:0.68 17:1.36 19:5.44 20:25.85 21:27.21 22:14.97 23:6.12 24:2.04 28:2.72 29:0.68 31:0.68 32:0.68 33:1.36 34:0.68 36:0.68 37:0.68 39:1.36 40:0.68 41:1.36 42:1.36 44:5.44 45:22.45 46:172.11 47:268.71 48:27.21 49:5.44 50:1.36 51:3.4 52:1.36 54:2.04 55:1.36 56:0.68 58:0.68 59:1.36 61:2.04 62:1.36 64:1.36 65:2.72 66:9.52 67:54.42 68:195.92 69:32.65 70:4.76 71:2.04 72:2.04 73:1.36 74:0.68 76:0.68 77:0.68 79:1.36 80:0.68 81:2.72 82:6.12 83:19.05 84:16.33 85:6.8 86:1.36 87:2.04 88:2.72 90:0.68 91:0.68 92:1.36 93:2.72 94:3.4 95:3.4 96:2.04 97:2.04 
0.9 13:1.34 14:0.67 15:0.67 16:1.34 17:1.34 18:4.02 19:12.07 20:44.94 21:38.9 22:6.71 23:4.02 24:1.34 25:1.34 27:0.67 30:1.34 33:0.67 34:1.34 35:0.67 36:0.67 37:1.34 39:0.67 40:0.67 43:0.67 44:5.37 45:30.85 46:392.35 47:122.74 48:20.12 49:7.38 50:5.37 51:1.34 53:2.01 54:0.67 55:0.67 56:0.67 62:2.01 63:1.34 64:2.01 65:0.67 66:10.73 67:77.13 68:102.62 69:13.41 70:4.69 71:0.67 72:1.34 73:0.67 74:0.67 75:0.67 77:0.67 78:0.67 80:0.67 81:1.34 82:4.02 83:14.76 84:12.74 85:4.69 86:3.35 87:0.67 88:0.67 89:1.34 90:0.67 91:0.67 92:3.35 93:3.35 94:3.35 95:5.37 97:2.01 
-0.7586240268852515 2:0.62 5:0.62 6:0.62 10:0.62 13:0.62 16:0.62 17:2.47 18:5.56 19:18.53 20:63.62 21:33.97 22:9.88 23:4.32 25:0.62 26:1.85 27:1.24 30:0.62 31:0.62 32:0.62 33:0.62 34:0.62 36:0.62 37:0.62 40:1.24 41:0.62 42:1.85 43:3.09 44:5.56 45:50.65 46:448.42 47:92.65 48:7.41 49:2.47 50:2.47 51:3.09 52:1.85 54:0.62 55:1.24 56:0.62 58:0.62 59:1.24 60:0.62 61:0.62 62:0.62 63:1.24 64:1.85 65:3.71 66:14.82 67:71.65 68:61.77 69:11.74 70:4.32 71:0.62 72:0.62 74:0.62 75:0.62 76:1.85 77:0.62 79:0.62 80:1.24 81:0.62 82:4.32 83:10.5 84:8.03 85:4.32 86:0.62 87:1.24 89:0.62 90:1.24 91:1.24 92:1.24 93:2.47 94:4.32 95:0.62 96:1.85 97:1.24 
0.9 16:1.78 17:0.59 18:5.33 19:34.93 20:81.71 21:24.87 22:4.14 23:2.96 24:1.18 25:0.59 30:0.59 32:1.78 33:0.59 34:1.18 35:1.18 36:1.18 37:1.18 39:1.18 40:1.18 41:0.59 42:0.59 43:2.37 44:10.66 45:69.27 46:468.92 47:60.39 48:7.7 49:4.14 50:1.78 51:1.78 52:1.78 53:1.78 54:1.78 55:1.18 58:0.59 59:1.78 60:0.59 61:0.59 62:1.18 63:0.59 64:1.18 65:2.37 66:11.25 67:73.42 68:33.75 69:10.07 70:1.18 71:3.55 72:0.59 73:0.59 74:1.18 75:1.18 76:0.59 78:0.59 79:1.18 80:0.59 81:2.37 82:4.74 83:10.07 84:10.66 85:3.55 86:1.78 88:0.59 89:1.78 90:0.59 91:0.59 92:2.96 93:1.78 94:1.78 95:2.37 96:1.18 97:1.78 
-0.9 2:1.25 5:1.25 15:1.25 16:1.25 17:2.5 18:12.51 19:52.53 20:106.32 21:31.27 22:4.38 23:2.5 24:1.25 25:1.25 30:1.25 31:1.25 32:0.63 33:1.25 35:0.63 37:1.25 42:0.63 43:5 44:11.88 45:108.19 46:417.14 47:33.15 48:1.25 49:5 50:1.25 51:1.88 52:0.63 53:1.25 55:0.63 56:0.63 58:1.25 59:1.25 61:1.88 62:1.88 63:0.63 64:3.13 65:1.25 66:18.76 67:66.29 68:34.4 69:1.88 70:1.25 71:1.25 75:0.63 77:0.63 78:1.25 79:0.63 80:0.63 81:1.88 82:6.25 83:11.88 84:8.13 85:3.13 86:0.63 87:1.88 89:0.63 90:0.63 91:1.25 92:1.25 93:3.75 94:1.88 95:1.88 97:1.88 
0.9 0:0.65 11:0.65 14:0.65 15:1.31 16:0.65 17:1.96 18:12.41 19:74.46 20:113 21:22.86 22:6.53 23:1.96 26:0.65 28:1.31 30:0.65 32:1.31 33:0.65 34:1.31 35:0.65 39:0.65 41:0.65 42:1.31 43:3.92 44:18.29 45:146.31 46:371 47:34.62 48:7.18 49:0.65 50:1.31 51:0.65 52:0.65 53:0.65 54:0.65 55:1.96 56:0.65 58:1.31 59:0.65 60:2.61 61:1.31 62:1.96 63:2.61 64:1.31 65:3.92 66:16.98 67:43.11 68:26.13 69:4.57 70:1.31 71:1.31 73:1.96 74:2.61 75:0.65 76:1.31 77:0.65 78:0.65 79:1.96 80:1.31 81:2.61 82:3.92 83:11.76 84:7.18 85:1.31 86:2.61 87:0.65 88:1.96 89:1.31 90:1.31 91:1.31 92:0.65 93:5.88 94:0.65 95:0.65 96:1.31 
-0.3817957525378606 7:0.69 12:0.69 16:2.77 17:2.08 18:31.88 19:226.61 20:117.12 21:11.78 22:2.77 23:0.69 24:0.69 25:2.08 26:0.69 34:1.39 35:0.69 36:0.69 37:0.69 39:2.08 41:2.77 42:4.85 43:4.85 44:20.1 45:252.25 46:170.48 47:14.55 48:1.39 49:2.08 50:1.39 53:0.69 56:0.69 58:0.69 59:0.69 61:0.69 62:1.39 63:0.69 64:0.69 65:5.54 66:22.18 67:25.64 68:13.17 69:0.69 70:2.08 71:1.39 72:0.69 73:2.77 74:2.08 76:1.39 77:0.69 79:0.69 81:2.77 82:6.24 83:8.32 84:1.39 85:2.77 87:0.69 88:0.69 89:0.69 90:0.69 91:0.69 92:3.47 93:1.39 94:2.08 95:0.69 96:1.39 
-0.06969820577874916 0:1.34 2:0.67 14:0.67 17:0.67 18:0.67 19:1.34 21:0.67 22:1.34 23:0.67 24:6.69 25:61.54 26:250.17 27:44.82 28:6.02 29:0.67 30:0.67 31:2.01 33:1.34 35:0.67 36:0.67 37:2.01 42:1.34 43:1.34 44:2.01 45:0.67 46:0.67 47:0.67 48:2.68 49:10.03 50:99.67 51:328.43 52:28.76 53:6.69 54:2.01 55:2.01 56:0.67 59:0.67 60:1.34 61:1.34 63:0.67 66:0.67 67:3.34 68:0.67 69:1.34 70:10.03 71:34.11 72:36.12 73:5.35 74:2.68 76:0.67 77:0.67 78:0.67 79:0.67 80:0.67 81:1.34 83:1.34 84:1.34 85:2.68 86:5.35 87:2.01 88:1.34 89:0.67 91:1.34 92:0.67 93:2.01 94:0.67 95:3.34 96:0.67 97:0.67 
0.9 0:0.68 1:0.68 2:0.68 4:0.68 5:0.68 17:0.68 19:1.37 21:0.68 22:1.37 23:2.74 24:10.27 25:49.97 26:176.59 27:35.59 28:3.42 29:1.37 30:3.42 31:0.68 35:1.37 36:0.68 37:0.68 39:2.74 40:0.68 41:0.68 44:0.68 45:1.37 46:1.37 47:1.37 48:4.79 49:17.11 50:142.37 51:338.12 52:28.06 53:2.05 55:1.37 56:1.37 59:2.05 62:1.37 64:1.37 65:2.74 66:2.05 67:0.68 68:2.05 69:3.42 70:13.69 71:56.81 72:28.75 73:4.79 74:0.68 75:1.37 76:1.37 77:1.37 78:0.68 80:2.05 81:1.37 83:1.37 84:0.68 85:5.48 86:6.16 87:2.74 88:2.05 89:0.68 92:1.37 93:1.37 94:2.74 95:4.79 96:2.05 97:1.37 
-0.07879138194839339 0:0.69 1:0.69 9:0.69 10:0.69 12:0.69 19:0.69 21:0.69 22:1.38 23:1.38 24:12.45 25:74.69 26:120.33 27:28.35 28:2.77 29:1.38 30:1.38 32:2.07 33:2.07 34:1.38 37:1.38 40:1.38 41:0.69 43:1.38 45:1.38 46:1.38 47:2.77 48:7.61 49:25.59 50:230.29 51:277.32 52:15.91 53:4.84 54:1.38 55:1.38 56:1.38 58:0.69 59:0.69 60:1.38 61:1.38 63:0.69 64:1.38 65:1.38 66:0.69 68:1.38 69:3.46 70:18.67 71:61.55 72:31.81 73:2.77 74:2.07 75:1.38 78:1.38 80:0.69 81:2.07 82:1.38 83:0.69 85:4.84 86:10.37 87:1.38 88:3.46 89:1.38 91:0.69 92:4.15 93:1.38 94:0.69 95:0.69 96:2.07 97:0.69 
0.5214986970001033 0:1.35 5:0.68 17:0.68 21:0.68 22:2.7 23:3.38 24:16.89 25:68.92 26:79.73 27:18.24 28:4.73 29:0.68 30:1.35 31:0.68 32:2.03 34:0.68 37:0.68 39:2.03 40:1.35 42:3.38 43:0.68 44:1.35 46:0.68 47:4.73 48:4.73 49:24.32 50:312.84 51:214.86 52:20.27 53:4.73 54:1.35 55:2.03 56:1.35 58:1.35 59:2.03 60:0.68 61:0.68 62:0.68 64:0.68 65:0.68 67:2.7 68:2.7 69:7.43 70:22.97 71:69.59 72:20.95 73:5.41 74:1.35 75:1.35 76:2.7 78:0.68 79:0.68 80:1.35 81:0.68 82:0.68 83:3.38 84:2.03 85:12.16 86:11.49 87:2.7 88:2.03 89:2.03 90:0.68 91:0.68 92:0.68 93:2.03 94:1.35 95:2.7 96:2.7 97:0.68 
0.9 0:0.64 1:0.64 3:0.64 16:0.64 17:0.64 21:0.64 22:2.56 23:7.68 24:13.44 25:56.98 26:51.22 27:10.24 28:3.84 29:0.64 30:3.2 32:0.64 35:0.64 36:1.28 41:0.64 42:1.92 43:1.28 44:0.64 45:0.64 46:1.92 47:2.56 48:10.88 49:28.81 50:406.53 51:128.04 52:16.01 53:1.92 54:1.92 55:1.92 56:0.64 59:0.64 62:2.56 63:0.64 64:0.64 65:1.92 66:1.28 67:2.56 68:3.84 69:5.76 70:27.53 71:104.35 72:21.77 73:5.76 74:1.92 75:2.56 76:1.92 77:1.28 78:1.92 79:0.64 80:0.64 81:3.2 82:0.64 83:0.64 84:2.56 85:6.4 86:10.88 87:5.12 88:0.64 89:1.28 90:2.56 91:1.28 93:1.92 94:3.84 95:2.56 96:1.28 97:2.56 
0.9 0:0.61 7:0.61 16:0.61 20:1.21 21:1.21 22:3.04 23:6.68 24:21.86 25:46.14 26:29.14 27:7.29 28:3.64 29:1.82 30:3.64 31:1.21 33:0.61 34:0.61 35:1.21 36:2.43 39:1.21 40:0.61 41:1.82 42:1.82 43:1.21 45:0.61 46:1.21 47:0.61 48:8.5 49:44.32 50:425.02 51:85 52:11.54 53:3.64 54:1.82 56:1.21 58:1.21 60:0.61 62:0.61 63:0.61 64:0.61 65:0.61 66:0.61 67:0.61 68:2.43 69:9.71 70:60.72 71:120.22 72:15.18 73:3.04 74:3.04 76:0.61 77:1.21 78:1.21 79:1.21 80:0.61 81:0.61 84:3.64 85:5.46 86:15.18 87:7.29 88:3.04 89:2.43 90:0.61 91:0.61 92:0.61 93:3.04 94:2.43 95:4.25 96:1.82 97:0.61 
-0.9 4:0.64 5:1.27 9:1.27 11:0.64 12:0.64 21:2.54 22:2.54 23:5.72 24:26.06 25:43.23 26:17.16 27:3.81 28:1.27 29:1.27 30:3.81 31:0.64 32:0.64 33:0.64 35:0.64 36:1.27 39:0.64 40:0.64 45:0.64 46:2.54 47:1.91 48:6.99 49:67.39 50:417.67 51:54.04 52:10.17 53:3.18 54:1.27 55:0.64 56:1.27 58:0.64 59:1.27 63:1.27 64:0.64 65:0.64 66:0.64 68:3.18 69:13.99 70:73.11 71:145.58 72:15.89 73:3.81 74:1.27 75:0.64 76:1.91 77:1.27 81:0.64 82:0.64 83:0.64 84:1.91 85:8.26 86:20.98 87:6.36 88:0.64 89:2.54 92:0.64 94:1.91 95:2.54 96:1.27 97:0.64 
-0.9 0:1.28 5:0.64 6:0.64 7:0.64 14:0.64 15:0.64 16:0.64 21:1.91 22:2.55 23:7.65 24:23.6 25:33.8 26:12.12 27:7.02 28:5.74 29:0.64 30:1.28 31:2.55 32:1.28 33:0.64 34:0.64 35:1.28 36:1.28 37:1.28 39:1.28 40:1.28 41:0.64 43:1.28 44:1.28 45:2.55 46:2.55 47:3.19 48:13.39 49:102.04 50:336.1 51:40.82 52:7.65 53:3.83 54:1.28 55:0.64 56:1.91 58:0.64 61:1.91 62:1.28 63:0.64 64:0.64 67:1.91 68:4.46 69:10.2 70:132.02 71:129.46 72:14.03 73:4.46 74:1.28 75:0.64 76:0.64 78:1.28 80:0.64 81:0.64 83:1.91 84:4.46 85:12.76 86:17.22 87:5.74 88:1.91 89:0.64 90:3.19 91:1.91 93:1.28 94:4.46 95:2.55 96:1.91 97:1.28 
-0.4404743097606899 0:1.39 1:1.39 3:0.69 4:0.69 20:0.69 21:2.08 22:3.47 23:11.09 24:22.18 25:31.19 26:12.47 27:4.85 28:0.69 30:1.39 31:2.77 33:0.69 34:1.39 35:1.39 40:0.69 43:2.08 44:0.69 46:0.69 47:6.24 48:18.71 49:131.67 50:243.94 51:33.96 52:5.54 53:2.77 54:1.39 55:1.39 60:1.39 62:1.39 63:2.08 64:0.69 65:1.39 66:2.08 67:1.39 68:1.39 69:16.63 70:208.59 71:117.81 72:9.7 73:4.16 74:0.69 75:0.69 76:1.39 77:1.39 78:1.39 79:1.39 80:0.69 81:2.08 82:1.39 83:2.08 84:5.54 85:18.02 86:21.48 87:3.47 88:0.69 89:0.69 90:1.39 91:1.39 93:0.69 94:5.54 95:6.93 96:0.69 97:1.39 
0.9 3:0.67 6:0.67 11:0.67 14:0.67 16:0.67 18:1.34 19:0.67 20:1.34 21:0.67 22:2.69 23:8.07 24:23.54 25:12.1 26:8.07 27:4.03 28:1.34 29:0.67 30:0.67 31:0.67 32:0.67 34:1.34 35:0.67 40:0.67 41:0.67 42:0.67 43:0.67 44:0.67 45:0.67 46:2.02 47:6.72 48:19.5 49:165.43 50:165.43 51:24.21 52:10.76 53:0.67 54:4.03 56:1.34 58:1.34 59:2.02 60:2.02 61:0.67 62:2.02 63:2.02 64:0.67 66:1.34 67:1.34 68:2.02 69:32.28 70:267.65 71:92.13 72:9.41 73:5.38 74:3.36 75:0.67 77:0.67 78:0.67 79:1.34 80:1.34 82:0.67 83:1.34 84:10.09 85:26.23 86:22.86 87:5.38 88:2.69 89:1.34 90:0.67 91:2.02 92:1.34 93:5.38 94:4.03 95:6.05 96:2.69 97:0.67 
-0.9 3:0.63 4:0.63 6:0.63 16:0.63 17:0.63 19:1.9 20:0.63 21:1.26 22:5.05 23:18.32 24:20.21 25:13.9 26:4.42 27:1.9 28:1.9 29:0.63 31:1.9 32:0.63 33:1.26 34:1.26 35:0.63 36:0.63 37:1.26 39:0.63 40:0.63 41:0.63 43:1.26 44:3.16 45:0.63 46:2.53 47:6.32 48:37.27 49:174.35 50:95.39 51:10.74 52:5.69 53:2.53 54:0.63 55:1.26 56:2.53 58:1.26 59:0.63 60:1.26 64:0.63 65:0.63 66:3.79 67:0.63 68:5.05 69:45.48 70:354.39 71:63.8 72:5.69 73:3.16 74:1.9 75:0.63 76:1.9 79:1.26 80:1.26 81:1.26 82:1.26 83:4.42 84:6.95 85:28.43 86:17.06 87:5.05 88:1.9 89:0.63 90:1.26 91:1.26 92:1.26 93:0.63 94:3.79 95:3.16 96:0.63 97:0.63 
-0.9 0:1.21 2:0.61 3:0.61 6:0.61 9:1.21 11:0.61 16:0.61 17:1.21 21:4.25 22:6.68 23:11.54 24:20.64 25:13.36 26:3.04 27:2.43 30:0.61 32:0.61 34:0.61 36:0.61 37:0.61 39:1.21 40:0.61 42:1.82 43:0.61 45:1.21 46:2.43 47:10.32 48:44.32 49:186.4 50:60.72 51:9.71 52:2.43 53:2.43 55:0.61 56:1.21 58:1.82 60:0.61 61:0.61 64:1.21 65:1.82 66:0.61 67:1.82 68:6.68 69:63.15 70:374.62 71:50.39 72:5.46 73:1.82 74:1.82 75:0.61 77:1.21 78:0.61 79:0.61 81:0.61 82:0.61 83:1.21 84:6.68 85:38.25 86:18.21 87:3.64 88:3.04 89:1.21 90:0.61 91:0.61 93:0.61 94:5.46 95:3.64 97:2.43 
-0.898126128693679 2:0.61 3:0.61 17:0.61 19:1.22 20:1.83 21:3.06 22:5.5 23:15.29 24:20.8 25:6.12 26:3.67 27:1.22 28:1.22 29:1.22 30:1.22 31:1.22 32:0.61 33:1.22 34:0.61 36:1.22 39:0.61 41:1.83 42:0.61 43:1.83 45:0.61 46:5.5 47:7.95 48:62.39 49:167.58 50:44.65 51:6.73 52:3.67 53:1.83 54:3.67 55:3.67 58:1.83 59:1.22 60:0.61 61:1.22 62:1.22 63:1.22 64:0.61 66:0.61 67:4.89 68:11.62 69:107.03 70:340.67 71:30.58 72:6.73 73:1.22 75:1.83 76:0.61 77:0.61 78:1.22 79:1.22 81:1.22 82:2.45 83:4.28 84:11.62 85:40.98 86:14.68 87:3.06 88:1.83 89:3.06 91:1.83 92:0.61 93:1.83 94:6.12 95:4.28 96:1.22 97:1.83 
0.9 0:0.65 1:0.65 3:0.65 9:0.65 11:0.65 19:0.65 20:1.29 21:7.1 22:10.32 23:14.84 24:15.48 25:9.03 26:1.29 27:1.94 28:0.65 29:0.65 30:0.65 31:0.65 34:0.65 35:1.29 36:0.65 39:0.65 40:0.65 41:0.65 42:2.58 44:2.58 45:3.23 46:6.45 47:14.19 48:92.26 49:121.94 50:27.74 51:5.81 52:2.58 53:4.52 54:1.29 55:2.58 56:2.58 58:0.65 61:1.29 62:1.94 63:0.65 64:1.29 65:1.29 66:1.29 67:2.58 68:14.19 69:169.03 70:286.45 71:27.1 72:5.81 73:3.23 74:2.58 75:1.29 76:0.65 78:1.29 79:0.65 81:1.94 82:1.29 83:3.23 84:20 85:54.84 86:11.61 87:1.94 88:1.94 89:2.58 90:0.65 91:1.29 92:1.94 93:1.94 94:3.87 95:2.58 96:1.29 97:1.29 
0.9 2:0.64 3:0.64 19:1.93 20:1.29 21:2.57 22:7.08 23:13.51 24:8.37 25:7.08 26:4.5 28:1.29 30:0.64 31:0.64 33:1.29 34:2.57 35:0.64 36:1.29 39:0.64 41:1.29 42:1.29 43:0.64 44:0.64 45:1.93 46:8.37 47:17.37 48:87.52 49:110.68 50:17.37 51:5.15 52:3.22 53:1.93 54:1.29 55:0.64 56:1.93 58:1.93 59:0.64 60:0.64 61:1.29 62:0.64 63:1.29 64:1.29 66:2.57 67:1.29 68:21.24 69:286.36 70:217.5 71:18.66 72:7.08 73:1.93 74:1.29 75:1.93 76:1.29 77:0.64 78:1.93 79:1.29 81:2.57 82:2.57 83:3.22 84:28.96 85:37.32 86:10.3 87:1.29 88:2.57 89:3.22 90:1.29 92:0.64 93:1.93 94:6.44 95:2.57 96:1.93 97:2.57 
-0.3570897225492926 3:0.63 5:0.63 6:0.63 11:0.63 12:0.63 13:0.63 14:0.63 16:0.63 17:1.26 19:2.51 20:3.14 21:6.28 22:10.04 23:18.2 24:6.28 25:3.77 27:2.51 32:0.63 33:1.26 34:1.26 35:1.88 36:0.63 40:0.63 41:3.14 42:0.63 43:2.51 44:1.26 45:1.26 46:10.67 47:26.99 48:116.76 49:73.45 50:10.04 51:3.77 52:5.02 53:0.63 54:0.63 55:1.26 58:1.26 60:1.26 61:0.63 62:1.26 63:0.63 64:1.26 65:1.26 66:1.88 67:4.39 68:32.02 69:394.22 70:106.72 71:8.79 72:6.91 73:0.63 74:0.63 75:1.88 76:0.63 77:0.63 79:0.63 80:0.63 81:3.14 82:2.51 83:5.02 84:26.99 85:40.18 86:8.79 87:1.88 88:3.14 90:0.63 91:0.63 92:1.26 93:1.26 94:5.65 95:4.39 96:1.88 97:1.26 
-0.03726350507794588 1:0.63 7:0.63 9:0.63 10:0.63 11:1.26 15:0.63 17:0.63 19:0.63 20:0.63 21:2.52 22:12.6 23:15.12 24:10.08 25:2.52 26:0.63 27:0.63 28:0.63 29:0.63 30:1.26 31:1.89 32:0.63 33:0.63 34:0.63 35:0.63 36:2.52 40:0.63 41:0.63 42:1.89 43:1.26 44:0.63 45:3.78 46:8.19 47:37.18 48:118.46 49:53.56 50:13.86 51:2.52 52:2.52 53:1.89 54:1.26 56:1.89 58:1.26 60:0.63 61:1.26 62:0.63 64:1.89 65:1.89 66:2.52 67:3.78 68:44.11 69:410.21 70:78.76 71:8.82 72:2.52 73:1.26 74:1.89 75:0.63 76:0.63 77:1.26 78:0.63 82:1.89 83:8.19 84:37.81 85:39.7 86:10.71 87:2.52 88:3.78 89:1.89 91:0.63 92:0.63 93:3.78 94:6.3 95:3.15 96:2.52 97:1.89 
-0.288707642894732 1:0.62 5:0.62 6:1.25 11:1.25 13:0.62 17:0.62 18:0.62 19:3.12 20:4.36 21:6.23 22:12.46 23:9.97 24:4.98 25:1.87 27:1.25 29:0.62 31:1.87 32:1.25 33:0.62 34:0.62 36:0.62 39:1.87 40:1.87 41:0.62 42:0.62 44:3.74 45:1.87 46:9.35 47:38.63 48:137.69 49:40.5 50:10.59 51:0.62 52:3.74 55:1.25 56:1.25 58:2.49 59:1.25 61:1.25 62:0.62 63:0.62 64:1.25 65:1.25 66:3.12 67:4.36 68:71.65 69:432.4 70:42.37 71:3.74 72:1.25 74:0.62 75:1.25 76:0.62 78:0.62 79:1.87 80:1.87 81:3.74 82:2.49 83:4.98 84:36.76 85:40.5 86:3.74 88:1.87 89:0.62 90:1.25 91:1.25 92:1.25 93:2.49 94:6.85 95:6.23 96:0.62 97:1.25 
-0.2043147674767914 0:0.6 10:0.6 13:0.6 14:0.6 15:0.6 16:1.8 17:2.4 19:1.2 20:7.19 21:9.59 22:11.39 23:13.79 24:3.6 25:1.8 26:1.8 27:1.2 30:1.8 31:0.6 34:1.8 36:0.6 37:1.2 39:1.8 40:1.2 41:3 42:1.8 43:1.8 44:1.8 45:1.2 46:14.99 47:73.74 48:107.31 49:26.98 50:8.39 51:3 52:0.6 53:0.6 54:1.8 55:0.6 56:0.6 58:2.4 59:0.6 60:1.8 61:1.2 62:2.4 63:0.6 64:1.8 65:3.6 66:4.2 67:10.79 68:119.9 69:369.9 70:27.58 71:7.19 72:4.2 74:1.8 75:0.6 76:0.6 77:1.2 78:0.6 79:1.2 80:1.2 81:1.8 82:1.2 83:8.99 84:51.56 85:23.38 86:5.4 87:0.6 88:2.4 89:1.2 90:1.2 91:0.6 92:1.2 93:5.4 94:6.59 95:4.8 96:1.8 97:0.6 
-0.5014460302058928 0:0.68 6:0.68 15:0.68 17:0.68 18:2.73 19:2.73 20:6.14 21:8.87 22:13.64 23:8.87 24:1.36 25:1.36 29:0.68 30:3.41 31:1.36 33:2.05 35:0.68 36:1.36 37:0.68 39:0.68 40:0.68 42:2.05 43:2.05 44:3.41 45:6.14 46:21.83 47:108.46 48:122.1 49:12.28 50:3.41 51:1.36 52:3.41 53:2.05 54:1.36 55:1.36 56:1.36 59:0.68 60:1.36 61:0.68 62:1.36 63:1.36 64:0.68 65:1.36 66:5.46 67:10.23 68:200.55 69:272.17 70:17.74 71:4.77 72:2.05 73:0.68 74:2.73 75:0.68 77:0.68 78:2.73 79:1.36 80:0.68 81:0.68 82:2.73 83:10.91 84:45.02 85:25.92 86:6.14 87:1.36 88:0.68 89:4.77 90:0.68 91:0.68 92:2.73 93:2.05 94:5.46 95:5.46 96:1.36 97:0.68 
0.9 5:0.63 12:0.63 15:0.63 16:1.26 18:1.26 19:1.26 20:4.42 21:10.75 22:10.11 23:5.69 24:4.42 26:0.63 28:1.9 30:0.63 31:0.63 32:3.16 34:1.26 35:0.63 36:3.16 40:1.26 41:3.79 42:2.53 43:1.26 44:1.9 45:8.22 46:28.45 47:146.02 48:79.01 49:10.11 50:5.69 51:1.26 52:1.9 53:1.26 54:0.63 55:2.53 56:1.26 58:0.63 59:0.63 64:0.63 65:1.9 66:5.69 67:24.02 68:290.14 69:170.04 70:18.33 71:5.06 72:1.9 73:3.16 74:3.16 75:2.53 78:1.26 80:0.63 81:1.9 82:2.53 83:12.01 84:55.63 85:18.96 86:3.16 87:1.26 89:0.63 90:1.26 91:2.53 92:2.53 93:5.06 94:6.95 95:1.26 96:2.53 97:1.9 
0.9 0:0.62 5:1.24 13:0.62 16:0.62 18:3.1 19:2.48 20:6.82 21:13.02 22:13.64 23:5.58 24:1.86 25:0.62 26:0.62 27:0.62 31:3.1 32:1.24 33:1.24 34:1.86 35:1.86 36:0.62 41:1.24 42:1.86 43:1.86 44:3.1 45:9.92 46:54.56 47:153.13 48:63.24 49:11.16 50:7.44 51:0.62 52:0.62 53:0.62 54:1.24 55:1.24 59:0.62 62:0.62 64:2.48 65:3.72 66:4.34 67:32.86 68:336.02 69:114.07 70:10.54 71:0.62 73:1.24 74:2.48 75:1.24 76:1.24 77:0.62 79:0.62 80:0.62 81:4.34 82:4.96 83:14.26 84:48.36 85:11.78 86:4.96 87:2.48 88:1.24 89:0.62 90:0.62 91:1.86 92:1.24 93:5.58 94:6.2 95:1.24 96:1.86 97:1.24 
-0.9 1:1.31 2:0.66 4:0.66 16:0.66 17:0.66 18:0.66 19:5.91 20:11.82 21:22.98 22:9.85 23:6.57 24:1.97 25:1.31 28:1.31 30:1.31 31:1.31 32:1.31 37:0.66 39:1.97 40:0.66 41:0.66 42:0.66 43:1.97 44:5.25 45:11.82 46:71.57 47:185.16 48:44.65 49:6.57 50:1.97 51:1.97 52:1.97 53:1.97 54:0.66 55:0.66 56:0.66 58:1.31 59:0.66 60:0.66 61:0.66 62:1.31 63:0.66 64:0.66 65:0.66 66:6.57 67:32.83 68:365.73 69:65 70:5.91 71:1.97 72:0.66 73:1.31 74:0.66 76:1.31 79:1.31 80:0.66 81:1.31 82:3.28 83:13.79 84:37.43 85:8.54 86:3.28 87:3.28 88:2.63 89:0.66 90:0.66 91:4.6 92:1.31 93:4.6 94:5.25 95:1.97 96:0.66 97:4.6 
0.9 6:0.64 11:1.28 14:0.64 16:0.64 17:0.64 18:1.93 19:5.13 20:14.12 21:19.26 22:14.76 23:5.78 24:1.28 26:1.28 30:1.93 31:0.64 33:0.64 35:1.28 36:1.28 41:1.28 43:1.93 44:5.13 45:12.2 46:102.05 47:192.55 48:25.03 49:5.13 50:3.21 51:2.57 52:1.28 53:1.28 55:0.64 58:0.64 59:0.64 62:0.64 63:1.93 64:2.57 65:1.28 66:6.42 67:65.47 68:348.52 69:34.66 70:7.7 71:1.28 73:3.85 74:1.28 75:1.28 76:1.93 77:0.64 79:1.28 80:1.28 81:3.21 82:1.28 83:21.18 84:29.53 85:10.27 86:2.57 87:0.64 88:1.28 89:2.57 91:1.93 92:0.64 93:3.21 94:3.21 95:3.85 96:1.93 97:1.93 
-0.9 2:1.38 17:0.69 18:2.75 19:15.14 20:31.66 21:30.28 22:13.08 23:2.75 24:1.38 25:1.38 29:0.69 33:1.38 34:0.69 36:1.38 39:1.38 40:0.69 41:2.75 42:1.38 43:2.06 44:6.19 45:26.84 46:254.65 47:134.89 48:16.52 49:2.06 50:2.06 51:3.44 52:3.44 53:0.69 54:1.38 55:1.38 58:1.38 59:0.69 60:0.69 62:2.06 63:1.38 64:2.06 65:2.06 66:2.75 67:102.55 68:203.03 69:19.96 70:4.82 71:0.69 72:1.38 73:1.38 74:1.38 75:3.44 76:0.69 77:0.69 78:0.69 80:0.69 81:2.06 82:6.19 83:24.09 84:17.21 85:4.82 86:4.13 87:2.06 88:0.69 89:1.38 90:1.38 91:0.69 92:0.69 93:4.82 94:3.44 95:3.44 97:2.06 
0.9 3:0.67 9:0.67 17:2.01 18:3.35 19:10.05 20:43.57 21:24.8 22:10.72 23:2.68 24:1.34 25:0.67 26:0.67 32:0.67 33:0.67 34:0.67 35:0.67 39:0.67 40:4.69 41:2.68 42:2.01 43:3.35 44:6.7 45:42.23 46:339.81 47:79.76 48:14.75 49:3.35 50:0.67 51:0.67 53:0.67 58:0.67 59:2.68 60:0.67 61:1.34 62:0.67 64:0.67 65:4.69 66:12.06 67:135.39 68:134.05 69:14.08 70:5.36 71:2.01 72:0.67 74:0.67 75:0.67 76:2.68 77:1.34 78:1.34 79:0.67 81:0.67 82:2.01 83:22.12 84:17.43 85:6.03 86:3.35 87:0.67 90:2.01 91:2.01 92:1.34 93:8.04 94:4.02 95:0.67 96:0.67 97:0.67 
-0.9 1:0.61 5:0.61 11:0.61 14:1.22 16:1.22 17:0.61 18:7.96 19:20.81 20:47.12 21:15.91 22:10.4 23:0.61 24:1.22 28:1.84 30:0.61 31:0.61 33:1.22 34:0.61 35:0.61 39:1.22 40:2.45 41:1.22 43:4.9 44:7.34 45:60.59 46:419.22 47:59.98 48:6.73 49:2.45 50:1.22 52:0.61 53:0.61 55:1.22 61:1.22 64:0.61 65:3.67 66:21.42 67:130.35 68:85.68 69:8.57 70:3.67 71:3.06 72:1.22 73:0.61 74:0.61 75:0.61 76:3.06 78:0.61 80:2.45 81:1.22 82:1.84 83:12.85 84:10.4 85:4.9 86:1.22 87:0.61 88:1.22 89:2.45 90:0.61 92:3.06 93:3.67 94:0.61 95:0.61 96:1.22 97:1.84 
-0.9 4:0.62 7:0.62 12:0.62 13:0.62 15:0.62 16:0.62 17:1.24 18:6.84 19:28.59 20:50.34 21:23.62 22:4.97 23:2.49 24:1.24 25:1.24 31:0.62 32:0.62 33:1.86 36:1.24 37:0.62 39:1.24 42:0.62 43:6.84 44:9.32 45:84.52 46:439.4 47:47.86 48:8.7 49:1.86 50:4.35 51:3.73 52:0.62 54:1.86 55:1.86 56:0.62 58:0.62 59:1.24 60:1.24 62:0.62 63:0.62 64:2.49 65:6.22 66:17.4 67:113.11 68:48.48 69:6.22 70:3.11 71:3.73 72:1.86 74:0.62 75:1.86 76:1.24 77:1.24 80:1.86 81:1.86 82:1.24 83:15.54 84:8.7 85:2.49 86:0.62 90:3.73 92:3.11 93:0.62 94:2.49 95:1.86 96:1.24 
0.9 1:0.64 2:0.64 3:1.28 7:0.64 14:1.92 16:1.92 17:5.11 18:10.86 19:47.92 20:49.2 21:14.06 22:5.11 23:0.64 25:0.64 28:0.64 29:0.64 30:0.64 31:0.64 32:1.28 34:1.28 35:0.64 36:0.64 39:1.28 40:1.28 43:1.92 44:16.61 45:146.33 46:394.25 47:26.84 48:2.56 49:1.92 50:4.47 51:0.64 52:0.64 53:1.28 54:1.92 55:0.64 56:0.64 58:0.64 61:0.64 63:1.28 64:5.11 65:7.03 66:30.67 67:104.15 68:38.34 69:3.83 70:3.83 71:2.56 72:3.83 73:1.28 74:0.64 75:0.64 76:0.64 78:1.28 79:0.64 80:1.92 81:2.56 82:7.03 83:11.5 84:6.39 85:1.28 87:0.64 89:1.28 90:0.64 91:3.19 92:1.92 93:2.56 95:0.64 97:1.28 
-0.7850303821230641 10:0.66 11:0.66 14:0.66 17:3.96 18:13.87 19:73.98 20:73.32 21:14.53 22:3.3 23:3.3 28:0.66 30:0.66 33:0.66 34:2.64 35:0.66 36:2.64 37:0.66 39:1.98 40:1.32 41:1.98 43:1.98 44:16.51 45:204.76 46:324.97 47:35.67 48:5.28 49:1.32 50:2.64 52:1.98 53:0.66 54:1.32 55:0.66 58:0.66 59:1.32 61:1.32 62:0.66 63:0.66 64:4.62 65:5.94 66:14.53 67:86.53 68:26.42 69:6.61 70:0.66 74:0.66 75:0.66 76:1.32 78:0.66 80:0.66 81:1.32 82:3.96 83:11.23 84:7.27 85:2.64 86:0.66 88:1.32 90:0.66 91:1.32 92:1.98 93:5.94 94:3.3 95:0.66 96:2.64 97:1.32 
-0.4300323247682092 0:0.69 1:0.69 3:0.69 4:1.37 14:0.69 16:2.06 17:5.48 18:19.88 19:115.15 20:78.14 21:18.51 22:4.11 23:1.37 25:1.37 29:0.69 31:0.69 32:1.37 33:0.69 35:0.69 36:0.69 40:1.37 41:1.37 42:2.06 43:4.11 44:17.82 45:274.85 46:232.35 47:18.51 48:2.06 49:3.43 50:0.69 51:1.37 52:0.69 53:0.69 54:0.69 56:1.37 58:0.69 60:0.69 61:0.69 63:1.37 64:1.37 65:9.6 66:30.84 67:62.37 68:20.56 69:7.54 71:2.74 73:1.37 74:0.69 75:0.69 76:0.69 77:1.37 78:1.37 80:0.69 81:2.06 82:2.74 83:4.8 84:4.8 85:2.06 86:1.37 88:2.06 89:1.37 91:1.37 92:0.69 93:2.74 94:0.69 95:0.69 96:4.11 97:4.8 
-0.9 4:0.65 12:0.65 16:1.96 17:7.2 18:37.3 19:171.47 20:71.99 21:11.13 22:1.31 24:0.65 29:0.65 32:0.65 33:1.31 40:1.31 41:1.31 42:1.96 43:3.93 44:23.56 45:328.53 46:159.69 47:15.05 48:7.2 49:3.93 50:1.31 51:0.65 52:1.31 53:1.31 55:0.65 56:0.65 59:0.65 60:1.31 61:1.31 62:0.65 63:0.65 64:1.96 65:3.93 66:24.87 67:50.39 68:9.16 69:5.24 70:1.31 71:1.31 73:0.65 77:0.65 78:1.96 79:0.65 80:1.96 81:0.65 82:7.2 83:5.89 84:5.89 85:2.62 86:0.65 88:0.65 89:1.31 90:0.65 91:1.31 92:0.65 93:0.65 94:0.65 95:1.31 96:1.31 97:0.65 
0.9 4:0.68 16:2.04 17:8.86 18:43.6 19:236.38 20:55.18 21:5.45 22:2.72 23:1.36 25:1.36 28:0.68 29:0.68 30:1.36 31:0.68 32:1.36 33:0.68 34:0.68 35:0.68 36:0.68 37:1.36 39:0.68 41:0.68 42:2.72 43:5.45 44:31.34 45:348.77 46:91.28 47:7.49 48:4.09 49:0.68 50:2.04 51:0.68 52:0.68 54:0.68 55:0.68 61:0.68 62:2.04 63:0.68 64:0.68 65:2.72 66:29.29 67:25.89 68:10.22 69:2.72 70:2.72 71:1.36 72:1.36 73:1.36 74:2.72 76:1.36 77:1.36 78:0.68 80:3.41 81:3.41 82:6.81 83:6.81 84:6.13 85:0.68 86:2.04 87:1.36 88:2.04 90:1.36 91:1.36 92:0.68 93:3.41 94:4.09 95:2.04 97:2.04 
-0.9 0:3.34 7:0.67 12:0.67 19:0.67 22:0.67 23:2 24:2 25:31.4 26:217.1 27:89.51 28:10.69 29:2 31:2 32:2 34:0.67 35:0.67 36:1.34 37:1.34 39:1.34 40:1.34 42:0.67 43:0.67 44:0.67 46:0.67 47:1.34 48:1.34 49:4.68 50:39.41 51:400.8 52:56.78 53:5.34 55:1.34 58:0.67 59:2.67 61:0.67 62:0.67 64:0.67 65:0.67 68:1.34 69:0.67 70:6.01 71:34.07 72:28.72 73:6.68 74:3.34 76:2 78:1.34 80:0.67 81:0.67 82:2 85:3.34 86:4.68 87:4.68 88:0.67 92:1.34 93:2 94:1.34 95:2.67 97:0.67 
-0.9 1:0.62 2:0.62 22:1.25 23:0.62 24:8.74 25:41.2 26:171.66 27:56.8 28:9.36 29:1.87 30:0.62 31:1.25 32:1.87 33:0.62 34:0.62 35:0.62 36:0.62 37:0.62 41:1.87 42:0.62 43:0.62 44:1.25 45:1.87 46:0.62 47:2.5 48:3.12 49:11.24 50:74.28 51:427.59 52:44.94 53:8.11 55:1.87 56:1.25 59:0.62 61:0.62 62:0.62 63:1.25 64:0.62 66:1.87 69:2.5 70:5.62 71:36.83 72:30.59 73:4.99 74:3.12 76:0.62 77:0.62 79:0.62 80:0.62 81:0.62 82:0.62 83:0.62 84:0.62 85:2.5 86:6.87 87:3.75 88:0.62 90:1.25 92:1.25 93:1.87 95:3.12 96:1.87 97:1.25 
0.9 0:1.26 1:0.63 2:0.63 4:0.63 11:0.63 14:0.63 15:1.26 20:0.63 21:0.63 23:2.52 24:6.92 25:33.35 26:118.94 27:37.76 28:8.81 29:4.41 30:2.52 31:0.63 32:1.26 33:1.89 34:1.26 36:1.26 37:0.63 40:1.89 41:0.63 42:0.63 43:0.63 44:1.89 45:0.63 47:1.26 49:11.33 50:112.65 51:426.05 52:33.98 53:4.41 54:6.29 55:1.26 56:1.26 58:0.63 62:1.26 64:0.63 65:0.63 68:1.26 69:5.66 70:10.7 71:56.01 72:35.87 73:7.55 74:2.52 75:1.89 76:1.26 77:0.63 78:0.63 79:0.63 81:0.63 82:0.63 83:1.89 84:2.52 85:5.66 86:6.92 87:4.41 88:1.26 89:1.89 91:1.26 92:0.63 93:1.89 94:1.26 95:5.66 96:1.26 97:0.63 
0.9 0:1.29 1:0.64 2:0.64 6:0.64 10:0.64 13:0.64 19:0.64 21:0.64 22:1.93 23:3.86 24:7.71 25:43.7 26:75.19 27:29.56 28:3.21 29:7.07 30:1.93 32:1.29 33:1.29 34:1.29 35:0.64 36:1.93 39:0.64 40:0.64 41:0.64 42:0.64 43:0.64 45:1.29 46:0.64 47:2.57 48:3.21 49:19.92 50:169.67 51:359.9 52:23.78 53:5.78 54:2.57 56:1.29 60:1.29 61:1.29 62:0.64 64:1.29 65:0.64 66:0.64 68:3.86 69:3.86 70:24.42 71:83.55 72:36.63 73:10.28 74:0.64 75:0.64 76:1.29 79:1.93 80:0.64 82:1.93 83:2.57 84:0.64 85:5.14 86:12.21 87:7.71 88:2.57 89:1.29 90:1.29 91:1.29 92:1.93 94:1.93 95:3.21 96:1.93 97:0.64 
-0.9 0:0.67 1:0.67 2:0.67 9:0.67 14:0.67 16:0.67 17:1.34 22:2.68 23:6.04 24:15.43 25:39.57 26:52.31 27:23.47 28:3.35 29:4.02 30:4.02 31:3.35 32:2.01 35:0.67 36:0.67 39:0.67 40:2.01 42:0.67 43:0.67 45:2.01 47:3.35 48:5.37 49:18.78 50:258.22 51:258.89 52:27.5 53:5.37 54:4.02 55:2.68 56:0.67 58:0.67 64:1.34 66:1.34 67:1.34 68:3.35 69:6.04 70:21.46 71:118.04 72:26.83 73:7.38 74:2.01 77:2.01 78:0.67 80:0.67 81:0.67 82:0.67 83:2.01 84:2.68 85:8.05 86:17.44 87:8.72 88:2.68 89:1.34 91:1.34 92:0.67 93:1.34 94:1.34 95:3.35 96:0.67 
-0.9 1:2.6 2:0.65 5:0.65 9:0.65 12:0.65 15:1.3 21:0.65 22:1.3 23:2.6 24:12.34 25:35.06 26:46.1 27:9.74 28:3.9 29:0.65 30:3.25 31:2.6 33:3.25 34:1.3 35:1.3 36:1.3 37:0.65 39:0.65 40:1.3 41:0.65 43:0.65 44:1.3 45:1.3 46:1.3 47:1.95 48:9.09 49:20.13 50:307.79 51:186.36 52:19.48 53:2.6 54:2.6 55:0.65 56:1.95 59:0.65 60:0.65 61:0.65 64:0.65 67:1.95 68:2.6 69:2.6 70:30.52 71:172.73 72:33.12 73:7.14 74:3.25 76:1.95 77:0.65 78:0.65 80:0.65 81:1.3 82:0.65 84:3.25 85:8.44 86:14.94 87:2.6 88:3.9 89:1.3 90:1.3 92:0.65 93:1.3 94:3.25 95:3.25 96:1.3 
-0.9 0:0.62 13:0.62 19:1.25 20:1.25 22:2.5 23:2.5 24:17.49 25:33.1 26:30.61 27:9.99 28:1.87 29:1.25 30:1.25 32:0.62 33:0.62 34:0.62 35:0.62 37:1.25 39:0.62 41:0.62 44:1.25 45:1.25 46:0.62 47:1.25 48:12.49 49:36.23 50:347.28 51:122.42 52:11.87 53:6.87 54:1.25 55:1.87 56:2.5 59:0.62 61:0.62 63:0.62 64:0.62 66:1.87 67:0.62 68:1.87 69:9.99 70:46.85 71:185.51 72:27.48 73:5.62 74:0.62 76:1.25 77:0.62 78:1.25 79:0.62 81:0.62 83:1.25 84:1.25 85:14.99 86:16.24 87:2.5 88:4.37 89:0.62 90:1.87 91:2.5 92:1.87 93:0.62 94:1.87 95:4.37 96:1.25 97:0.62 
0.9 0:1.31 16:0.65 20:1.31 21:1.31 22:0.65 23:4.58 24:10.48 25:24.23 26:17.68 27:7.86 28:2.62 29:1.96 30:1.96 31:1.31 32:1.31 33:0.65 34:1.96 37:1.31 39:0.65 40:0.65 42:1.96 44:0.65 45:1.96 46:1.31 47:2.62 48:7.86 49:50.43 50:305.17 51:73.35 52:12.44 53:2.62 54:1.96 55:1.96 59:0.65 60:0.65 62:0.65 63:0.65 64:1.31 65:1.96 66:1.96 67:2.62 68:3.27 69:10.48 70:85.79 71:226.59 72:26.2 73:5.89 74:1.31 75:1.31 76:2.62 77:0.65 81:0.65 82:0.65 83:3.93 84:4.58 85:21.61 86:22.27 87:3.93 88:1.96 89:0.65 90:2.62 93:3.27 94:2.62 95:3.27 96:1.31 97:3.27 
-0.9 0:0.65 1:1.29 4:0.65 9:0.65 10:0.65 12:0.65 17:0.65 20:0.65 21:1.94 22:2.58 23:9.04 24:17.44 25:25.19 26:16.15 27:4.52 28:2.58 30:1.29 31:0.65 32:0.65 33:1.29 37:0.65 40:1.94 41:1.29 42:0.65 43:0.65 44:1.94 45:1.29 46:1.94 47:3.88 48:7.11 49:68.48 50:263.57 51:43.93 52:7.75 53:4.52 54:3.23 55:0.65 56:0.65 58:2.58 59:1.29 60:0.65 61:1.29 62:0.65 63:1.29 64:1.94 65:0.65 66:0.65 67:1.29 68:3.23 69:17.44 70:138.89 71:220.28 72:21.32 73:5.17 74:1.94 75:1.29 78:0.65 79:0.65 81:0.65 84:5.17 85:19.38 86:27.13 87:5.17 88:1.29 89:1.94 90:0.65 92:1.29 93:1.94 95:7.11 96:0.65 97:1.29 
0.9 0:2.07 5:0.69 7:0.69 13:0.69 18:0.69 21:1.38 22:4.14 23:9.66 24:15.86 25:15.17 26:8.97 27:2.76 28:1.38 29:0.69 30:1.38 34:0.69 35:1.38 36:2.76 37:0.69 39:1.38 41:0.69 42:2.76 46:2.76 47:4.83 48:14.48 49:104.83 50:177.93 51:28.97 52:7.59 53:2.07 54:0.69 56:1.38 58:0.69 60:0.69 61:0.69 63:0.69 64:1.38 65:0.69 66:0.69 67:1.38 68:4.14 69:20.69 70:239.31 71:174.48 72:13.1 73:6.21 74:2.07 76:1.38 77:1.38 79:1.38 80:2.07 83:2.76 84:2.76 85:27.59 86:40.69 87:4.14 88:1.38 89:2.07 90:0.69 91:2.07 93:2.07 94:4.14 95:9.66 96:3.45 97:1.38 
0.9 0:0.65 1:1.29 2:0.65 15:0.65 17:0.65 19:0.65 21:0.65 22:1.94 23:12.91 24:17.43 25:14.2 26:3.87 27:4.52 28:1.94 29:0.65 30:0.65 31:1.94 33:0.65 34:0.65 35:0.65 39:0.65 41:0.65 42:1.94 43:1.29 45:1.94 46:1.94 47:5.16 48:18.08 49:108.46 50:114.91 51:20.01 52:3.23 53:2.58 54:2.58 58:1.29 62:1.29 63:1.94 64:1.29 65:1.29 66:3.23 67:1.29 68:5.16 69:23.89 70:353.78 71:122.66 72:7.1 73:7.1 74:1.94 76:2.58 78:0.65 79:1.29 80:0.65 81:2.58 83:1.94 84:8.39 85:40.67 86:24.53 87:6.46 88:1.94 89:1.94 90:1.94 91:1.29 92:1.94 93:4.52 94:3.87 95:6.46 96:1.94 97:0.65 
0.2409372848934817 1:0.61 2:0.61 11:0.61 18:0.61 19:1.22 21:0.61 22:4.89 23:12.22 24:15.89 25:11 26:4.89 28:1.22 29:1.83 30:0.61 32:2.44 33:0.61 36:0.61 41:1.22 42:1.83 43:3.06 44:1.22 45:1.22 46:3.06 47:7.33 48:25.06 49:114.91 50:83.13 51:11.61 52:3.67 53:2.44 55:3.06 59:0.61 60:0.61 61:1.22 62:0.61 63:0.61 64:2.44 65:1.83 66:1.83 67:1.83 68:3.67 69:33.62 70:402.81 71:90.46 72:9.78 73:3.06 74:1.22 75:1.22 77:0.61 78:0.61 79:1.22 81:1.22 82:3.06 83:2.44 84:7.95 85:48.29 86:31.17 87:4.28 88:0.61 89:0.61 90:1.83 91:0.61 92:1.22 93:1.83 94:4.28 95:5.5 96:0.61 97:1.22 
-0.8982265434342284 1:0.6 2:0.6 3:0.6 4:0.6 13:0.6 16:0.6 18:1.19 19:0.6 20:1.79 21:2.98 22:3.58 23:12.53 24:11.34 25:11.93 26:2.98 27:1.79 28:2.39 29:1.79 30:1.19 32:1.79 33:0.6 34:0.6 36:1.19 39:1.19 40:1.19 41:0.6 42:0.6 43:1.79 44:0.6 45:0.6 46:8.35 47:7.16 48:28.64 49:109.19 50:54.89 51:10.74 52:4.77 53:1.19 54:1.79 55:3.58 56:0.6 58:0.6 59:0.6 60:1.79 61:0.6 63:0.6 64:0.6 65:2.39 66:1.79 67:3.58 68:5.97 69:54.3 70:421.84 71:53.7 72:10.74 73:3.58 74:1.79 75:0.6 76:1.19 78:0.6 79:1.19 80:1.19 81:1.19 82:1.19 83:1.19 84:6.56 85:56.09 86:34.01 87:7.16 88:3.58 89:1.19 93:1.79 94:5.97 95:5.97 96:2.39 97:1.19 
0.04274385013631515 0:0.62 2:0.62 3:0.62 5:0.62 10:0.62 15:0.62 18:0.62 20:1.24 21:3.09 22:1.85 23:9.27 24:14.83 25:4.33 26:2.47 27:1.24 28:1.24 29:0.62 30:1.85 31:0.62 32:1.85 33:1.24 36:0.62 39:1.85 41:1.24 42:2.47 43:1.24 44:3.71 45:0.62 46:4.33 47:18.54 48:41.41 49:99.51 50:38.94 51:8.03 52:3.71 53:1.85 54:1.85 55:0.62 56:1.24 58:0.62 59:1.85 61:2.47 62:0.62 63:0.62 64:1.85 65:1.85 66:1.24 67:3.71 68:9.89 69:110.01 70:390.61 71:40.79 72:7.42 73:1.85 74:2.47 75:2.47 76:1.24 77:0.62 78:0.62 80:0.62 81:1.85 82:2.47 83:4.94 84:9.89 85:69.84 86:19.78 87:3.71 88:2.47 89:0.62 90:0.62 92:1.24 93:3.71 94:8.03 95:4.33 96:1.24 
0.002117338470430593 10:0.62 16:0.62 17:1.24 18:0.62 20:0.62 21:3.1 22:4.34 23:6.2 24:10.55 25:4.96 26:2.48 27:1.24 28:0.62 29:1.24 30:1.86 31:1.24 32:1.24 33:0.62 34:0.62 35:0.62 37:1.24 42:0.62 43:2.48 45:1.86 46:6.82 47:13.03 48:61.41 49:99.26 50:25.43 51:6.2 52:3.1 53:1.86 54:1.24 55:3.72 56:0.62 58:0.62 61:1.86 62:1.24 63:0.62 64:0.62 65:1.24 66:0.62 67:3.72 68:14.89 69:184.24 70:317 71:22.95 72:4.96 73:1.86 74:1.24 75:1.24 76:0.62 77:1.24 81:0.62 82:3.1 83:4.34 84:26.67 85:80.65 86:19.85 87:4.96 88:2.48 89:0.62 90:0.62 92:0.62 93:3.1 94:8.68 95:6.82 96:1.86 97:0.62 
-0.9 0:1.26 3:0.63 4:0.63 11:0.63 18:0.63 19:1.89 20:0.63 21:4.41 22:10.7 23:11.33 24:8.81 25:3.15 26:2.52 30:1.89 31:0.63 34:1.89 35:1.89 37:0.63 39:0.63 40:0.63 42:0.63 45:0.63 46:6.29 47:15.1 48:73 49:79.92 50:15.1 51:11.33 52:3.78 54:0.63 55:1.26 56:0.63 58:0.63 60:0.63 62:1.89 64:1.89 66:1.89 67:5.03 68:18.25 69:288.86 70:217.12 71:22.66 72:6.29 74:1.26 75:1.26 77:1.89 78:0.63 79:3.15 81:0.63 82:1.89 83:5.66 84:32.72 85:76.78 86:15.1 87:2.52 88:1.89 89:1.26 90:0.63 91:0.63 92:2.52 93:1.89 94:7.55 95:8.18 96:2.52 97:0.63 
-0.9 0:0.61 1:0.61 2:0.61 4:0.61 10:0.61 17:0.61 18:1.22 19:1.22 20:1.22 21:4.87 22:7.3 23:7.3 24:10.96 25:4.26 26:1.83 28:1.22 29:1.22 30:1.22 31:0.61 33:0.61 37:0.61 40:1.83 41:1.83 43:1.83 44:1.22 45:3.04 46:4.87 47:28 48:85.82 49:57.21 50:12.78 51:4.26 52:2.43 53:1.22 54:0.61 55:0.61 56:1.22 58:1.22 60:1.83 62:0.61 64:0.61 65:2.43 66:3.04 67:7.3 68:37.74 69:370.05 70:133.9 71:14.61 72:3.04 73:1.83 74:0.61 77:1.22 78:0.61 79:1.22 81:2.43 82:1.22 83:4.26 84:37.74 85:69.39 86:12.17 87:1.22 88:0.61 89:1.22 92:1.22 93:3.65 94:10.35 95:7.3 96:1.83 97:5.48 
0.9 0:0.61 3:0.61 12:0.61 19:0.61 20:4.26 21:4.26 22:9.73 23:4.86 24:9.73 25:0.61 26:2.43 27:1.22 28:0.61 29:1.82 30:1.22 31:0.61 32:1.22 35:1.22 37:0.61 39:0.61 41:0.61 43:1.82 44:2.43 45:4.26 46:6.69 47:23.71 48:76.6 49:32.83 50:12.77 51:6.08 52:0.61 53:3.04 54:1.82 55:1.22 56:0.61 58:0.61 60:2.43 61:1.22 62:0.61 64:1.22 66:2.43 67:7.9 68:38.3 69:431.61 70:85.11 71:7.29 72:3.04 73:1.82 74:1.22 75:1.22 76:0.61 77:1.22 78:0.61 80:3.65 81:1.82 82:1.82 83:8.51 84:56.53 85:79.03 86:10.33 87:2.43 88:0.61 89:0.61 90:2.43 91:0.61 92:0.61 93:3.04 94:6.69 95:5.47 96:3.65 97:1.22 
0.9 2:0.59 5:0.59 14:1.19 15:0.59 17:1.19 18:1.78 19:0.59 20:1.78 21:5.35 22:7.73 23:6.54 24:3.57 25:0.59 26:0.59 27:0.59 28:1.78 30:0.59 32:0.59 33:0.59 35:2.38 36:0.59 37:1.19 39:0.59 41:1.19 42:1.19 43:1.78 44:1.78 45:1.19 46:11.3 47:36.27 48:81.45 49:29.13 50:5.35 51:3.57 52:0.59 53:1.78 54:1.78 55:1.78 56:0.59 59:0.59 60:1.78 62:0.59 63:1.78 64:2.38 65:0.59 66:2.38 67:10.11 68:82.64 69:432.82 70:54.1 71:5.35 72:4.76 73:2.97 74:1.19 75:1.19 76:1.19 78:0.59 79:1.78 80:1.19 81:2.38 82:1.78 83:7.13 84:63.02 85:46.37 86:8.92 87:4.76 88:2.97 89:1.78 90:1.19 91:1.78 92:2.38 93:4.16 94:13.08 95:2.38 96:1.19 97:2.38 
-0.9 1:0.6 7:0.6 11:0.6 13:0.6 14:0.6 15:0.6 16:0.6 17:0.6 18:0.6 19:0.6 20:3.63 21:7.86 22:9.68 23:5.44 24:6.65 25:1.81 26:0.6 27:0.6 28:1.21 30:0.6 31:1.21 32:1.21 34:1.21 35:1.81 37:0.6 40:0.6 41:1.21 42:1.81 44:1.81 45:4.23 46:13.91 47:50.82 48:85.9 49:19.36 50:6.05 51:2.42 52:3.02 53:1.81 54:1.81 55:0.6 60:0.6 61:1.81 62:1.81 63:0.6 64:2.42 65:3.63 66:3.02 67:16.33 68:141.56 69:372.05 70:28.43 71:2.42 72:4.23 73:1.81 74:2.42 75:0.6 78:0.6 80:2.42 81:1.81 82:1.81 83:9.68 84:75.62 85:49 86:4.84 87:1.21 88:0.6 89:0.6 90:0.6 91:0.6 93:3.02 94:10.89 95:4.23 96:1.21 97:1.81 
-0.9 0:0.64 1:0.64 5:0.64 14:0.64 15:0.64 16:0.64 17:0.64 18:1.28 19:0.64 20:5.75 21:8.95 22:10.23 23:8.95 24:1.92 25:0.64 27:1.28 28:0.64 32:0.64 33:0.64 34:0.64 36:0.64 37:0.64 39:0.64 40:1.28 41:0.64 43:1.28 44:3.2 45:4.48 46:26.21 47:62.02 48:70.97 49:19.18 50:6.39 51:1.92 52:2.56 53:1.28 54:2.56 55:1.28 56:1.28 58:1.28 59:0.64 60:0.64 62:2.56 63:0.64 64:0.64 65:3.84 66:2.56 67:18.54 68:224.42 69:294.12 70:21.74 71:6.39 72:2.56 73:1.28 74:1.28 76:0.64 77:0.64 80:1.28 81:1.92 82:2.56 83:11.51 84:80.56 85:27.49 86:4.48 87:1.92 88:2.56 89:0.64 90:0.64 91:1.28 92:2.56 93:7.67 94:8.31 95:1.92 96:1.28 97:1.92 
