FANN_FLO_2.1
num_layers=3
learning_rate=0.700000
connection_rate=0.630000
network_type=0
learning_momentum=0.000000
training_algorithm=2
train_error_function=1
train_stop_function=0
cascade_output_change_fraction=0.010000
quickprop_decay=-0.000100
quickprop_mu=1.750000
rprop_increase_factor=1.200000
rprop_decrease_factor=0.500000
rprop_delta_min=0.000000
rprop_delta_max=50.000000
rprop_delta_zero=0.100000
cascade_output_stagnation_epochs=12
cascade_candidate_change_fraction=0.010000
cascade_candidate_stagnation_epochs=12
cascade_max_out_epochs=150
cascade_min_out_epochs=50
cascade_max_cand_epochs=150
cascade_min_cand_epochs=50
cascade_num_candidate_groups=2
bit_fail_limit=2.40999999999999998945e-02
cascade_candidate_limit=1.00000000000000000000e+03
cascade_weight_multiplier=4.00000000000000022204e-01
cascade_activation_functions_count=10
cascade_activation_functions=3 5 7 8 10 11 14 15 16 17 
cascade_activation_steepnesses_count=4
cascade_activation_steepnesses=2.50000000000000000000e-01 5.00000000000000000000e-01 7.50000000000000000000e-01 1.00000000000000000000e+00 
layer_sizes=17 7 3 
scale_included=0
neurons (num_inputs, activation_function, activation_steepness)=(0, 0, 0.00000000000000000000e+00) (0, 0, 0.00000000000000000000e+00) (0, 0, 0.00000000000000000000e+00) (0, 0, 0.00000000000000000000e+00) (0, 0, 0.00000000000000000000e+00) (0, 0, 0.00000000000000000000e+00) (0, 0, 0.00000000000000000000e+00) (0, 0, 0.00000000000000000000e+00) (0, 0, 0.00000000000000000000e+00) (0, 0, 0.00000000000000000000e+00) (0, 0, 0.00000000000000000000e+00) (0, 0, 0.00000000000000000000e+00) (0, 0, 0.00000000000000000000e+00) (0, 0, 0.00000000000000000000e+00) (0, 0, 0.00000000000000000000e+00) (0, 0, 0.00000000000000000000e+00) (0, 0, 0.00000000000000000000e+00) (11, 5, 6.99999999999999955591e-01) (11, 5, 6.99999999999999955591e-01) (11, 5, 6.99999999999999955591e-01) (11, 5, 6.99999999999999955591e-01) (11, 5, 6.99999999999999955591e-01) (11, 5, 6.99999999999999955591e-01) (0, 5, 6.99999999999999955591e-01) (5, 8, 4.50000000000000011102e-01) (5, 8, 4.50000000000000011102e-01) (0, 8, 4.50000000000000011102e-01) 
connections (connected_to_neuron, weight)=(16, 1.34548744587168545017e+00) (14, 1.02099638074968246393e+00) (15, 6.53237846443449954315e-01) (10, 1.26929242624292371033e+00) (8, 4.49404506116307977948e+00) (1, 2.87014165695184653160e+00) (5, -1.64236860212390173297e-01) (2, 5.24549245659574747691e+00) (11, 1.70331478576418371418e+00) (13, -3.91406462400624821640e-01) (4, 1.29863306560295832526e+00) (16, -1.66703053946234497351e-01) (3, -1.97929422882632244374e+00) (5, -5.63606493954813991820e+00) (15, 2.72916802586442974743e+00) (1, -3.20168048643624159055e+00) (7, 2.30928191608150257252e+00) (8, -4.88760318227425649695e+00) (14, -6.59801350494059635210e-01) (11, -2.60371384117058957131e-01) (10, -7.56650340610897365057e-02) (12, 1.84265244621404011838e+00) (16, 2.03308144898578735393e-01) (4, 8.33743127364331115814e+00) (7, 4.31644089367264349733e+00) (10, -3.65804833396556672298e+00) (0, -1.60429492860104105922e-01) (15, -1.57112262725367957117e+00) (14, -9.94482355054962519070e-01) (6, 7.05217538302606516964e+00) (2, -5.36591144079838411329e+00) (5, 8.38859108881582749007e+00) (1, -2.21010737761652675815e+00) (16, -1.07839276754772714351e-01) (6, 7.69097688339380614053e+00) (12, 1.14755020764164172853e+00) (10, 2.51024469036724662274e+00) (1, -8.06055422767440887810e+00) (11, 1.98458323296969618710e+00) (13, -3.69860225360950645168e+00) (14, -5.16797515992286271569e+00) (4, -5.17052219916862831894e+00) (5, -7.57059286994512969926e-01) (8, 1.51824903581987458168e+00) (16, 7.45582579753127250299e-01) (1, 2.22314012288446471999e+00) (2, 4.04255205313092780273e+00) (8, 1.55871637034608778727e+00) (9, 9.48880950307491422002e-01) (11, 1.35002906825086510523e+00) (13, -8.32748716048838377723e-01) (12, -7.23183498879472308474e-01) (5, -2.63399530070322418496e+00) (4, -3.46493551452921100253e-01) (3, 2.08295531338153949719e+00) (16, 1.63535018452741404138e-01) (0, 1.56151554852714244959e+01) (12, 6.48159058822091044272e-02) (9, 4.57040788283167476180e+00) (7, 1.65542944160940452836e-01) (3, 1.17052700058882361844e+01) (8, -4.51240109199850003563e+00) (5, 1.08542366996865062845e+01) (10, -1.54343887761935771863e+01) (11, -1.15153076105766878356e+01) (15, -1.40908869127495819384e+01) (23, 1.29419156420955627773e+00) (17, 5.24310544324150029638e-01) (21, 1.30971936638599117941e+00) (18, -6.28740312760380226642e-01) (19, -1.49895875131759104271e+00) (23, 4.89038081436140359415e-01) (18, 7.14165892500371546348e-01) (19, -6.15291027631998006797e-03) (20, 2.67218352926413871273e+00) (22, 3.03316300969272889532e+00) 
