FANN_FLO_2.1
num_layers=3
learning_rate=0.700000
connection_rate=0.630000
network_type=0
learning_momentum=0.000000
training_algorithm=2
train_error_function=1
train_stop_function=0
cascade_output_change_fraction=0.010000
quickprop_decay=-0.000100
quickprop_mu=1.750000
rprop_increase_factor=1.200000
rprop_decrease_factor=0.500000
rprop_delta_min=0.000000
rprop_delta_max=50.000000
rprop_delta_zero=0.100000
cascade_output_stagnation_epochs=12
cascade_candidate_change_fraction=0.010000
cascade_candidate_stagnation_epochs=12
cascade_max_out_epochs=150
cascade_min_out_epochs=50
cascade_max_cand_epochs=150
cascade_min_cand_epochs=50
cascade_num_candidate_groups=2
bit_fail_limit=2.40999999999999998945e-02
cascade_candidate_limit=1.00000000000000000000e+03
cascade_weight_multiplier=4.00000000000000022204e-01
cascade_activation_functions_count=10
cascade_activation_functions=3 5 7 8 10 11 14 15 16 17 
cascade_activation_steepnesses_count=4
cascade_activation_steepnesses=2.50000000000000000000e-01 5.00000000000000000000e-01 7.50000000000000000000e-01 1.00000000000000000000e+00 
layer_sizes=17 7 3 
scale_included=0
neurons (num_inputs, activation_function, activation_steepness)=(0, 0, 0.00000000000000000000e+00) (0, 0, 0.00000000000000000000e+00) (0, 0, 0.00000000000000000000e+00) (0, 0, 0.00000000000000000000e+00) (0, 0, 0.00000000000000000000e+00) (0, 0, 0.00000000000000000000e+00) (0, 0, 0.00000000000000000000e+00) (0, 0, 0.00000000000000000000e+00) (0, 0, 0.00000000000000000000e+00) (0, 0, 0.00000000000000000000e+00) (0, 0, 0.00000000000000000000e+00) (0, 0, 0.00000000000000000000e+00) (0, 0, 0.00000000000000000000e+00) (0, 0, 0.00000000000000000000e+00) (0, 0, 0.00000000000000000000e+00) (0, 0, 0.00000000000000000000e+00) (0, 0, 0.00000000000000000000e+00) (11, 5, 6.99999999999999955591e-01) (11, 5, 6.99999999999999955591e-01) (11, 5, 6.99999999999999955591e-01) (11, 5, 6.99999999999999955591e-01) (11, 5, 6.99999999999999955591e-01) (11, 5, 6.99999999999999955591e-01) (0, 5, 6.99999999999999955591e-01) (5, 8, 4.50000000000000011102e-01) (5, 8, 4.50000000000000011102e-01) (0, 8, 4.50000000000000011102e-01) 
connections (connected_to_neuron, weight)=(16, 1.17464379814141303693e-01) (1, -3.50326808915917276011e+00) (3, -2.39680310358199477605e+00) (5, -2.84718514143627698942e+00) (11, 2.89620685613567108163e+00) (6, -5.34961793576229860392e-01) (14, 9.16877926632989281863e-01) (2, -1.34190276109528161541e+00) (15, 5.01990609387657563123e-02) (4, 1.05118100919923973535e+00) (9, 4.21890053083912608400e+00) (16, 3.12918147538651714168e-01) (4, -9.30060198621142042441e+00) (6, -1.67936119068088651751e+00) (12, -1.09976228248343868565e-01) (7, -2.99011433800817449935e+00) (8, 9.06978356994199153007e+00) (9, 1.25223345610845693265e+00) (15, -1.20558053499345918524e+00) (2, -2.82902696178177759379e+00) (11, 2.28066621523401868998e+00) (14, 9.79725267033617175372e-01) (16, 6.24889338157918819427e-02) (7, -3.24531861266957610823e+00) (13, -1.12231282004670003261e+01) (14, 9.39450326928533030468e-01) (6, -8.23722612151936872671e-01) (8, 8.32929527820006043726e+00) (3, -1.27988959495649323728e+00) (10, 2.08387002081021392996e+01) (5, 8.00956676209229168073e-01) (9, 3.30956686309344449981e+00) (1, -4.78489472996826314954e+00) (16, 1.61289031388928494337e+00) (9, -3.50901246392845500566e+00) (3, -1.75219816566764530208e+00) (13, 1.45375531301903766490e+01) (1, 4.69911815780666763942e+00) (12, 2.88675590474660026530e+00) (5, 6.49346876536631523180e+00) (11, -5.85601438944923913255e+00) (6, 1.07857033180240602377e+01) (2, 3.71097523965100384302e+00) (8, -1.67181424945664076631e+01) (16, -2.04352949725671945158e-01) (0, 2.71660712823697849672e+01) (8, -7.56695185405812864587e+00) (14, -2.79832174699682667551e+00) (15, 7.11765293611423599529e-01) (13, 8.16223606354307906763e-01) (1, 1.22741315480419306283e+01) (7, -1.66304179495082635754e+01) (11, -3.09991721586357105167e+00) (3, 1.74148630206738053161e+00) (12, -6.02236593203827275111e-01) (16, -2.16883137264028885705e-01) (2, -2.29275108740571686994e+00) (9, 1.06398521744524821031e+01) (10, 2.70396804893300668482e+01) (13, -1.07087350956913294198e+01) (5, -1.60933800255364651832e+01) (4, -1.93610331300007239008e+01) (15, -1.30684721499281888413e+01) (12, -1.35221031354173182315e+00) (1, -7.48404765918044834194e+00) (6, 3.03080088259647206783e+00) (23, 1.81756570026939079376e+00) (19, 8.13646432455873314105e-01) (20, 1.83335279102442361143e+00) (22, -1.49082469494981828539e+00) (21, -1.87105786280923713782e+00) (23, 1.31688395828804583054e+00) (17, 6.75952896095033617385e-01) (18, 4.13448944286856523433e-01) (21, -2.19083211092450935720e-02) (19, 3.40422729538321311438e-01) 
