FANN_FLO_2.1
num_layers=3
learning_rate=0.700000
connection_rate=0.630000
network_type=0
learning_momentum=0.000000
training_algorithm=2
train_error_function=1
train_stop_function=0
cascade_output_change_fraction=0.010000
quickprop_decay=-0.000100
quickprop_mu=1.750000
rprop_increase_factor=1.200000
rprop_decrease_factor=0.500000
rprop_delta_min=0.000000
rprop_delta_max=50.000000
rprop_delta_zero=0.100000
cascade_output_stagnation_epochs=12
cascade_candidate_change_fraction=0.010000
cascade_candidate_stagnation_epochs=12
cascade_max_out_epochs=150
cascade_min_out_epochs=50
cascade_max_cand_epochs=150
cascade_min_cand_epochs=50
cascade_num_candidate_groups=2
bit_fail_limit=2.40999999999999998945e-02
cascade_candidate_limit=1.00000000000000000000e+03
cascade_weight_multiplier=4.00000000000000022204e-01
cascade_activation_functions_count=10
cascade_activation_functions=3 5 7 8 10 11 14 15 16 17 
cascade_activation_steepnesses_count=4
cascade_activation_steepnesses=2.50000000000000000000e-01 5.00000000000000000000e-01 7.50000000000000000000e-01 1.00000000000000000000e+00 
layer_sizes=17 7 3 
scale_included=0
neurons (num_inputs, activation_function, activation_steepness)=(0, 0, 0.00000000000000000000e+00) (0, 0, 0.00000000000000000000e+00) (0, 0, 0.00000000000000000000e+00) (0, 0, 0.00000000000000000000e+00) (0, 0, 0.00000000000000000000e+00) (0, 0, 0.00000000000000000000e+00) (0, 0, 0.00000000000000000000e+00) (0, 0, 0.00000000000000000000e+00) (0, 0, 0.00000000000000000000e+00) (0, 0, 0.00000000000000000000e+00) (0, 0, 0.00000000000000000000e+00) (0, 0, 0.00000000000000000000e+00) (0, 0, 0.00000000000000000000e+00) (0, 0, 0.00000000000000000000e+00) (0, 0, 0.00000000000000000000e+00) (0, 0, 0.00000000000000000000e+00) (0, 0, 0.00000000000000000000e+00) (11, 5, 6.99999999999999955591e-01) (11, 5, 6.99999999999999955591e-01) (11, 5, 6.99999999999999955591e-01) (11, 5, 6.99999999999999955591e-01) (11, 5, 6.99999999999999955591e-01) (11, 5, 6.99999999999999955591e-01) (0, 5, 6.99999999999999955591e-01) (5, 8, 4.50000000000000011102e-01) (5, 8, 4.50000000000000011102e-01) (0, 8, 4.50000000000000011102e-01) 
connections (connected_to_neuron, weight)=(16, 3.26239461378292516791e-01) (0, -6.61090343394929225163e-01) (5, 9.77156808696263290415e+00) (6, 1.05074314541447595417e+01) (8, -2.71452050298388547489e+00) (9, -1.08735820177298680989e+00) (13, -6.63386477677158636901e-01) (10, 2.02785822964982243022e+00) (11, -4.92636724283638383071e+00) (12, -1.46303515093749814113e+00) (4, 4.22884685015491612603e+00) (16, 6.51288252635192521645e-01) (0, 1.04246456654263131014e+01) (8, 6.14892203039743723281e+00) (15, -1.33792591520112953418e+01) (11, 7.70935464952012150519e-01) (9, -1.87085241196230533944e+00) (4, 2.29652434327875409892e+00) (12, -1.00451983102103650225e+01) (14, -2.95754097893472689407e+00) (5, -6.60323244415530297147e+00) (1, 3.97979081733811801413e+00) (16, -2.73402134521486928076e-01) (2, 1.12513682451722596412e+00) (4, -1.03972567914559355096e+00) (5, -3.67876775902806496532e+00) (7, -9.08369802677362692123e+00) (10, 5.25224568203730601823e+00) (6, -1.54914429790031582534e+00) (1, -1.00767601341529089432e+00) (13, 7.28740463453172782060e-01) (12, -1.33385879568406151563e+00) (14, 6.09545817609860218766e+00) (16, 3.90400692282082406592e-01) (3, -1.39916456785909269767e-02) (14, 1.03318812422636296944e+00) (9, 6.82696234255491307685e-01) (12, 1.69674746137116194689e+00) (8, 4.03519944510395678350e+00) (10, -2.47656365797384303562e+00) (13, 1.64812590298647076992e+00) (2, 7.92360144907736874131e+00) (4, 1.01665726220541419167e+00) (5, 2.46567730652398644509e+01) (16, 1.23472254896959587889e+00) (1, 1.26072265342686251621e+00) (11, -4.42588218539854347244e-02) (12, 1.07126249790332906536e-02) (14, -8.41656579319403963524e-01) (3, -5.99168513018288328986e-01) (15, -8.64223079089350143533e+00) (5, 3.64343318018532480451e-01) (0, 2.82866252775198967484e+00) (13, 6.85002782604563442703e+00) (2, 2.23766362821453101972e+00) (16, 8.80705916464598059790e-02) (6, 1.31042246165711819827e+01) (9, 2.98327523519052295597e+00) (13, -1.40401065798256574624e+01) (4, 9.37051918817105367054e-01) (14, 4.67332150885275510177e+00) (12, 1.84481651475024599485e+00) (7, -3.39314158614261174307e+00) (2, -1.06945827102407875486e+01) (0, 3.15900393379997534993e+00) (3, 1.18312913015519560744e+00) (23, 8.50669415031929165849e-01) (18, 2.25858085860431190284e+00) (22, -1.01925724447735599476e+00) (19, 6.69139045084916839201e-01) (21, 1.54147506681327567390e-01) (23, 1.66739762704748861744e+00) (17, -8.66951749224099010860e-01) (19, 1.40989029104312302287e+00) (20, 9.77632323758041654749e-01) (21, 1.26005885802187678202e+00) 
