FANN_FLO_2.1
num_layers=3
learning_rate=0.700000
connection_rate=0.630000
network_type=0
learning_momentum=0.000000
training_algorithm=2
train_error_function=1
train_stop_function=0
cascade_output_change_fraction=0.010000
quickprop_decay=-0.000100
quickprop_mu=1.750000
rprop_increase_factor=1.200000
rprop_decrease_factor=0.500000
rprop_delta_min=0.000000
rprop_delta_max=50.000000
rprop_delta_zero=0.100000
cascade_output_stagnation_epochs=12
cascade_candidate_change_fraction=0.010000
cascade_candidate_stagnation_epochs=12
cascade_max_out_epochs=150
cascade_min_out_epochs=50
cascade_max_cand_epochs=150
cascade_min_cand_epochs=50
cascade_num_candidate_groups=2
bit_fail_limit=2.40999999999999998945e-02
cascade_candidate_limit=1.00000000000000000000e+03
cascade_weight_multiplier=4.00000000000000022204e-01
cascade_activation_functions_count=10
cascade_activation_functions=3 5 7 8 10 11 14 15 16 17 
cascade_activation_steepnesses_count=4
cascade_activation_steepnesses=2.50000000000000000000e-01 5.00000000000000000000e-01 7.50000000000000000000e-01 1.00000000000000000000e+00 
layer_sizes=17 7 3 
scale_included=0
neurons (num_inputs, activation_function, activation_steepness)=(0, 0, 0.00000000000000000000e+00) (0, 0, 0.00000000000000000000e+00) (0, 0, 0.00000000000000000000e+00) (0, 0, 0.00000000000000000000e+00) (0, 0, 0.00000000000000000000e+00) (0, 0, 0.00000000000000000000e+00) (0, 0, 0.00000000000000000000e+00) (0, 0, 0.00000000000000000000e+00) (0, 0, 0.00000000000000000000e+00) (0, 0, 0.00000000000000000000e+00) (0, 0, 0.00000000000000000000e+00) (0, 0, 0.00000000000000000000e+00) (0, 0, 0.00000000000000000000e+00) (0, 0, 0.00000000000000000000e+00) (0, 0, 0.00000000000000000000e+00) (0, 0, 0.00000000000000000000e+00) (0, 0, 0.00000000000000000000e+00) (11, 5, 6.99999999999999955591e-01) (11, 5, 6.99999999999999955591e-01) (11, 5, 6.99999999999999955591e-01) (11, 5, 6.99999999999999955591e-01) (11, 5, 6.99999999999999955591e-01) (11, 5, 6.99999999999999955591e-01) (0, 5, 6.99999999999999955591e-01) (5, 8, 4.50000000000000011102e-01) (5, 8, 4.50000000000000011102e-01) (0, 8, 4.50000000000000011102e-01) 
connections (connected_to_neuron, weight)=(16, -8.88522208714792260942e-01) (5, 3.56525096419714948581e+00) (14, 1.58017976381121161289e+00) (9, -1.04675585428973363378e+01) (3, -4.38148935426558139294e-01) (12, 2.19584134660013474694e-01) (7, 1.14695062905167910472e+00) (13, 8.49738080095371728362e+00) (10, -3.90372601980681643852e+00) (1, 3.20307577706397239581e+00) (8, -2.11444816032144577989e+00) (16, -5.19122129848325619683e-01) (0, 1.58190657575104931531e+00) (4, 2.73337335607772313750e+00) (7, 2.74926426569870319128e+00) (8, 9.45230126311621510204e-01) (10, 5.02899471577277101808e-01) (14, 2.65614556828796366528e-01) (12, 2.21737471505225336443e+00) (13, 7.71505641129632713238e-01) (15, -2.21855377891014615699e+00) (2, 2.00748649346509516755e-01) (16, 4.18625928156346416298e-01) (12, 2.09151195717646753991e+00) (15, -2.80528362998244418236e+00) (6, -1.18419642621450341147e-01) (13, 2.98778877931476172236e+00) (9, -5.53474761251419611341e+00) (7, 7.57663803988849582360e-01) (1, 2.32548597892149322419e+00) (8, 8.14984212794909845812e-01) (0, 3.41238647653697757534e+00) (11, 2.24942561351955827575e+00) (16, 1.52880992951258209978e+00) (3, -1.02784783623080078208e-01) (9, 1.76815056016943694672e+00) (7, 6.30395781998485227327e-01) (10, 1.00646767695107497431e+00) (6, 7.31022946395147421583e-01) (15, -4.10720198318189044784e+00) (1, 2.33059916159675806213e+00) (8, -6.45823495827456284246e+00) (2, 1.78364004201643577829e+00) (0, -2.92304273911810019726e+00) (16, 8.09346946201487393857e-01) (2, 3.62756160638856162137e+00) (6, -8.00900242901828463005e+00) (11, -2.84526552418579914416e+00) (13, -8.00343670269591278554e+00) (12, -1.72653584654725094083e+01) (10, -3.97161054076090103138e+00) (3, -2.63251706071178714907e+00) (4, 5.40858866501966861762e+00) (0, 7.12647550053245826263e+00) (14, 8.85885875842906855837e+00) (16, -3.57404501972535815213e-01) (1, 1.16630132664179164692e+00) (14, 1.28047713509497329554e+00) (9, 2.01779991537876096652e-01) (15, 6.37891741005304768741e-01) (3, 6.43970092818577977134e-01) (13, 1.02873364003966072389e+00) (10, 7.64324487422655240998e-01) (2, 3.99249750500299482869e-01) (0, 2.03421329395336369927e+00) (5, 8.98762215864928770692e-01) (23, -8.65194241008554687511e-01) (18, 1.88656543690621947285e+00) (19, -1.04587616981227093937e+00) (22, 3.30918164514106294405e+00) (17, 1.19015146773565683169e+00) (23, 2.82153813903434880217e+00) (17, 5.34507378805354038676e-01) (20, 1.86657487840603719675e+00) (21, 3.63405103799169060252e+00) (19, 3.86449000152944055486e+00) 
