FANN_FLO_2.1
num_layers=3
learning_rate=0.700000
connection_rate=0.630000
network_type=0
learning_momentum=0.000000
training_algorithm=2
train_error_function=1
train_stop_function=0
cascade_output_change_fraction=0.010000
quickprop_decay=-0.000100
quickprop_mu=1.750000
rprop_increase_factor=1.200000
rprop_decrease_factor=0.500000
rprop_delta_min=0.000000
rprop_delta_max=50.000000
rprop_delta_zero=0.100000
cascade_output_stagnation_epochs=12
cascade_candidate_change_fraction=0.010000
cascade_candidate_stagnation_epochs=12
cascade_max_out_epochs=150
cascade_min_out_epochs=50
cascade_max_cand_epochs=150
cascade_min_cand_epochs=50
cascade_num_candidate_groups=2
bit_fail_limit=2.40999999999999998945e-02
cascade_candidate_limit=1.00000000000000000000e+03
cascade_weight_multiplier=4.00000000000000022204e-01
cascade_activation_functions_count=10
cascade_activation_functions=3 5 7 8 10 11 14 15 16 17 
cascade_activation_steepnesses_count=4
cascade_activation_steepnesses=2.50000000000000000000e-01 5.00000000000000000000e-01 7.50000000000000000000e-01 1.00000000000000000000e+00 
layer_sizes=17 7 3 
scale_included=0
neurons (num_inputs, activation_function, activation_steepness)=(0, 0, 0.00000000000000000000e+00) (0, 0, 0.00000000000000000000e+00) (0, 0, 0.00000000000000000000e+00) (0, 0, 0.00000000000000000000e+00) (0, 0, 0.00000000000000000000e+00) (0, 0, 0.00000000000000000000e+00) (0, 0, 0.00000000000000000000e+00) (0, 0, 0.00000000000000000000e+00) (0, 0, 0.00000000000000000000e+00) (0, 0, 0.00000000000000000000e+00) (0, 0, 0.00000000000000000000e+00) (0, 0, 0.00000000000000000000e+00) (0, 0, 0.00000000000000000000e+00) (0, 0, 0.00000000000000000000e+00) (0, 0, 0.00000000000000000000e+00) (0, 0, 0.00000000000000000000e+00) (0, 0, 0.00000000000000000000e+00) (11, 5, 6.99999999999999955591e-01) (11, 5, 6.99999999999999955591e-01) (11, 5, 6.99999999999999955591e-01) (11, 5, 6.99999999999999955591e-01) (11, 5, 6.99999999999999955591e-01) (11, 5, 6.99999999999999955591e-01) (0, 5, 6.99999999999999955591e-01) (5, 8, 4.50000000000000011102e-01) (5, 8, 4.50000000000000011102e-01) (0, 8, 4.50000000000000011102e-01) 
connections (connected_to_neuron, weight)=(16, -3.65252268593757478676e-01) (10, 1.49355609521392977967e+01) (6, -6.67175117595673405901e+00) (15, 1.80972760476479628267e+01) (3, 1.91591278044801849312e+00) (8, 8.03623929978373752192e+00) (1, 5.32001189756908487993e+00) (4, 2.51105064363303487340e+00) (7, -1.77422543423130218976e+00) (13, 9.91542682392103080780e-01) (5, -1.32894328247268056487e+00) (16, 1.25893102021235581134e+00) (1, 2.38187253387325226228e+00) (6, -3.93709203207102031996e+00) (7, -2.31767758027326298276e+00) (13, 7.64921261136222163657e-01) (14, -1.21922546701412545800e-01) (5, -2.43553494319234120624e+00) (8, 1.68455254318070268837e+00) (9, 2.74610644357860422815e-01) (12, 2.10298261061092867097e-01) (2, 2.89812239098174595497e+00) (16, -8.04637141177496489908e-02) (0, 5.01354984694076932783e+00) (15, 1.63335464167628074961e+00) (4, 2.17361671384423047471e+01) (3, 1.24050082379649651010e-01) (12, 7.97488331175933873318e-01) (10, -1.14305770315751473731e+01) (14, -9.67404311003768668797e+00) (5, 6.47226770769395365335e+00) (13, 2.14107404896353187285e-01) (1, -9.40252592256457242481e-02) (16, -2.32167579198541196295e-01) (2, 7.22072102981086327844e+00) (4, -1.57879032389427442773e+00) (5, -2.20063523410785971679e-01) (9, -2.51599437713700413433e-01) (10, -3.71957750746384085971e+00) (12, -7.36223073085059853682e-01) (0, -1.01836659099821558172e+00) (14, 2.51282675607634072013e-02) (11, 4.46611671788325104160e+00) (6, -3.00746299580496367909e+00) (16, 2.55995069370145644783e+00) (3, 6.16873661229184389043e+00) (8, -5.17723722827437837779e-01) (11, -8.05628546922504895633e+00) (13, -8.67783230625875567910e+00) (1, -4.86038279956396745973e+00) (9, -5.57237336118535209195e-01) (4, -1.35728288755877457561e+00) (14, -1.41216032802632529553e+01) (7, -6.33042505975424063536e+00) (12, -5.54053774271002374974e+00) (16, 3.42882274694806454818e+01) (4, 1.13800082768290224067e+02) (6, -3.01501571176701531840e+02) (5, 1.54968029176744238384e+02) (11, -1.10279198743885160638e+01) (15, 1.54600924098141007335e+02) (10, -8.07300207952896926145e+02) (14, 1.45890505338201705854e+02) (8, 1.00687062648794167785e+01) (1, -1.93294969827256792883e+01) (9, 2.83791927174697953262e+01) (23, 1.99638371177445783644e+00) (17, 3.52667339913650734751e-01) (18, 1.61551736721024674637e+00) (19, -1.35681518819265911624e+00) (20, 7.08249130940944326973e-01) (23, -7.99301864154051910916e-01) (21, -1.69060343790619427295e+00) (22, -6.29306131736338314475e-01) (18, -7.16491401882666467671e-01) (17, 2.54585284566318792443e+00) 
