FANN_FLO_2.1
num_layers=3
learning_rate=0.700000
connection_rate=0.630000
network_type=0
learning_momentum=0.000000
training_algorithm=2
train_error_function=1
train_stop_function=0
cascade_output_change_fraction=0.010000
quickprop_decay=-0.000100
quickprop_mu=1.750000
rprop_increase_factor=1.200000
rprop_decrease_factor=0.500000
rprop_delta_min=0.000000
rprop_delta_max=50.000000
rprop_delta_zero=0.100000
cascade_output_stagnation_epochs=12
cascade_candidate_change_fraction=0.010000
cascade_candidate_stagnation_epochs=12
cascade_max_out_epochs=150
cascade_min_out_epochs=50
cascade_max_cand_epochs=150
cascade_min_cand_epochs=50
cascade_num_candidate_groups=2
bit_fail_limit=2.40999999999999998945e-02
cascade_candidate_limit=1.00000000000000000000e+03
cascade_weight_multiplier=4.00000000000000022204e-01
cascade_activation_functions_count=10
cascade_activation_functions=3 5 7 8 10 11 14 15 16 17 
cascade_activation_steepnesses_count=4
cascade_activation_steepnesses=2.50000000000000000000e-01 5.00000000000000000000e-01 7.50000000000000000000e-01 1.00000000000000000000e+00 
layer_sizes=17 7 3 
scale_included=0
neurons (num_inputs, activation_function, activation_steepness)=(0, 0, 0.00000000000000000000e+00) (0, 0, 0.00000000000000000000e+00) (0, 0, 0.00000000000000000000e+00) (0, 0, 0.00000000000000000000e+00) (0, 0, 0.00000000000000000000e+00) (0, 0, 0.00000000000000000000e+00) (0, 0, 0.00000000000000000000e+00) (0, 0, 0.00000000000000000000e+00) (0, 0, 0.00000000000000000000e+00) (0, 0, 0.00000000000000000000e+00) (0, 0, 0.00000000000000000000e+00) (0, 0, 0.00000000000000000000e+00) (0, 0, 0.00000000000000000000e+00) (0, 0, 0.00000000000000000000e+00) (0, 0, 0.00000000000000000000e+00) (0, 0, 0.00000000000000000000e+00) (0, 0, 0.00000000000000000000e+00) (11, 5, 6.99999999999999955591e-01) (11, 5, 6.99999999999999955591e-01) (11, 5, 6.99999999999999955591e-01) (11, 5, 6.99999999999999955591e-01) (11, 5, 6.99999999999999955591e-01) (11, 5, 6.99999999999999955591e-01) (0, 5, 6.99999999999999955591e-01) (5, 8, 4.50000000000000011102e-01) (5, 8, 4.50000000000000011102e-01) (0, 8, 4.50000000000000011102e-01) 
connections (connected_to_neuron, weight)=(16, -9.69745369747306851238e-01) (1, 3.32623961750389174341e+00) (11, 7.04626670596927850987e-02) (3, -1.63629067464741984050e-01) (8, -4.51820802124439158121e+00) (4, -4.62170622364878447286e+00) (14, 6.73911656490816746157e-01) (5, 1.31228820028147397103e+00) (7, -1.97177650452622765798e+00) (10, -2.11149594029920262273e+00) (15, 2.20287527587747611335e+00) (16, 2.36634903054200484984e-01) (0, -6.22109395681669408162e+00) (2, -5.66560984846514625879e-01) (3, -7.34737795038602259368e-01) (5, 2.31747726609500537265e+00) (8, 1.95291084958093752455e+00) (13, 1.23442283003762298677e+00) (14, 8.58205899340797939701e-01) (7, 1.52828981834539479046e+00) (1, 1.94781366598024252568e+00) (10, 3.85727224580614425076e-01) (16, 1.11781289876031024455e-02) (6, 1.89320742141780695711e+00) (12, 1.74510887492312494196e+00) (0, 2.34621566501723100018e+00) (13, 2.51744030175038824293e-01) (5, 3.46000618921858782429e+00) (11, 2.30614333417389349989e+00) (1, -2.61533797472452711474e+00) (7, -4.14895913810662153587e-01) (2, 1.56012370371199016184e+00) (4, 7.70360419612138636047e-01) (16, -1.85652075500523511264e-01) (7, -1.12467171377113683839e+00) (14, 2.02535280346797774698e+00) (2, 1.23458088098234400332e-01) (4, 7.49014136049036438614e-01) (3, -4.62228686048197293101e-02) (10, 3.46287680580109435979e+00) (8, -5.94309920149944481693e+00) (9, -3.33063976760088431561e+00) (12, 3.07756256771180902732e+00) (13, 1.58979743128280809339e-01) (16, -8.46122973023716751229e-01) (9, 1.56617848334008802347e+00) (10, 4.53287113448886003209e-01) (15, -2.81809186854557802704e+00) (6, -7.89570139076472177209e+00) (2, 8.51015112832585174374e+00) (7, 7.31453680735752698183e+00) (5, 8.52740347200678527884e+00) (14, -5.54829012840571333953e+00) (1, 2.50708951697908677403e+00) (4, -9.19318012687456165288e-01) (16, 1.35555606420852181593e+00) (4, 3.00760535657996630476e+00) (1, 1.89118382842752863482e+00) (6, -3.13797850006836531733e+00) (14, 1.10236615644084476884e+01) (2, -6.19167859540219023273e+00) (8, -1.41862336886649753609e+01) (11, 2.06758393306197767458e+01) (10, -6.81235616336820837269e-01) (9, -2.94501490288560374697e-01) (5, 1.73549387115446904772e+01) (23, 2.46012297893736597842e+00) (17, -9.15830448606010594226e-01) (21, -4.92513339358566337722e+00) (22, 2.30503370982628563723e+00) (18, 3.02726045925829412298e+00) (23, -7.45133755736146152771e-01) (18, -4.79247784971705226287e-01) (19, 1.38817883214808945880e+00) (20, 1.13037466058337043862e+00) (17, 9.27728608749130101430e-01) 
