FANN_FLO_2.1
num_layers=3
learning_rate=0.700000
connection_rate=0.630000
network_type=0
learning_momentum=0.000000
training_algorithm=2
train_error_function=1
train_stop_function=0
cascade_output_change_fraction=0.010000
quickprop_decay=-0.000100
quickprop_mu=1.750000
rprop_increase_factor=1.200000
rprop_decrease_factor=0.500000
rprop_delta_min=0.000000
rprop_delta_max=50.000000
rprop_delta_zero=0.100000
cascade_output_stagnation_epochs=12
cascade_candidate_change_fraction=0.010000
cascade_candidate_stagnation_epochs=12
cascade_max_out_epochs=150
cascade_min_out_epochs=50
cascade_max_cand_epochs=150
cascade_min_cand_epochs=50
cascade_num_candidate_groups=2
bit_fail_limit=2.40999999999999998945e-02
cascade_candidate_limit=1.00000000000000000000e+03
cascade_weight_multiplier=4.00000000000000022204e-01
cascade_activation_functions_count=10
cascade_activation_functions=3 5 7 8 10 11 14 15 16 17 
cascade_activation_steepnesses_count=4
cascade_activation_steepnesses=2.50000000000000000000e-01 5.00000000000000000000e-01 7.50000000000000000000e-01 1.00000000000000000000e+00 
layer_sizes=17 7 3 
scale_included=0
neurons (num_inputs, activation_function, activation_steepness)=(0, 0, 0.00000000000000000000e+00) (0, 0, 0.00000000000000000000e+00) (0, 0, 0.00000000000000000000e+00) (0, 0, 0.00000000000000000000e+00) (0, 0, 0.00000000000000000000e+00) (0, 0, 0.00000000000000000000e+00) (0, 0, 0.00000000000000000000e+00) (0, 0, 0.00000000000000000000e+00) (0, 0, 0.00000000000000000000e+00) (0, 0, 0.00000000000000000000e+00) (0, 0, 0.00000000000000000000e+00) (0, 0, 0.00000000000000000000e+00) (0, 0, 0.00000000000000000000e+00) (0, 0, 0.00000000000000000000e+00) (0, 0, 0.00000000000000000000e+00) (0, 0, 0.00000000000000000000e+00) (0, 0, 0.00000000000000000000e+00) (11, 5, 6.99999999999999955591e-01) (11, 5, 6.99999999999999955591e-01) (11, 5, 6.99999999999999955591e-01) (11, 5, 6.99999999999999955591e-01) (11, 5, 6.99999999999999955591e-01) (11, 5, 6.99999999999999955591e-01) (0, 5, 6.99999999999999955591e-01) (5, 8, 4.50000000000000011102e-01) (5, 8, 4.50000000000000011102e-01) (0, 8, 4.50000000000000011102e-01) 
connections (connected_to_neuron, weight)=(16, 3.92723347894617991205e-01) (14, 2.02361521257012588748e+00) (6, -6.17214885689440606598e+00) (8, -1.86319088229406726320e+00) (4, 3.86121217738305899658e+00) (2, -2.81077270988238314686e+00) (5, 3.58267764635897467684e+00) (9, -1.27220867351029642833e+00) (3, -2.46308510987399120751e+00) (7, 2.43149438601144529670e+00) (1, 1.15838938450028088312e+01) (16, 4.13695962554181062565e-01) (5, -1.46051270196050375638e+00) (8, -5.54487007287100652775e+00) (14, -2.57872650546490556067e+00) (3, -1.59235169240423402037e+00) (9, -1.27718251871020815891e+00) (2, -3.33568713456535181905e+00) (1, -1.92174950461895210907e+00) (12, -4.17116453279535170928e-01) (6, 7.06821816047542794692e-01) (10, -4.75070332550717377984e+00) (16, -1.46404464439776282880e-01) (0, 3.12582781673018317292e+00) (1, 4.76789044796787830904e+00) (2, -6.17416075885214521435e+00) (6, 3.34216909092827885175e+00) (7, -4.98324083646651061485e+00) (8, -1.65436516020118560277e+01) (10, -9.44034193518349518115e+00) (9, -4.52947725561462011257e+00) (13, -5.98651042557177714976e-01) (12, 5.02761468558390145489e+00) (16, 2.27790671718813353408e+00) (9, -1.66683432510360240997e+00) (13, -1.04297749681345965911e+01) (15, -1.93626676962530019921e+01) (3, 7.27414210951949247175e+00) (5, -2.55269237494149958678e+00) (4, 3.77871420848955752447e+00) (7, -1.12381332635748965032e+00) (14, -8.60174460630597437216e+00) (2, -9.75949053124792520464e+00) (1, 1.94497028300752994312e+00) (16, 5.31137412960386856575e-01) (4, 9.73706647733402652634e-01) (10, -9.24587716018848371213e-01) (11, -4.44412674639503979535e+00) (12, -2.65317521311648008009e+00) (14, 5.93069310198180099647e-01) (7, -2.76968456697715215142e+00) (3, -1.69892478892401821433e+00) (6, -5.00216638964375071019e-01) (5, -1.10007594479909198704e+00) (2, -3.21910104224772197767e+00) (16, -4.58994994008936230134e-01) (3, 2.51762665693048814930e+00) (4, 8.77781192478334304496e-01) (13, 2.12053552901695280264e-01) (9, 4.16804059790516223671e+00) (8, 5.13099053325048259921e+00) (0, 2.14325479719546940771e+00) (2, 8.96533587115282304403e-01) (6, 2.09421146265922564211e+00) (1, -2.82876114209948381628e+00) (10, 1.79595799038023384853e+00) (23, -8.94835105426922794436e-01) (17, -1.37539741735518905585e+00) (18, 3.39067533867649473223e+00) (20, 2.61655944004775875555e+00) (21, 2.49137016114125309230e+00) (23, 3.77722335321098112715e-01) (19, 1.04532249616471406561e+00) (22, 3.96666429068452508488e+00) (21, -5.72994091070890609885e-01) (18, 7.08302709053608592349e-01) 
