FANN_FLO_2.1
num_layers=3
learning_rate=0.700000
connection_rate=0.630000
network_type=0
learning_momentum=0.000000
training_algorithm=2
train_error_function=1
train_stop_function=0
cascade_output_change_fraction=0.010000
quickprop_decay=-0.000100
quickprop_mu=1.750000
rprop_increase_factor=1.200000
rprop_decrease_factor=0.500000
rprop_delta_min=0.000000
rprop_delta_max=50.000000
rprop_delta_zero=0.100000
cascade_output_stagnation_epochs=12
cascade_candidate_change_fraction=0.010000
cascade_candidate_stagnation_epochs=12
cascade_max_out_epochs=150
cascade_min_out_epochs=50
cascade_max_cand_epochs=150
cascade_min_cand_epochs=50
cascade_num_candidate_groups=2
bit_fail_limit=2.40999999999999998945e-02
cascade_candidate_limit=1.00000000000000000000e+03
cascade_weight_multiplier=4.00000000000000022204e-01
cascade_activation_functions_count=10
cascade_activation_functions=3 5 7 8 10 11 14 15 16 17 
cascade_activation_steepnesses_count=4
cascade_activation_steepnesses=2.50000000000000000000e-01 5.00000000000000000000e-01 7.50000000000000000000e-01 1.00000000000000000000e+00 
layer_sizes=17 7 3 
scale_included=0
neurons (num_inputs, activation_function, activation_steepness)=(0, 0, 0.00000000000000000000e+00) (0, 0, 0.00000000000000000000e+00) (0, 0, 0.00000000000000000000e+00) (0, 0, 0.00000000000000000000e+00) (0, 0, 0.00000000000000000000e+00) (0, 0, 0.00000000000000000000e+00) (0, 0, 0.00000000000000000000e+00) (0, 0, 0.00000000000000000000e+00) (0, 0, 0.00000000000000000000e+00) (0, 0, 0.00000000000000000000e+00) (0, 0, 0.00000000000000000000e+00) (0, 0, 0.00000000000000000000e+00) (0, 0, 0.00000000000000000000e+00) (0, 0, 0.00000000000000000000e+00) (0, 0, 0.00000000000000000000e+00) (0, 0, 0.00000000000000000000e+00) (0, 0, 0.00000000000000000000e+00) (11, 5, 6.99999999999999955591e-01) (11, 5, 6.99999999999999955591e-01) (11, 5, 6.99999999999999955591e-01) (11, 5, 6.99999999999999955591e-01) (11, 5, 6.99999999999999955591e-01) (11, 5, 6.99999999999999955591e-01) (0, 5, 6.99999999999999955591e-01) (5, 8, 4.50000000000000011102e-01) (5, 8, 4.50000000000000011102e-01) (0, 8, 4.50000000000000011102e-01) 
connections (connected_to_neuron, weight)=(16, 1.37262563424138472890e+00) (1, 1.35763065359187784509e+00) (14, 2.08079642886728288786e+00) (10, 7.35292277018141060552e+00) (13, 8.86265644208781983027e-02) (0, -1.02440927149451702083e-01) (9, 1.52958636924681168345e+00) (3, -1.06184409317027661501e+00) (12, 1.79913675756963153951e+00) (7, 2.20440379586809642731e+00) (15, -3.40933816474960238452e+00) (16, -5.52472992721286582096e-01) (6, 1.32061435815736016863e+00) (8, -6.79606915988018256414e-01) (11, -1.16038234654034488891e+00) (1, -5.17554685485870002992e+00) (14, 2.75432130925815199518e-01) (7, 4.75068530988030346407e+00) (9, -6.11977371802831737746e-01) (3, -5.18767437114324625469e+00) (12, 1.84189207266105969829e+00) (5, -1.49382110559829683893e+00) (16, -3.66015187858533055931e-02) (0, -3.79975906834888821351e+00) (4, 1.32236390735021025478e+00) (13, 6.97309463688738473408e-01) (11, 7.66810916484416016381e-01) (9, 1.72951309456116260332e-02) (12, 5.76637841127096706373e-01) (8, 5.95352933754047630721e-01) (2, -1.88849077305680790317e+00) (6, 3.92790465714294045885e-01) (14, 6.38981124816361933938e-01) (16, 3.12545818508637648914e-02) (2, -3.14936371746062704347e-01) (5, 4.58266714354988735636e+00) (7, -1.87353093736346704157e-01) (12, 7.60756228070316297546e-03) (14, -1.00293555043906601476e+00) (0, 1.99295080446181299694e-01) (4, -7.69352529645173310868e-01) (9, 1.08731489351399535082e-01) (10, -1.89906658498385283451e+00) (15, -2.67697071078902704144e+00) (16, 1.01401314318055746355e+00) (9, 1.64415793988879954668e-01) (12, 2.22259270494318851574e-02) (1, 5.93027716154029937989e-01) (14, -3.93512536886064079322e-01) (3, 2.04409126238936433850e+00) (13, 1.49491044112922377707e+00) (5, -3.78182559793221528821e+00) (8, -1.43570175567141222750e+00) (4, -2.09510991760268572293e+00) (10, -2.29220923771031648286e-01) (16, 8.35185092639313328422e-03) (3, -3.29448637608700867219e+00) (10, 6.00748499113859235621e+00) (15, 1.27656151529881611850e+00) (13, 1.27284093464377523475e+00) (11, 9.28224779250075515691e-01) (8, 5.64493334028752347109e-01) (0, -9.46301583178440625099e-02) (6, 2.54823016730538975949e-01) (2, -1.09179060237576730508e+00) (1, -1.75720880455707573198e+00) (23, -7.33699552481744010635e-01) (18, 1.31878043497680152996e+00) (19, 1.43355906716725156613e+00) (22, 6.18915486428038175148e-01) (20, -3.91080994086296318546e-01) (23, 3.40829296182483143518e-01) (17, -1.06119509166150671753e+00) (20, 5.12071155726044224821e+00) (21, 3.39137927799471317059e+00) (18, 6.50509687344790643593e-01) 
