FANN_FLO_2.1
num_layers=3
learning_rate=0.700000
connection_rate=0.630000
network_type=0
learning_momentum=0.000000
training_algorithm=2
train_error_function=1
train_stop_function=0
cascade_output_change_fraction=0.010000
quickprop_decay=-0.000100
quickprop_mu=1.750000
rprop_increase_factor=1.200000
rprop_decrease_factor=0.500000
rprop_delta_min=0.000000
rprop_delta_max=50.000000
rprop_delta_zero=0.100000
cascade_output_stagnation_epochs=12
cascade_candidate_change_fraction=0.010000
cascade_candidate_stagnation_epochs=12
cascade_max_out_epochs=150
cascade_min_out_epochs=50
cascade_max_cand_epochs=150
cascade_min_cand_epochs=50
cascade_num_candidate_groups=2
bit_fail_limit=2.40999999999999998945e-02
cascade_candidate_limit=1.00000000000000000000e+03
cascade_weight_multiplier=4.00000000000000022204e-01
cascade_activation_functions_count=10
cascade_activation_functions=3 5 7 8 10 11 14 15 16 17 
cascade_activation_steepnesses_count=4
cascade_activation_steepnesses=2.50000000000000000000e-01 5.00000000000000000000e-01 7.50000000000000000000e-01 1.00000000000000000000e+00 
layer_sizes=17 7 3 
scale_included=0
neurons (num_inputs, activation_function, activation_steepness)=(0, 0, 0.00000000000000000000e+00) (0, 0, 0.00000000000000000000e+00) (0, 0, 0.00000000000000000000e+00) (0, 0, 0.00000000000000000000e+00) (0, 0, 0.00000000000000000000e+00) (0, 0, 0.00000000000000000000e+00) (0, 0, 0.00000000000000000000e+00) (0, 0, 0.00000000000000000000e+00) (0, 0, 0.00000000000000000000e+00) (0, 0, 0.00000000000000000000e+00) (0, 0, 0.00000000000000000000e+00) (0, 0, 0.00000000000000000000e+00) (0, 0, 0.00000000000000000000e+00) (0, 0, 0.00000000000000000000e+00) (0, 0, 0.00000000000000000000e+00) (0, 0, 0.00000000000000000000e+00) (0, 0, 0.00000000000000000000e+00) (11, 5, 6.99999999999999955591e-01) (11, 5, 6.99999999999999955591e-01) (11, 5, 6.99999999999999955591e-01) (11, 5, 6.99999999999999955591e-01) (11, 5, 6.99999999999999955591e-01) (11, 5, 6.99999999999999955591e-01) (0, 5, 6.99999999999999955591e-01) (5, 8, 4.50000000000000011102e-01) (5, 8, 4.50000000000000011102e-01) (0, 8, 4.50000000000000011102e-01) 
connections (connected_to_neuron, weight)=(16, -1.74558534696393152785e-01) (0, 4.72878904353016826789e-01) (3, -1.44079087560487906217e+00) (13, 1.10779260844620530690e+00) (8, -6.66906818648521193538e-01) (12, -4.96554037267400261157e+00) (1, -2.24920101838127628469e+00) (10, 7.75819101073347394681e-01) (4, -2.62100530618645410907e-01) (5, -4.45104892028401621928e+00) (11, -4.26476033670186993607e-01) (16, 9.31739745331331747913e-01) (1, -2.53402263462659460558e+00) (4, -8.78231494985297445055e+00) (6, 7.63529947606816583594e-01) (15, 4.08034823455884099186e-01) (5, -3.37474866507045856423e+00) (10, 1.65924493321959620751e+00) (12, 1.14591550073683778876e+00) (13, -5.05430890797381113244e-03) (11, -3.31290657354260087430e+00) (9, 8.22840149668785936221e-01) (16, 3.17280903695154881117e-01) (11, 2.15278887363318105486e+00) (12, -7.62132562615646214077e-01) (14, -1.80741675882675356668e+00) (9, 5.85800593840299435588e-02) (2, 7.12753069337143330131e-01) (13, 2.77188766097262340171e-01) (8, 4.67422638394592859790e-01) (1, -1.57055989251895677938e+00) (4, 4.28895049657865801152e+00) (0, 1.63614041227199513706e+00) (16, 7.37162387704537680477e-01) (2, 5.62107410758907910520e-01) (14, 3.18948063948857418737e+00) (8, -1.36294743973020326955e+00) (6, 4.16271676559366632375e+00) (7, -1.50928641833693468755e+01) (9, -4.01410207276959596356e+00) (3, 4.17152116791314941935e+00) (12, 2.91603294479580688048e+00) (5, 4.86367350706706389474e+01) (1, -7.37459085182484752607e+00) (16, -2.63431786368625908690e-01) (7, 6.69852604601342438428e+00) (8, -6.07507903670877813518e-01) (9, 2.50341996926129073398e-01) (3, -1.92350268288023129593e+00) (4, 5.95649226565928904820e-02) (15, 1.13659925622000357315e+00) (5, 1.35922672770291663724e+00) (1, -2.01304509041938883840e+00) (11, -2.90770585022265992681e-01) (6, -1.25395155288694448714e+00) (16, 3.47743794511428283567e-01) (5, 3.43596188837032840979e+01) (10, -3.61951874767460246574e+00) (13, 7.64482036512486207158e+00) (1, 3.52040866900205695611e-01) (12, 1.31984243989976546274e+00) (6, -3.10875602920244897831e+00) (7, 3.22402954450699130717e+00) (14, -1.14164616286862834471e+01) (9, -4.60529239068176998728e+00) (8, -2.54796442997166181499e+01) (23, -6.73703222123349543260e-01) (19, 1.75321102838359177412e+00) (20, -1.34315469523583885803e+00) (21, 1.62458247667778499235e+00) (17, 4.67068677231935514005e-01) (23, -4.89470462076942947061e-01) (17, 7.16046692693096842319e-01) (18, -1.74301222224247620574e+00) (21, 8.36495583966347489024e-01) (22, -8.12179489457543368758e-01) 
