FANN_FLO_2.1
num_layers=3
learning_rate=0.700000
connection_rate=0.630000
network_type=0
learning_momentum=0.000000
training_algorithm=2
train_error_function=1
train_stop_function=0
cascade_output_change_fraction=0.010000
quickprop_decay=-0.000100
quickprop_mu=1.750000
rprop_increase_factor=1.200000
rprop_decrease_factor=0.500000
rprop_delta_min=0.000000
rprop_delta_max=50.000000
rprop_delta_zero=0.100000
cascade_output_stagnation_epochs=12
cascade_candidate_change_fraction=0.010000
cascade_candidate_stagnation_epochs=12
cascade_max_out_epochs=150
cascade_min_out_epochs=50
cascade_max_cand_epochs=150
cascade_min_cand_epochs=50
cascade_num_candidate_groups=2
bit_fail_limit=2.40999999999999998945e-02
cascade_candidate_limit=1.00000000000000000000e+03
cascade_weight_multiplier=4.00000000000000022204e-01
cascade_activation_functions_count=10
cascade_activation_functions=3 5 7 8 10 11 14 15 16 17 
cascade_activation_steepnesses_count=4
cascade_activation_steepnesses=2.50000000000000000000e-01 5.00000000000000000000e-01 7.50000000000000000000e-01 1.00000000000000000000e+00 
layer_sizes=17 7 3 
scale_included=0
neurons (num_inputs, activation_function, activation_steepness)=(0, 0, 0.00000000000000000000e+00) (0, 0, 0.00000000000000000000e+00) (0, 0, 0.00000000000000000000e+00) (0, 0, 0.00000000000000000000e+00) (0, 0, 0.00000000000000000000e+00) (0, 0, 0.00000000000000000000e+00) (0, 0, 0.00000000000000000000e+00) (0, 0, 0.00000000000000000000e+00) (0, 0, 0.00000000000000000000e+00) (0, 0, 0.00000000000000000000e+00) (0, 0, 0.00000000000000000000e+00) (0, 0, 0.00000000000000000000e+00) (0, 0, 0.00000000000000000000e+00) (0, 0, 0.00000000000000000000e+00) (0, 0, 0.00000000000000000000e+00) (0, 0, 0.00000000000000000000e+00) (0, 0, 0.00000000000000000000e+00) (11, 5, 6.99999999999999955591e-01) (11, 5, 6.99999999999999955591e-01) (11, 5, 6.99999999999999955591e-01) (11, 5, 6.99999999999999955591e-01) (11, 5, 6.99999999999999955591e-01) (11, 5, 6.99999999999999955591e-01) (0, 5, 6.99999999999999955591e-01) (5, 8, 4.50000000000000011102e-01) (5, 8, 4.50000000000000011102e-01) (0, 8, 4.50000000000000011102e-01) 
connections (connected_to_neuron, weight)=(16, -9.77656683849365826244e-02) (7, -1.93161938363478014047e+00) (10, -7.28081829108606304324e-01) (12, 1.31374882427630046422e+00) (5, 3.94293284704921198625e+00) (4, -3.65051278773896537011e-01) (6, 6.16340426966554666421e-01) (13, 5.17974794404342658849e-02) (8, 3.78159136995254296920e+00) (11, 1.96430572101174510946e-01) (0, -7.32757709216621977433e-01) (16, 5.98921899590913686673e-01) (0, -1.08577280119113800394e-01) (4, -4.64085550342327479711e+00) (5, 3.04317828595218697885e+00) (13, 5.03982901740268118829e+00) (6, 1.60028487523855056374e+00) (10, -4.20898599425168029597e+00) (1, -5.87647413727369283265e-01) (15, 4.41462706104672619745e+00) (14, 8.04040661892449382009e-01) (11, 2.20157301246670794592e-02) (16, 1.43550796785807510680e+00) (8, -1.03174740289483715117e+01) (4, -6.74242972816152175142e+00) (0, -6.45646615389462219525e+00) (14, 2.01382474326216431848e+00) (6, -1.66481962868704203018e-01) (9, 1.86938584883981562257e+00) (1, -2.28106627765859881762e+00) (13, 7.01452108364658144524e+00) (2, -4.32676411394365967311e-01) (7, 2.84542585043367934894e-01) (16, 8.02316680567899731535e-01) (9, -6.77985139057328600742e-01) (14, -1.39436910219297427460e+00) (15, -6.52658637714519596074e+00) (5, 7.65362681433091740502e+00) (12, -8.87637096006109160840e+00) (6, 3.74327317613087062753e+00) (8, 1.75513997482025607688e+00) (1, 3.79149846494219788795e+00) (0, 5.84139955726300064143e-01) (11, 4.75821273242699807615e-02) (16, 9.00345093459413436943e-03) (2, -1.48064663006377350563e+00) (3, -1.22253717561750976928e-01) (6, 2.30253094959124915420e+00) (0, -3.97837610919987438862e+00) (15, -1.01527947892855480855e-02) (12, 1.35367944714222732117e+00) (13, 9.39847596554679309833e-01) (1, -1.75110348804460924654e+00) (7, -3.99588901495116166629e+00) (14, -9.77806855790255058380e-01) (16, 8.06000978513164212380e-01) (1, 1.21550041887386517381e+00) (11, -5.82153772996128981987e+00) (10, -1.39909749473346423088e+01) (5, 1.50738072743854267799e+01) (15, 2.24238169219551952693e+00) (9, -2.37845452405897450632e+00) (3, 1.50635080027845091877e+00) (12, 4.42856672552389962760e+00) (14, -6.40888689110854781195e-02) (13, -3.98147158043309801201e+00) (23, 9.52503463883593304296e-02) (17, -2.69993000537715710507e+00) (18, 8.98577185347530088544e-02) (21, 4.14058658126183054549e+00) (22, 2.61715289981145193821e+00) (23, 3.40010780125943878893e-01) (19, 1.17318762897307404813e+00) (20, -5.68928491276876613369e-01) (18, 7.76990196518672515680e-01) (17, 1.21171499578906449734e+00) 
