FANN_FLO_2.1
num_layers=3
learning_rate=0.700000
connection_rate=0.630000
network_type=0
learning_momentum=0.000000
training_algorithm=2
train_error_function=1
train_stop_function=0
cascade_output_change_fraction=0.010000
quickprop_decay=-0.000100
quickprop_mu=1.750000
rprop_increase_factor=1.200000
rprop_decrease_factor=0.500000
rprop_delta_min=0.000000
rprop_delta_max=50.000000
rprop_delta_zero=0.100000
cascade_output_stagnation_epochs=12
cascade_candidate_change_fraction=0.010000
cascade_candidate_stagnation_epochs=12
cascade_max_out_epochs=150
cascade_min_out_epochs=50
cascade_max_cand_epochs=150
cascade_min_cand_epochs=50
cascade_num_candidate_groups=2
bit_fail_limit=2.40999999999999998945e-02
cascade_candidate_limit=1.00000000000000000000e+03
cascade_weight_multiplier=4.00000000000000022204e-01
cascade_activation_functions_count=10
cascade_activation_functions=3 5 7 8 10 11 14 15 16 17 
cascade_activation_steepnesses_count=4
cascade_activation_steepnesses=2.50000000000000000000e-01 5.00000000000000000000e-01 7.50000000000000000000e-01 1.00000000000000000000e+00 
layer_sizes=17 7 3 
scale_included=0
neurons (num_inputs, activation_function, activation_steepness)=(0, 0, 0.00000000000000000000e+00) (0, 0, 0.00000000000000000000e+00) (0, 0, 0.00000000000000000000e+00) (0, 0, 0.00000000000000000000e+00) (0, 0, 0.00000000000000000000e+00) (0, 0, 0.00000000000000000000e+00) (0, 0, 0.00000000000000000000e+00) (0, 0, 0.00000000000000000000e+00) (0, 0, 0.00000000000000000000e+00) (0, 0, 0.00000000000000000000e+00) (0, 0, 0.00000000000000000000e+00) (0, 0, 0.00000000000000000000e+00) (0, 0, 0.00000000000000000000e+00) (0, 0, 0.00000000000000000000e+00) (0, 0, 0.00000000000000000000e+00) (0, 0, 0.00000000000000000000e+00) (0, 0, 0.00000000000000000000e+00) (11, 5, 6.99999999999999955591e-01) (11, 5, 6.99999999999999955591e-01) (11, 5, 6.99999999999999955591e-01) (11, 5, 6.99999999999999955591e-01) (11, 5, 6.99999999999999955591e-01) (11, 5, 6.99999999999999955591e-01) (0, 5, 6.99999999999999955591e-01) (5, 8, 4.50000000000000011102e-01) (5, 8, 4.50000000000000011102e-01) (0, 8, 4.50000000000000011102e-01) 
connections (connected_to_neuron, weight)=(16, -4.90671810947000464065e-01) (6, 1.10043599399759917112e+00) (3, 7.06239159374278013814e+00) (13, -3.98977048847570403556e-01) (7, 1.10046031467596927556e+00) (0, 7.28881156566676957631e-01) (8, 4.64472399036173350106e-03) (11, 8.02744440436024886409e-01) (9, 1.13500419496839111133e+00) (14, 9.11739318348337768327e-01) (4, 3.52698388449099464736e+00) (16, 6.57529211833898341588e-01) (4, -8.40165539959596641140e-01) (8, -1.32291964886914248378e-01) (9, -2.72067763861055889052e+00) (2, -6.37607647253670695164e+00) (6, -1.95561557677623265583e+00) (7, -1.06051753578411855905e+00) (15, 7.84484439728839699768e+00) (0, 3.75448932594946327423e-01) (11, 9.61761168168215330176e-01) (10, 1.58315948186636887840e+01) (16, 1.46180394483809750206e+00) (1, -3.35789571541573828029e+00) (3, -7.06730850914200292578e+00) (5, -4.34605185632744266400e+01) (6, 1.29774507481514445040e+00) (9, 3.31942245667087965089e-01) (12, 1.81503922014902530080e+00) (10, 9.50071037179965216524e+00) (13, 1.88159453463843018284e+00) (7, 3.49517866374777108618e-01) (0, -1.49899392552216181862e+00) (16, 4.47480471207542390699e-02) (14, -5.41303440284018555495e-01) (12, 1.23521246231775561064e+00) (8, -2.42179128055496545313e-01) (3, -1.49465363996198652430e+00) (7, -1.59844696998404884880e+01) (2, -3.74191012268427236620e+00) (1, 5.10338521002830347584e+00) (4, 8.31695339435467806410e-01) (15, 4.53485837439614858368e+00) (5, 2.29003272592017488307e+01) (16, -4.10337420368737659793e-01) (0, 2.44644586175856915133e+00) (2, 9.34449271437778250515e+00) (7, 4.39944365007677351542e+00) (10, 1.84813422839485608229e+00) (11, 1.31885733834559690791e+01) (12, -1.33383271276459192123e+00) (13, -4.11493737562026495880e+01) (15, -1.40094556784847519282e+01) (3, -5.36696054195581837704e-03) (14, 4.23945244938821197422e+00) (16, 7.90543200406554624760e-02) (7, -1.73282243991989215459e+00) (0, -1.48770672743835241647e+00) (10, 1.27374749067893033860e+00) (9, -3.98283153352134133840e+00) (14, -5.94416624133869420099e-01) (11, 3.02265454065351990565e+00) (8, 2.28932963580010639948e-01) (3, 1.91744002982121269918e-01) (15, 4.98138526057794805979e+00) (4, 5.42698553201677658109e+00) (23, 1.68633869725576412968e+00) (21, -1.88927924807473024416e+00) (22, 4.75495961623745611035e+00) (18, 2.42888644216455418245e+00) (20, 2.77561511288373230499e+00) (23, 2.20937598183705086186e+00) (17, -1.73165572075822371545e+00) (18, 1.22449315540277581249e+00) (19, 1.29782183156061908802e-01) (20, 4.21860017664858644171e-01) 
