FANN_FLO_2.1
num_layers=3
learning_rate=0.700000
connection_rate=0.630000
network_type=0
learning_momentum=0.000000
training_algorithm=2
train_error_function=1
train_stop_function=0
cascade_output_change_fraction=0.010000
quickprop_decay=-0.000100
quickprop_mu=1.750000
rprop_increase_factor=1.200000
rprop_decrease_factor=0.500000
rprop_delta_min=0.000000
rprop_delta_max=50.000000
rprop_delta_zero=0.100000
cascade_output_stagnation_epochs=12
cascade_candidate_change_fraction=0.010000
cascade_candidate_stagnation_epochs=12
cascade_max_out_epochs=150
cascade_min_out_epochs=50
cascade_max_cand_epochs=150
cascade_min_cand_epochs=50
cascade_num_candidate_groups=2
bit_fail_limit=2.40999999999999998945e-02
cascade_candidate_limit=1.00000000000000000000e+03
cascade_weight_multiplier=4.00000000000000022204e-01
cascade_activation_functions_count=10
cascade_activation_functions=3 5 7 8 10 11 14 15 16 17 
cascade_activation_steepnesses_count=4
cascade_activation_steepnesses=2.50000000000000000000e-01 5.00000000000000000000e-01 7.50000000000000000000e-01 1.00000000000000000000e+00 
layer_sizes=17 7 3 
scale_included=0
neurons (num_inputs, activation_function, activation_steepness)=(0, 0, 0.00000000000000000000e+00) (0, 0, 0.00000000000000000000e+00) (0, 0, 0.00000000000000000000e+00) (0, 0, 0.00000000000000000000e+00) (0, 0, 0.00000000000000000000e+00) (0, 0, 0.00000000000000000000e+00) (0, 0, 0.00000000000000000000e+00) (0, 0, 0.00000000000000000000e+00) (0, 0, 0.00000000000000000000e+00) (0, 0, 0.00000000000000000000e+00) (0, 0, 0.00000000000000000000e+00) (0, 0, 0.00000000000000000000e+00) (0, 0, 0.00000000000000000000e+00) (0, 0, 0.00000000000000000000e+00) (0, 0, 0.00000000000000000000e+00) (0, 0, 0.00000000000000000000e+00) (0, 0, 0.00000000000000000000e+00) (11, 5, 6.99999999999999955591e-01) (11, 5, 6.99999999999999955591e-01) (11, 5, 6.99999999999999955591e-01) (11, 5, 6.99999999999999955591e-01) (11, 5, 6.99999999999999955591e-01) (11, 5, 6.99999999999999955591e-01) (0, 5, 6.99999999999999955591e-01) (5, 8, 4.50000000000000011102e-01) (5, 8, 4.50000000000000011102e-01) (0, 8, 4.50000000000000011102e-01) 
connections (connected_to_neuron, weight)=(16, 1.21188574548532335129e+00) (4, 1.22235105744266947525e+00) (7, 6.96133995629535373695e-02) (10, 1.06398613782295115016e+00) (12, 9.25830579333499215089e-02) (8, 8.11044729768452477003e+00) (14, -1.66758773562936180035e+00) (0, 1.19089843972439313191e+00) (13, 1.16585963674954795621e+00) (1, 1.02622737862264412634e+00) (9, 1.19470257339846241962e+00) (16, -2.46418207306216663355e-01) (5, 3.58110249422481263792e+00) (2, 3.72550092138226185412e+00) (6, -1.57384195282792266335e-01) (0, -1.65746233228871650556e-02) (1, -5.19245305453443148358e-02) (9, -2.17835788661311591241e-01) (3, 1.57809393529644892418e+00) (11, -3.24345309981224128038e+00) (14, -3.24007991869256395390e+00) (8, 3.88641025713055476842e+00) (16, -3.30968307532012562255e-01) (2, -9.64624179098728262716e+00) (3, -5.48286574782904212455e-01) (10, -6.05437691972061028944e-02) (13, -2.05238640165630359391e+00) (14, 3.94551725954123577722e+00) (6, -1.18342384987816962028e-01) (0, -2.18670064914968986791e-01) (5, -5.49414225522059140872e+00) (7, 1.37726809037736552810e+00) (11, 4.01671792145205674984e+00) (16, 6.65081754376688150110e-01) (0, 4.83993615200433824342e-01) (8, 3.48582871397158766680e-01) (9, 6.72421074789399830784e-01) (2, 1.35523874613490552532e-01) (5, 7.80628203987691060561e-01) (3, 2.78897034243843600088e-01) (11, 9.30884851719915418222e-01) (15, -2.06457296494310160728e-01) (1, -2.60793545091404892211e-02) (12, 2.08794809209360110458e+00) (16, -5.01886504564885038704e-01) (1, 4.57961485674204737961e+00) (5, -6.43164008679261467449e+00) (6, -1.43351359086375446106e-01) (11, -6.97981288733964433391e+00) (12, -8.90663244543026255684e-01) (3, 2.07912992511802752205e+00) (7, -6.11388123635252744847e-01) (2, 1.38410665615220516145e+01) (15, 1.09150763762025726500e+00) (4, -5.18873934581848939018e-01) (16, 5.04015199400977206845e-02) (12, -3.44562470835158141114e+00) (15, 2.78596406844974797679e+00) (13, -2.61444194917908987463e+01) (2, 1.06268725109001493934e+00) (9, 1.48583400830412298843e-01) (14, -8.27216232462469669429e-01) (1, 3.29334771362939204842e-01) (3, 2.75529955653216196421e-01) (11, -3.44962534772522522175e+00) (6, 1.57966554555189070408e-01) (23, 1.32366993389429454808e+00) (17, 1.39761533699335460668e+00) (18, 7.59887646223334600748e-01) (19, -3.57867482397129899052e-01) (20, 1.99524752693878426602e-01) (23, -2.15207481084206486699e+00) (21, 6.79328531429797988217e-01) (22, 2.49587872675333583006e-01) (18, 4.04113456030292694798e-01) (20, -1.53297919179272906787e-01) 
