FANN_FLO_2.1
num_layers=3
learning_rate=0.700000
connection_rate=0.630000
network_type=0
learning_momentum=0.000000
training_algorithm=2
train_error_function=1
train_stop_function=0
cascade_output_change_fraction=0.010000
quickprop_decay=-0.000100
quickprop_mu=1.750000
rprop_increase_factor=1.200000
rprop_decrease_factor=0.500000
rprop_delta_min=0.000000
rprop_delta_max=50.000000
rprop_delta_zero=0.100000
cascade_output_stagnation_epochs=12
cascade_candidate_change_fraction=0.010000
cascade_candidate_stagnation_epochs=12
cascade_max_out_epochs=150
cascade_min_out_epochs=50
cascade_max_cand_epochs=150
cascade_min_cand_epochs=50
cascade_num_candidate_groups=2
bit_fail_limit=2.40999999999999998945e-02
cascade_candidate_limit=1.00000000000000000000e+03
cascade_weight_multiplier=4.00000000000000022204e-01
cascade_activation_functions_count=10
cascade_activation_functions=3 5 7 8 10 11 14 15 16 17 
cascade_activation_steepnesses_count=4
cascade_activation_steepnesses=2.50000000000000000000e-01 5.00000000000000000000e-01 7.50000000000000000000e-01 1.00000000000000000000e+00 
layer_sizes=17 7 3 
scale_included=0
neurons (num_inputs, activation_function, activation_steepness)=(0, 0, 0.00000000000000000000e+00) (0, 0, 0.00000000000000000000e+00) (0, 0, 0.00000000000000000000e+00) (0, 0, 0.00000000000000000000e+00) (0, 0, 0.00000000000000000000e+00) (0, 0, 0.00000000000000000000e+00) (0, 0, 0.00000000000000000000e+00) (0, 0, 0.00000000000000000000e+00) (0, 0, 0.00000000000000000000e+00) (0, 0, 0.00000000000000000000e+00) (0, 0, 0.00000000000000000000e+00) (0, 0, 0.00000000000000000000e+00) (0, 0, 0.00000000000000000000e+00) (0, 0, 0.00000000000000000000e+00) (0, 0, 0.00000000000000000000e+00) (0, 0, 0.00000000000000000000e+00) (0, 0, 0.00000000000000000000e+00) (11, 5, 6.99999999999999955591e-01) (11, 5, 6.99999999999999955591e-01) (11, 5, 6.99999999999999955591e-01) (11, 5, 6.99999999999999955591e-01) (11, 5, 6.99999999999999955591e-01) (11, 5, 6.99999999999999955591e-01) (0, 5, 6.99999999999999955591e-01) (5, 8, 4.50000000000000011102e-01) (5, 8, 4.50000000000000011102e-01) (0, 8, 4.50000000000000011102e-01) 
connections (connected_to_neuron, weight)=(16, 4.43731809732674564728e-01) (0, 3.49896692451868540630e+00) (1, 1.43169635954676410794e-01) (4, -5.62239601691534840455e+00) (13, -4.51626294564353081284e+00) (15, -1.56813836174977137006e+01) (7, 8.99626608838196450968e-01) (9, 7.22753108983817149635e+00) (2, 3.31571202315095892033e+00) (3, 1.01643255483511723014e+01) (6, 3.10007619031193337733e-01) (16, -3.08023659637569946490e-01) (9, 1.58091838430248787795e+00) (10, 3.08090675937309343979e+00) (4, -3.36821607214216678372e+00) (7, -1.63061655394575000244e+00) (5, -2.70636859552899045056e+00) (8, 5.13010562401328851223e+00) (13, -2.45898963721460095400e+00) (14, -2.52151052190682754828e-02) (2, 4.09246886203174486951e+00) (1, -9.24583543338834523695e+00) (16, -3.19816185476066272564e-01) (3, -1.45624261331762383520e+00) (12, 2.63446522403801930423e+00) (14, 8.39838136483785357989e-01) (5, -2.48869399552454551028e+00) (7, -9.05180371482383283599e-01) (2, -3.15279139755524306921e+00) (4, -1.43708953182068266408e+00) (8, 8.98642724739571185921e-01) (9, 2.75460450177439607200e-02) (6, -1.79268605736700781250e-01) (16, 9.71739463702756545160e-01) (2, -5.70519940925215074401e+00) (11, 4.94834340935148286889e+00) (3, 5.53564840363304555559e-01) (6, 2.11749887346164156199e+00) (0, 5.27368114835741330637e+00) (7, -3.60298944602861215269e-01) (14, 8.73239953407396574114e-01) (8, 6.55920398955200134594e+00) (10, 3.45349175443827993703e+00) (5, -2.02949147953134101385e+00) (16, 7.16571179546307224228e-01) (5, 4.54990371902567591889e+00) (7, 2.25562052542178248515e+00) (8, -1.86178476931740499722e+00) (14, -1.17943749737032521629e+00) (3, 6.93870673707285767762e+00) (1, -1.12434933286954663600e+01) (13, -3.80006636979807854715e-01) (10, -3.80556104378809642586e-02) (15, -5.65622201529078694193e+00) (9, 1.26418925610398336090e+01) (16, 1.62754210732056037170e-01) (6, 5.44479691726960535192e+00) (9, 3.95682323620139753118e+00) (2, -8.26369795611398139101e+00) (0, 4.60979420758825586546e+00) (7, 1.43732917369627077875e+00) (11, 1.07085307895194392636e+00) (10, 6.59491961081930422317e-01) (3, 4.69246263105537675386e+00) (12, 2.86401775425249915941e+00) (15, -4.62655155025863873419e+00) (23, -1.85946605988282920308e+00) (17, -1.94419797595060206419e+00) (18, 1.98091124880370478278e-01) (20, -2.24474655570881376221e+00) (22, 4.30913465829889297254e+00) (23, 4.95571520929974418390e-01) (19, 1.69709829603156170386e+00) (21, 1.10089998107649478243e+00) (20, 1.27114416559762588577e+00) (18, 3.76657675021604132493e-01) 
