FANN_FLO_2.1
num_layers=3
learning_rate=0.700000
connection_rate=0.630000
network_type=0
learning_momentum=0.000000
training_algorithm=2
train_error_function=1
train_stop_function=0
cascade_output_change_fraction=0.010000
quickprop_decay=-0.000100
quickprop_mu=1.750000
rprop_increase_factor=1.200000
rprop_decrease_factor=0.500000
rprop_delta_min=0.000000
rprop_delta_max=50.000000
rprop_delta_zero=0.100000
cascade_output_stagnation_epochs=12
cascade_candidate_change_fraction=0.010000
cascade_candidate_stagnation_epochs=12
cascade_max_out_epochs=150
cascade_min_out_epochs=50
cascade_max_cand_epochs=150
cascade_min_cand_epochs=50
cascade_num_candidate_groups=2
bit_fail_limit=2.40999999999999998945e-02
cascade_candidate_limit=1.00000000000000000000e+03
cascade_weight_multiplier=4.00000000000000022204e-01
cascade_activation_functions_count=10
cascade_activation_functions=3 5 7 8 10 11 14 15 16 17 
cascade_activation_steepnesses_count=4
cascade_activation_steepnesses=2.50000000000000000000e-01 5.00000000000000000000e-01 7.50000000000000000000e-01 1.00000000000000000000e+00 
layer_sizes=17 7 3 
scale_included=0
neurons (num_inputs, activation_function, activation_steepness)=(0, 0, 0.00000000000000000000e+00) (0, 0, 0.00000000000000000000e+00) (0, 0, 0.00000000000000000000e+00) (0, 0, 0.00000000000000000000e+00) (0, 0, 0.00000000000000000000e+00) (0, 0, 0.00000000000000000000e+00) (0, 0, 0.00000000000000000000e+00) (0, 0, 0.00000000000000000000e+00) (0, 0, 0.00000000000000000000e+00) (0, 0, 0.00000000000000000000e+00) (0, 0, 0.00000000000000000000e+00) (0, 0, 0.00000000000000000000e+00) (0, 0, 0.00000000000000000000e+00) (0, 0, 0.00000000000000000000e+00) (0, 0, 0.00000000000000000000e+00) (0, 0, 0.00000000000000000000e+00) (0, 0, 0.00000000000000000000e+00) (11, 5, 6.99999999999999955591e-01) (11, 5, 6.99999999999999955591e-01) (11, 5, 6.99999999999999955591e-01) (11, 5, 6.99999999999999955591e-01) (11, 5, 6.99999999999999955591e-01) (11, 5, 6.99999999999999955591e-01) (0, 5, 6.99999999999999955591e-01) (5, 8, 4.50000000000000011102e-01) (5, 8, 4.50000000000000011102e-01) (0, 8, 4.50000000000000011102e-01) 
connections (connected_to_neuron, weight)=(16, 3.91708322210239823224e-01) (12, 4.81532791817013094970e+00) (2, 2.07132242114141584821e+00) (10, -5.28845929010772195511e+01) (5, 1.53851557673864576259e+01) (6, 2.36852337217768327271e-02) (13, -9.61940849419702992407e+00) (14, 1.60574535837694276630e+00) (0, 2.01450868604036195109e+01) (7, 1.78686107867703078966e+01) (3, -1.03135496273711151360e+01) (16, -2.45720821085492723002e-02) (0, -6.00296979123112528498e-01) (1, 1.14160279035767242561e+00) (8, -5.74877222746665950126e+00) (9, -4.84569013522251967885e+00) (3, -8.48409731467840044772e-01) (10, -3.11982496733788527976e+00) (7, 1.26585179456230378925e+00) (15, 5.71114532634763794050e+00) (5, 1.02609270779428918274e+00) (13, 1.34449703679235499365e+00) (16, 5.18732990712919284082e-02) (2, 6.47792496870445777546e+00) (6, -1.58379753594120376015e+00) (7, -2.66872002081692549780e+00) (14, -1.28587138003729783975e+01) (11, -6.34848549724873811861e-01) (1, 3.41086991794674743161e+00) (5, 7.46281839972471683353e+00) (8, 8.66899279804817268769e+00) (10, -9.15516187770585254668e+00) (13, -7.34639860272667810648e+00) (16, 3.80313287562358826044e-01) (3, 2.07175382057145474057e-01) (4, 1.85993375775558611451e+01) (9, -8.80696614239529829149e+00) (5, 6.73277121514617271636e-01) (14, 7.81752672538950088565e-01) (1, 1.63656624087051150163e+00) (11, 4.87927908929498510560e+00) (12, -8.30291972721286164472e+00) (6, -2.04128836804679592021e+00) (0, 5.32295222208437834865e+00) (16, 1.41645973904803890164e+00) (5, 5.13894590158699426929e-01) (10, 3.48381698076536805431e+00) (15, -6.91340747151065482257e+00) (2, 6.40963020681344453067e+00) (14, -1.44295443852906779547e+00) (1, 1.24114124439803363842e+00) (13, 3.03193886111551114126e+00) (8, 1.05504111535198075167e+00) (11, 3.17808241519648815299e+00) (0, -1.36937707365817873395e+00) (16, -1.05897908705476173630e+00) (11, -4.45513588393815584965e+00) (13, -5.44984362855097881351e-01) (1, -1.76252212208560066209e+00) (12, 1.68709338467059710709e+00) (5, -1.08562583824950689149e+01) (4, 1.02865220146096234544e+01) (3, 3.52418719967094107304e+00) (7, 1.81029674434663800930e+00) (8, 2.53023735042909736492e+00) (14, 1.52826728544570772383e-01) (23, 1.34087314992321782192e+00) (18, -8.94129926432231547651e-01) (19, 1.11545163339273933900e+00) (20, 3.99237680047758558555e-01) (21, 1.29601584540062142459e+00) (23, -1.19356177437869637181e+00) (17, -1.46548396180775508668e+00) (22, 2.68786234622634667701e+00) (21, -1.42740553642765832798e+00) (20, -1.58374464042635798577e+00) 
