FANN_FLO_2.1
num_layers=3
learning_rate=0.700000
connection_rate=0.630000
network_type=0
learning_momentum=0.000000
training_algorithm=2
train_error_function=1
train_stop_function=0
cascade_output_change_fraction=0.010000
quickprop_decay=-0.000100
quickprop_mu=1.750000
rprop_increase_factor=1.200000
rprop_decrease_factor=0.500000
rprop_delta_min=0.000000
rprop_delta_max=50.000000
rprop_delta_zero=0.100000
cascade_output_stagnation_epochs=12
cascade_candidate_change_fraction=0.010000
cascade_candidate_stagnation_epochs=12
cascade_max_out_epochs=150
cascade_min_out_epochs=50
cascade_max_cand_epochs=150
cascade_min_cand_epochs=50
cascade_num_candidate_groups=2
bit_fail_limit=2.40999999999999998945e-02
cascade_candidate_limit=1.00000000000000000000e+03
cascade_weight_multiplier=4.00000000000000022204e-01
cascade_activation_functions_count=10
cascade_activation_functions=3 5 7 8 10 11 14 15 16 17 
cascade_activation_steepnesses_count=4
cascade_activation_steepnesses=2.50000000000000000000e-01 5.00000000000000000000e-01 7.50000000000000000000e-01 1.00000000000000000000e+00 
layer_sizes=17 7 3 
scale_included=0
neurons (num_inputs, activation_function, activation_steepness)=(0, 0, 0.00000000000000000000e+00) (0, 0, 0.00000000000000000000e+00) (0, 0, 0.00000000000000000000e+00) (0, 0, 0.00000000000000000000e+00) (0, 0, 0.00000000000000000000e+00) (0, 0, 0.00000000000000000000e+00) (0, 0, 0.00000000000000000000e+00) (0, 0, 0.00000000000000000000e+00) (0, 0, 0.00000000000000000000e+00) (0, 0, 0.00000000000000000000e+00) (0, 0, 0.00000000000000000000e+00) (0, 0, 0.00000000000000000000e+00) (0, 0, 0.00000000000000000000e+00) (0, 0, 0.00000000000000000000e+00) (0, 0, 0.00000000000000000000e+00) (0, 0, 0.00000000000000000000e+00) (0, 0, 0.00000000000000000000e+00) (11, 5, 6.99999999999999955591e-01) (11, 5, 6.99999999999999955591e-01) (11, 5, 6.99999999999999955591e-01) (11, 5, 6.99999999999999955591e-01) (11, 5, 6.99999999999999955591e-01) (11, 5, 6.99999999999999955591e-01) (0, 5, 6.99999999999999955591e-01) (5, 8, 4.50000000000000011102e-01) (5, 8, 4.50000000000000011102e-01) (0, 8, 4.50000000000000011102e-01) 
connections (connected_to_neuron, weight)=(16, 5.31997351971464249587e-01) (5, 5.09948229516805717765e+00) (8, 2.21056359392972012756e+01) (1, -2.55937136768147261989e+01) (15, 7.32888387621383827764e+01) (2, -2.58271775348414358575e+01) (7, -1.51670880555182208127e+00) (12, 1.44113847815307649647e+00) (0, -7.85882135734110960357e+01) (11, -1.18670227026819787852e+01) (9, -6.62459265081013271015e-01) (16, 2.45828847226011637517e+00) (13, 1.09227654293221032589e+00) (3, 1.79988389449808772191e+00) (10, 6.22319642471912626291e+00) (14, -6.71463367950364840908e+02) (11, 1.50000000000000000000e+03) (4, 1.50000000000000000000e+03) (12, -7.93510669321369618956e+02) (9, 1.50000000000000000000e+03) (2, 1.50000000000000000000e+03) (5, -1.50000000000000000000e+03) (16, -7.39741551536400587796e-03) (0, -1.48970994029383269064e-01) (6, 9.84949400141391251395e+00) (9, 1.53032235504887981214e-01) (10, 7.35878090383958349818e-01) (11, -4.08863817578223098792e+00) (13, -5.36133101162802994111e+00) (2, 2.68400743843744749029e+00) (14, -2.30473295952405088372e+00) (12, 4.16143147801989421453e+00) (1, 3.93362689812280752477e+00) (16, 1.25633062482887658540e+00) (3, -6.44586808603167416010e-01) (7, -2.30243221618611038082e+00) (15, -4.67623191768684698388e+00) (13, -1.35859068046886166670e+00) (10, 1.47185868375407586939e+01) (2, 2.60248518627380098778e+00) (4, 3.90378487907795790335e+00) (9, -5.39052220665113068776e+00) (1, 1.35377030334250703092e+00) (6, 1.21179944051803145655e+00) (16, -5.77146684896630637884e-02) (1, -9.77615716684565705386e-01) (2, -2.98294858935473305994e-01) (4, 1.28196870001731633160e+00) (13, 1.30727526915611558245e+00) (14, -4.55685355469721375954e+00) (10, -1.09592971851959686269e+00) (6, -5.20751954977400455249e+00) (0, -5.70130312781010761825e+00) (7, 3.30968721893964978875e+00) (8, -2.97126341352535128237e+00) (16, 4.67166581437818195788e-01) (12, -8.57753819279403056930e-02) (3, -1.12605351924181795731e+00) (14, -1.75134607816193388352e+00) (8, -5.25391666115027855533e-01) (4, 5.99715023229493660040e-01) (11, -1.36739012219537148241e+00) (10, 7.15839205108014242640e-01) (1, 2.77449722168004897505e-01) (9, -1.21832067322665338338e+00) (6, 2.75122141558448563003e+00) (23, 6.46938345297074501872e-01) (17, 7.55373795326875985268e-01) (21, 1.60805537763451078526e-01) (22, -3.83526600073753565212e+00) (19, 1.90329462589262843331e+00) (23, -8.56566418798616946439e-01) (18, -8.15583319296882769400e-01) (19, 1.88311745661136398233e+00) (20, -1.04724179791500660031e+00) (21, 1.58051924371680296844e+00) 
