FANN_FLO_2.1
num_layers=3
learning_rate=0.700000
connection_rate=0.630000
network_type=0
learning_momentum=0.000000
training_algorithm=2
train_error_function=1
train_stop_function=0
cascade_output_change_fraction=0.010000
quickprop_decay=-0.000100
quickprop_mu=1.750000
rprop_increase_factor=1.200000
rprop_decrease_factor=0.500000
rprop_delta_min=0.000000
rprop_delta_max=50.000000
rprop_delta_zero=0.100000
cascade_output_stagnation_epochs=12
cascade_candidate_change_fraction=0.010000
cascade_candidate_stagnation_epochs=12
cascade_max_out_epochs=150
cascade_min_out_epochs=50
cascade_max_cand_epochs=150
cascade_min_cand_epochs=50
cascade_num_candidate_groups=2
bit_fail_limit=2.40999999999999998945e-02
cascade_candidate_limit=1.00000000000000000000e+03
cascade_weight_multiplier=4.00000000000000022204e-01
cascade_activation_functions_count=10
cascade_activation_functions=3 5 7 8 10 11 14 15 16 17 
cascade_activation_steepnesses_count=4
cascade_activation_steepnesses=2.50000000000000000000e-01 5.00000000000000000000e-01 7.50000000000000000000e-01 1.00000000000000000000e+00 
layer_sizes=17 7 3 
scale_included=0
neurons (num_inputs, activation_function, activation_steepness)=(0, 0, 0.00000000000000000000e+00) (0, 0, 0.00000000000000000000e+00) (0, 0, 0.00000000000000000000e+00) (0, 0, 0.00000000000000000000e+00) (0, 0, 0.00000000000000000000e+00) (0, 0, 0.00000000000000000000e+00) (0, 0, 0.00000000000000000000e+00) (0, 0, 0.00000000000000000000e+00) (0, 0, 0.00000000000000000000e+00) (0, 0, 0.00000000000000000000e+00) (0, 0, 0.00000000000000000000e+00) (0, 0, 0.00000000000000000000e+00) (0, 0, 0.00000000000000000000e+00) (0, 0, 0.00000000000000000000e+00) (0, 0, 0.00000000000000000000e+00) (0, 0, 0.00000000000000000000e+00) (0, 0, 0.00000000000000000000e+00) (11, 5, 6.99999999999999955591e-01) (11, 5, 6.99999999999999955591e-01) (11, 5, 6.99999999999999955591e-01) (11, 5, 6.99999999999999955591e-01) (11, 5, 6.99999999999999955591e-01) (11, 5, 6.99999999999999955591e-01) (0, 5, 6.99999999999999955591e-01) (5, 8, 4.50000000000000011102e-01) (5, 8, 4.50000000000000011102e-01) (0, 8, 4.50000000000000011102e-01) 
connections (connected_to_neuron, weight)=(16, -5.30014389621916492956e-01) (2, -8.45627643318316996046e-02) (9, 1.23195156684394291347e+01) (4, -1.15793763089142176526e+00) (8, 3.62339706979929365716e+00) (11, 4.78972714926766407473e+00) (6, -4.82712077644725401360e-01) (1, -3.06644025856542912223e+00) (14, -2.08582038174457284896e+00) (5, -3.62041690313733877105e+00) (12, 2.34092998943263158607e-01) (16, 4.28776887179424970320e-01) (1, -8.92512165106437271866e-01) (6, -2.52432543954305277367e+00) (15, -3.21557438616892177219e-01) (3, 5.11406868643204504110e-01) (7, 6.52407907012905852184e-01) (13, 6.59567971885728354664e+00) (11, -5.55572694542278977536e+00) (14, 6.09576054656984744895e+00) (2, 1.11413426726599884553e+00) (8, -7.77826801305153470167e+00) (16, 1.25605492088229214742e-01) (12, 7.76589685788649952691e-01) (2, 3.94191903552772948682e-01) (5, -5.46694020156105908725e-01) (4, 5.26508268132385270910e-01) (10, 1.01338782068608193043e+01) (6, -7.04099508262912676670e-01) (14, -1.16904209983968110365e+00) (15, 9.48302783564977680442e+00) (7, -5.46865586903815614761e+00) (11, 5.79793281928092252286e+00) (16, -4.12966595528422797390e-01) (0, -6.73001577222875013717e+00) (3, -6.21341347562454182629e-01) (11, -1.65659622471132372823e+00) (5, -2.25897408788491604881e+00) (12, 1.80079023879546507025e+00) (9, 4.59189530063440987107e+00) (14, -4.20993887156806190220e-01) (13, 3.91399275467637774995e+00) (7, 4.09943502733149556239e-01) (6, 4.55917362461716213495e-01) (16, 1.12462860234831407702e+00) (4, -7.18616136052907972243e-01) (5, 6.06357082096025568063e-01) (7, -4.00538789808726591879e-01) (14, 9.44830028503415686458e-01) (11, 3.88765179200361066236e+00) (10, 8.01452766644744851732e-01) (9, 2.30399450709574482588e+00) (0, -1.72357801757149786681e+01) (2, 2.08470643581726244875e+00) (12, 8.64283538242248794425e-01) (16, -1.14884508983909627844e+00) (8, -2.15485762344274824898e+01) (10, 9.95033895564694503832e+00) (13, -1.33989722878308326059e+00) (15, 3.01110963993704388031e+01) (9, 4.49376546805700716192e+00) (12, 1.74783896810969459068e+01) (1, -2.48454059139091185671e+01) (4, -1.12064929389654537317e+01) (6, 2.55517499271419590290e-01) (7, -1.97205170354163716873e+00) (23, 1.97417000837064371410e-01) (17, 8.53301268567715043289e-01) (19, 7.09487729236895181550e-01) (21, 6.19986061472554528251e-01) (20, -7.30217827876829428391e-01) (23, 2.08552332102580217921e+00) (18, 2.54134366101825204254e+00) (20, -3.65268046506614885161e+00) (22, -2.08723125745683146803e+00) (21, 1.95110529562657109004e+00) 
