FANN_FLO_2.1
num_layers=3
learning_rate=0.700000
connection_rate=0.630000
network_type=0
learning_momentum=0.000000
training_algorithm=2
train_error_function=1
train_stop_function=0
cascade_output_change_fraction=0.010000
quickprop_decay=-0.000100
quickprop_mu=1.750000
rprop_increase_factor=1.200000
rprop_decrease_factor=0.500000
rprop_delta_min=0.000000
rprop_delta_max=50.000000
rprop_delta_zero=0.100000
cascade_output_stagnation_epochs=12
cascade_candidate_change_fraction=0.010000
cascade_candidate_stagnation_epochs=12
cascade_max_out_epochs=150
cascade_min_out_epochs=50
cascade_max_cand_epochs=150
cascade_min_cand_epochs=50
cascade_num_candidate_groups=2
bit_fail_limit=2.40999999999999998945e-02
cascade_candidate_limit=1.00000000000000000000e+03
cascade_weight_multiplier=4.00000000000000022204e-01
cascade_activation_functions_count=10
cascade_activation_functions=3 5 7 8 10 11 14 15 16 17 
cascade_activation_steepnesses_count=4
cascade_activation_steepnesses=2.50000000000000000000e-01 5.00000000000000000000e-01 7.50000000000000000000e-01 1.00000000000000000000e+00 
layer_sizes=17 7 3 
scale_included=0
neurons (num_inputs, activation_function, activation_steepness)=(0, 0, 0.00000000000000000000e+00) (0, 0, 0.00000000000000000000e+00) (0, 0, 0.00000000000000000000e+00) (0, 0, 0.00000000000000000000e+00) (0, 0, 0.00000000000000000000e+00) (0, 0, 0.00000000000000000000e+00) (0, 0, 0.00000000000000000000e+00) (0, 0, 0.00000000000000000000e+00) (0, 0, 0.00000000000000000000e+00) (0, 0, 0.00000000000000000000e+00) (0, 0, 0.00000000000000000000e+00) (0, 0, 0.00000000000000000000e+00) (0, 0, 0.00000000000000000000e+00) (0, 0, 0.00000000000000000000e+00) (0, 0, 0.00000000000000000000e+00) (0, 0, 0.00000000000000000000e+00) (0, 0, 0.00000000000000000000e+00) (11, 5, 6.99999999999999955591e-01) (11, 5, 6.99999999999999955591e-01) (11, 5, 6.99999999999999955591e-01) (11, 5, 6.99999999999999955591e-01) (11, 5, 6.99999999999999955591e-01) (11, 5, 6.99999999999999955591e-01) (0, 5, 6.99999999999999955591e-01) (5, 8, 4.50000000000000011102e-01) (5, 8, 4.50000000000000011102e-01) (0, 8, 4.50000000000000011102e-01) 
connections (connected_to_neuron, weight)=(16, 5.61537810464568035163e-02) (4, 6.20966569329193340820e+00) (14, 3.08313642984189861806e+00) (6, -1.16689778737190437141e+01) (12, -1.67571130978851767779e+00) (11, 5.60398540841088088627e+00) (10, 3.05119635075882733588e+00) (15, 5.00078482242132027480e-01) (5, -2.36480436326304115369e+01) (9, -3.84184368257851682760e-01) (2, 7.09321364479251537105e-01) (16, 3.63425680256465710727e-01) (10, -1.69720845962557324166e-04) (11, -2.81360942711522288295e-01) (15, 1.09397730607479126697e+00) (1, 8.34814477393107989833e-01) (5, 1.44573083461744378297e+00) (4, 4.94871252297286812194e+00) (2, -1.58000845328400030265e-01) (9, -4.29023884641625574687e+00) (0, -6.38087099329809515069e+00) (12, -5.64739858209695397284e-02) (16, 6.95047538319733093637e-01) (0, -1.35682777608635984912e+00) (9, 2.05820793725963113729e+00) (8, -1.42087817352542238325e+01) (1, -5.18573105441098380908e+00) (10, -3.26062137240034601859e+01) (14, -4.18647986234015423435e+00) (5, -2.18009285389711386927e+01) (2, 1.58407603682460584871e+00) (3, 1.79659350090757214957e+01) (15, -2.40205633658306680900e+01) (16, -8.61186290380993452187e-02) (1, -6.03618272993934890103e-01) (2, -6.23226394145010464953e-01) (3, -3.80998136023058675548e+00) (6, -6.76158634888272824792e-02) (7, -1.42056377880963680127e+00) (15, 1.61001582215928618069e+00) (12, -3.66996361283920213836e-01) (5, 5.22493489892326246071e-01) (14, -5.70533104538585369991e-02) (11, 1.35235939305291985590e+00) (16, -7.09365534844285439142e-01) (5, -3.72564325694968223601e+00) (12, 1.95350715581518591391e-02) (13, 1.97077814353438585115e+00) (11, -7.41929799413891588600e-01) (7, 3.03585434486244176711e+00) (8, -8.81229007295857014181e-02) (14, 2.14742458954925476144e-02) (6, 2.18989016493057936374e-01) (10, 1.10080274407002454140e+00) (1, -6.16248960645980314865e+00) (16, -3.66015771316703444893e-02) (8, 4.30656721487358062905e-01) (13, 2.71660961949403878535e+00) (4, -6.94734876606048268322e-01) (12, 1.49425245202005979595e-01) (2, -5.45906055317156635454e+00) (5, -2.77210637557434580458e+00) (6, 4.99353761883753605177e-02) (3, -4.89661166828103322501e+00) (7, 3.97215802847518073548e+00) (1, -6.15748436051135339397e+00) (23, -2.87828463618858387818e-01) (21, 8.88234247840098745108e-01) (22, 1.11018316248794257639e+00) (18, 8.20096143357843532229e-01) (20, 9.12189640871243989650e-01) (23, 8.12996034201725281676e-01) (17, 2.97601057829153559098e+00) (18, 1.32546812712078176943e+00) (19, -9.29377139412037367450e-01) (20, 1.40683451288070271445e+00) 
