FANN_FLO_2.1
num_layers=3
learning_rate=0.700000
connection_rate=0.630000
network_type=0
learning_momentum=0.000000
training_algorithm=2
train_error_function=1
train_stop_function=0
cascade_output_change_fraction=0.010000
quickprop_decay=-0.000100
quickprop_mu=1.750000
rprop_increase_factor=1.200000
rprop_decrease_factor=0.500000
rprop_delta_min=0.000000
rprop_delta_max=50.000000
rprop_delta_zero=0.100000
cascade_output_stagnation_epochs=12
cascade_candidate_change_fraction=0.010000
cascade_candidate_stagnation_epochs=12
cascade_max_out_epochs=150
cascade_min_out_epochs=50
cascade_max_cand_epochs=150
cascade_min_cand_epochs=50
cascade_num_candidate_groups=2
bit_fail_limit=2.40999999999999998945e-02
cascade_candidate_limit=1.00000000000000000000e+03
cascade_weight_multiplier=4.00000000000000022204e-01
cascade_activation_functions_count=10
cascade_activation_functions=3 5 7 8 10 11 14 15 16 17 
cascade_activation_steepnesses_count=4
cascade_activation_steepnesses=2.50000000000000000000e-01 5.00000000000000000000e-01 7.50000000000000000000e-01 1.00000000000000000000e+00 
layer_sizes=17 7 3 
scale_included=0
neurons (num_inputs, activation_function, activation_steepness)=(0, 0, 0.00000000000000000000e+00) (0, 0, 0.00000000000000000000e+00) (0, 0, 0.00000000000000000000e+00) (0, 0, 0.00000000000000000000e+00) (0, 0, 0.00000000000000000000e+00) (0, 0, 0.00000000000000000000e+00) (0, 0, 0.00000000000000000000e+00) (0, 0, 0.00000000000000000000e+00) (0, 0, 0.00000000000000000000e+00) (0, 0, 0.00000000000000000000e+00) (0, 0, 0.00000000000000000000e+00) (0, 0, 0.00000000000000000000e+00) (0, 0, 0.00000000000000000000e+00) (0, 0, 0.00000000000000000000e+00) (0, 0, 0.00000000000000000000e+00) (0, 0, 0.00000000000000000000e+00) (0, 0, 0.00000000000000000000e+00) (11, 5, 6.99999999999999955591e-01) (11, 5, 6.99999999999999955591e-01) (11, 5, 6.99999999999999955591e-01) (11, 5, 6.99999999999999955591e-01) (11, 5, 6.99999999999999955591e-01) (11, 5, 6.99999999999999955591e-01) (0, 5, 6.99999999999999955591e-01) (5, 8, 4.50000000000000011102e-01) (5, 8, 4.50000000000000011102e-01) (0, 8, 4.50000000000000011102e-01) 
connections (connected_to_neuron, weight)=(16, 2.13429386232718121263e+00) (9, 4.82327286777064401235e+00) (10, -3.56894800708599149175e+01) (11, -5.37692364984741644207e+00) (3, 1.95502742860386291568e+01) (4, -1.72177545796256019628e+01) (6, 1.07725004872986733773e+01) (15, -4.02851830691362877701e+00) (0, 1.81484295358630887129e+00) (13, 3.97738533326486953801e-01) (7, -9.32683122624475657858e+00) (16, 7.63521294968590558128e-01) (2, 3.77270148209344391432e+00) (13, -5.92241457678503113726e+00) (12, -2.67809940598446916127e+00) (9, 3.60966551122485812542e+00) (7, -7.06207102985395618333e+00) (14, -1.58939694783680107726e+00) (0, 3.33495403767442510912e+00) (15, -8.51838776780081463613e-01) (10, 1.79058406772521316874e+00) (4, -9.91718304209052492482e-01) (16, 3.40800295751086279594e-01) (0, 2.23823492510181365489e+00) (1, 3.31869578848717949882e+00) (7, 1.87085308649199949516e-01) (13, -3.60798396010690414215e+00) (12, -2.18495223986124109672e+00) (4, 3.52437890146093124599e+00) (10, -3.33507404945944951891e+00) (5, -1.42882955394157318274e+00) (9, -1.03770868837905827498e+00) (2, 9.75885380790715628585e-01) (16, 4.03167831112653751724e-01) (5, -1.60884980062080695795e+00) (6, 1.18255243070653670578e+00) (11, -7.74975887141844399508e-01) (7, 6.19352124036022022580e-01) (13, -3.52414032174433802802e-04) (1, -9.53966615700397202460e-01) (12, 1.38136404356574565844e-01) (9, -1.51774840424850365750e+00) (3, 9.02468201463978991761e-01) (14, -1.03352349568463663942e+00) (16, 2.77204477613660493773e+00) (3, 1.99054179800994290872e+01) (4, -8.18828898260393245323e+00) (12, 2.36768753682123183069e+01) (15, -1.24988250954941193527e+01) (8, -2.13791448925882612286e+01) (9, -6.04437623902584153512e+00) (11, -2.61819732709976129570e+01) (7, -1.26074511888505433888e+01) (13, 3.75246852962612509330e+00) (0, -1.33526047466578701162e+00) (16, -9.00810195866499907602e-01) (8, 1.77720281727812984274e-01) (14, -1.80893553281378283160e+00) (4, 4.75250833563589036856e+00) (2, 5.73408116088195862758e-01) (6, -1.97034533219994600906e+00) (11, -3.21716890610287797880e-01) (9, -1.75304194030422721973e+00) (7, 3.01125868409051256069e-01) (12, -5.00636457378554577957e+00) (3, -5.83474154221983565272e-01) (23, 1.05782391060450309261e+00) (18, 8.61282235252021521887e-01) (21, 4.62849825306439421890e-01) (17, 4.18355476793063951746e-01) (20, -8.66220863076956559823e-01) (23, -4.52354640179528866284e-01) (17, -5.62017755218742975920e-01) (19, 1.00983623460349547507e+00) (20, 1.52650379589887319476e+00) (22, 1.52465995678377441713e+00) 
