FANN_FLO_2.1
num_layers=3
learning_rate=0.700000
connection_rate=0.630000
network_type=0
learning_momentum=0.000000
training_algorithm=2
train_error_function=1
train_stop_function=0
cascade_output_change_fraction=0.010000
quickprop_decay=-0.000100
quickprop_mu=1.750000
rprop_increase_factor=1.200000
rprop_decrease_factor=0.500000
rprop_delta_min=0.000000
rprop_delta_max=50.000000
rprop_delta_zero=0.100000
cascade_output_stagnation_epochs=12
cascade_candidate_change_fraction=0.010000
cascade_candidate_stagnation_epochs=12
cascade_max_out_epochs=150
cascade_min_out_epochs=50
cascade_max_cand_epochs=150
cascade_min_cand_epochs=50
cascade_num_candidate_groups=2
bit_fail_limit=2.40999999999999998945e-02
cascade_candidate_limit=1.00000000000000000000e+03
cascade_weight_multiplier=4.00000000000000022204e-01
cascade_activation_functions_count=10
cascade_activation_functions=3 5 7 8 10 11 14 15 16 17 
cascade_activation_steepnesses_count=4
cascade_activation_steepnesses=2.50000000000000000000e-01 5.00000000000000000000e-01 7.50000000000000000000e-01 1.00000000000000000000e+00 
layer_sizes=17 7 3 
scale_included=0
neurons (num_inputs, activation_function, activation_steepness)=(0, 0, 0.00000000000000000000e+00) (0, 0, 0.00000000000000000000e+00) (0, 0, 0.00000000000000000000e+00) (0, 0, 0.00000000000000000000e+00) (0, 0, 0.00000000000000000000e+00) (0, 0, 0.00000000000000000000e+00) (0, 0, 0.00000000000000000000e+00) (0, 0, 0.00000000000000000000e+00) (0, 0, 0.00000000000000000000e+00) (0, 0, 0.00000000000000000000e+00) (0, 0, 0.00000000000000000000e+00) (0, 0, 0.00000000000000000000e+00) (0, 0, 0.00000000000000000000e+00) (0, 0, 0.00000000000000000000e+00) (0, 0, 0.00000000000000000000e+00) (0, 0, 0.00000000000000000000e+00) (0, 0, 0.00000000000000000000e+00) (11, 5, 6.99999999999999955591e-01) (11, 5, 6.99999999999999955591e-01) (11, 5, 6.99999999999999955591e-01) (11, 5, 6.99999999999999955591e-01) (11, 5, 6.99999999999999955591e-01) (11, 5, 6.99999999999999955591e-01) (0, 5, 6.99999999999999955591e-01) (5, 8, 4.50000000000000011102e-01) (5, 8, 4.50000000000000011102e-01) (0, 8, 4.50000000000000011102e-01) 
connections (connected_to_neuron, weight)=(16, 4.68700462053158961595e-01) (6, 6.10322240243628666434e+00) (8, -1.59683259363541929510e+00) (2, -3.03154355830537491912e+00) (14, 2.51819855831289726722e-02) (3, 3.25676398248315024375e+00) (7, -9.63208433917512429900e+00) (12, 2.80595955972719224292e+00) (0, -4.84819696399532595876e+00) (10, -6.61941296525023581410e+00) (1, 3.08293192456373610355e+00) (16, -5.30339444473038379435e-01) (7, -1.36574355085814863608e-01) (12, 2.66901557360078901804e-02) (13, 1.45856263889678228196e+00) (9, 2.92280902547744858566e-01) (6, -4.36627859650154492854e-01) (0, 3.97383962048066974315e-01) (8, 5.84032127497501996061e-01) (10, 2.43081100346391243416e-01) (4, -6.59811434873232571796e-01) (1, 9.94116189118898208044e-01) (16, 1.37208491938490717565e+00) (1, -8.93892172385671202051e-01) (2, -7.06718890350861084215e+00) (4, -1.29002639354282919726e+01) (5, 6.24667116766558461194e+00) (9, 8.14786562609818409975e-01) (10, -4.79104357206037523298e+00) (13, 8.29890344721266615124e+00) (14, 4.38330126040890277750e+00) (7, 8.10163734992663142620e-01) (0, -8.30106011943364130445e+00) (16, 7.04747833958788039155e-01) (3, 1.56802876608905972233e+00) (14, 3.10827404055479439293e+00) (12, 6.98429237173399286576e+00) (7, -4.32633136676277096910e+00) (2, -9.60374119823832916865e-01) (15, 5.26106111497087880480e+00) (8, -3.39933951013172830358e+00) (10, -8.01624886262420344174e-01) (1, -3.52319291445172977362e+00) (9, 5.03511681836805391477e-01) (16, 1.23491464703708131445e+00) (0, 2.47205104688213522790e-01) (11, 3.62755697298434665043e+00) (15, -3.61527704046964659668e+00) (5, -5.33384700927392252368e+00) (7, 2.81786855830440996495e-01) (9, -3.20110595893096538944e-01) (12, -1.12566201075252747543e+00) (14, 5.58856894935134129732e-01) (8, 2.17147075966001135150e-01) (1, 2.51846703572760677314e-01) (16, -3.51114445282054876696e-01) (4, -2.54452405881227505802e+00) (9, 8.76765650862447176728e-01) (2, -1.00393265247740237633e+00) (12, 2.04724518050836579164e+00) (13, 2.93060631675872951263e+00) (8, -9.89916150253349752530e-02) (10, 1.44870263198220472489e+00) (7, 1.82158385497183994417e+00) (1, -4.58218678614817576111e-01) (0, 5.19349991384966847008e-01) (23, 1.30670033486854131333e+00) (17, -1.66791935308621286360e+00) (18, 9.97765499104584385748e+00) (22, -3.13475777332745497716e+00) (21, 2.25845245278750228479e+00) (23, 5.12040972391333282232e-01) (19, 9.79289983493150772986e-01) (20, 1.05113669859803970930e+00) (21, 3.40642313478427716245e-01) (18, 1.72909548884616337538e+00) 
