FANN_FLO_2.1
num_layers=3
learning_rate=0.700000
connection_rate=0.630000
network_type=0
learning_momentum=0.000000
training_algorithm=2
train_error_function=1
train_stop_function=0
cascade_output_change_fraction=0.010000
quickprop_decay=-0.000100
quickprop_mu=1.750000
rprop_increase_factor=1.200000
rprop_decrease_factor=0.500000
rprop_delta_min=0.000000
rprop_delta_max=50.000000
rprop_delta_zero=0.100000
cascade_output_stagnation_epochs=12
cascade_candidate_change_fraction=0.010000
cascade_candidate_stagnation_epochs=12
cascade_max_out_epochs=150
cascade_min_out_epochs=50
cascade_max_cand_epochs=150
cascade_min_cand_epochs=50
cascade_num_candidate_groups=2
bit_fail_limit=2.40999999999999998945e-02
cascade_candidate_limit=1.00000000000000000000e+03
cascade_weight_multiplier=4.00000000000000022204e-01
cascade_activation_functions_count=10
cascade_activation_functions=3 5 7 8 10 11 14 15 16 17 
cascade_activation_steepnesses_count=4
cascade_activation_steepnesses=2.50000000000000000000e-01 5.00000000000000000000e-01 7.50000000000000000000e-01 1.00000000000000000000e+00 
layer_sizes=17 7 3 
scale_included=0
neurons (num_inputs, activation_function, activation_steepness)=(0, 0, 0.00000000000000000000e+00) (0, 0, 0.00000000000000000000e+00) (0, 0, 0.00000000000000000000e+00) (0, 0, 0.00000000000000000000e+00) (0, 0, 0.00000000000000000000e+00) (0, 0, 0.00000000000000000000e+00) (0, 0, 0.00000000000000000000e+00) (0, 0, 0.00000000000000000000e+00) (0, 0, 0.00000000000000000000e+00) (0, 0, 0.00000000000000000000e+00) (0, 0, 0.00000000000000000000e+00) (0, 0, 0.00000000000000000000e+00) (0, 0, 0.00000000000000000000e+00) (0, 0, 0.00000000000000000000e+00) (0, 0, 0.00000000000000000000e+00) (0, 0, 0.00000000000000000000e+00) (0, 0, 0.00000000000000000000e+00) (11, 5, 6.99999999999999955591e-01) (11, 5, 6.99999999999999955591e-01) (11, 5, 6.99999999999999955591e-01) (11, 5, 6.99999999999999955591e-01) (11, 5, 6.99999999999999955591e-01) (11, 5, 6.99999999999999955591e-01) (0, 5, 6.99999999999999955591e-01) (5, 8, 4.50000000000000011102e-01) (5, 8, 4.50000000000000011102e-01) (0, 8, 4.50000000000000011102e-01) 
connections (connected_to_neuron, weight)=(16, 3.20782063611409429260e-01) (13, 4.14414761756910809964e+00) (14, 1.37558039459110794667e+01) (15, 1.92168370865160986760e+00) (3, 8.24683479413458986329e-01) (1, -1.66880479273443160793e+00) (0, -9.02406757975043660736e+00) (10, 1.79532481857382784085e+01) (5, -3.54441792901025376494e+00) (12, 7.98670893486866262378e-01) (4, -9.08617491083643535887e+00) (16, 8.68768027950544086124e-01) (3, 1.46024409065276494779e+00) (14, 1.29937790290874044530e+00) (15, 1.00082510060499334514e+01) (0, -9.03810295389001616684e+00) (6, 8.05049011331971597905e-01) (8, 5.56082429614243078930e+00) (2, -9.66176852937139840627e-01) (7, -3.30623678815714017176e+00) (5, -1.66274070123902291130e+01) (4, 4.92718470125138630067e+00) (16, 3.61760692895988777984e-01) (0, -2.05845981277988610003e+00) (6, 2.33035433549168935485e+00) (10, -2.00762695380298410441e+01) (11, -5.47940943077109499093e-01) (9, -1.22946714692045482309e+01) (3, 1.01653619556794683199e+00) (1, 8.56541410674913517020e-01) (2, 1.53376899905146579783e+00) (14, 2.36718116895356045504e+00) (5, 1.78238984485641260846e+01) (16, -3.96862761174004430309e-02) (2, 1.43732250348621048985e+00) (4, 2.72459088551639494469e+00) (7, 1.36384599002184643268e+01) (14, 6.28839767296660800966e-01) (10, 8.55401392530933968317e+00) (8, 8.45101109859221821807e+00) (5, 7.85170569631661496857e+00) (6, -2.74184749471254196607e+00) (3, -1.42491526821917027235e+01) (13, 5.08812689178937294088e+00) (16, 4.87337157679844507063e-02) (1, -1.44380832984036597821e+01) (5, 7.03830873697768222286e+00) (8, -1.16459777887481297221e+00) (9, -6.28750226918451904368e+00) (12, 1.22911195123755878633e+00) (6, -5.18054073253107705277e-01) (14, 3.49340712738837000373e+00) (15, 9.28259763610143018298e+00) (11, 1.90535680183203481874e+01) (3, -1.75501568454623999571e+01) (16, 6.15396213541178488393e-02) (6, -2.33480999446383202800e-01) (0, -1.00148303306163066750e+00) (10, -1.61817651150263430715e+00) (12, 2.18464020900222821719e-01) (8, 1.36067982997543990287e+00) (2, -2.22638771073329166938e+00) (4, 3.63327502437603311325e-01) (9, 1.04928638907979276951e+00) (7, 6.79525874610779068163e-01) (3, 2.60496422515341441439e-01) (23, 2.36482945148537604396e+00) (18, 3.86041499287504530358e+00) (19, 5.25127275972467266740e+00) (20, 3.09534394734686513218e+00) (21, -1.15476952646538899572e-01) (23, -1.93626177997413084775e+00) (17, -3.81850121406674181124e-01) (21, -5.46131741170517992501e-01) (22, -2.66086670591001972497e+00) (20, -1.02288251337691080134e-01) 
