FANN_FLO_2.1
num_layers=3
learning_rate=0.700000
connection_rate=0.630000
network_type=0
learning_momentum=0.000000
training_algorithm=2
train_error_function=1
train_stop_function=0
cascade_output_change_fraction=0.010000
quickprop_decay=-0.000100
quickprop_mu=1.750000
rprop_increase_factor=1.200000
rprop_decrease_factor=0.500000
rprop_delta_min=0.000000
rprop_delta_max=50.000000
rprop_delta_zero=0.100000
cascade_output_stagnation_epochs=12
cascade_candidate_change_fraction=0.010000
cascade_candidate_stagnation_epochs=12
cascade_max_out_epochs=150
cascade_min_out_epochs=50
cascade_max_cand_epochs=150
cascade_min_cand_epochs=50
cascade_num_candidate_groups=2
bit_fail_limit=2.40999999999999998945e-02
cascade_candidate_limit=1.00000000000000000000e+03
cascade_weight_multiplier=4.00000000000000022204e-01
cascade_activation_functions_count=10
cascade_activation_functions=3 5 7 8 10 11 14 15 16 17 
cascade_activation_steepnesses_count=4
cascade_activation_steepnesses=2.50000000000000000000e-01 5.00000000000000000000e-01 7.50000000000000000000e-01 1.00000000000000000000e+00 
layer_sizes=17 7 3 
scale_included=0
neurons (num_inputs, activation_function, activation_steepness)=(0, 0, 0.00000000000000000000e+00) (0, 0, 0.00000000000000000000e+00) (0, 0, 0.00000000000000000000e+00) (0, 0, 0.00000000000000000000e+00) (0, 0, 0.00000000000000000000e+00) (0, 0, 0.00000000000000000000e+00) (0, 0, 0.00000000000000000000e+00) (0, 0, 0.00000000000000000000e+00) (0, 0, 0.00000000000000000000e+00) (0, 0, 0.00000000000000000000e+00) (0, 0, 0.00000000000000000000e+00) (0, 0, 0.00000000000000000000e+00) (0, 0, 0.00000000000000000000e+00) (0, 0, 0.00000000000000000000e+00) (0, 0, 0.00000000000000000000e+00) (0, 0, 0.00000000000000000000e+00) (0, 0, 0.00000000000000000000e+00) (11, 5, 6.99999999999999955591e-01) (11, 5, 6.99999999999999955591e-01) (11, 5, 6.99999999999999955591e-01) (11, 5, 6.99999999999999955591e-01) (11, 5, 6.99999999999999955591e-01) (11, 5, 6.99999999999999955591e-01) (0, 5, 6.99999999999999955591e-01) (5, 8, 4.50000000000000011102e-01) (5, 8, 4.50000000000000011102e-01) (0, 8, 4.50000000000000011102e-01) 
connections (connected_to_neuron, weight)=(16, -1.86017242062758325627e-01) (5, 1.15558284746344419602e+00) (8, 3.85148544009105231467e+00) (7, 5.21971282476703435371e-01) (11, 5.29048731030092422856e-01) (13, -3.05176930084218811512e-01) (14, -1.14640555641689978472e+00) (9, -1.13088868416878418621e+00) (10, -9.02016335983720107805e-01) (1, 7.46102679237928501088e-01) (3, -4.96828061612619831244e-01) (16, 1.29084303857142956851e+00) (3, 3.42715848229183217555e+00) (6, -3.44823963090617713334e+00) (11, 4.36780307269328016417e+00) (12, 5.60055081703450063912e+00) (7, 3.37152750476251350520e+00) (13, 2.78699016651200981443e+00) (2, -8.56381224908514049332e+00) (4, 2.50708360809447849959e+00) (9, -5.19077740437297663334e+00) (5, 3.03530644429725349198e+00) (16, -1.08148636847783946591e-01) (1, 1.05928291232630833463e+00) (14, 9.17253279989391989702e-01) (15, -6.55940097397221677511e+00) (4, 6.84332442537899821033e-01) (5, -1.55879964700781115106e+00) (13, -8.87137040734339632486e-01) (8, -6.09984135917968117724e+00) (2, -6.73959858226512831259e-01) (9, -1.43306324031036735889e+00) (3, -1.44953443685298033472e+00) (16, 8.12985254377849408947e-01) (0, 1.30544316160814122263e+00) (2, 1.24493248599245864838e+00) (7, 3.90915426896688178449e-01) (9, 1.24908500079951401140e+00) (4, -4.14640760957184661972e-01) (3, 5.95577861710741096601e+00) (5, -1.28899761332441453732e+00) (11, -3.80333848063311874554e+00) (10, 1.26788503849308731297e+00) (14, -2.06235908089808717136e+00) (16, 8.28956825182320250489e-02) (10, 1.59247730047627378269e+00) (13, -6.51106933922363073641e-01) (1, -1.72865358104817173381e-03) (2, 6.83446598449857845026e+00) (7, -2.39605016540703957828e-01) (12, -1.03244877909863141952e+00) (11, 1.41981529005523388065e+00) (0, 3.44793394337104341929e+00) (3, 1.28600466065253049575e-01) (14, 9.87328513544660779644e-01) (16, -1.09822298501490789313e+00) (4, -2.97184599358943368763e-01) (12, 2.94995495000402163654e+00) (5, -2.36270787325829373371e-01) (13, -5.37136499004773476651e-03) (8, -6.23220118613681761666e-01) (15, 2.73124894463385115007e-01) (1, 1.28226403170519698271e+00) (9, -3.68392674039040135536e-01) (14, 5.24697245864949701755e-01) (10, -5.61162320787018553681e-01) (23, -1.33681397565031345742e+00) (17, -3.89429635225811443533e+00) (20, 4.87184265081768486105e-01) (21, -6.14770841270308898707e-01) (22, 2.16278124844266228521e+00) (23, -7.89332465075289202439e-01) (18, -1.34579748161227774617e+00) (19, 1.69901322690966249951e+00) (22, 2.25257673661208013272e+00) (20, 2.92279402217586525836e+00) 
