FANN_FLO_2.1
num_layers=3
learning_rate=0.700000
connection_rate=0.630000
network_type=0
learning_momentum=0.000000
training_algorithm=2
train_error_function=1
train_stop_function=0
cascade_output_change_fraction=0.010000
quickprop_decay=-0.000100
quickprop_mu=1.750000
rprop_increase_factor=1.200000
rprop_decrease_factor=0.500000
rprop_delta_min=0.000000
rprop_delta_max=50.000000
rprop_delta_zero=0.100000
cascade_output_stagnation_epochs=12
cascade_candidate_change_fraction=0.010000
cascade_candidate_stagnation_epochs=12
cascade_max_out_epochs=150
cascade_min_out_epochs=50
cascade_max_cand_epochs=150
cascade_min_cand_epochs=50
cascade_num_candidate_groups=2
bit_fail_limit=2.40999999999999998945e-02
cascade_candidate_limit=1.00000000000000000000e+03
cascade_weight_multiplier=4.00000000000000022204e-01
cascade_activation_functions_count=10
cascade_activation_functions=3 5 7 8 10 11 14 15 16 17 
cascade_activation_steepnesses_count=4
cascade_activation_steepnesses=2.50000000000000000000e-01 5.00000000000000000000e-01 7.50000000000000000000e-01 1.00000000000000000000e+00 
layer_sizes=17 7 3 
scale_included=0
neurons (num_inputs, activation_function, activation_steepness)=(0, 0, 0.00000000000000000000e+00) (0, 0, 0.00000000000000000000e+00) (0, 0, 0.00000000000000000000e+00) (0, 0, 0.00000000000000000000e+00) (0, 0, 0.00000000000000000000e+00) (0, 0, 0.00000000000000000000e+00) (0, 0, 0.00000000000000000000e+00) (0, 0, 0.00000000000000000000e+00) (0, 0, 0.00000000000000000000e+00) (0, 0, 0.00000000000000000000e+00) (0, 0, 0.00000000000000000000e+00) (0, 0, 0.00000000000000000000e+00) (0, 0, 0.00000000000000000000e+00) (0, 0, 0.00000000000000000000e+00) (0, 0, 0.00000000000000000000e+00) (0, 0, 0.00000000000000000000e+00) (0, 0, 0.00000000000000000000e+00) (11, 5, 6.99999999999999955591e-01) (11, 5, 6.99999999999999955591e-01) (11, 5, 6.99999999999999955591e-01) (11, 5, 6.99999999999999955591e-01) (11, 5, 6.99999999999999955591e-01) (11, 5, 6.99999999999999955591e-01) (0, 5, 6.99999999999999955591e-01) (5, 8, 4.50000000000000011102e-01) (5, 8, 4.50000000000000011102e-01) (0, 8, 4.50000000000000011102e-01) 
connections (connected_to_neuron, weight)=(16, 1.45192063143654381818e+00) (0, 3.11911944513412475732e-01) (9, 1.29007514797067046608e+00) (12, 6.12012014166079243438e+00) (1, 2.66210241641652878286e+00) (6, -4.48950612482786581836e+00) (4, -5.73780578980960687119e+00) (8, 8.25003724161177132146e+00) (14, -4.56627822577905462254e-01) (2, 2.36553474381655526315e+00) (3, -1.72352096832517673874e+01) (16, -4.34428549623973647709e-01) (1, 1.38524349421809112037e+00) (5, 3.35524439756161951820e+00) (15, -4.92064222131721340503e+00) (11, 6.68595385009539966426e-01) (8, 6.88436281663091875771e+00) (4, 1.10566686047235451795e+00) (14, -6.27163566192413313161e+00) (13, -1.26654262915539006507e+00) (3, -1.53369436645505863304e+00) (12, -5.72884893244942716706e+00) (16, 1.06421080602277795535e+00) (3, 1.49540572784829217667e+00) (7, 1.15984114410608052381e+00) (8, -9.44735326351964443958e-01) (2, 1.80698596680747813892e+00) (12, 6.37389847774865847541e-01) (4, 5.07559604453517021483e+00) (6, -1.23490638702485444611e+00) (11, 3.43750314251086797057e+00) (10, -4.04695111205539070909e+00) (13, -4.71000011527496140196e-02) (16, 1.01076700491553816974e+00) (0, 4.86956120591761205674e+01) (4, 3.17941769244574814479e+01) (9, -3.13808259656984382957e+01) (10, -3.83814280267428031834e+01) (12, -2.83405638663381331810e+01) (14, 6.56084965354100635437e+00) (15, -1.72381954941483428456e+01) (3, -4.08213511773403858740e+00) (11, 1.72619411901689332467e+01) (5, 3.78738948911587840485e+01) (16, 6.25077553117124179449e-02) (2, -6.44629878829728775180e-01) (11, 6.09286908769018786813e+00) (13, 2.58088486069347400331e+00) (12, -3.16438115808248721095e+00) (3, -3.81063024747717971064e-01) (7, 1.61501890426786620658e+00) (9, -4.60652710185517388908e+00) (1, 2.32404624417081234755e-01) (10, 5.90330329816259968823e+00) (15, 6.24596498761365737096e+00) (16, 5.77095172064567285553e-01) (6, 8.54753092662562607984e-01) (8, 2.29187849843059421318e+00) (11, 2.71021079556722366277e+00) (2, 2.70000387052603052496e+00) (9, -2.28949851196853160218e+00) (1, 8.80157791877348549825e-01) (15, 6.95458928522034636188e+00) (7, 3.44514469119535704511e-01) (12, -4.30741673584523587781e-01) (13, -4.48499669203142992124e-01) (23, 1.30037090097728591509e+00) (18, 2.16650459507993575770e+00) (22, 7.88298473938131016858e-01) (19, 2.00093645105926798422e+00) (17, 2.10192260423684995629e-01) (23, 2.20021817494610871790e+00) (17, 1.39903742267051534043e+00) (19, 1.91767043763021960423e+00) (20, 3.06752561786448341152e+00) (21, 1.90398313431537613560e+00) 
