FANN_FLO_2.1
num_layers=3
learning_rate=0.700000
connection_rate=0.630000
network_type=0
learning_momentum=0.000000
training_algorithm=2
train_error_function=1
train_stop_function=0
cascade_output_change_fraction=0.010000
quickprop_decay=-0.000100
quickprop_mu=1.750000
rprop_increase_factor=1.200000
rprop_decrease_factor=0.500000
rprop_delta_min=0.000000
rprop_delta_max=50.000000
rprop_delta_zero=0.100000
cascade_output_stagnation_epochs=12
cascade_candidate_change_fraction=0.010000
cascade_candidate_stagnation_epochs=12
cascade_max_out_epochs=150
cascade_min_out_epochs=50
cascade_max_cand_epochs=150
cascade_min_cand_epochs=50
cascade_num_candidate_groups=2
bit_fail_limit=2.40999999999999998945e-02
cascade_candidate_limit=1.00000000000000000000e+03
cascade_weight_multiplier=4.00000000000000022204e-01
cascade_activation_functions_count=10
cascade_activation_functions=3 5 7 8 10 11 14 15 16 17 
cascade_activation_steepnesses_count=4
cascade_activation_steepnesses=2.50000000000000000000e-01 5.00000000000000000000e-01 7.50000000000000000000e-01 1.00000000000000000000e+00 
layer_sizes=17 7 3 
scale_included=0
neurons (num_inputs, activation_function, activation_steepness)=(0, 0, 0.00000000000000000000e+00) (0, 0, 0.00000000000000000000e+00) (0, 0, 0.00000000000000000000e+00) (0, 0, 0.00000000000000000000e+00) (0, 0, 0.00000000000000000000e+00) (0, 0, 0.00000000000000000000e+00) (0, 0, 0.00000000000000000000e+00) (0, 0, 0.00000000000000000000e+00) (0, 0, 0.00000000000000000000e+00) (0, 0, 0.00000000000000000000e+00) (0, 0, 0.00000000000000000000e+00) (0, 0, 0.00000000000000000000e+00) (0, 0, 0.00000000000000000000e+00) (0, 0, 0.00000000000000000000e+00) (0, 0, 0.00000000000000000000e+00) (0, 0, 0.00000000000000000000e+00) (0, 0, 0.00000000000000000000e+00) (11, 5, 6.99999999999999955591e-01) (11, 5, 6.99999999999999955591e-01) (11, 5, 6.99999999999999955591e-01) (11, 5, 6.99999999999999955591e-01) (11, 5, 6.99999999999999955591e-01) (11, 5, 6.99999999999999955591e-01) (0, 5, 6.99999999999999955591e-01) (5, 8, 4.50000000000000011102e-01) (5, 8, 4.50000000000000011102e-01) (0, 8, 4.50000000000000011102e-01) 
connections (connected_to_neuron, weight)=(16, 1.47427079076807993063e-01) (5, 1.27688440272660419517e+00) (14, -7.87642583954214536845e+00) (15, 4.62350284476732475980e+00) (12, 8.87803924596249949275e+00) (6, 1.07831620113736192934e+01) (4, 2.53582921827615281885e+00) (0, -5.98137799144217829905e+00) (7, 3.95629469514756504367e+00) (13, -8.62647130838695019861e+00) (3, 6.37585056292838281422e+00) (16, 2.86240500327927938073e+00) (0, -1.50000000000000000000e+03) (3, -1.49806446164727117321e+03) (6, 5.33711456795465437608e+01) (10, 1.00698458609936960784e+03) (11, 1.50000000000000000000e+03) (9, 1.20065536832455972416e+01) (4, -1.50000000000000000000e+03) (12, 1.50000000000000000000e+03) (2, 1.20631826144866423078e+01) (14, 1.25181146398712357382e+01) (16, -3.95383745750299053778e-01) (2, 6.83364351219157173389e-01) (8, -4.77391534352932633833e-01) (9, -2.53243527318790573322e-01) (13, 1.02301437939747574823e+00) (1, 2.30362542473155240685e+00) (12, -2.29244880194168132448e+00) (5, 1.48158705413968738718e+00) (10, -2.12520449579221404335e+00) (14, -1.34614894254470307544e+00) (7, 6.89447304847013164864e-02) (16, 1.42409983709908871674e+00) (1, 4.61317734148596947374e-01) (11, 2.21808294065768452086e+00) (13, -1.05888975365852786581e+01) (15, 4.56903816857120936845e+00) (5, 1.54233775259934202673e-01) (8, -1.34700177353838906891e-01) (2, 1.55017598215088825420e+00) (4, 1.49700252836952762969e+00) (6, 3.01210965667448427041e+00) (3, 1.56322866531997495265e+00) (16, -3.25360464900489199103e-01) (4, -4.03472950638641691956e-01) (7, -9.89255752736044158269e-01) (12, -4.09689820371504753727e-01) (8, 1.79046445360575412487e+00) (9, 2.86252880039448820426e+00) (6, -7.80119036128513965167e-01) (3, 1.23166685262397379574e+00) (1, 1.00871379488438028815e+00) (11, 1.95390180194172180528e+00) (14, -3.07966039048889528296e-01) (16, 1.78700825879390801099e+00) (5, 1.39332904461528794826e+01) (8, 1.71965045936341986987e+00) (10, -8.43399811911018218780e+02) (14, 7.85324719495706169425e+00) (6, 3.32375112323243548929e+00) (1, 2.23079353751044617837e+00) (13, -2.57391658717005213930e+02) (9, 1.83052925568046642724e-01) (15, 1.50000000000000000000e+03) (2, -3.75723811323067913293e+00) (23, 1.45062007311846957736e-01) (17, -7.40384027788286047667e-01) (19, 5.20482814962837436745e-01) (20, -1.04225327297215453193e+00) (21, -2.01276723480541219757e+00) (23, -1.26094910020085992919e+00) (18, -7.12754103269345851146e-01) (22, -8.83748993423675188730e-01) (19, 2.69451562257249710441e+00) (17, 2.16080432290570634279e+00) 
